{"learner":{"attributes":{"scikit_learn":"{\"_estimator_type\": \"classifier\"}"},"feature_names":["vertical","format","width","height","language","theme","hook_type","dominant_color","emotional_tone","duration_sec","copy_length_chars","has_price","has_discount_badge","has_gameplay","has_ugc_style","first_7d_impressions","first_7d_clicks","first_7d_conversions","early_imp","early_clicks","early_conv","early_spend","early_revenue","early_ctr","early_cvr"],"feature_types":["float","float","float","float","float","float","float","float","float","float","float","float","float","float","float","float","float","float","float","float","float","float","float","float","float"],"gradient_booster":{"model":{"cats":{"enc":[],"feature_segments":[],"sorted_idx":[]},"gbtree_model_param":{"num_parallel_tree":"1","num_trees":"2000"},"iteration_indptr":[0,4,8,12,16,20,24,28,32,36,40,44,48,52,56,60,64,68,72,76,80,84,88,92,96,100,104,108,112,116,120,124,128,132,136,140,144,148,152,156,160,164,168,172,176,180,184,188,192,196,200,204,208,212,216,220,224,228,232,236,240,244,248,252,256,260,264,268,272,276,280,284,288,292,296,300,304,308,312,316,320,324,328,332,336,340,344,348,352,356,360,364,368,372,376,380,384,388,392,396,400,404,408,412,416,420,424,428,432,436,440,444,448,452,456,460,464,468,472,476,480,484,488,492,496,500,504,508,512,516,520,524,528,532,536,540,544,548,552,556,560,564,568,572,576,580,584,588,592,596,600,604,608,612,616,620,624,628,632,636,640,644,648,652,656,660,664,668,672,676,680,684,688,692,696,700,704,708,712,716,720,724,728,732,736,740,744,748,752,756,760,764,768,772,776,780,784,788,792,796,800,804,808,812,816,820,824,828,832,836,840,844,848,852,856,860,864,868,872,876,880,884,888,892,896,900,904,908,912,916,920,924,928,932,936,940,944,948,952,956,960,964,968,972,976,980,984,988,992,996,1000,1004,1008,1012,1016,1020,1024,1028,1032,1036,1040,1044,1048,1052,1056,1060,1064,1068,1072,1076,1080,1084,1088,1092,1096,1100,1104,1108,1112,1116,1120,1124,1128,1132,1136,1140,1144,1148,1152,1156,1160,1164,1168,1172,1176,1180,1184,1188,1192,1196,1200,1204,1208,1212,1216,1220,1224,1228,1232,1236,1240,1244,1248,1252,1256,1260,1264,1268,1272,1276,1280,1284,1288,1292,1296,1300,1304,1308,1312,1316,1320,1324,1328,1332,1336,1340,1344,1348,1352,1356,1360,1364,1368,1372,1376,1380,1384,1388,1392,1396,1400,1404,1408,1412,1416,1420,1424,1428,1432,1436,1440,1444,1448,1452,1456,1460,1464,1468,1472,1476,1480,1484,1488,1492,1496,1500,1504,1508,1512,1516,1520,1524,1528,1532,1536,1540,1544,1548,1552,1556,1560,1564,1568,1572,1576,1580,1584,1588,1592,1596,1600,1604,1608,1612,1616,1620,1624,1628,1632,1636,1640,1644,1648,1652,1656,1660,1664,1668,1672,1676,1680,1684,1688,1692,1696,1700,1704,1708,1712,1716,1720,1724,1728,1732,1736,1740,1744,1748,1752,1756,1760,1764,1768,1772,1776,1780,1784,1788,1792,1796,1800,1804,1808,1812,1816,1820,1824,1828,1832,1836,1840,1844,1848,1852,1856,1860,1864,1868,1872,1876,1880,1884,1888,1892,1896,1900,1904,1908,1912,1916,1920,1924,1928,1932,1936,1940,1944,1948,1952,1956,1960,1964,1968,1972,1976,1980,1984,1988,1992,1996,2000],"tree_info":[0,1,2,3,0,1,2,3,0,1,2,3,0,1,2,3,0,1,2,3,0,1,2,3,0,1,2,3,0,1,2,3,0,1,2,3,0,1,2,3,0,1,2,3,0,1,2,3,0,1,2,3,0,1,2,3,0,1,2,3,0,1,2,3,0,1,2,3,0,1,2,3,0,1,2,3,0,1,2,3,0,1,2,3,0,1,2,3,0,1,2,3,0,1,2,3,0,1,2,3,0,1,2,3,0,1,2,3,0,1,2,3,0,1,2,3,0,1,2,3,0,1,2,3,0,1,2,3,0,1,2,3,0,1,2,3,0,1,2,3,0,1,2,3,0,1,2,3,0,1,2,3,0,1,2,3,0,1,2,3,0,1,2,3,0,1,2,3,0,1,2,3,0,1,2,3,0,1,2,3,0,1,2,3,0,1,2,3,0,1,2,3,0,1,2,3,0,1,2,3,0,1,2,3,0,1,2,3,0,1,2,3,0,1,2,3,0,1,2,3,0,1,2,3,0,1,2,3,0,1,2,3,0,1,2,3,0,1,2,3,0,1,2,3,0,1,2,3,0,1,2,3,0,1,2,3,0,1,2,3,0,1,2,3,0,1,2,3,0,1,2,3,0,1,2,3,0,1,2,3,0,1,2,3,0,1,2,3,0,1,2,3,0,1,2,3,0,1,2,3,0,1,2,3,0,1,2,3,0,1,2,3,0,1,2,3,0,1,2,3,0,1,2,3,0,1,2,3,0,1,2,3,0,1,2,3,0,1,2,3,0,1,2,3,0,1,2,3,0,1,2,3,0,1,2,3,0,1,2,3,0,1,2,3,0,1,2,3,0,1,2,3,0,1,2,3,0,1,2,3,0,1,2,3,0,1,2,3,0,1,2,3,0,1,2,3,0,1,2,3,0,1,2,3,0,1,2,3,0,1,2,3,0,1,2,3,0,1,2,3,0,1,2,3,0,1,2,3,0,1,2,3,0,1,2,3,0,1,2,3,0,1,2,3,0,1,2,3,0,1,2,3,0,1,2,3,0,1,2,3,0,1,2,3,0,1,2,3,0,1,2,3,0,1,2,3,0,1,2,3,0,1,2,3,0,1,2,3,0,1,2,3,0,1,2,3,0,1,2,3,0,1,2,3,0,1,2,3,0,1,2,3,0,1,2,3,0,1,2,3,0,1,2,3,0,1,2,3,0,1,2,3,0,1,2,3,0,1,2,3,0,1,2,3,0,1,2,3,0,1,2,3,0,1,2,3,0,1,2,3,0,1,2,3,0,1,2,3,0,1,2,3,0,1,2,3,0,1,2,3,0,1,2,3,0,1,2,3,0,1,2,3,0,1,2,3,0,1,2,3,0,1,2,3,0,1,2,3,0,1,2,3,0,1,2,3,0,1,2,3,0,1,2,3,0,1,2,3,0,1,2,3,0,1,2,3,0,1,2,3,0,1,2,3,0,1,2,3,0,1,2,3,0,1,2,3,0,1,2,3,0,1,2,3,0,1,2,3,0,1,2,3,0,1,2,3,0,1,2,3,0,1,2,3,0,1,2,3,0,1,2,3,0,1,2,3,0,1,2,3,0,1,2,3,0,1,2,3,0,1,2,3,0,1,2,3,0,1,2,3,0,1,2,3,0,1,2,3,0,1,2,3,0,1,2,3,0,1,2,3,0,1,2,3,0,1,2,3,0,1,2,3,0,1,2,3,0,1,2,3,0,1,2,3,0,1,2,3,0,1,2,3,0,1,2,3,0,1,2,3,0,1,2,3,0,1,2,3,0,1,2,3,0,1,2,3,0,1,2,3,0,1,2,3,0,1,2,3,0,1,2,3,0,1,2,3,0,1,2,3,0,1,2,3,0,1,2,3,0,1,2,3,0,1,2,3,0,1,2,3,0,1,2,3,0,1,2,3,0,1,2,3,0,1,2,3,0,1,2,3,0,1,2,3,0,1,2,3,0,1,2,3,0,1,2,3,0,1,2,3,0,1,2,3,0,1,2,3,0,1,2,3,0,1,2,3,0,1,2,3,0,1,2,3,0,1,2,3,0,1,2,3,0,1,2,3,0,1,2,3,0,1,2,3,0,1,2,3,0,1,2,3,0,1,2,3,0,1,2,3,0,1,2,3,0,1,2,3,0,1,2,3,0,1,2,3,0,1,2,3,0,1,2,3,0,1,2,3,0,1,2,3,0,1,2,3,0,1,2,3,0,1,2,3,0,1,2,3,0,1,2,3,0,1,2,3,0,1,2,3,0,1,2,3,0,1,2,3,0,1,2,3,0,1,2,3,0,1,2,3,0,1,2,3,0,1,2,3,0,1,2,3,0,1,2,3,0,1,2,3,0,1,2,3,0,1,2,3,0,1,2,3,0,1,2,3,0,1,2,3,0,1,2,3,0,1,2,3,0,1,2,3,0,1,2,3,0,1,2,3,0,1,2,3,0,1,2,3,0,1,2,3,0,1,2,3,0,1,2,3,0,1,2,3,0,1,2,3,0,1,2,3,0,1,2,3,0,1,2,3,0,1,2,3,0,1,2,3,0,1,2,3,0,1,2,3,0,1,2,3,0,1,2,3,0,1,2,3,0,1,2,3,0,1,2,3,0,1,2,3,0,1,2,3,0,1,2,3,0,1,2,3,0,1,2,3,0,1,2,3,0,1,2,3,0,1,2,3,0,1,2,3,0,1,2,3,0,1,2,3,0,1,2,3,0,1,2,3,0,1,2,3,0,1,2,3,0,1,2,3,0,1,2,3,0,1,2,3,0,1,2,3,0,1,2,3,0,1,2,3,0,1,2,3,0,1,2,3,0,1,2,3,0,1,2,3,0,1,2,3,0,1,2,3,0,1,2,3,0,1,2,3,0,1,2,3,0,1,2,3,0,1,2,3,0,1,2,3,0,1,2,3,0,1,2,3,0,1,2,3,0,1,2,3,0,1,2,3,0,1,2,3,0,1,2,3,0,1,2,3,0,1,2,3,0,1,2,3,0,1,2,3,0,1,2,3,0,1,2,3,0,1,2,3,0,1,2,3,0,1,2,3,0,1,2,3,0,1,2,3,0,1,2,3,0,1,2,3,0,1,2,3,0,1,2,3,0,1,2,3,0,1,2,3,0,1,2,3,0,1,2,3,0,1,2,3,0,1,2,3,0,1,2,3,0,1,2,3,0,1,2,3,0,1,2,3,0,1,2,3,0,1,2,3,0,1,2,3,0,1,2,3,0,1,2,3,0,1,2,3,0,1,2,3,0,1,2,3,0,1,2,3,0,1,2,3,0,1,2,3,0,1,2,3,0,1,2,3,0,1,2,3,0,1,2,3,0,1,2,3,0,1,2,3,0,1,2,3,0,1,2,3,0,1,2,3,0,1,2,3,0,1,2,3,0,1,2,3,0,1,2,3,0,1,2,3,0,1,2,3,0,1,2,3,0,1,2,3,0,1,2,3,0,1,2,3,0,1,2,3,0,1,2,3,0,1,2,3,0,1,2,3,0,1,2,3,0,1,2,3,0,1,2,3,0,1,2,3,0,1,2,3,0,1,2,3,0,1,2,3,0,1,2,3,0,1,2,3,0,1,2,3,0,1,2,3,0,1,2,3,0,1,2,3,0,1,2,3,0,1,2,3,0,1,2,3,0,1,2,3,0,1,2,3,0,1,2,3,0,1,2,3,0,1,2,3,0,1,2,3,0,1,2,3,0,1,2,3,0,1,2,3,0,1,2,3,0,1,2,3,0,1,2,3,0,1,2,3,0,1,2,3,0,1,2,3,0,1,2,3,0,1,2,3,0,1,2,3,0,1,2,3,0,1,2,3,0,1,2,3,0,1,2,3,0,1,2,3,0,1,2,3,0,1,2,3,0,1,2,3,0,1,2,3,0,1,2,3,0,1,2,3,0,1,2,3,0,1,2,3,0,1,2,3,0,1,2,3,0,1,2,3,0,1,2,3,0,1,2,3,0,1,2,3,0,1,2,3,0,1,2,3,0,1,2,3,0,1,2,3,0,1,2,3,0,1,2,3,0,1,2,3,0,1,2,3,0,1,2,3,0,1,2,3,0,1,2,3,0,1,2,3,0,1,2,3,0,1,2,3,0,1,2,3,0,1,2,3,0,1,2,3,0,1,2,3,0,1,2,3,0,1,2,3,0,1,2,3,0,1,2,3,0,1,2,3,0,1,2,3,0,1,2,3,0,1,2,3,0,1,2,3,0,1,2,3,0,1,2,3,0,1,2,3,0,1,2,3,0,1,2,3,0,1,2,3,0,1,2,3,0,1,2,3,0,1,2,3,0,1,2,3,0,1,2,3,0,1,2,3,0,1,2,3,0,1,2,3,0,1,2,3,0,1,2,3,0,1,2,3,0,1,2,3,0,1,2,3,0,1,2,3,0,1,2,3,0,1,2,3,0,1,2,3,0,1,2,3,0,1,2,3,0,1,2,3,0,1,2,3,0,1,2,3,0,1,2,3,0,1,2,3,0,1,2,3,0,1,2,3],"trees":[{"base_weights":[-3.516267E-2,-5.32753E-1,2.5863463E-1,-2.5079777E-2,-2.8824937E-1,-2.3963843E-1,1.1238327E0,-5.093549E-1,5.477112E-1,-4.1166103E-1,2.016927E-1,4.0779513E-1,1.4974537E0,-2.4149742E-2,-6.123975E-3,-4.058848E-3,3.793539E-2,1.358559E-3,-1.9902106E-2,2.3752548E-2,-2.3253052E-2,-7.452623E-3,5.477415E-2,3.2902755E-2,7.3642306E-2],"categories":[],"categories_nodes":[],"categories_segments":[],"categories_sizes":[],"default_left":[0,0,0,0,0,0,0,0,0,0,0,0,0,0,0,0,0,0,0,0,0,0,0,0,0],"id":0,"left_children":[1,3,5,-1,7,9,11,13,15,17,19,21,23,-1,-1,-1,-1,-1,-1,-1,-1,-1,-1,-1,-1],"loss_changes":[4.303809E1,2.337103E0,8.010332E1,0E0,6.2400384E0,9.0668335E0,1.7541153E1,7.826271E-1,1.9762297E0,3.2884836E0,1.0741339E1,1.4330557E1,8.737984E0,0E0,0E0,0E0,0E0,0E0,0E0,0E0,0E0,0E0,0E0,0E0,0E0],"parents":[2147483647,0,0,1,1,2,2,4,4,5,5,6,6,7,7,8,8,9,9,10,10,11,11,12,12],"right_children":[2,4,6,-1,8,10,12,14,16,18,20,22,24,-1,-1,-1,-1,-1,-1,-1,-1,-1,-1,-1,-1],"split_conditions":[9.756312E-3,8.258542E-3,7.56619E5,-2.5079777E-2,5.197364E4,8.193E3,4E0,8E0,7.61E2,5.93E3,1.8569048E-2,1.028451E6,1.1333532E-2,-2.4149742E-2,-6.123975E-3,-4.058848E-3,3.793539E-2,1.358559E-3,-1.9902106E-2,2.3752548E-2,-2.3253052E-2,-7.452623E-3,5.477415E-2,3.2902755E-2,7.3642306E-2],"split_indices":[23,23,15,0,22,16,5,7,17,16,23,15,23,0,0,0,0,0,0,0,0,0,0,0,0],"split_type":[0,0,0,0,0,0,0,0,0,0,0,0,0,0,0,0,0,0,0,0,0,0,0,0,0],"sum_hessian":[2.924544E2,1.0826977E2,1.8418463E2,7.701915E1,3.1250618E1,1.1733417E2,6.6850464E1,2.5022928E1,6.2276883E0,8.4474724E1,3.2859436E1,2.3638735E1,4.3211727E1,1.923262E1,5.7903085E0,2.6617675E0,3.565921E0,1.3748582E1,7.072614E1,2.2055899E1,1.0803538E1,1.5109427E1,8.529307E0,1.5723192E1,2.7488537E1],"tree_param":{"num_deleted":"0","num_feature":"25","num_nodes":"25","size_leaf_vector":"1"}},{"base_weights":[3.6743872E-2,3.3188224E-1,-4.0990672E-1,1.770137E0,1.8319029E-1,3.1456503E-1,-4.891468E-1,9.4887775E-1,8.4717385E-2,-2.6411393E-1,3.2546216E-1,7.053923E-1,-1.2379505E-1,-5.0858724E-1,1.1704268E-2,5.392088E-2,1.2461432E-2,-1.9011995E-2,1.0325824E-2,1.9099975E-2,-1.1805242E-2,4.2270016E-2,3.8596946E-3,-1.5887361E-2,1.1704268E-2,-2.1396184E-2,-6.367367E-3],"categories":[],"categories_nodes":[],"categories_segments":[],"categories_sizes":[],"default_left":[0,0,0,0,0,0,0,0,0,0,0,0,0,0,0,0,0,0,0,0,0,0,0,0,0,0,0],"id":1,"left_children":[1,3,5,7,9,11,13,15,-1,17,19,21,23,25,-1,-1,-1,-1,-1,-1,-1,-1,-1,-1,-1,-1,-1],"loss_changes":[3.6665478E1,3.5476807E1,6.508932E0,2.4376488E0,9.812302E0,2.061473E0,1.6712914E0,1.2192888E0,0E0,4.2513685E0,1.1123958E1,1.2332544E0,8.3134913E-1,8.170357E-1,0E0,0E0,0E0,0E0,0E0,0E0,0E0,0E0,0E0,0E0,0E0,0E0,0E0],"parents":[2147483647,0,0,1,1,2,2,3,3,4,4,5,5,6,6,7,7,9,9,10,10,11,11,12,12,13,13],"right_children":[2,4,6,8,10,12,14,16,-1,18,20,22,24,26,-1,-1,-1,-1,-1,-1,-1,-1,-1,-1,-1,-1,-1],"split_conditions":[3E0,7.105E3,2E0,7.063366E-2,6.06E2,2E0,2.3495E4,5E0,8.4717385E-2,2E0,3.647847E6,1.2699E4,6.34972E3,3E1,1.1704268E-2,5.392088E-2,1.2461432E-2,-1.9011995E-2,1.0325824E-2,1.9099975E-2,-1.1805242E-2,4.2270016E-2,3.8596946E-3,-1.5887361E-2,1.1704268E-2,-2.1396184E-2,-6.367367E-3],"split_indices":[1,19,0,24,20,4,16,8,0,4,18,19,21,9,0,0,0,0,0,0,0,0,0,0,0,0,0],"split_type":[0,0,0,0,0,0,0,0,0,0,0,0,0,0,0,0,0,0,0,0,0,0,0,0,0,0,0],"sum_hessian":[2.7610822E2,1.6640672E2,1.097015E2,1.4570052E1,1.5183667E2,1.0522962E1,9.9178535E1,5.4437957E0,9.126256E0,3.643337E1,1.154033E2,5.241052E0,5.2819095E0,9.711298E1,2.065551E0,2.6617615E0,2.7820342E0,2.6006886E1,1.0426483E1,9.2879585E1,2.2523712E1,2.8569674E0,2.384085E0,3.2163582E0,2.065551E0,8.981698E1,7.296011E0],"tree_param":{"num_deleted":"0","num_feature":"25","num_nodes":"27","size_leaf_vector":"1"}},{"base_weights":[2.3678841E-2,7.818877E-1,-6.301569E-1,-6.097246E-2,1.049308E0,-1.3487141E-1,-3.1144256E-2,-2.9982952E-2,6.207616E-1,-2.1351347E-2,1.0774955E0,6.275789E-1,-3.0235013E-2,3.955594E-2,-2.6010899E-2,4.758317E-2,2.9016726E-2,-2.5713209E-2,3.8810264E-2],"categories":[],"categories_nodes":[],"categories_segments":[],"categories_sizes":[],"default_left":[0,0,0,0,0,0,0,0,0,0,0,0,0,0,0,0,0,0,0],"id":2,"left_children":[1,3,5,7,9,11,-1,-1,13,-1,15,17,-1,-1,-1,-1,-1,-1,-1],"loss_changes":[1.9908423E2,4.1973915E1,1.5751022E1,2.1932781E1,6.876297E0,2.4594173E1,0E0,0E0,1.1651413E1,0E0,4.6250305E0,1.0816236E1,0E0,0E0,0E0,0E0,0E0,0E0,0E0],"parents":[2147483647,0,0,1,1,2,2,3,3,4,4,5,5,8,8,10,10,11,11],"right_children":[2,4,6,8,10,12,-1,-1,14,-1,16,18,-1,-1,-1,-1,-1,-1,-1],"split_conditions":[7.4001E5,4E0,9.49441E5,1.033411E-1,1.1163211E-2,4E0,-3.1144256E-2,-2.9982952E-2,4.05549E3,-2.1351347E-2,8.455E3,8.56306E5,-3.0235013E-2,3.955594E-2,-2.6010899E-2,4.758317E-2,2.9016726E-2,-2.5713209E-2,3.8810264E-2],"split_indices":[15,0,15,24,23,5,0,0,21,0,16,15,0,0,0,0,0,0,0],"split_type":[0,0,0,0,0,0,0,0,0,0,0,0,0,0,0,0,0,0,0],"sum_hessian":[3.9959283E2,1.8493753E2,2.1465532E2,4.472968E1,1.4020784E2,4.9941048E1,1.6471428E2,2.2203255E1,2.2526424E1,2.138987E0,1.3806886E2,2.2412748E1,2.75283E1,1.7639397E1,4.8870277E0,1.0292419E2,3.5144676E1,4.5752006E0,1.7837547E1],"tree_param":{"num_deleted":"0","num_feature":"25","num_nodes":"19","size_leaf_vector":"1"}},{"base_weights":[-6.312739E-2,-5.491996E-1,9.482992E-1,4.790262E-1,-6.1705214E-1,1.3149784E0,-2.4057647E-2,-2.1210644E-2,1.2081277E0,-6.414155E-2,-2.5264852E-2,1.6705561E0,4.336971E-1,1.0783345E-2,6.6456564E-2,1.90294E-2,-1.8818537E-2,8.0114335E-2,4.5617044E-2,-1.5640905E-2,5.789235E-2],"categories":[],"categories_nodes":[],"categories_segments":[],"categories_sizes":[],"default_left":[0,0,0,0,0,0,0,0,0,0,0,0,0,0,0,0,0,0,0,0,0],"id":3,"left_children":[1,3,5,7,9,11,-1,-1,13,15,-1,17,19,-1,-1,-1,-1,-1,-1,-1,-1],"loss_changes":[1.4375038E2,1.4068172E1,5.4736717E1,1.0047606E1,1.4547653E0,2.3430206E1,0E0,0E0,2.839363E0,1.513371E0,0E0,7.3293915E0,2.0219444E1,0E0,0E0,0E0,0E0,0E0,0E0,0E0,0E0],"parents":[2147483647,0,0,1,1,2,2,3,3,4,4,5,5,8,8,9,9,11,11,12,12],"right_children":[2,4,6,8,10,12,-1,-1,14,16,-1,18,20,-1,-1,-1,-1,-1,-1,-1,-1],"split_conditions":[1.212251E6,1E0,4E0,7.026E3,2E0,9.21273E-2,-2.4057647E-2,-2.1210644E-2,6.6E1,6.04627E5,-2.5264852E-2,1E0,2.382931E6,1.0783345E-2,6.6456564E-2,1.90294E-2,-1.8818537E-2,8.0114335E-2,4.5617044E-2,-1.5640905E-2,5.789235E-2],"split_indices":[15,1,0,16,7,24,0,0,10,15,0,1,15,0,0,0,0,0,0,0,0],"split_type":[0,0,0,0,0,0,0,0,0,0,0,0,0,0,0,0,0,0,0,0,0],"sum_hessian":[2.9033826E2,1.9640622E2,9.3932045E1,1.1783362E1,1.8462286E2,7.608201E1,1.7850037E1,5.056451E0,6.726911E0,4.8786182E0,1.7974423E2,5.3571487E1,2.251052E1,2.7101624E0,4.016749E0,2.0216439E0,2.8569744E0,3.12223E1,2.234919E1,1.275043E1,9.760091E0],"tree_param":{"num_deleted":"0","num_feature":"25","num_nodes":"21","size_leaf_vector":"1"}},{"base_weights":[1.35169765E-2,-5.2094465E-1,3.0206823E-1,-2.4890877E-2,-2.750863E-1,-1.2352348E-1,1.3429849E0,-4.9905595E-1,4.6888974E-1,-4.017867E-1,3.313443E-1,-1.9721558E-2,1.4817395E0,-2.3980098E-2,-4.898395E-3,4.184257E-2,-1.8569835E-2,1.0543739E-2,-2.1136574E-2,2.895055E-2,-7.934848E-3,3.546932E-2,6.749215E-2],"categories":[],"categories_nodes":[],"categories_segments":[],"categories_sizes":[],"default_left":[0,0,0,0,0,0,0,0,0,0,0,0,0,0,0,0,0,0,0,0,0,0,0],"id":4,"left_children":[1,3,5,-1,7,9,11,13,15,17,19,-1,21,-1,-1,-1,-1,-1,-1,-1,-1,-1,-1],"loss_changes":[4.420078E1,2.3323822E0,8.260632E1,0E0,5.4198513E0,1.6967783E1,1.4510338E1,8.497882E-1,4.641797E0,7.1302547E0,1.0751244E1,0E0,4.685356E0,0E0,0E0,0E0,0E0,0E0,0E0,0E0,0E0,0E0,0E0],"parents":[2147483647,0,0,1,1,2,2,4,4,5,5,6,6,7,7,8,8,9,9,10,10,12,12],"right_children":[2,4,6,-1,8,10,12,14,16,18,20,-1,22,-1,-1,-1,-1,-1,-1,-1,-1,-1,-1],"split_conditions":[9.77247E-3,8.258542E-3,1.2531E4,-2.4890877E-2,5.197364E4,8.561E3,2.86774E3,8E0,3E0,4E0,8.104298E4,-1.9721558E-2,1.1078391E-2,-2.3980098E-2,-4.898395E-3,4.184257E-2,-1.8569835E-2,1.0543739E-2,-2.1136574E-2,2.895055E-2,-7.934848E-3,3.546932E-2,6.749215E-2],"split_indices":[23,23,19,0,22,19,21,7,0,0,22,0,23,0,0,0,0,0,0,0,0,0,0],"split_type":[0,0,0,0,0,0,0,0,0,0,0,0,0,0,0,0,0,0,0,0,0,0,0],"sum_hessian":[2.8458905E2,9.949557E1,1.8509349E2,6.937326E1,3.0122309E1,1.3200354E2,5.308995E1,2.3405443E1,6.716867E0,8.197339E1,5.003014E1,3.5508752E0,4.9539078E1,1.8009907E1,5.3955364E0,4.0752025E0,2.641665E0,1.2933123E1,6.904027E1,2.8529114E1,2.1501028E1,1.4084654E1,3.5454422E1],"tree_param":{"num_deleted":"0","num_feature":"25","num_nodes":"23","size_leaf_vector":"1"}},{"base_weights":[9.171098E-3,3.4299827E-1,-4.217468E-1,1.4747938E0,2.0593083E-1,3.8807264E-1,-5.067561E-1,5.7631636E-1,1.8044586E0,9.08775E-2,1.6213518E0,-9.790077E-3,5.642674E-1,-5.2356994E-1,1.13722E-2,2.2179172E-3,4.2670846E-2,7.8574196E-2,3.0730201E-2,-1.1460732E-2,1.1458999E-2,4.071154E-2,7.740879E-2,3.1912215E-2,-2.705526E-3,-2.18821E-2,-1.1325111E-2],"categories":[],"categories_nodes":[],"categories_segments":[],"categories_sizes":[],"default_left":[0,0,0,0,0,0,0,0,0,0,0,0,0,0,0,0,0,0,0,0,0,0,0,0,0,0,0],"id":5,"left_children":[1,3,5,7,9,11,13,15,17,19,21,-1,23,25,-1,-1,-1,-1,-1,-1,-1,-1,-1,-1,-1,-1,-1],"loss_changes":[4.2518852E1,2.5531141E1,9.079607E0,4.240467E0,2.4232264E1,1.5680519E0,1.7078209E0,1.538661E0,5.739975E-1,1.0380537E1,1.5109444E-1,0E0,1.5790012E0,4.9511337E-1,0E0,0E0,0E0,0E0,0E0,0E0,0E0,0E0,0E0,0E0,0E0,0E0,0E0],"parents":[2147483647,0,0,1,1,2,2,3,3,4,4,5,5,6,6,7,7,8,8,9,9,10,10,12,12,13,13],"right_children":[2,4,6,8,10,12,14,16,18,20,22,-1,24,26,-1,-1,-1,-1,-1,-1,-1,-1,-1,-1,-1,-1,-1],"split_conditions":[3E0,6.245E3,2E0,5E0,9.240443E4,3.69794E3,2.499E4,6.5524004E-2,8E0,1E0,1.05189E4,-9.790077E-3,1.7E1,1.073758E6,1.13722E-2,2.2179172E-3,4.2670846E-2,7.8574196E-2,3.0730201E-2,-1.1460732E-2,1.1458999E-2,4.071154E-2,7.740879E-2,3.1912215E-2,-2.705526E-3,-2.18821E-2,-1.1325111E-2],"split_indices":[1,16,0,5,22,21,16,24,7,1,21,0,5,15,0,0,0,0,0,0,0,0,0,0,0,0,0],"split_type":[0,0,0,0,0,0,0,0,0,0,0,0,0,0,0,0,0,0,0,0,0,0,0,0,0,0,0],"sum_hessian":[2.9356778E2,1.6553429E2,1.280335E2,1.6827375E1,1.4870692E2,1.1824584E1,1.1620891E2,5.2545824E0,1.1572793E1,1.3851208E2,1.0194832E1,2.4905126E0,9.334071E0,1.1412143E2,2.0874825E0,3.088071E0,2.166511E0,9.249744E0,2.3230484E0,4.7123928E1,9.138816E1,4.9393225E0,5.2555094E0,6.6236E0,2.7104716E0,1.0280581E2,1.1315616E1],"tree_param":{"num_deleted":"0","num_feature":"25","num_nodes":"27","size_leaf_vector":"1"}},{"base_weights":[2.1856096E-2,7.801271E-1,-6.672201E-1,-1.8101288E-2,1.0054426E0,-2.7195996E-1,-3.0657174E-2,5.923995E-1,-2.953773E-2,1.131316E0,5.291926E-1,5.6324726E-1,-2.9889932E-2,-2.5721349E-2,3.804788E-2,2.6520891E-2,4.7587313E-2,-2.7840193E-2,3.581759E-2,4.1351832E-2,-2.518769E-2],"categories":[],"categories_nodes":[],"categories_segments":[],"categories_sizes":[],"default_left":[0,0,0,0,0,0,0,0,0,0,0,0,0,0,0,0,0,0,0,0,0],"id":6,"left_children":[1,3,5,7,9,11,-1,13,-1,15,17,19,-1,-1,-1,-1,-1,-1,-1,-1,-1],"loss_changes":[2.100098E2,3.443183E1,8.049477E0,1.9392889E1,8.347824E0,1.7808727E1,0E0,1.1199252E1,0E0,2.4135895E0,1.5465859E1,9.888462E0,0E0,0E0,0E0,0E0,0E0,0E0,0E0,0E0,0E0],"parents":[2147483647,0,0,1,1,2,2,3,3,4,4,5,5,7,7,9,9,10,10,11,11],"right_children":[2,4,6,8,10,12,-1,14,-1,16,18,20,-1,-1,-1,-1,-1,-1,-1,-1,-1],"split_conditions":[7.4001E5,4E0,9.42406E5,1E1,8.455E3,7E0,-3.0657174E-2,1.033411E-1,-2.953773E-2,1.1974837E-2,1.0188E4,2E0,-2.9889932E-2,-2.5721349E-2,3.804788E-2,2.6520891E-2,4.7587313E-2,-2.7840193E-2,3.581759E-2,4.1351832E-2,-2.518769E-2],"split_indices":[15,0,15,6,16,6,0,24,0,23,16,8,0,0,0,0,0,0,0,0,0],"split_type":[0,0,0,0,0,0,0,0,0,0,0,0,0,0,0,0,0,0,0,0,0],"sum_hessian":[3.9993143E2,1.9034285E2,2.095886E2,4.2103134E1,1.4823972E2,4.280204E1,1.6678654E2,2.2885195E1,1.921794E1,1.16162384E2,3.2077328E1,1.5456253E1,2.7345787E1,4.9722505E0,1.7912945E1,1.4243368E1,1.01919014E2,7.1749105E0,2.4902418E1,1.1179832E1,4.27642E0],"tree_param":{"num_deleted":"0","num_feature":"25","num_nodes":"21","size_leaf_vector":"1"}},{"base_weights":[-6.961155E-3,1.4875168E0,-5.284075E-1,-2.2319721E-2,1.7223843E0,8.256898E-2,-2.5099745E-2,7.606411E-2,9.8737586E-1,5.989777E-1,-2.3562009E-2,-3.6916775E-3,6.156088E-2,4.274971E-2,-2.1211158E-2],"categories":[],"categories_nodes":[],"categories_segments":[],"categories_sizes":[],"default_left":[0,0,0,0,0,0,0,0,0,0,0,0,0,0,0],"id":7,"left_children":[1,3,5,-1,7,9,-1,-1,11,13,-1,-1,-1,-1,-1],"loss_changes":[2.2776163E2,3.728131E1,1.3168201E1,0E0,7.08757E0,1.1145326E1,0E0,0E0,9.327137E0,1.0161767E1,0E0,0E0,0E0,0E0,0E0],"parents":[2147483647,0,0,1,1,2,2,4,4,5,5,8,8,9,9],"right_children":[2,4,6,-1,8,10,-1,-1,12,14,-1,-1,-1,-1,-1],"split_conditions":[8.253989E-3,7.125E3,9.77247E-3,-2.2319721E-2,2E0,2E0,-2.5099745E-2,7.606411E-2,1.894E3,1.4E1,-2.3562009E-2,-3.6916775E-3,6.156088E-2,4.274971E-2,-2.1211158E-2],"split_indices":[23,16,23,0,1,1,0,0,17,6,0,0,0,0,0],"split_type":[0,0,0,0,0,0,0,0,0,0,0,0,0,0,0],"sum_hessian":[2.902595E2,7.4600365E1,2.1565912E2,7.54177E0,6.705859E1,3.0117542E1,1.8554158E2,5.2636868E1,1.4421724E1,1.7087276E1,1.3030266E1,5.1584454E0,9.263279E0,1.2105173E1,4.9821043E0],"tree_param":{"num_deleted":"0","num_feature":"25","num_nodes":"15","size_leaf_vector":"1"}},{"base_weights":[1.0074175E-2,-1.7070287E-1,8.078175E-1,-2.4595344E-2,-5.7680845E-2,-3.6210734E-1,1.2942454E0,-4.2197064E-1,2.197813E-1,-2.310385E-2,5.262388E-3,5.6390524E-1,1.5719506E0,-1.853278E-2,2.9288914E-2,1.6117303E-2,-2.1654975E-2,-1.3380285E-2,5.131571E-2,6.750614E-2,1.1309047E-2],"categories":[],"categories_nodes":[],"categories_segments":[],"categories_sizes":[],"default_left":[0,0,0,0,0,0,0,0,0,0,0,0,0,0,0,0,0,0,0,0,0],"id":8,"left_children":[1,3,5,-1,7,9,11,13,15,-1,-1,17,19,-1,-1,-1,-1,-1,-1,-1,-1],"loss_changes":[4.3548782E1,1.2325907E1,3.2215603E1,0E0,2.0044256E1,1.9019234E0,7.1496277E0,4.428502E0,1.5930065E1,0E0,0E0,8.487174E0,3.7214584E0,0E0,0E0,0E0,0E0,0E0,0E0,0E0,0E0],"parents":[2147483647,0,0,1,1,2,2,4,4,5,5,6,6,7,7,8,8,11,11,12,12],"right_children":[2,4,6,-1,8,10,12,14,16,-1,-1,18,20,-1,-1,-1,-1,-1,-1,-1,-1],"split_conditions":[1.2793645E-1,1E0,5.24662E5,-2.4595344E-2,8.561E3,3.21982E3,3E0,8.32E2,2.611515E6,-2.310385E-2,5.262388E-3,6E0,2.5758E4,-1.853278E-2,2.9288914E-2,1.6117303E-2,-2.1654975E-2,-1.3380285E-2,5.131571E-2,6.750614E-2,1.1309047E-2],"split_indices":[24,1,15,0,19,21,7,20,18,0,0,5,16,0,0,0,0,0,0,0,0],"split_type":[0,0,0,0,0,0,0,0,0,0,0,0,0,0,0,0,0,0,0,0,0],"sum_hessian":[3.0001776E2,2.4523169E2,5.4786068E1,4.884169E1,1.9639E2,1.6164303E1,3.8621765E1,8.468425E1,1.1170575E2,1.1134158E1,5.0301456E0,1.1474758E1,2.7147007E1,8.2333244E1,2.3510053E0,9.0419426E1,2.1286324E1,5.3386235E0,6.136135E0,2.4627718E1,2.5192895E0],"tree_param":{"num_deleted":"0","num_feature":"25","num_nodes":"21","size_leaf_vector":"1"}},{"base_weights":[9.33421E-3,3.6997116E-1,-3.6730388E-1,6.794138E-1,-3.7555348E-2,1.2483333E-1,-5.0705594E-1,8.176659E-1,-3.27242E-1,-1.7887743E-1,9.627991E-1,5.906254E-1,-3.9946368E-1,-3.8454032E-1,-2.4175612E-2,1.1756885E-2,4.573925E-2,-2.2093806E-2,1.442744E-2,-1.670253E-2,2.958573E-2,6.279634E-2,-1.7403662E-2,5.3727068E-2,8.416669E-3,-1.9690383E-2,9.980117E-5,-2.5552877E-3,-1.944563E-2],"categories":[],"categories_nodes":[],"categories_segments":[],"categories_sizes":[],"default_left":[0,0,0,0,0,0,0,0,0,0,0,0,0,0,0,0,0,0,0,0,0,0,0,0,0,0,0,0,0],"id":9,"left_children":[1,3,5,7,9,11,13,15,17,19,21,23,25,27,-1,-1,-1,-1,-1,-1,-1,-1,-1,-1,-1,-1,-1,-1,-1],"loss_changes":[3.825775E1,1.816884E1,9.539829E0,1.1656086E1,9.084773E0,7.873935E0,1.0496426E0,1.1990322E1,1.8399881E0,1.2604302E1,7.4388785E0,4.571648E0,5.723095E-1,1.6092029E0,0E0,0E0,0E0,0E0,0E0,0E0,0E0,0E0,0E0,0E0,0E0,0E0,0E0,0E0,0E0],"parents":[2147483647,0,0,1,1,2,2,3,3,4,4,5,5,6,6,7,7,8,8,9,9,10,10,11,11,12,12,13,13],"right_children":[2,4,6,8,10,12,14,16,18,20,22,24,26,28,-1,-1,-1,-1,-1,-1,-1,-1,-1,-1,-1,-1,-1,-1,-1],"split_conditions":[1.1393323E-2,1.706153E6,2E0,1.2359226E-1,9.102138E4,5.015926E4,5.303096E4,2.268669E4,1.2793645E-1,8.190517E-3,3E0,9.31E3,5.337983E-2,1.3773986E-2,-2.4175612E-2,1.1756885E-2,4.573925E-2,-2.2093806E-2,1.442744E-2,-1.670253E-2,2.958573E-2,6.279634E-2,-1.7403662E-2,5.3727068E-2,8.416669E-3,-1.9690383E-2,9.980117E-5,-2.5552877E-3,-1.944563E-2],"split_indices":[23,15,1,24,22,22,22,22,24,23,1,16,24,23,0,0,0,0,0,0,0,0,0,0,0,0,0,0,0],"split_type":[0,0,0,0,0,0,0,0,0,0,0,0,0,0,0,0,0,0,0,0,0,0,0,0,0,0,0,0,0],"sum_hessian":[2.7965942E2,1.428735E2,1.3678593E2,8.083032E1,6.2043175E1,3.0275932E1,1.0651E2,7.123482E1,9.595508E0,5.5082714E1,6.9604597E0,1.5965486E1,1.4310447E1,4.9347095E1,5.7162907E1,2.8048826E1,4.3185993E1,7.3782816E0,2.2172256E0,4.4154236E1,1.0928477E1,4.767054E0,2.1934059E0,4.508676E0,1.1456809E1,1.14438715E1,2.866576E0,1.2265397E1,3.70817E1],"tree_param":{"num_deleted":"0","num_feature":"25","num_nodes":"29","size_leaf_vector":"1"}},{"base_weights":[4.6405092E-2,7.4350524E-1,-6.092888E-1,-6.1124682E-2,9.738591E-1,-1.0072964E-1,-3.0195901E-2,6.215706E-1,-2.9399425E-2,1.1344146E0,7.5474083E-1,6.0894924E-1,-2.9344032E-2,-2.4760842E-2,3.7026238E-2,-2.1771647E-2,4.7267973E-2,-2.7602497E-2,3.6605235E-2,-2.4735464E-2,3.5921905E-2],"categories":[],"categories_nodes":[],"categories_segments":[],"categories_sizes":[],"default_left":[0,0,0,0,0,0,0,0,0,0,0,0,0,0,0,0,0,0,0,0,0],"id":10,"left_children":[1,3,5,7,9,11,-1,13,-1,15,17,19,-1,-1,-1,-1,-1,-1,-1,-1,-1],"loss_changes":[1.896825E2,3.7335358E1,1.5762047E1,2.1481539E1,4.6463776E0,2.2347046E1,0E0,9.341643E0,0E0,7.6505814E0,1.6651089E1,8.905034E0,0E0,0E0,0E0,0E0,0E0,0E0,0E0,0E0,0E0],"parents":[2147483647,0,0,1,1,2,2,3,3,4,4,5,5,7,7,9,9,10,10,11,11],"right_children":[2,4,6,8,10,12,-1,14,-1,16,18,20,-1,-1,-1,-1,-1,-1,-1,-1,-1],"split_conditions":[7.4001E5,4E0,9.49441E5,1E1,5.24662E5,4E0,-3.0195901E-2,2E0,-2.9399425E-2,1.2443946E-2,1.363351E4,8.56306E5,-2.9344032E-2,-2.4760842E-2,3.7026238E-2,-2.1771647E-2,4.7267973E-2,-2.7602497E-2,3.6605235E-2,-2.4735464E-2,3.5921905E-2],"split_indices":[15,0,15,6,15,5,0,1,0,23,22,15,0,0,0,0,0,0,0,0,0],"split_type":[0,0,0,0,0,0,0,0,0,0,0,0,0,0,0,0,0,0,0,0,0],"sum_hessian":[4.1299258E2,2.0011095E2,2.1288162E2,4.4701714E1,1.5540923E2,4.7761078E1,1.6512054E2,2.2243847E1,2.2457867E1,8.727943E1,6.812981E1,2.2532145E1,2.5228933E1,4.1750426E0,1.8068804E1,2.1031373E0,8.517629E1,6.477518E0,6.1652287E1,4.0784607E0,1.8453684E1],"tree_param":{"num_deleted":"0","num_feature":"25","num_nodes":"21","size_leaf_vector":"1"}},{"base_weights":[-9.858684E-3,1.3611811E0,-5.723013E-1,-2.902612E-1,1.5561906E0,5.303308E-1,-6.1038774E-1,1.9221528E-2,-2.1959774E-2,1.7546369E0,8.9781183E-1,1.4067017E-3,4.3179497E-2,-1.05663724E-1,-2.4942428E-2,7.313229E-2,3.889965E-2,-2.0272361E-2,5.0678704E-2,1.8403914E-2,-1.9418301E-2],"categories":[],"categories_nodes":[],"categories_segments":[],"categories_sizes":[],"default_left":[0,0,0,0,0,0,0,0,0,0,0,0,0,0,0,0,0,0,0,0,0],"id":11,"left_children":[1,3,5,7,9,11,13,-1,-1,15,17,-1,-1,19,-1,-1,-1,-1,-1,-1,-1],"loss_changes":[2.2622568E2,2.7935806E1,9.059425E0,2.229413E0,8.41777E0,1.996114E0,1.2740631E0,0E0,0E0,1.5480804E0,1.0889422E1,0E0,0E0,1.583543E0,0E0,0E0,0E0,0E0,0E0,0E0,0E0],"parents":[2147483647,0,0,1,1,2,2,3,3,4,4,5,5,6,6,9,9,10,10,13,13],"right_children":[2,4,6,8,10,12,14,-1,-1,16,18,-1,-1,20,-1,-1,-1,-1,-1,-1,-1],"split_conditions":[8.505827E-3,7.125E3,1E0,3.18107E3,9.086716E-2,6.2082E3,2E0,1.9221528E-2,-2.1959774E-2,2E0,1.2893E4,1.4067017E-3,4.3179497E-2,5E0,-2.4942428E-2,7.313229E-2,3.889965E-2,-2.0272361E-2,5.0678704E-2,1.8403914E-2,-1.9418301E-2],"split_indices":[23,16,1,21,24,21,7,0,0,1,16,0,0,5,0,0,0,0,0,0,0],"split_type":[0,0,0,0,0,0,0,0,0,0,0,0,0,0,0,0,0,0,0,0,0],"sum_hessian":[2.9135834E2,8.434192E1,2.0701643E2,8.856023E0,7.548589E1,6.480364E0,2.0053607E2,2.010176E0,6.8458467E0,5.672343E1,1.8762466E1,3.9672318E0,2.5131319E0,5.3301883E0,1.9520589E2,5.0618137E1,6.1052923E0,3.8272126E0,1.4935253E1,2.0560071E0,3.2741814E0],"tree_param":{"num_deleted":"0","num_feature":"25","num_nodes":"21","size_leaf_vector":"1"}},{"base_weights":[5.7949596E-3,-5.6523895E-1,2.9820248E-1,-5.903807E-1,-1.2199788E-1,-2.942908E-1,9.0903085E-1,-3.5520694E-1,-6.0314804E-1,-1.9317556E-2,1.7903104E-2,-4.3649256E-1,1.3937193E-1,1.04194E0,-2.2540383E-2,-6.475617E-4,-2.0027798E-2,-2.470341E-2,-1.5144063E-2,7.517504E-3,-2.0585263E-2,-6.6534188E-3,6.0110196E-2,9.271004E-3,5.618681E-2],"categories":[],"categories_nodes":[],"categories_segments":[],"categories_sizes":[],"default_left":[0,0,0,0,0,0,0,0,0,0,0,0,0,0,0,0,0,0,0,0,0,0,0,0,0],"id":12,"left_children":[1,3,5,7,9,11,13,15,17,-1,-1,19,21,23,-1,-1,-1,-1,-1,-1,-1,-1,-1,-1,-1],"loss_changes":[4.758254E1,1.0034657E0,6.84698E1,5.919075E-2,1.5402882E0,6.00659E0,1.8795197E1,3.431738E-1,4.1563034E-2,0E0,0E0,3.6512184E0,1.0489237E1,2.485418E1,0E0,0E0,0E0,0E0,0E0,0E0,0E0,0E0,0E0,0E0,0E0],"parents":[2147483647,0,0,1,1,2,2,3,3,4,4,5,5,6,6,7,7,8,8,11,11,12,12,13,13],"right_children":[2,4,6,8,10,12,14,16,18,-1,-1,20,22,24,-1,-1,-1,-1,-1,-1,-1,-1,-1,-1,-1],"split_conditions":[9.756312E-3,1.2359226E-1,1.0029E4,2.8E1,2.64061E5,8.561E3,1.8569048E-2,6E0,9.143319E4,-1.9317556E-2,1.7903104E-2,2.83252E3,1E0,1.032E3,-2.2540383E-2,-6.475617E-4,-2.0027798E-2,-2.470341E-2,-1.5144063E-2,7.517504E-3,-2.0585263E-2,-6.6534188E-3,6.0110196E-2,9.271004E-3,5.618681E-2],"split_indices":[23,24,19,10,15,19,23,5,22,0,0,21,12,20,0,0,0,0,0,0,0,0,0,0,0],"split_type":[0,0,0,0,0,0,0,0,0,0,0,0,0,0,0,0,0,0,0,0,0,0,0,0,0],"sum_hessian":[2.8295926E2,9.550918E1,1.8745007E2,9.00683E1,5.440875E0,9.541618E1,9.203389E1,6.122018E0,8.394628E1,3.4235024E0,2.0173724E0,7.184956E1,2.3566616E1,8.468296E1,7.350931E0,2.1720214E0,3.9499967E0,7.723039E1,6.7158895E0,7.8347516E0,6.401482E1,1.9967386E1,3.5992312E0,2.6695969E1,5.798699E1],"tree_param":{"num_deleted":"0","num_feature":"25","num_nodes":"25","size_leaf_vector":"1"}},{"base_weights":[-2.507704E-3,3.5737875E-1,-2.974892E-1,1.4427767E0,1.7350441E-1,1.3615644E-1,-4.448714E-1,5.918584E-1,6.7532636E-2,4.6957374E-2,1.5712764E0,3.707362E-1,-4.41787E-1,4.10884E-2,-4.7832552E-1,4.055958E-2,1.7679457E-3,-1.4005456E-2,7.121173E-3,7.04593E-2,3.0460376E-2,2.897405E-2,-2.0703806E-2,-3.7663884E-3,-2.0235676E-2,-2.0002078E-2,1.653618E-2],"categories":[],"categories_nodes":[],"categories_segments":[],"categories_sizes":[],"default_left":[0,0,0,0,0,0,0,0,0,0,0,0,0,0,0,0,0,0,0,0,0,0,0,0,0,0,0],"id":13,"left_children":[1,3,5,7,9,11,13,15,-1,17,19,21,23,-1,25,-1,-1,-1,-1,-1,-1,-1,-1,-1,-1,-1,-1],"loss_changes":[3.1444723E1,2.6378305E1,1.0463774E1,3.0106392E0,2.0309147E1,5.8653073E0,6.4857044E0,1.3047552E0,0E0,5.61572E0,1.2733269E-1,9.9423065E0,2.3310018E-1,0E0,2.5257568E0,0E0,0E0,0E0,0E0,0E0,0E0,0E0,0E0,0E0,0E0,0E0,0E0],"parents":[2147483647,0,0,1,1,2,2,3,3,4,4,5,5,6,6,7,7,9,9,10,10,11,11,12,12,14,14],"right_children":[2,4,6,8,10,12,14,16,-1,18,20,22,24,-1,26,-1,-1,-1,-1,-1,-1,-1,-1,-1,-1,-1,-1],"split_conditions":[6E0,7.722E3,4E0,1E0,9.240443E4,1.831E3,5.1653482E-2,5.60535E5,6.7532636E-2,5.841498E-2,3.6E2,1.2359226E-1,1.752558E6,4.10884E-2,2.5758E4,4.055958E-2,1.7679457E-3,-1.4005456E-2,7.121173E-3,7.04593E-2,3.0460376E-2,2.897405E-2,-2.0703806E-2,-3.7663884E-3,-2.0235676E-2,-2.0002078E-2,1.653618E-2],"split_indices":[9,19,0,0,22,20,24,15,0,24,2,24,15,0,16,0,0,0,0,0,0,0,0,0,0,0,0],"split_type":[0,0,0,0,0,0,0,0,0,0,0,0,0,0,0,0,0,0,0,0,0,0,0,0,0,0,0],"sum_hessian":[2.942002E2,1.324255E2,1.617747E2,1.8192118E1,1.1423339E2,4.1054726E1,1.2071997E2,4.8376484E0,1.3354469E1,1.0569766E2,8.535725E0,2.9457026E1,1.1597701E1,2.0224185E0,1.18697556E2,2.251058E0,2.5865903E0,2.5815638E1,7.988203E1,5.960393E0,2.5753312E0,2.1201864E1,8.25516E0,2.1900992E0,9.407601E0,1.1630314E2,2.3944178E0],"tree_param":{"num_deleted":"0","num_feature":"25","num_nodes":"27","size_leaf_vector":"1"}},{"base_weights":[-1.988567E-2,-4.8852885E-1,6.8477196E-1,-4.0144615E-2,-2.9760672E-2,1.026545E0,1.137572E-1,-2.9579487E-2,4.2713937E-1,4.5576956E-2,6.09604E-1,-4.535489E-1,9.305988E-1,2.7697243E-2,-2.8276155E-2,-2.6182383E-2,3.9543256E-2,-2.9375905E-2,1.1015882E-2,1.5512987E-2,4.761827E-2],"categories":[],"categories_nodes":[],"categories_segments":[],"categories_sizes":[],"default_left":[0,0,0,0,0,0,0,0,0,0,0,0,0,0,0,0,0,0,0,0,0],"id":14,"left_children":[1,3,5,7,-1,9,11,-1,13,-1,15,17,19,-1,-1,-1,-1,-1,-1,-1,-1],"loss_changes":[1.302877E2,2.711121E1,3.0639473E1,2.8764364E1,0E0,3.9394913E0,2.8287825E1,0E0,1.6380196E1,0E0,1.1727675E1,7.604943E0,3.0607338E0,0E0,0E0,0E0,0E0,0E0,0E0,0E0,0E0],"parents":[2147483647,0,0,1,1,2,2,3,3,5,5,6,6,8,8,10,10,11,11,12,12],"right_children":[2,4,6,8,-1,10,12,-1,14,-1,16,18,20,-1,-1,-1,-1,-1,-1,-1,-1],"split_conditions":[1.2869006E-2,1.0029E4,1.481E3,2E0,-2.9760672E-2,9E0,1.730716E-2,-2.9579487E-2,6E1,4.5576956E-2,1.3817109E-2,6E0,1.8569048E-2,2.7697243E-2,-2.8276155E-2,-2.6182383E-2,3.9543256E-2,-2.9375905E-2,1.1015882E-2,1.5512987E-2,4.761827E-2],"split_indices":[23,19,17,1,0,6,23,0,10,0,23,4,23,0,0,0,0,0,0,0,0],"split_type":[0,0,0,0,0,0,0,0,0,0,0,0,0,0,0,0,0,0,0,0,0],"sum_hessian":[3.9251962E2,2.3592252E2,1.5659712E2,8.605396E1,1.4986856E2,9.746376E1,5.9133358E1,3.423498E1,5.1818985E1,7.533533E1,2.2128437E1,3.5159454E1,2.3973904E1,4.2310513E1,9.508471E0,4.936031E0,1.7192406E1,2.5375347E1,9.784108E0,8.568674E0,1.540523E1],"tree_param":{"num_deleted":"0","num_feature":"25","num_nodes":"21","size_leaf_vector":"1"}},{"base_weights":[5.156075E-2,1.3983574E0,-3.3235323E-1,1.5646889E0,-2.1113224E-2,-5.102564E-1,9.642112E-1,3.5669363E-1,1.6718388E0,-5.8772194E-1,5.0475243E-2,1.1703326E0,-1.9113027E-2,3.6659587E-2,-1.7656678E-2,6.977478E-2,9.428414E-3,1.3644353E-2,-2.4125254E-2,4.0578865E-2,-1.7370738E-2,4.772736E-3,5.3400777E-2],"categories":[],"categories_nodes":[],"categories_segments":[],"categories_sizes":[],"default_left":[0,0,0,0,0,0,0,0,0,0,0,0,0,0,0,0,0,0,0,0,0,0,0],"id":15,"left_children":[1,3,5,7,-1,9,11,13,15,17,19,21,-1,-1,-1,-1,-1,-1,-1,-1,-1,-1,-1],"loss_changes":[1.4778514E2,2.1136688E1,5.18209E1,6.9896545E0,0E0,8.557827E0,8.642605E0,3.1058836E0,5.1680145E0,2.6758385E0,1.2006991E1,4.0093994E0,0E0,0E0,0E0,0E0,0E0,0E0,0E0,0E0,0E0,0E0,0E0],"parents":[2147483647,0,0,1,1,2,2,3,3,5,5,6,6,7,7,8,8,9,9,10,10,11,11],"right_children":[2,4,6,8,-1,10,12,14,16,18,20,22,-1,-1,-1,-1,-1,-1,-1,-1,-1,-1,-1],"split_conditions":[1E0,8.980919E-2,2.486651E6,4.25329E3,-2.1113224E-2,1.580934E6,1.054046E-1,5.7215072E-2,5.919927E4,4.8565775E-2,1.4417E4,1.11871E4,-1.9113027E-2,3.6659587E-2,-1.7656678E-2,6.977478E-2,9.428414E-3,1.3644353E-2,-2.4125254E-2,4.0578865E-2,-1.7370738E-2,4.772736E-3,5.3400777E-2],"split_indices":[1,24,18,21,0,18,24,24,22,24,16,21,0,0,0,0,0,0,0,0,0,0,0],"split_type":[0,0,0,0,0,0,0,0,0,0,0,0,0,0,0,0,0,0,0,0,0,0,0],"sum_hessian":[2.839226E2,6.239484E1,2.2152777E2,5.7607918E1,4.786922E0,1.9533243E2,2.6195343E1,5.0462303E0,5.2561687E1,1.7158034E2,2.3752094E1,2.3084166E1,3.1111782E0,2.8787477E0,2.1674824E0,4.9830402E1,2.7312868E0,2.4551609E0,1.6912518E2,7.581726E0,1.6170368E1,3.3607497E0,1.9723415E1],"tree_param":{"num_deleted":"0","num_feature":"25","num_nodes":"23","size_leaf_vector":"1"}},{"base_weights":[-3.125401E-2,-5.439256E-1,1.987E-1,-2.4460541E-2,-3.0511475E-1,-1.7126347E-1,9.2185766E-1,-5.2207565E-1,2.3002049E-2,-4.162168E-1,1.7140958E-1,1.1856421E0,2.2448358E-1,-3.3648375E-3,-2.351444E-2,2.4452305E-3,-2.1172272E-2,4.7926314E-2,7.2077906E-4,3.0596104E-2,6.105258E-2,3.230167E-2,-2.2856481E-2],"categories":[],"categories_nodes":[],"categories_segments":[],"categories_sizes":[],"default_left":[0,0,0,0,0,0,0,0,0,0,0,0,0,0,0,0,0,0,0,0,0,0,0],"id":16,"left_children":[1,3,5,-1,7,9,11,13,-1,15,17,19,21,-1,-1,-1,-1,-1,-1,-1,-1,-1,-1],"loss_changes":[3.4810604E1,1.288948E0,5.4721676E1,0E0,4.5321655E0,1.1467197E1,1.2460171E1,4.7787333E-1,0E0,4.321973E0,9.003027E0,5.993683E0,9.844571E0,0E0,0E0,0E0,0E0,0E0,0E0,0E0,0E0,0E0,0E0],"parents":[2147483647,0,0,1,1,2,2,4,4,5,5,6,6,7,7,9,9,10,10,11,11,12,12],"right_children":[2,4,6,-1,8,10,12,14,-1,16,18,20,22,-1,-1,-1,-1,-1,-1,-1,-1,-1,-1],"split_conditions":[9.438461E-3,8.421196E-3,1.2699E4,-2.4460541E-2,5.650212E4,8.561E3,6E0,2.8E1,2.3002049E-2,3E0,1.301987E4,3E0,1E0,-3.3648375E-3,-2.351444E-2,2.4452305E-3,-2.1172272E-2,4.7926314E-2,7.2077906E-4,3.0596104E-2,6.105258E-2,3.230167E-2,-2.2856481E-2],"split_indices":[23,23,19,0,22,19,4,10,0,0,22,1,11,0,0,0,0,0,0,0,0,0,0],"split_type":[0,0,0,0,0,0,0,0,0,0,0,0,0,0,0,0,0,0,0,0,0,0,0],"sum_hessian":[2.9336142E2,9.041658E1,2.0294485E2,6.925535E1,2.1161232E1,1.3476367E2,6.818118E1,1.7302908E1,3.8583233E0,7.846199E1,5.630168E1,4.8961243E1,1.9219936E1,2.557238E0,1.474567E1,1.5116296E1,6.3345695E1,6.432595E0,4.9869087E1,2.3358337E1,2.5602905E1,1.1084792E1,8.135144E0],"tree_param":{"num_deleted":"0","num_feature":"25","num_nodes":"23","size_leaf_vector":"1"}},{"base_weights":[-1.4749423E-2,2.6219508E-1,-4.157545E-1,1.2827387E0,1.2830505E-1,2.604195E-1,-4.9375564E-1,6.7214143E-1,6.332304E-2,-2.241642E-1,2.929173E-1,-2.3545183E-2,3.1334262E-2,-5.1190925E-1,1.057375E-2,3.7452687E-2,4.3201223E-3,-1.4758704E-2,2.906326E-3,1.754246E-2,-1.173383E-2,9.397176E-3,-8.762679E-3,-2.2312483E-2,-1.53514035E-2],"categories":[],"categories_nodes":[],"categories_segments":[],"categories_sizes":[],"default_left":[0,0,0,0,0,0,0,0,0,0,0,0,0,0,0,0,0,0,0,0,0,0,0,0,0],"id":17,"left_children":[1,3,5,7,9,11,13,15,-1,17,19,21,-1,23,-1,-1,-1,-1,-1,-1,-1,-1,-1,-1,-1],"loss_changes":[3.2056454E1,2.3169369E1,6.3469334E0,2.5476189E0,8.88913E0,1.9264128E0,1.5948334E0,1.1255789E0,0E0,2.1319757E0,9.0169E0,5.2135086E-1,0E0,3.9705658E-1,0E0,0E0,0E0,0E0,0E0,0E0,0E0,0E0,0E0,0E0,0E0],"parents":[2147483647,0,0,1,1,2,2,3,3,4,4,5,5,6,6,7,7,9,9,10,10,11,11,13,13],"right_children":[2,4,6,8,10,12,14,16,-1,18,20,22,-1,24,-1,-1,-1,-1,-1,-1,-1,-1,-1,-1,-1],"split_conditions":[3E0,7.077E3,2E0,7.063366E-2,6.0413353E-2,5.1E1,4.87E3,6.27148E5,6.332304E-2,6.06E2,3.647847E6,1.00984484E-1,3.1334262E-2,2.0242466E-1,1.057375E-2,3.7452687E-2,4.3201223E-3,-1.4758704E-2,2.906326E-3,1.754246E-2,-1.173383E-2,9.397176E-3,-8.762679E-3,-2.2312483E-2,-1.53514035E-2],"split_indices":[1,19,0,24,24,10,17,18,0,17,18,24,0,24,0,0,0,0,0,0,0,0,0,0,0],"split_type":[0,0,0,0,0,0,0,0,0,0,0,0,0,0,0,0,0,0,0,0,0,0,0,0,0],"sum_hessian":[2.8666928E2,1.6976875E2,1.1690054E2,1.8694443E1,1.5107431E2,1.1848649E1,1.05051895E2,7.231165E0,1.1463278E1,4.797915E1,1.0309515E2,8.297776E0,3.5508728E0,1.02912285E2,2.139615E0,4.4755955E0,2.7555695E0,3.208404E1,1.589511E1,8.278178E1,2.0313377E1,3.4867866E0,4.81099E0,7.329818E1,2.9614101E1],"tree_param":{"num_deleted":"0","num_feature":"25","num_nodes":"25","size_leaf_vector":"1"}},{"base_weights":[-5.1943082E-2,6.137162E-1,-5.855554E-1,-1.9971432E-1,8.562674E-1,-1.4171694E-1,-2.9322067E-2,4.3016317E-1,-2.8818218E-2,-2.4237812E-2,8.9449984E-1,-4.6820155E-1,7.84536E-1,-2.5132596E-2,3.3527274E-2,4.399435E-2,2.1731632E-2,-2.9171374E-2,3.612723E-2,-2.1632519E-2,4.4962745E-2],"categories":[],"categories_nodes":[],"categories_segments":[],"categories_sizes":[],"default_left":[0,0,0,0,0,0,0,0,0,0,0,0,0,0,0,0,0,0,0,0,0],"id":18,"left_children":[1,3,5,7,9,11,-1,13,-1,-1,15,17,19,-1,-1,-1,-1,-1,-1,-1,-1],"loss_changes":[1.3071933E2,3.248534E1,1.3265053E1,1.2915348E1,7.605652E0,1.6146103E1,0E0,8.308659E0,0E0,0E0,8.312454E0,1.46958885E1,6.8953085E0,0E0,0E0,0E0,0E0,0E0,0E0,0E0,0E0],"parents":[2147483647,0,0,1,1,2,2,3,3,4,4,5,5,7,7,10,10,11,11,12,12],"right_children":[2,4,6,8,10,12,-1,14,-1,-1,16,18,20,-1,-1,-1,-1,-1,-1,-1,-1],"split_conditions":[7.30312E5,4E0,9.49441E5,1E1,6.554E3,7.993838E4,-2.9322067E-2,1.0211746E-2,-2.8818218E-2,-2.4237812E-2,5.42458E5,1.7248E4,8.56306E5,-2.5132596E-2,3.3527274E-2,4.399435E-2,2.1731632E-2,-2.9171374E-2,3.612723E-2,-2.1632519E-2,4.4962745E-2],"split_indices":[15,0,15,6,19,22,0,23,0,0,15,19,15,0,0,0,0,0,0,0,0],"split_type":[0,0,0,0,0,0,0,0,0,0,0,0,0,0,0,0,0,0,0,0,0],"sum_hessian":[3.6600034E2,1.6278395E2,2.0321637E2,3.7430836E1,1.2535312E2,5.117725E1,1.5203912E2,1.701898E1,2.0411858E1,2.815726E0,1.2253739E2,3.8205235E1,1.2972017E1,4.584917E0,1.2434063E1,7.59792E1,4.6558193E1,3.248834E1,5.716895E0,2.5245898E0,1.0447427E1],"tree_param":{"num_deleted":"0","num_feature":"25","num_nodes":"21","size_leaf_vector":"1"}},{"base_weights":[-3.7522495E-2,1.1339779E0,-5.7642096E-1,-2.2283563E-2,1.306694E0,-1.7914912E-1,-2.4615543E-2,1.4065368E0,5.675093E-1,-2.3557896E-2,9.710725E-1,6.087972E-2,3.7810456E-2,3.956804E-2,-1.9341012E-2,1.66498E-2,4.832401E-2],"categories":[],"categories_nodes":[],"categories_segments":[],"categories_sizes":[],"default_left":[0,0,0,0,0,0,0,0,0,0,0,0,0,0,0,0,0],"id":19,"left_children":[1,3,5,-1,7,9,-1,11,13,-1,15,-1,-1,-1,-1,-1,-1],"loss_changes":[1.8426721E2,2.7590843E1,2.9838562E0,0E0,5.382614E0,9.652229E0,0E0,2.4547424E0,5.638323E0,0E0,2.1228027E-1,0E0,0E0,0E0,0E0,0E0,0E0],"parents":[2147483647,0,0,1,1,2,2,4,4,5,5,7,7,8,8,10,10],"right_children":[2,4,6,-1,8,10,-1,12,14,-1,16,-1,-1,-1,-1,-1,-1],"split_conditions":[8.832602E-3,7.78E3,9.77247E-3,-2.2283563E-2,8.253989E-3,9.634621E-3,-2.4615543E-2,2E0,1.1E1,-2.3557896E-2,3.6E2,6.087972E-2,3.7810456E-2,3.956804E-2,-1.9341012E-2,1.66498E-2,4.832401E-2],"split_indices":[23,19,23,0,23,23,0,1,6,0,2,0,0,0,0,0,0],"split_type":[0,0,0,0,0,0,0,0,0,0,0,0,0,0,0,0,0],"sum_hessian":[2.8984082E2,9.097275E1,1.9886807E2,8.22418E0,8.2748566E1,1.8264132E1,1.8060394E2,7.2106255E1,1.0642311E1,1.3826153E1,4.4379787E0,5.583207E1,1.6274185E1,7.6370406E0,3.0052705E0,2.15342E0,2.284559E0],"tree_param":{"num_deleted":"0","num_feature":"25","num_nodes":"17","size_leaf_vector":"1"}},{"base_weights":[-3.050171E-2,-5.121701E-1,2.2072344E-1,-2.4320189E-2,-2.7433044E-1,-3.4485355E-1,7.642692E-1,-4.933143E-1,4.2569852E-1,-4.9623507E-1,1.1536228E-2,8.6702895E-1,-2.1893544E-2,-2.3726165E-2,-5.0357245E-3,-5.7006166E-3,3.142407E-2,-2.3985582E-3,-2.1124225E-2,-6.3615497E-3,4.5401778E-2,1.6821591E-2,4.8194695E-2],"categories":[],"categories_nodes":[],"categories_segments":[],"categories_sizes":[],"default_left":[0,0,0,0,0,0,0,0,0,0,0,0,0,0,0,0,0,0,0,0,0,0,0],"id":20,"left_children":[1,3,5,-1,7,9,11,13,15,17,19,21,-1,-1,-1,-1,-1,-1,-1,-1,-1,-1,-1],"loss_changes":[3.620515E1,2.1704693E0,6.0739357E1,0E0,5.0040283E0,5.2441587E0,1.4036972E1,8.1616354E-1,1.7456485E0,9.1620827E-1,5.915334E0,1.3627434E1,0E0,0E0,0E0,0E0,0E0,0E0,0E0,0E0,0E0,0E0,0E0],"parents":[2147483647,0,0,1,1,2,2,4,4,5,5,6,6,7,7,8,8,9,9,10,10,11,11],"right_children":[2,4,6,-1,8,10,12,14,16,18,20,22,-1,-1,-1,-1,-1,-1,-1,-1,-1,-1,-1],"split_conditions":[9.756312E-3,8.258542E-3,8.455E3,-2.4320189E-2,5.197364E4,1.2E1,1.8569048E-2,8E0,8.79E2,2.5445E3,8.561E3,9E0,-2.1893544E-2,-2.3726165E-2,-5.0357245E-3,-5.7006166E-3,3.142407E-2,-2.3985582E-3,-2.1124225E-2,-6.3615497E-3,4.5401778E-2,1.6821591E-2,4.8194695E-2],"split_indices":[23,23,16,0,22,6,23,7,20,21,19,6,0,0,0,0,0,0,0,0,0,0,0],"split_type":[0,0,0,0,0,0,0,0,0,0,0,0,0,0,0,0,0,0,0,0,0,0,0],"sum_hessian":[2.972641E2,1.0154173E2,1.9572238E2,7.126854E1,3.0273191E1,9.609645E1,9.962593E1,2.3284578E1,6.988613E0,6.717187E1,2.8924583E1,9.270202E1,6.923914E0,1.7826256E1,5.4583225E0,2.944254E0,4.044359E0,4.769148E0,6.2402718E1,2.5857285E1,3.0672994E0,4.0897053E1,5.1804966E1],"tree_param":{"num_deleted":"0","num_feature":"25","num_nodes":"23","size_leaf_vector":"1"}},{"base_weights":[2.5370682E-2,3.213748E-1,-3.9919278E-1,1.2344972E0,2.0478696E-1,4.1802526E-1,-4.8603138E-1,4.6457812E-1,6.1210215E-2,1.0222592E-1,1.371761E0,-8.289888E-3,5.747714E-1,-5.152087E-1,1.6896191E-1,-2.033108E-3,3.6967006E-2,-1.5929021E-2,9.033104E-3,6.61509E-2,3.1119874E-2,8.612685E-3,4.4625893E-2,-2.1982916E-2,-1.3126348E-2,1.4398492E-2,-3.2390223E-3],"categories":[],"categories_nodes":[],"categories_segments":[],"categories_sizes":[],"default_left":[0,0,0,0,0,0,0,0,0,0,0,0,0,0,0,0,0,0,0,0,0,0,0,0,0,0,0],"id":21,"left_children":[1,3,5,7,9,11,13,15,-1,17,19,-1,21,23,25,-1,-1,-1,-1,-1,-1,-1,-1,-1,-1,-1,-1],"loss_changes":[3.63483E1,1.7884502E1,8.636812E0,3.636282E0,1.8085331E1,1.2905974E0,2.1488876E0,1.6421825E0,0E0,8.815219E0,7.598362E-1,0E0,1.6693742E0,4.8514938E-1,2.8474075E-1,0E0,0E0,0E0,0E0,0E0,0E0,0E0,0E0,0E0,0E0,0E0,0E0],"parents":[2147483647,0,0,1,1,2,2,3,3,4,4,5,5,6,6,7,7,9,9,10,10,12,12,13,13,14,14],"right_children":[2,4,6,8,10,12,14,16,-1,18,20,-1,22,24,26,-1,-1,-1,-1,-1,-1,-1,-1,-1,-1,-1,-1],"split_conditions":[3E0,6.245E3,2E0,5E0,9.240443E4,4.05549E3,1.664928E6,6.5524004E-2,6.1210215E-2,5.407505E-2,3.6E2,-8.289888E-3,5.1E1,2.127E3,6.3E1,-2.033108E-3,3.6967006E-2,-1.5929021E-2,9.033104E-3,6.61509E-2,3.1119874E-2,8.612685E-3,4.4625893E-2,-2.1982916E-2,-1.3126348E-2,1.4398492E-2,-3.2390223E-3],"split_indices":[1,16,0,5,22,21,18,24,0,24,2,0,10,17,10,0,0,0,0,0,0,0,0,0,0,0,0],"split_type":[0,0,0,0,0,0,0,0,0,0,0,0,0,0,0,0,0,0,0,0,0,0,0,0,0,0,0],"sum_hessian":[2.8720944E2,1.6936903E2,1.1784043E2,1.8090973E1,1.5127806E2,1.0952753E1,1.0688767E2,5.7342772E0,1.2356695E1,1.400566E2,1.12214575E1,2.1307688E0,8.821985E0,1.0253362E2,4.354052E0,3.1222742E0,2.612003E0,2.7299932E1,1.1275667E2,6.397631E0,4.823826E0,6.1397386E0,2.682246E0,8.498279E1,1.7550835E1,2.2184892E0,2.1355627E0],"tree_param":{"num_deleted":"0","num_feature":"25","num_nodes":"27","size_leaf_vector":"1"}},{"base_weights":[4.8143484E-2,6.696114E-1,-5.736968E-1,-3.8987193E-2,8.6640215E-1,-6.2404163E-2,-2.8946828E-2,-2.8472759E-2,5.47542E-1,8.972785E-1,-2.3692293E-2,6.1141354E-1,-2.8311128E-2,3.5416532E-2,-2.5428606E-2,-2.2552038E-2,3.6954597E-2,3.921477E-2,-2.5276773E-2],"categories":[],"categories_nodes":[],"categories_segments":[],"categories_sizes":[],"default_left":[0,0,0,0,0,0,0,0,0,0,0,0,0,0,0,0,0,0,0],"id":22,"left_children":[1,3,5,7,9,11,-1,-1,13,15,-1,17,-1,-1,-1,-1,-1,-1,-1],"loss_changes":[1.5332727E2,2.7699936E1,1.5165169E1,1.778542E1,7.5270386E0,2.0472134E1,0E0,0E0,1.0204088E1,6.4446716E0,0E0,1.1207428E1,0E0,0E0,0E0,0E0,0E0,0E0,0E0],"parents":[2147483647,0,0,1,1,2,2,3,3,4,4,5,5,8,8,9,9,11,11],"right_children":[2,4,6,8,10,12,-1,-1,14,16,-1,18,-1,-1,-1,-1,-1,-1,-1],"split_conditions":[7.4001E5,4E0,9.49441E5,1.033411E-1,1.1116E4,4E0,-2.8946828E-2,-2.8472759E-2,4.05549E3,5.1902976E-2,-2.3692293E-2,2E0,-2.8311128E-2,3.5416532E-2,-2.5428606E-2,-2.2552038E-2,3.6954597E-2,3.921477E-2,-2.5276773E-2],"split_indices":[15,0,15,24,16,5,0,0,21,24,0,8,0,0,0,0,0,0,0],"split_type":[0,0,0,0,0,0,0,0,0,0,0,0,0,0,0,0,0,0,0],"sum_hessian":[3.947605E2,1.9740094E2,1.9735956E2,4.3080345E1,1.5432059E2,4.508192E1,1.5227763E2,1.9964561E1,2.3115786E1,1.5149872E2,2.8218699E0,2.2080688E1,2.3001234E1,1.8177137E1,4.9386477E0,2.346356E0,1.4915236E2,1.719085E1,4.88984E0],"tree_param":{"num_deleted":"0","num_feature":"25","num_nodes":"19","size_leaf_vector":"1"}},{"base_weights":[-3.0600585E-2,1.0681975E0,-5.723067E-1,1.3531811E0,1.5847991E-1,3.7838998E-1,-5.986849E-1,1.4236069E0,1.4892906E-3,-2.3631563E-2,1.1373767E0,-1.7544197E-2,3.858652E-2,1.812394E-2,-2.4508867E-2,4.813736E-3,5.957167E-2,1.4041079E-2,5.2220013E-2],"categories":[],"categories_nodes":[],"categories_segments":[],"categories_sizes":[],"default_left":[0,0,0,0,0,0,0,0,0,0,0,0,0,0,0,0,0,0,0],"id":23,"left_children":[1,3,5,7,9,11,13,15,-1,-1,17,-1,-1,-1,-1,-1,-1,-1,-1],"loss_changes":[1.7365588E2,2.476397E1,5.1260643E0,6.733841E0,1.8359434E1,3.243001E0,3.0898972E0,5.7690277E0,0E0,0E0,9.691849E-1,0E0,0E0,0E0,0E0,0E0,0E0,0E0,0E0],"parents":[2147483647,0,0,1,1,2,2,3,3,4,4,5,5,6,6,7,7,10,10],"right_children":[2,4,6,8,10,12,14,16,-1,-1,18,-1,-1,-1,-1,-1,-1,-1,-1],"split_conditions":[8.832602E-3,9.21273E-2,1E0,7.644206E4,2.052E3,7.4E1,4.73917E-2,7.54E3,1.4892906E-3,-2.3631563E-2,9.830189E-2,-1.7544197E-2,3.858652E-2,1.812394E-2,-2.4508867E-2,4.813736E-3,5.957167E-2,1.4041079E-2,5.2220013E-2],"split_indices":[23,24,1,22,20,10,24,16,0,0,24,0,0,0,0,0,0,0,0],"split_type":[0,0,0,0,0,0,0,0,0,0,0,0,0,0,0,0,0,0,0],"sum_hessian":[2.8972095E2,9.534698E1,1.9437396E2,7.223174E1,2.3115229E1,4.887266E0,1.8948671E2,6.848483E1,3.746916E0,1.3317895E1,9.797334E0,2.1470883E0,2.7401776E0,2.0835762E0,1.8740312E2,3.42193E0,6.50629E1,2.2696438E0,7.5276904E0],"tree_param":{"num_deleted":"0","num_feature":"25","num_nodes":"19","size_leaf_vector":"1"}},{"base_weights":[2.8385632E-2,-2.4633381E-1,3.5449645E-1,-3.2043535E-1,1.1646394E0,-3.271728E-1,6.152856E-1,-4.3360394E-1,3.1281784E-2,5.6358736E-2,1.4252188E-2,-4.1323376E-1,2.0339215E-2,8.5367835E-1,-3.8960155E-2,9.770776E-3,-2.0069823E-2,4.1437913E-2,-7.0015704E-3,-2.1792736E-2,1.3786146E-3,4.4381622E-2,-3.4949428E-4,-1.0707569E-2,2.0951983E-2],"categories":[],"categories_nodes":[],"categories_segments":[],"categories_sizes":[],"default_left":[0,0,0,0,0,0,0,0,0,0,0,0,0,0,0,0,0,0,0,0,0,0,0,0,0],"id":24,"left_children":[1,3,5,7,9,11,13,15,17,-1,-1,19,-1,21,23,-1,-1,-1,-1,-1,-1,-1,-1,-1,-1],"loss_changes":[2.643108E1,1.712204E1,2.4175617E1,6.1027746E0,1.119237E0,2.9408255E0,1.530088E1,5.4719276E0,8.09412E0,0E0,0E0,2.079255E0,0E0,1.5850952E1,3.6284277E0,0E0,0E0,0E0,0E0,0E0,0E0,0E0,0E0,0E0,0E0],"parents":[2147483647,0,0,1,1,2,2,3,3,4,4,5,5,6,6,7,7,8,8,11,11,13,13,14,14],"right_children":[2,4,6,8,10,12,14,16,18,-1,-1,20,-1,22,24,-1,-1,-1,-1,-1,-1,-1,-1,-1,-1],"split_conditions":[9.086716E-2,1.4440892E5,7.85E3,7.176261E4,2.19747E6,6.44571E3,1.664928E6,3E3,8.104298E4,5.6358736E-2,1.4252188E-2,6E0,2.0339215E-2,6E0,1.1440072E-1,9.770776E-3,-2.0069823E-2,4.1437913E-2,-7.0015704E-3,-2.1792736E-2,1.3786146E-3,4.4381622E-2,-3.4949428E-4,-1.0707569E-2,2.0951983E-2],"split_indices":[24,22,16,22,18,21,18,21,22,0,0,7,0,8,24,0,0,0,0,0,0,0,0,0,0],"split_type":[0,0,0,0,0,0,0,0,0,0,0,0,0,0,0,0,0,0,0,0,0,0,0,0,0],"sum_hessian":[2.930513E2,1.5919135E2,1.3385995E2,1.5198242E2,7.2089205E0,3.6970158E1,9.688979E1,1.14808716E2,3.71737E1,4.9651055E0,2.2438152E0,3.3976532E1,2.993626E0,7.0790474E1,2.6099325E1,1.0250638E1,1.0455808E2,5.6483593E0,3.1525341E1,2.6091091E1,7.8854423E0,5.437261E1,1.6417862E1,1.8929794E1,7.169532E0],"tree_param":{"num_deleted":"0","num_feature":"25","num_nodes":"25","size_leaf_vector":"1"}},{"base_weights":[1.593212E-2,3.049225E-1,-4.0258518E-1,1.1992016E0,1.8281356E-1,2.472084E-1,-4.762183E-1,4.16959E-1,5.9077136E-2,-1.0127535E-1,3.9358416E-1,5.7729214E-1,-1.2002959E-1,-5.20566E-1,-9.060049E-2,-2.1425004E-3,3.4015488E-2,-8.425052E-3,4.3706432E-2,4.2939816E-2,-2.426767E-3,5.771539E-3,3.9703224E-2,8.69968E-3,-1.3551697E-2,-2.1682562E-2,-9.398841E-3,-1.2820982E-2,1.8593345E-2],"categories":[],"categories_nodes":[],"categories_segments":[],"categories_sizes":[],"default_left":[0,0,0,0,0,0,0,0,0,0,0,0,0,0,0,0,0,0,0,0,0,0,0,0,0,0,0,0,0],"id":25,"left_children":[1,3,5,7,9,11,13,15,-1,17,19,21,23,25,27,-1,-1,-1,-1,-1,-1,-1,-1,-1,-1,-1,-1,-1,-1],"loss_changes":[3.4530754E1,1.8219513E1,5.6982E0,3.7522583E0,9.006381E0,1.5881288E0,1.7502403E0,1.4040749E0,0E0,8.661039E0,2.6679428E1,1.0743101E0,5.727431E-1,4.500866E-1,1.6880412E0,0E0,0E0,0E0,0E0,0E0,0E0,0E0,0E0,0E0,0E0,0E0,0E0,0E0,0E0],"parents":[2147483647,0,0,1,1,2,2,3,3,4,4,5,5,6,6,7,7,9,9,10,10,11,11,12,12,13,13,14,14],"right_children":[2,4,6,8,10,12,14,16,-1,18,20,22,24,26,28,-1,-1,-1,-1,-1,-1,-1,-1,-1,-1,-1,-1,-1,-1],"split_conditions":[3E0,7.105E3,2E0,5E0,8.253989E-3,2E0,1.073758E6,6.5524004E-2,5.9077136E-2,1.0210035E-1,1.0686182E-2,1.3E1,1.0984961E-2,3E1,1.1E1,-2.1425004E-3,3.4015488E-2,-8.425052E-3,4.3706432E-2,4.2939816E-2,-2.426767E-3,5.771539E-3,3.9703224E-2,8.69968E-3,-1.3551697E-2,-2.1682562E-2,-9.398841E-3,-1.2820982E-2,1.8593345E-2],"split_indices":[1,19,0,5,23,4,15,24,0,24,23,6,23,9,5,0,0,0,0,0,0,0,0,0,0,0,0,0,0],"split_type":[0,0,0,0,0,0,0,0,0,0,0,0,0,0,0,0,0,0,0,0,0,0,0,0,0,0,0,0,0],"sum_hessian":[2.8348706E2,1.6785378E2,1.15633286E2,1.9106243E1,1.4874754E2,1.1529663E1,1.0410362E2,5.661488E0,1.3444756E1,6.357583E1,8.517171E1,5.7707596E0,5.758903E0,9.305227E1,1.1051354E1,3.134814E0,2.5266738E0,5.8996048E1,4.57978E0,3.3566814E1,5.1604893E1,3.4847748E0,2.2859848E0,2.2670145E0,3.4918885E0,8.570299E1,7.349283E0,8.115034E0,2.93632E0],"tree_param":{"num_deleted":"0","num_feature":"25","num_nodes":"29","size_leaf_vector":"1"}},{"base_weights":[1.2161245E-2,6.324963E-1,-6.170558E-1,-6.384616E-2,8.299704E-1,-2.0172827E-1,-2.8578818E-2,5.4373634E-1,-2.8451614E-2,9.242519E-1,3.5293612E-1,5.533143E-1,-2.8180987E-2,-2.4322186E-2,3.308647E-2,-2.2415016E-2,3.8227133E-2,-2.941571E-2,4.3598283E-2,-2.3962073E-2,4.04936E-2],"categories":[],"categories_nodes":[],"categories_segments":[],"categories_sizes":[],"default_left":[0,0,0,0,0,0,0,0,0,0,0,0,0,0,0,0,0,0,0,0,0],"id":26,"left_children":[1,3,5,7,9,11,-1,13,-1,15,17,19,-1,-1,-1,-1,-1,-1,-1,-1,-1],"loss_changes":[1.5616467E2,2.7755196E1,7.8923264E0,1.82606E1,6.7358246E0,1.5245261E1,0E0,8.339928E0,0E0,6.6237335E0,2.2883883E1,9.17674E0,0E0,0E0,0E0,0E0,0E0,0E0,0E0,0E0,0E0],"parents":[2147483647,0,0,1,1,2,2,3,3,4,4,5,5,7,7,9,9,10,10,11,11],"right_children":[2,4,6,8,10,12,-1,14,-1,16,18,20,-1,-1,-1,-1,-1,-1,-1,-1,-1],"split_conditions":[7.4001E5,4E0,9.42406E5,1E1,1.481E3,7E0,-2.8578818E-2,9.230112E-3,-2.8451614E-2,1.1333532E-2,1.8569048E-2,8.60784E5,-2.8180987E-2,-2.4322186E-2,3.308647E-2,-2.2415016E-2,3.8227133E-2,-2.941571E-2,4.3598283E-2,-2.3962073E-2,4.04936E-2],"split_indices":[15,0,15,6,17,6,0,23,0,23,23,15,0,0,0,0,0,0,0,0,0],"split_type":[0,0,0,0,0,0,0,0,0,0,0,0,0,0,0,0,0,0,0,0,0],"sum_hessian":[3.9808856E2,2.0045648E2,1.9763206E2,4.443708E1,1.5601941E2,3.8131077E1,1.5950099E2,2.300687E1,2.1430208E1,1.2948949E2,2.6529922E1,1.5201986E1,2.292909E1,4.3171916E0,1.868968E1,2.335306E0,1.27154175E2,1.0712872E1,1.5817051E1,4.243584E0,1.0958403E1],"tree_param":{"num_deleted":"0","num_feature":"25","num_nodes":"21","size_leaf_vector":"1"}},{"base_weights":[-4.461503E-2,1.119331E0,-3.6129493E-1,1.2822374E0,-2.1279246E-2,-5.657553E-1,4.6122593E-1,1.7711942E-3,1.3711597E0,9.085563E-3,-2.4316693E-2,7.66907E-1,-2.2647275E-2,5.698148E-2,9.683649E-3,2.1842884E-2,-2.1542994E-2,3.6002018E-2,-1.899655E-2],"categories":[],"categories_nodes":[],"categories_segments":[],"categories_sizes":[],"default_left":[0,0,0,0,0,0,0,0,0,0,0,0,0,0,0,0,0,0,0],"id":27,"left_children":[1,3,5,7,-1,9,11,-1,13,15,-1,17,-1,-1,-1,-1,-1,-1,-1],"loss_changes":[1.0811739E2,1.7561249E1,3.902107E1,6.2584686E0,0E0,4.4902687E0,1.5017989E1,0E0,2.8808517E0,4.3024397E0,0E0,6.414938E0,0E0,0E0,0E0,0E0,0E0,0E0,0E0],"parents":[2147483647,0,0,1,1,2,2,3,3,5,5,6,6,8,8,9,9,11,11],"right_children":[2,4,6,8,-1,10,12,-1,14,16,-1,18,-1,-1,-1,-1,-1,-1,-1],"split_conditions":[1E0,8.980919E-2,1.530372E6,9.33314E5,-2.1279246E-2,1E0,4E0,1.7711942E-3,5.919927E4,2E0,-2.4316693E-2,3E0,-2.2647275E-2,5.698148E-2,9.683649E-3,2.1842884E-2,-2.1542994E-2,3.6002018E-2,-1.899655E-2],"split_indices":[1,24,15,15,0,0,0,0,22,1,0,1,0,0,0,0,0,0,0],"split_type":[0,0,0,0,0,0,0,0,0,0,0,0,0,0,0,0,0,0,0],"sum_hessian":[2.912232E2,6.1745434E1,2.2947778E2,5.640448E1,5.3409524E0,1.8404137E2,4.5436424E1,3.880391E0,5.252409E1,1.26298065E1,1.7141156E2,3.5213135E1,1.0223289E1,4.9903194E1,2.620897E0,6.378512E0,6.2512946E0,3.205187E1,3.161268E0],"tree_param":{"num_deleted":"0","num_feature":"25","num_nodes":"19","size_leaf_vector":"1"}},{"base_weights":[-1.138078E-2,-5.08883E-1,2.1917291E-1,-2.405654E-2,-2.8562322E-1,-3.0872086E-1,7.070298E-1,-2.3484591E-2,1.7971541E-1,-4.8233414E-1,3.6471944E-2,8.562222E-1,-2.2826517E-2,2.5993427E-2,-2.0647611E-2,-1.9520427E-3,-2.0628972E-2,3.4270708E-2,-9.308421E-3,2.4036555E-2,5.3439725E-2],"categories":[],"categories_nodes":[],"categories_segments":[],"categories_sizes":[],"default_left":[0,0,0,0,0,0,0,0,0,0,0,0,0,0,0,0,0,0,0,0,0],"id":28,"left_children":[1,3,5,-1,7,9,11,-1,13,15,17,19,-1,-1,-1,-1,-1,-1,-1,-1,-1],"loss_changes":[3.3091415E1,1.7154236E0,5.0998367E1,0E0,4.1280775E0,5.7348137E0,2.0080376E1,0E0,4.273951E0,8.9468384E-1,7.4537945E0,1.0519089E1,0E0,0E0,0E0,0E0,0E0,0E0,0E0,0E0,0E0],"parents":[2147483647,0,0,1,1,2,2,4,4,5,5,6,6,8,8,9,9,10,10,11,11],"right_children":[2,4,6,-1,8,10,12,-1,14,16,18,20,-1,-1,-1,-1,-1,-1,-1,-1,-1],"split_conditions":[9.756312E-3,8.258542E-3,8.455E3,-2.405654E-2,3.46557E4,1.3E1,1.8569048E-2,-2.3484591E-2,3E0,3E0,3E0,1.5E1,-2.2826517E-2,2.5993427E-2,-2.0647611E-2,-1.9520427E-3,-2.0628972E-2,3.4270708E-2,-9.308421E-3,2.4036555E-2,5.3439725E-2],"split_indices":[23,23,16,0,22,6,23,0,0,5,0,9,0,0,0,0,0,0,0,0,0],"split_type":[0,0,0,0,0,0,0,0,0,0,0,0,0,0,0,0,0,0,0,0,0],"sum_hessian":[2.8652924E2,9.0353004E1,1.9617622E2,6.268096E1,2.7672045E1,9.4398224E1,1.01778E2,1.6633533E1,1.1038512E1,6.2544456E1,3.1853764E1,9.1431656E1,1.0346339E1,6.6274962E0,4.4110155E0,4.6486444E0,5.7895813E1,7.330931E0,2.4522833E1,6.11457E1,3.0285961E1],"tree_param":{"num_deleted":"0","num_feature":"25","num_nodes":"21","size_leaf_vector":"1"}},{"base_weights":[-1.6631246E-2,3.5080755E-1,-3.7339306E-1,7.352425E-2,6.761982E-1,1.0580301E-1,-4.9400404E-1,-1.9525033E-1,1.1144383E0,3.5172415E-1,1.0724788E0,5.0088894E-1,-3.472896E-1,1.14455605E-2,-5.1190734E-1,4.5784496E-2,-1.581755E-2,6.302041E-2,-1.4151888E-2,5.862671E-3,5.2041966E-2,5.1525753E-2,1.950623E-2,3.997312E-2,-4.2754463E-3,1.5752474E-2,-2.0679941E-2,-1.7094534E-2,-2.3320185E-2],"categories":[],"categories_nodes":[],"categories_segments":[],"categories_sizes":[],"default_left":[0,0,0,0,0,0,0,0,0,0,0,0,0,0,0,0,0,0,0,0,0,0,0,0,0,0,0,0,0],"id":29,"left_children":[1,3,5,7,9,11,13,15,17,19,21,23,25,-1,27,-1,-1,-1,-1,-1,-1,-1,-1,-1,-1,-1,-1,-1,-1],"loss_changes":[3.9906094E1,1.348321E1,8.977894E0,2.3187777E1,8.480431E0,5.88033E0,1.8721828E0,1.8183659E1,1.2064665E1,7.4756613E0,3.2216873E0,5.3895125E0,2.1454089E0,0E0,4.7900963E-1,0E0,0E0,0E0,0E0,0E0,0E0,0E0,0E0,0E0,0E0,0E0,0E0,0E0,0E0],"parents":[2147483647,0,0,1,1,2,2,3,3,4,4,5,5,6,6,7,7,8,8,9,9,10,10,11,11,12,12,14,14],"right_children":[2,4,6,8,10,12,14,16,18,20,22,24,26,-1,28,-1,-1,-1,-1,-1,-1,-1,-1,-1,-1,-1,-1,-1,-1],"split_conditions":[1.1333532E-2,8.444031E-3,2E0,6.221441E4,1.2E1,5.015926E4,1E0,6.912E3,6.367533E6,4E0,1E1,1.3108066E-2,6.4E1,1.14455605E-2,5.303096E4,4.5784496E-2,-1.581755E-2,6.302041E-2,-1.4151888E-2,5.862671E-3,5.2041966E-2,5.1525753E-2,1.950623E-2,3.997312E-2,-4.2754463E-3,1.5752474E-2,-2.0679941E-2,-1.7094534E-2,-2.3320185E-2],"split_indices":[23,23,1,22,6,22,0,16,18,4,9,23,10,0,22,0,0,0,0,0,0,0,0,0,0,0,0,0,0],"split_type":[0,0,0,0,0,0,0,0,0,0,0,0,0,0,0,0,0,0,0,0,0,0,0,0,0,0,0,0,0],"sum_hessian":[3.024226E2,1.489902E2,1.5343242E2,8.110345E1,6.788676E1,3.0877333E1,1.2255508E2,6.510508E1,1.5998368E1,3.836286E1,2.9523897E1,1.6438162E1,1.4439173E1,2.413272E0,1.2014181E2,7.849646E0,5.7255432E1,1.2119426E1,3.878943E0,3.249484E1,5.8680243E0,2.0691044E1,8.832852E0,8.67748E0,7.760681E0,2.4443657E0,1.1994806E1,5.8083702E1,6.2058105E1],"tree_param":{"num_deleted":"0","num_feature":"25","num_nodes":"29","size_leaf_vector":"1"}},{"base_weights":[1.9782217E-2,6.204177E-1,-6.075032E-1,-4.912363E-2,8.0557996E-1,-2.3912825E-1,-2.8243102E-2,5.818213E-1,-2.8075181E-2,9.0124714E-1,3.282792E-1,4.921352E-1,-2.7989367E-2,-2.3638727E-2,3.4139656E-2,-2.2414496E-2,3.7290387E-2,-2.8173083E-2,3.3778753E-2,3.728174E-2,-2.4273017E-2],"categories":[],"categories_nodes":[],"categories_segments":[],"categories_sizes":[],"default_left":[0,0,0,0,0,0,0,0,0,0,0,0,0,0,0,0,0,0,0,0,0],"id":30,"left_children":[1,3,5,7,9,11,-1,13,-1,15,17,19,-1,-1,-1,-1,-1,-1,-1,-1,-1],"loss_changes":[1.4805072E2,2.4923775E1,6.811325E0,1.8705624E1,6.886551E0,1.4521799E1,0E0,7.8762703E0,0E0,6.4358597E0,1.5432014E1,8.713338E0,0E0,0E0,0E0,0E0,0E0,0E0,0E0,0E0,0E0],"parents":[2147483647,0,0,1,1,2,2,3,3,4,4,5,5,7,7,9,9,10,10,11,11],"right_children":[2,4,6,8,10,12,-1,14,-1,16,18,20,-1,-1,-1,-1,-1,-1,-1,-1,-1],"split_conditions":[7.4001E5,4E0,9.42406E5,1E1,1.481E3,7E0,-2.8243102E-2,9.230112E-3,-2.8075181E-2,1.1333532E-2,1.730716E-2,2E0,-2.7989367E-2,-2.3638727E-2,3.4139656E-2,-2.2414496E-2,3.7290387E-2,-2.8173083E-2,3.3778753E-2,3.728174E-2,-2.4273017E-2],"split_indices":[15,0,15,6,17,6,0,23,0,23,23,8,0,0,0,0,0,0,0,0,0],"split_type":[0,0,0,0,0,0,0,0,0,0,0,0,0,0,0,0,0,0,0,0,0],"sum_hessian":[3.9094702E2,1.9972151E2,1.9122551E2,4.3426662E1,1.5629486E2,4.1091488E1,1.5013402E2,2.2137512E1,2.128915E1,1.2945872E2,2.6836126E1,1.5853629E1,2.523786E1,3.9425128E0,1.8195E1,2.3351457E0,1.2712358E2,8.822591E0,1.8013536E1,1.1430104E1,4.4235253E0],"tree_param":{"num_deleted":"0","num_feature":"25","num_nodes":"21","size_leaf_vector":"1"}},{"base_weights":[-1.7855617E-3,1.0184096E0,-5.641656E-1,-2.9536343E-1,1.1518477E0,1.720915E-1,-5.9106773E-1,1.880994E-2,-2.1675859E-2,1.2826471E0,5.9689367E-1,-2.0158447E-2,3.8532607E-2,-3.9886063E-1,-2.4181621E-2,5.3085316E-2,2.5385281E-2,-1.9445185E-2,3.343308E-2,-2.2776341E-2,9.528814E-3],"categories":[],"categories_nodes":[],"categories_segments":[],"categories_sizes":[],"default_left":[0,0,0,0,0,0,0,0,0,0,0,0,0,0,0,0,0,0,0,0,0],"id":31,"left_children":[1,3,5,7,9,11,13,-1,-1,15,17,-1,-1,19,-1,-1,-1,-1,-1,-1,-1],"loss_changes":[1.6527321E2,1.8285797E1,3.779789E0,2.186566E0,5.9946213E0,4.401271E0,2.2337723E-1,0E0,0E0,1.305336E0,5.48708E0,0E0,0E0,1.731648E0,0E0,0E0,0E0,0E0,0E0,0E0,0E0],"parents":[2147483647,0,0,1,1,2,2,3,3,4,4,5,5,6,6,9,9,10,10,13,13],"right_children":[2,4,6,8,10,12,14,-1,-1,16,18,-1,-1,20,-1,-1,-1,-1,-1,-1,-1],"split_conditions":[8.721222E-3,7.78E3,1E0,3.14E2,2E0,7.5E1,9.656784E-3,1.880994E-2,-2.1675859E-2,8.253989E-3,1.4147E4,-2.0158447E-2,3.8532607E-2,9.501317E-3,-2.4181621E-2,5.3085316E-2,2.5385281E-2,-1.9445185E-2,3.343308E-2,-2.2776341E-2,9.528814E-3],"split_indices":[23,19,1,17,1,10,23,0,0,23,19,0,0,23,0,0,0,0,0,0,0],"split_type":[0,0,0,0,0,0,0,0,0,0,0,0,0,0,0,0,0,0,0,0,0],"sum_hessian":[2.8606277E2,1.013664E2,1.8469637E2,9.234459E0,9.213194E1,6.3204937E0,1.7837587E2,2.0282507E0,7.2062087E0,7.34977E1,1.863424E1,3.6040835E0,2.71641E0,1.3689014E1,1.6468686E2,6.779558E1,5.702124E0,3.1810005E0,1.5453239E1,1.0882081E1,2.8069332E0],"tree_param":{"num_deleted":"0","num_feature":"25","num_nodes":"21","size_leaf_vector":"1"}},{"base_weights":[1.1047017E-2,-5.1862055E-1,2.5467518E-1,-5.4478085E-1,2.9485268E-3,-1.4168468E-1,7.650392E-1,-5.8639705E-1,-1.8027842E-1,-3.7606236E-1,2.201216E-1,1.9917352E-1,9.6729237E-1,-9.935914E-3,-2.4122247E-2,-2.1400783E-2,2.0225247E-2,-1.9915892E-2,8.531264E-4,2.301457E-2,-1.9604672E-2,4.501961E-2,-3.0652168E-3,2.2873094E-2,4.4222943E-2],"categories":[],"categories_nodes":[],"categories_segments":[],"categories_sizes":[],"default_left":[0,0,0,0,0,0,0,0,0,0,0,0,0,0,0,0,0,0,0,0,0,0,0,0,0],"id":32,"left_children":[1,3,5,7,-1,9,11,13,15,17,19,21,23,-1,-1,-1,-1,-1,-1,-1,-1,-1,-1,-1,-1],"loss_changes":[3.6516502E1,1.4217625E0,3.9311245E1,1.1913834E0,0E0,9.404404E0,9.520748E0,2.7984428E-1,2.753908E0,3.2583618E0,1.134461E1,6.117367E0,2.7727776E0,0E0,0E0,0E0,0E0,0E0,0E0,0E0,0E0,0E0,0E0,0E0,0E0],"parents":[2147483647,0,0,1,1,2,2,3,3,5,5,6,6,7,7,8,8,9,9,10,10,11,11,12,12],"right_children":[2,4,6,8,-1,10,12,14,16,18,20,22,24,-1,-1,-1,-1,-1,-1,-1,-1,-1,-1,-1,-1],"split_conditions":[9.756312E-3,2.3E1,7.4001E5,8.66675E4,2.9485268E-3,1.2E1,9.24E2,3.25656E5,6.3E1,8.558E3,6E0,7.9417E5,3E0,-9.935914E-3,-2.4122247E-2,-2.1400783E-2,2.0225247E-2,-1.9915892E-2,8.531264E-4,2.301457E-2,-1.9604672E-2,4.501961E-2,-3.0652168E-3,2.2873094E-2,4.4222943E-2],"split_indices":[23,6,15,22,0,6,17,15,10,16,8,15,5,0,0,0,0,0,0,0,0,0,0,0,0],"split_type":[0,0,0,0,0,0,0,0,0,0,0,0,0,0,0,0,0,0,0,0,0,0,0,0,0],"sum_hessian":[2.8095813E2,8.8160736E1,1.927974E2,8.4508705E1,3.6520278E0,1.08925705E2,8.38717E1,7.530247E1,9.206237E0,6.607986E1,4.284585E1,2.2606844E1,6.126485E1,4.2844934E0,7.1017975E1,6.212974E0,2.9932625E0,5.038081E1,1.5699046E1,2.8687176E1,1.4158674E1,4.4798913E0,1.8126953E1,1.7202723E1,4.406213E1],"tree_param":{"num_deleted":"0","num_feature":"25","num_nodes":"25","size_leaf_vector":"1"}},{"base_weights":[-2.7499763E-2,2.4496607E-1,-4.5491427E-1,3.3756614E-1,-3.0030438E-1,4.7074936E-2,-4.8604354E-1,4.541315E-1,-5.647633E-2,-4.1278738E-1,2.5187466E-2,-2.746652E-1,2.4684837E-2,9.802304E-4,-5.0796545E-1,9.599574E-3,3.9860275E-2,1.5125875E-2,-1.8924022E-2,-2.1291735E-2,1.7571049E-2,-6.629155E-4,-1.8113025E-2,-2.1445734E-2,-4.8043323E-3],"categories":[],"categories_nodes":[],"categories_segments":[],"categories_sizes":[],"default_left":[0,0,0,0,0,0,0,0,0,0,0,0,0,0,0,0,0,0,0,0,0,0,0,0,0],"id":33,"left_children":[1,3,5,7,9,11,13,15,17,19,-1,21,-1,-1,23,-1,-1,-1,-1,-1,-1,-1,-1,-1,-1],"loss_changes":[3.5311913E1,9.454622E0,1.8671684E0,7.320566E0,3.1283762E0,1.6006508E0,1.2572403E0,1.4008966E1,6.9051404E0,2.7862344E0,0E0,2.5366843E-1,0E0,0E0,1.1015854E0,0E0,0E0,0E0,0E0,0E0,0E0,0E0,0E0,0E0,0E0],"parents":[2147483647,0,0,1,1,2,2,3,3,4,4,5,5,6,6,7,7,8,8,9,9,11,11,14,14],"right_children":[2,4,6,8,10,12,14,16,18,20,-1,22,-1,-1,24,-1,-1,-1,-1,-1,-1,-1,-1,-1,-1],"split_conditions":[1.24804145E-2,3.647847E6,6E0,1.1333532E-2,8.538157E4,5E0,9.46327E3,4.614818E4,6.084409E4,7.940858E-3,2.5187466E-2,1.0061E6,2.4684837E-2,9.802304E-4,1.073758E6,9.599574E-3,3.9860275E-2,1.5125875E-2,-1.8924022E-2,-2.1291735E-2,1.7571049E-2,-6.629155E-4,-1.8113025E-2,-2.1445734E-2,-4.8043323E-3],"split_indices":[23,18,9,23,22,9,22,22,22,23,0,15,0,0,15,0,0,0,0,0,0,0,0,0,0],"split_type":[0,0,0,0,0,0,0,0,0,0,0,0,0,0,0,0,0,0,0,0,0,0,0,0,0],"sum_hessian":[3.0126453E2,1.842419E2,1.17022644E2,1.57821E2,2.6420893E1,6.8031464E0,1.102195E2,1.2167477E2,3.6146236E1,2.4066208E1,2.3546844E0,4.6799192E0,2.123227E0,4.5328946E0,1.056866E2,8.82673E1,3.3407463E1,1.7736177E1,1.841006E1,2.1435118E1,2.6310894E0,2.3576005E0,2.3223188E0,9.817204E1,7.514554E0],"tree_param":{"num_deleted":"0","num_feature":"25","num_nodes":"25","size_leaf_vector":"1"}},{"base_weights":[1.3519796E-2,5.8627176E-1,-5.9801626E-1,-1.6713229E-1,7.3654985E-1,-2.7987935E-2,-4.441673E-2,-2.8117422E-2,5.413257E-1,-2.3802316E-2,7.734749E-1,4.6620736E-1,-2.6724627E-2,3.8860533E-2,-2.535946E-2,-2.2245312E-2,3.205552E-2,3.5637666E-2,-2.3444938E-2],"categories":[],"categories_nodes":[],"categories_segments":[],"categories_sizes":[],"default_left":[0,0,0,0,0,0,0,0,0,0,0,0,0,0,0,0,0,0,0],"id":34,"left_children":[1,3,5,7,9,-1,11,-1,13,-1,15,17,-1,-1,-1,-1,-1,-1,-1],"loss_changes":[1.3771628E2,2.3108887E1,1.0673538E1,1.3505395E1,8.791702E0,0E0,1.0049286E1,0E0,8.4295845E0,0E0,6.580719E0,8.299832E0,0E0,0E0,0E0,0E0,0E0,0E0,0E0],"parents":[2147483647,0,0,1,1,2,2,3,3,4,4,6,6,8,8,10,10,11,11],"right_children":[2,4,6,8,10,-1,12,-1,14,-1,16,18,-1,-1,-1,-1,-1,-1,-1],"split_conditions":[7.4001E5,2E0,5E0,5.380813E4,1E0,-2.7987935E-2,2E0,-2.8117422E-2,5.2016E5,-2.3802316E-2,9.230112E-3,9.49441E5,-2.6724627E-2,3.8860533E-2,-2.535946E-2,-2.2245312E-2,3.205552E-2,3.5637666E-2,-2.3444938E-2],"split_indices":[15,1,0,22,0,0,8,0,15,0,23,15,0,0,0,0,0,0,0],"split_type":[0,0,0,0,0,0,0,0,0,0,0,0,0,0,0,0,0,0,0],"sum_hessian":[3.9118372E2,2.020186E2,1.8916512E2,3.3576088E1,1.6844252E2,1.5958882E2,2.9576292E1,1.9122004E1,1.44540825E1,4.136998E0,1.6430551E2,1.6401142E1,1.3175149E1,1.0708103E1,3.7459798E0,2.989312E0,1.6131621E2,1.1794211E1,4.6069317E0],"tree_param":{"num_deleted":"0","num_feature":"25","num_nodes":"19","size_leaf_vector":"1"}},{"base_weights":[-1.4800541E-2,9.4744587E-1,-5.480947E-1,1.1280233E0,-2.147493E-2,-8.60623E-2,-2.4049558E-2,-2.0623477E-1,1.2446277E0,-2.4080448E-2,4.6403855E-2,-2.3154987E-2,7.9788876E-1,-2.0500228E-2,1.8736104E-2,5.3043E-2,2.0075917E-2,7.327174E-3,4.594901E-2],"categories":[],"categories_nodes":[],"categories_segments":[],"categories_sizes":[],"default_left":[0,0,0,0,0,0,0,0,0,0,0,0,0,0,0,0,0,0,0],"id":35,"left_children":[1,3,5,7,9,11,-1,13,15,-1,-1,-1,17,-1,-1,-1,-1,-1,-1],"loss_changes":[1.524255E2,1.855732E1,4.6405144E0,1.4150505E1,1.2785597E1,9.557694E0,0E0,1.9002795E0,4.3111115E0,0E0,0E0,0E0,1.4921198E0,0E0,0E0,0E0,0E0,0E0,0E0],"parents":[2147483647,0,0,1,1,2,2,3,3,4,4,5,5,7,7,8,8,12,12],"right_children":[2,4,6,8,10,12,-1,14,16,-1,-1,-1,18,-1,-1,-1,-1,-1,-1],"split_conditions":[8.832602E-3,6.221441E4,9.77247E-3,7.722E3,6.379969E6,9.585238E-3,-2.4049558E-2,8.237585E-3,8.253989E-3,-2.4080448E-2,4.6403855E-2,-2.3154987E-2,6.3E1,-2.0500228E-2,1.8736104E-2,5.3043E-2,2.0075917E-2,7.327174E-3,4.594901E-2],"split_indices":[23,22,23,19,15,23,0,23,23,0,0,0,10,0,0,0,0,0,0],"split_type":[0,0,0,0,0,0,0,0,0,0,0,0,0,0,0,0,0,0,0],"sum_hessian":[2.9502094E2,1.0492446E2,1.9009648E2,8.8303215E1,1.6621246E1,1.9880068E1,1.7021642E2,7.0350685E0,8.126815E1,1.1474185E1,5.1470613E0,1.2985588E1,6.8944793E0,5.0037823E0,2.031286E0,7.252922E1,8.73893E0,3.058219E0,3.8362603E0],"tree_param":{"num_deleted":"0","num_feature":"25","num_nodes":"19","size_leaf_vector":"1"}},{"base_weights":[-6.287419E-3,-4.1297573E-1,2.3103185E-1,-5.277489E-1,-1.7950842E-1,4.1063413E-1,-4.633136E-1,-5.5857277E-1,-1.6257618E-1,4.7421762E-1,-3.7281418E-1,-5.0045675E-1,5.305565E-1,-5.5414367E-1,1.8851787E-2,-7.862845E-3,-2.3068083E-2,-1.9587722E-2,1.644129E-2,-8.472389E-3,4.107705E-2,5.562245E-3,-2.1134159E-2,-2.2523157E-2,-4.1975194E-4,1.6548932E-2,4.0920213E-2,-2.3544494E-2,-9.634843E-3],"categories":[],"categories_nodes":[],"categories_segments":[],"categories_sizes":[],"default_left":[0,0,0,0,0,0,0,0,0,0,0,0,0,0,0,0,0,0,0,0,0,0,0,0,0,0,0,0,0],"id":36,"left_children":[1,3,5,7,9,11,13,15,17,19,21,23,25,27,-1,-1,-1,-1,-1,-1,-1,-1,-1,-1,-1,-1,-1,-1,-1],"loss_changes":[2.8353388E1,2.8059235E0,2.3327316E1,7.202759E-1,4.8767996E0,1.6428894E1,3.5377817E0,3.2003784E-1,1.5183872E0,3.6028059E0,2.4034085E0,5.378356E-1,7.1260185E0,2.4305153E-1,0E0,0E0,0E0,0E0,0E0,0E0,0E0,0E0,0E0,0E0,0E0,0E0,0E0,0E0,0E0],"parents":[2147483647,0,0,1,1,2,2,3,3,4,4,5,5,6,6,7,7,8,8,9,9,10,10,11,11,12,12,13,13],"right_children":[2,4,6,8,10,12,14,16,18,20,22,24,26,28,-1,-1,-1,-1,-1,-1,-1,-1,-1,-1,-1,-1,-1,-1,-1],"split_conditions":[9.104E3,1.4E1,2.434012E6,6.44571E3,6.66E3,1E0,1.8242873E-1,2.30609E3,9.5481835E-2,2E0,2E0,1.324E3,1.872E4,2.2E1,1.8851787E-2,-7.862845E-3,-2.3068083E-2,-1.9587722E-2,1.644129E-2,-8.472389E-3,4.107705E-2,5.562245E-3,-2.1134159E-2,-2.2523157E-2,-4.1975194E-4,1.6548932E-2,4.0920213E-2,-2.3544494E-2,-9.634843E-3],"split_indices":[19,6,18,21,19,1,24,21,24,1,0,20,19,6,0,0,0,0,0,0,0,0,0,0,0,0,0,0,0],"split_type":[0,0,0,0,0,0,0,0,0,0,0,0,0,0,0,0,0,0,0,0,0,0,0,0,0,0,0,0,0],"sum_hessian":[2.9178336E2,1.0725053E2,1.8453282E2,7.105783E1,3.61927E1,1.4693468E2,3.7598133E1,6.503838E1,6.0194454E0,7.928091E0,2.8264606E1,1.672163E1,1.3021306E2,3.4638836E1,2.9592974E0,3.666643E0,6.1371742E1,3.9265246E0,2.0929208E0,3.812615E0,4.115476E0,6.6117587E0,2.1652847E1,1.4694322E1,2.0273082E0,1.0673126E2,2.348179E1,3.0413582E1,4.225255E0],"tree_param":{"num_deleted":"0","num_feature":"25","num_nodes":"29","size_leaf_vector":"1"}},{"base_weights":[5.21161E-4,2.6799285E-1,-4.4682086E-1,7.188874E-1,1.5561453E-1,-3.7223384E-2,-5.11603E-1,1.0700469E0,-2.1367335E-1,-1.7678759E-1,3.9438853E-1,3.0791802E-2,-2.5227952E-1,-5.2595376E-3,-5.2776927E-1,-4.1854493E-3,4.7027387E-2,5.690895E-3,-2.0547934E-2,-1.7798485E-2,4.591744E-2,2.8675854E-2,1.6107532E-3,-2.1438433E-2,2.3110851E-3,-2.1788409E-2,-6.561282E-3],"categories":[],"categories_nodes":[],"categories_segments":[],"categories_sizes":[],"default_left":[0,0,0,0,0,0,0,0,0,0,0,0,0,0,0,0,0,0,0,0,0,0,0,0,0,0,0],"id":37,"left_children":[1,3,5,7,9,11,13,15,17,19,21,-1,23,-1,25,-1,-1,-1,-1,-1,-1,-1,-1,-1,-1,-1,-1],"loss_changes":[3.4202766E1,8.952656E0,2.8191566E0,1.182597E1,1.1536674E1,2.9164755E0,4.9765015E-1,3.336115E0,1.1966529E0,2.2212494E1,9.608912E0,0E0,1.1865666E0,0E0,4.5401955E-1,0E0,0E0,0E0,0E0,0E0,0E0,0E0,0E0,0E0,0E0,0E0,0E0],"parents":[2147483647,0,0,1,1,2,2,3,3,4,4,5,5,6,6,7,7,8,8,9,9,10,10,12,12,14,14],"right_children":[2,4,6,8,10,12,14,16,18,20,22,-1,24,-1,26,-1,-1,-1,-1,-1,-1,-1,-1,-1,-1,-1,-1],"split_conditions":[1.24804145E-2,7.889E3,2E0,3E0,8.1314435E-3,2E0,9.32164E3,2.19E2,6.4E1,7.644206E4,1.0686182E-2,3.0791802E-2,3.58959E3,-5.2595376E-3,4.429E3,-4.1854493E-3,4.7027387E-2,5.690895E-3,-2.0547934E-2,-1.7798485E-2,4.591744E-2,2.8675854E-2,1.6107532E-3,-2.1438433E-2,2.3110851E-3,-2.1788409E-2,-6.561282E-3],"split_indices":[23,19,1,1,23,4,22,17,10,22,23,0,21,0,20,0,0,0,0,0,0,0,0,0,0,0,0],"split_type":[0,0,0,0,0,0,0,0,0,0,0,0,0,0,0,0,0,0,0,0,0,0,0,0,0,0,0],"sum_hessian":[2.838528E2,1.778906E2,1.0596221E2,3.441412E1,1.4347649E2,1.4685422E1,9.127679E1,2.4893097E1,9.521025E0,6.0087315E1,8.338917E1,2.5472224E0,1.21382E1,4.0962367E0,8.718055E1,2.054684E0,2.2838413E1,4.595171E0,4.9258533E0,5.0523537E1,9.563781E0,4.3106388E1,4.0282776E1,5.9582267E0,6.179973E0,8.2825455E1,4.3551006E0],"tree_param":{"num_deleted":"0","num_feature":"25","num_nodes":"27","size_leaf_vector":"1"}},{"base_weights":[-8.400777E-3,5.7036537E-1,-5.8969975E-1,-4.993195E-2,7.5303465E-1,-2.7667847E-2,2.1075157E-2,-2.7447442E-2,4.6922675E-1,8.732884E-1,2.5045308E-1,5.7536125E-1,-2.5888955E-2,3.127212E-2,-2.4954852E-2,3.5871964E-2,1.8489974E-2,-2.8763248E-2,2.881437E-2,-2.3118215E-2,3.9980687E-2],"categories":[],"categories_nodes":[],"categories_segments":[],"categories_sizes":[],"default_left":[0,0,0,0,0,0,0,0,0,0,0,0,0,0,0,0,0,0,0,0,0],"id":38,"left_children":[1,3,5,7,9,-1,11,-1,13,15,17,19,-1,-1,-1,-1,-1,-1,-1,-1,-1],"loss_changes":[1.26759186E2,2.1430843E1,1.1724312E1,1.4819384E1,8.599953E0,0E0,1.0695569E1,0E0,8.948534E0,7.1941376E-1,1.3991855E1,8.288674E0,0E0,0E0,0E0,0E0,0E0,0E0,0E0,0E0,0E0],"parents":[2147483647,0,0,1,1,2,2,3,3,4,4,6,6,8,8,9,9,10,10,11,11],"right_children":[2,4,6,8,10,-1,12,-1,14,16,18,20,-1,-1,-1,-1,-1,-1,-1,-1,-1],"split_conditions":[7.4001E5,4E0,5E0,1.033411E-1,8.455E3,-2.7667847E-2,9.49441E5,-2.7447442E-2,4.05549E3,7.60868E5,1.0912E4,8.60784E5,-2.5888955E-2,3.127212E-2,-2.4954852E-2,3.5871964E-2,1.8489974E-2,-2.8763248E-2,2.881437E-2,-2.3118215E-2,3.9980687E-2],"split_indices":[15,0,0,24,16,0,15,0,21,18,16,15,0,0,0,0,0,0,0,0,0],"split_type":[0,0,0,0,0,0,0,0,0,0,0,0,0,0,0,0,0,0,0,0,0],"sum_hessian":[3.7477072E2,1.8780391E2,1.869668E2,4.2889393E1,1.4491452E2,1.6009862E2,2.6868185E1,1.9126822E1,2.3762571E1,1.1634E2,2.8574516E1,1.4762915E1,1.210527E1,1.8700005E1,5.062567E0,1.0892773E2,7.4122705E0,9.155063E0,1.9419455E1,3.8720026E0,1.0890912E1],"tree_param":{"num_deleted":"0","num_feature":"25","num_nodes":"21","size_leaf_vector":"1"}},{"base_weights":[1.372047E-2,-4.380532E-1,7.309158E-1,5.9044784E-1,-5.639017E-1,9.3160313E-1,-2.2901442E-2,-2.0665266E-2,1.0065135E0,1.4125358E-2,-5.807382E-1,1.016284E0,-2.1933466E-2,1.0340066E-2,4.5877457E-2,-1.0960548E-3,-2.3908844E-2,4.338585E-2,-1.9112453E-2],"categories":[],"categories_nodes":[],"categories_segments":[],"categories_sizes":[],"default_left":[0,0,0,0,0,0,0,0,0,0,0,0,0,0,0,0,0,0,0],"id":39,"left_children":[1,3,5,7,9,11,-1,-1,13,-1,15,17,-1,-1,-1,-1,-1,-1,-1],"loss_changes":[9.1197296E1,2.2687138E1,2.8986378E1,9.417772E0,2.5887756E0,1.2417679E1,0E0,0E0,1.213913E0,0E0,1.41185E0,9.697273E0,0E0,0E0,0E0,0E0,0E0,0E0,0E0],"parents":[2147483647,0,0,1,1,2,2,3,3,4,4,5,5,8,8,10,10,11,11],"right_children":[2,4,6,8,10,12,-1,-1,14,-1,16,18,-1,-1,-1,-1,-1,-1,-1],"split_conditions":[1.414171E6,1E0,4E0,7.722E3,2E0,9.102138E4,-2.2901442E-2,-2.0665266E-2,4.32901E3,1.4125358E-2,2E0,3E0,-2.1933466E-2,1.0340066E-2,4.5877457E-2,-1.0960548E-3,-2.3908844E-2,4.338585E-2,-1.9112453E-2],"split_indices":[18,1,0,19,6,22,0,0,21,0,7,1,0,0,0,0,0,0,0],"split_type":[0,0,0,0,0,0,0,0,0,0,0,0,0,0,0,0,0,0,0],"sum_hessian":[2.7947635E2,1.7170538E2,1.0777096E2,1.8317045E1,1.5338834E2,9.363901E1,1.4131953E1,4.9374986E0,1.3379545E1,2.405276E0,1.5098306E2,8.8867386E1,4.771622E0,2.5637448E0,1.0815801E1,4.5737853E0,1.4640927E2,8.524123E1,3.626161E0],"tree_param":{"num_deleted":"0","num_feature":"25","num_nodes":"19","size_leaf_vector":"1"}},{"base_weights":[-1.7741958E-2,-2.6648477E-1,2.7992922E-1,-3.2510084E-1,1.0001867E0,-3.7341428E-1,5.131218E-1,-3.53437E-1,3.5132654E-2,4.7473174E-2,1.5139644E-2,-4.6944898E-1,2.1673033E-2,7.0516884E-1,-3.2237545E-2,-1.924103E-2,-5.541501E-3,-3.3519561E-3,-2.1530194E-2,3.6993053E-2,-1.2084644E-3,-1.0600358E-2,2.3213772E-2],"categories":[],"categories_nodes":[],"categories_segments":[],"categories_sizes":[],"default_left":[0,0,0,0,0,0,0,0,0,0,0,0,0,0,0,0,0,0,0,0,0,0,0],"id":40,"left_children":[1,3,5,7,9,11,13,15,-1,-1,-1,17,-1,19,21,-1,-1,-1,-1,-1,-1,-1,-1],"loss_changes":[2.1652103E1,1.2150373E1,2.0477428E1,5.527029E0,3.9663887E-1,3.3835816E0,1.0343983E1,4.050892E0,0E0,0E0,0E0,8.2409525E-1,0E0,1.1807697E1,3.9497778E0,0E0,0E0,0E0,0E0,0E0,0E0,0E0,0E0],"parents":[2147483647,0,0,1,1,2,2,3,3,4,4,5,5,6,6,7,7,11,11,13,13,14,14],"right_children":[2,4,6,8,10,12,14,16,-1,-1,-1,18,-1,20,22,-1,-1,-1,-1,-1,-1,-1,-1],"split_conditions":[9.086716E-2,1.4440892E5,8.561E3,3E1,1.986182E6,6.44571E3,1.664928E6,1.2E1,3.5132654E-2,4.7473174E-2,1.5139644E-2,6E0,2.1673033E-2,6E0,1.1440072E-1,-1.924103E-2,-5.541501E-3,-3.3519561E-3,-2.1530194E-2,3.6993053E-2,-1.2084644E-3,-1.0600358E-2,2.3213772E-2],"split_indices":[24,22,19,9,15,21,18,6,0,0,0,5,0,8,24,0,0,0,0,0,0,0,0],"split_type":[0,0,0,0,0,0,0,0,0,0,0,0,0,0,0,0,0,0,0,0,0,0,0],"sum_hessian":[2.904164E2,1.5826788E2,1.3214853E2,1.5197832E2,6.289557E0,3.4601894E1,9.754663E1,1.4917215E2,2.8061678E0,4.1381884E0,2.1513684E0,3.1756783E1,2.8451138E0,7.192527E1,2.5621365E1,9.282332E1,5.6348835E1,5.1438584E0,2.6612925E1,5.518418E1,1.6741085E1,1.8977575E1,6.6437883E0],"tree_param":{"num_deleted":"0","num_feature":"25","num_nodes":"23","size_leaf_vector":"1"}},{"base_weights":[2.487517E-3,2.664744E-1,-3.9256003E-1,1.0521795E0,1.4239392E-1,2.508836E-1,-4.6635714E-1,5.8246917E-1,5.1814307E-2,4.289802E-2,5.0708573E-2,-1.841544E-2,4.6557933E-1,-4.8766506E-1,1.2362174E-2,9.609019E-4,3.650539E-2,-1.1120947E-2,7.584677E-3,3.7249383E-2,2.5939085E-3,-2.1487577E-2,-1.2858477E-2],"categories":[],"categories_nodes":[],"categories_segments":[],"categories_sizes":[],"default_left":[0,0,0,0,0,0,0,0,0,0,0,0,0,0,0,0,0,0,0,0,0,0,0],"id":41,"left_children":[1,3,5,7,9,11,13,15,-1,17,-1,-1,19,21,-1,-1,-1,-1,-1,-1,-1,-1,-1],"loss_changes":[2.9606417E1,1.6440088E1,5.5169296E0,1.8785591E0,1.652954E1,2.1004138E0,1.842102E0,1.7629564E0,0E0,6.509067E0,0E0,0E0,1.8027327E0,6.505852E-1,0E0,0E0,0E0,0E0,0E0,0E0,0E0,0E0,0E0],"parents":[2147483647,0,0,1,1,2,2,3,3,4,4,5,5,6,6,7,7,9,9,12,12,13,13],"right_children":[2,4,6,8,10,12,14,16,-1,18,-1,-1,20,22,-1,-1,-1,-1,-1,-1,-1,-1,-1],"split_conditions":[3E0,6.735E3,2E0,7.063366E-2,9.240443E4,3.69794E3,2.499E4,5E0,5.1814307E-2,1E0,5.0708573E-2,-1.841544E-2,1.2699E4,2.0408452E-1,1.2362174E-2,9.609019E-4,3.650539E-2,-1.1120947E-2,7.584677E-3,3.7249383E-2,2.5939085E-3,-2.1487577E-2,-1.2858477E-2],"split_indices":[1,16,0,24,22,21,16,5,0,1,0,0,19,24,0,0,0,0,0,0,0,0,0],"split_type":[0,0,0,0,0,0,0,0,0,0,0,0,0,0,0,0,0,0,0,0,0,0,0],"sum_hessian":[2.818896E2,1.6916925E2,1.1272033E2,2.2051905E1,1.4711734E2,1.135093E1,1.013694E2,8.6804495E0,1.3371456E1,1.361203E2,1.0997039E1,2.3665094E0,8.984421E0,9.9019485E1,2.349917E0,3.623824E0,5.0566254E0,4.2425995E1,9.3694305E1,3.543265E0,5.4411554E0,7.4567986E1,2.4451502E1],"tree_param":{"num_deleted":"0","num_feature":"25","num_nodes":"23","size_leaf_vector":"1"}},{"base_weights":[1.9059544E-2,5.5768675E-1,-5.808036E-1,-2.5508156E-2,6.145941E-1,-2.7385555E-2,-9.912265E-2,3.016176E-1,7.963655E-1,5.895764E-1,-2.6206918E-2,-1.7247654E-2,3.5463896E-2,2.4151696E-2,3.6638685E-2,-2.2445792E-2,3.8992178E-2],"categories":[],"categories_nodes":[],"categories_segments":[],"categories_sizes":[],"default_left":[0,0,0,0,0,0,0,0,0,0,0,0,0,0,0,0,0],"id":42,"left_children":[1,3,5,-1,7,-1,9,11,13,15,-1,-1,-1,-1,-1,-1,-1],"loss_changes":[1.24256096E2,1.4174789E1,9.032906E0,0E0,1.0791512E1,0E0,1.3191341E1,3.1612995E1,2.2582092E0,7.4018636E0,0E0,0E0,0E0,0E0,0E0,0E0,0E0],"parents":[2147483647,0,0,1,1,2,2,4,4,6,6,7,7,8,8,9,9],"right_children":[2,4,6,-1,8,-1,10,12,14,16,-1,-1,-1,-1,-1,-1,-1],"split_conditions":[7.4001E5,9.230112E-3,8.232762E4,-2.5508156E-2,2.305102E4,-2.7385555E-2,9.49441E5,1.730716E-2,1.3108066E-2,8.56306E5,-2.6206918E-2,-1.7247654E-2,3.5463896E-2,2.4151696E-2,3.6638685E-2,-2.2445792E-2,3.8992178E-2],"split_indices":[15,23,22,0,22,0,15,23,23,15,0,0,0,0,0,0,0],"split_type":[0,0,0,0,0,0,0,0,0,0,0,0,0,0,0,0,0],"sum_hessian":[3.8256912E2,2.0161021E2,1.8095891E2,8.697853E0,1.9291237E2,1.4852106E2,3.2437847E1,7.185345E1,1.2105892E2,1.44635935E1,1.7974255E1,3.2013176E1,3.984027E1,4.869787E1,7.236105E1,3.5130491E0,1.0950544E1],"tree_param":{"num_deleted":"0","num_feature":"25","num_nodes":"17","size_leaf_vector":"1"}},{"base_weights":[2.3888273E-2,8.8018703E-1,-5.6396866E-1,1.0912715E0,6.657208E-2,-1.8136224E-1,-2.381114E-2,1.1343356E0,-1.7803162E-2,-2.239408E-2,5.915118E-1,-2.2620508E-2,3.5647757E-2,4.7765687E-2,1.6266936E-2,3.479469E-2,-1.8670425E-2],"categories":[],"categories_nodes":[],"categories_segments":[],"categories_sizes":[],"default_left":[0,0,0,0,0,0,0,0,0,0,0,0,0,0,0,0,0],"id":43,"left_children":[1,3,5,7,9,11,-1,13,-1,-1,15,-1,-1,-1,-1,-1,-1],"loss_changes":[1.3210721E2,1.827237E1,1.7564507E0,6.111969E0,7.9170594E0,5.9471803E0,0E0,3.1142578E0,0E0,0E0,4.2465377E0,0E0,0E0,0E0,0E0,0E0,0E0],"parents":[2147483647,0,0,1,1,2,2,3,3,4,4,5,5,7,7,10,10],"right_children":[2,4,6,8,10,12,-1,14,-1,-1,16,-1,-1,-1,-1,-1,-1],"split_conditions":[8.832602E-3,9.193887E-2,9.656784E-3,9.102138E4,1.324E3,9.585238E-3,-2.381114E-2,2E0,-1.7803162E-2,-2.239408E-2,8.538157E4,-2.2620508E-2,3.5647757E-2,4.7765687E-2,1.6266936E-2,3.479469E-2,-1.8670425E-2],"split_indices":[23,24,23,22,20,23,0,1,0,0,22,0,0,0,0,0,0],"split_type":[0,0,0,0,0,0,0,0,0,0,0,0,0,0,0,0,0],"sum_hessian":[2.6045358E2,1.0581762E2,1.5463596E2,8.37486E1,2.2069025E1,1.2210912E1,1.4242505E2,8.171965E1,2.0289416E0,1.0031578E1,1.2037447E1,9.338828E0,2.8720841E0,7.492084E1,6.798814E0,9.671579E0,2.3658674E0],"tree_param":{"num_deleted":"0","num_feature":"25","num_nodes":"17","size_leaf_vector":"1"}},{"base_weights":[2.8699607E-2,-3.6759415E-1,2.161021E-1,-1.7251769E-1,-4.782744E-1,-2.915686E-1,5.253385E-1,-3.8170886E-1,4.267098E-1,-5.104208E-1,-2.6624888E-1,-4.9432775E-1,1.8918088E-1,2.5206536E-1,8.145264E-1,-2.0765776E-2,1.0894866E-2,3.1939875E-2,-1.7295036E-2,-2.1279769E-2,-7.500679E-3,-2.0678759E-2,1.6563056E-2,-4.3297503E-3,-2.3493769E-2,2.9281288E-2,-1.4159575E-2,1.9904114E-2,-7.37191E-3,4.5723293E-2,1.4524443E-2],"categories":[],"categories_nodes":[],"categories_segments":[],"categories_sizes":[],"default_left":[0,0,0,0,0,0,0,0,0,0,0,0,0,0,0,0,0,0,0,0,0,0,0,0,0,0,0,0,0,0,0],"id":44,"left_children":[1,3,5,7,9,11,13,15,17,19,21,23,25,27,29,-1,-1,-1,-1,-1,-1,-1,-1,-1,-1,-1,-1,-1,-1,-1,-1],"loss_changes":[2.0801764E1,1.8597183E0,2.9992584E1,4.4407887E0,2.5143433E-1,7.1697025E0,9.157673E0,2.4628055E0,3.3166137E0,2.3640156E-1,1.8467908E0,1.7800131E0,6.8220825E0,6.773524E0,8.055904E0,0E0,0E0,0E0,0E0,0E0,0E0,0E0,0E0,0E0,0E0,0E0,0E0,0E0,0E0,0E0,0E0],"parents":[2147483647,0,0,1,1,2,2,3,3,4,4,5,5,6,6,7,7,8,8,9,9,10,10,11,11,12,12,13,13,14,14],"right_children":[2,4,6,8,10,12,14,16,18,20,22,24,26,28,30,-1,-1,-1,-1,-1,-1,-1,-1,-1,-1,-1,-1,-1,-1,-1,-1],"split_conditions":[7.7E3,6.082E3,3.6E2,1.4E1,7.5E1,9.086716E-2,1.1E1,1E0,5.34612E5,1.686E3,4E0,1.244159E6,1.411063E6,5E0,5.1E1,-2.0765776E-2,1.0894866E-2,3.1939875E-2,-1.7295036E-2,-2.1279769E-2,-7.500679E-3,-2.0678759E-2,1.6563056E-2,-4.3297503E-3,-2.3493769E-2,2.9281288E-2,-1.4159575E-2,1.9904114E-2,-7.37191E-3,4.5723293E-2,1.4524443E-2],"split_indices":[16,16,2,6,10,24,6,11,15,20,8,18,15,4,10,0,0,0,0,0,0,0,0,0,0,0,0,0,0,0,0],"split_type":[0,0,0,0,0,0,0,0,0,0,0,0,0,0,0,0,0,0,0,0,0,0,0,0,0,0,0,0,0,0,0],"sum_hessian":[2.780268E2,8.895504E1,1.8907176E2,3.3126877E1,5.5828163E1,7.1593864E1,1.1747789E2,2.4823837E1,8.303039E0,4.7256054E1,8.572109E0,5.0336067E1,2.12578E1,6.1363247E1,5.6114643E1,2.0684008E1,4.139829E0,5.8443165E0,2.4587219E0,4.3689587E1,3.5664651E0,6.4391913E0,2.1329184E0,1.0192734E1,4.0143333E1,1.04581175E1,1.0799682E1,3.9177876E1,2.2185371E1,3.1590063E1,2.4524582E1],"tree_param":{"num_deleted":"0","num_feature":"25","num_nodes":"31","size_leaf_vector":"1"}},{"base_weights":[2.2107078E-2,3.424264E-1,-3.321746E-1,5.79455E-1,1.1021306E-2,8.434254E-2,-4.5512012E-1,6.7536944E-1,-2.7553895E-1,-1.5866363E-1,5.14632E-1,3.8368708E-1,-4.3714103E-1,-2.889383E-1,-4.9934962E-1,1.0361064E-3,3.126892E-2,-1.9232215E-2,-2.2069763E-3,-1.3079363E-2,8.47499E-3,3.16151E-2,-3.8733392E-3,2.489159E-2,-1.5392972E-2,-2.116722E-2,-8.871328E-3,2.6083589E-2,-1.6844561E-2,-2.2764243E-2,-1.2685884E-2],"categories":[],"categories_nodes":[],"categories_segments":[],"categories_sizes":[],"default_left":[0,0,0,0,0,0,0,0,0,0,0,0,0,0,0,0,0,0,0,0,0,0,0,0,0,0,0,0,0,0,0],"id":45,"left_children":[1,3,5,7,9,11,13,15,17,19,21,23,25,27,29,-1,-1,-1,-1,-1,-1,-1,-1,-1,-1,-1,-1,-1,-1,-1,-1],"loss_changes":[3.1165197E1,1.1320156E1,6.717596E0,7.0783806E0,5.3067946E0,4.9396887E0,5.97065E-1,5.2195206E0,3.8905972E-1,2.9694076E0,2.714499E0,3.8983507E0,1.1287475E-1,3.2068582E0,8.1451607E-1,0E0,0E0,0E0,0E0,0E0,0E0,0E0,0E0,0E0,0E0,0E0,0E0,0E0,0E0,0E0,0E0],"parents":[2147483647,0,0,1,1,2,2,3,3,4,4,5,5,6,6,7,7,8,8,9,9,10,10,11,11,12,12,13,13,14,14],"right_children":[2,4,6,8,10,12,14,16,18,20,22,24,26,28,30,-1,-1,-1,-1,-1,-1,-1,-1,-1,-1,-1,-1,-1,-1,-1,-1],"split_conditions":[1.1333532E-2,1.859934E6,2E0,1.2359226E-1,8.444031E-3,8.2E1,1.2443946E-2,5.407505E-2,4E0,2E0,3E0,1.4526081E-2,1E0,6.89071E5,2.0408452E-1,1.0361064E-3,3.126892E-2,-1.9232215E-2,-2.2069763E-3,-1.3079363E-2,8.47499E-3,3.16151E-2,-3.8733392E-3,2.489159E-2,-1.5392972E-2,-2.116722E-2,-8.871328E-3,2.6083589E-2,-1.6844561E-2,-2.2764243E-2,-1.2685884E-2],"split_indices":[23,18,1,24,23,10,23,24,7,1,1,23,12,18,24,0,0,0,0,0,0,0,0,0,0,0,0,0,0,0,0],"split_type":[0,0,0,0,0,0,0,0,0,0,0,0,0,0,0,0,0,0,0,0,0,0,0,0,0,0,0,0,0,0,0],"sum_hessian":[2.726214E2,1.4319075E2,1.2943065E2,8.304591E1,6.014484E1,2.9569277E1,9.9861374E1,7.485829E1,8.187623E0,4.5499374E1,1.4645463E1,1.895365E1,1.0615626E1,2.2574766E1,7.7286606E1,1.0708505E1,6.414979E1,3.6271343E0,4.560488E0,3.1367807E1,1.4131569E1,9.891992E0,4.753472E0,1.4608392E1,4.345258E0,6.416242E0,4.1993847E0,2.2958562E0,2.027891E1,5.435373E1,2.2932878E1],"tree_param":{"num_deleted":"0","num_feature":"25","num_nodes":"31","size_leaf_vector":"1"}},{"base_weights":[1.910679E-2,-6.212215E-1,4.5944986E-1,3.131028E-2,-2.7284116E-2,6.2846464E-1,-2.6447875E-2,8.2684517E-1,4.0797895E-1,2.4355382E-2,3.5861406E-2,2.020314E-2,-2.6731499E-2],"categories":[],"categories_nodes":[],"categories_segments":[],"categories_sizes":[],"default_left":[0,0,0,0,0,0,0,0,0,0,0,0,0],"id":46,"left_children":[1,3,5,-1,-1,7,-1,9,11,-1,-1,-1,-1],"loss_changes":[1.0388354E2,1.3367043E1,4.175889E1,0E0,0E0,7.9813995E0,0E0,9.599762E-1,9.957055E0,0E0,0E0,0E0,0E0],"parents":[2147483647,0,0,1,1,2,2,5,5,7,7,8,8],"right_children":[2,4,6,-1,-1,8,-1,10,12,-1,-1,-1,-1],"split_conditions":[4E0,2.64061E5,9.49441E5,3.131028E-2,-2.7284116E-2,7.7E3,-2.6447875E-2,7.077E3,1.8E1,2.4355382E-2,3.5861406E-2,2.020314E-2,-2.6731499E-2],"split_indices":[0,15,15,0,0,16,0,19,6,0,0,0,0],"split_type":[0,0,0,0,0,0,0,0,0,0,0,0,0],"sum_hessian":[3.6641595E2,1.4913678E2,2.1727917E2,5.705523E0,1.4343126E2,1.891856E2,2.809358E1,9.813719E1,9.104839E1,2.6135033E1,7.200216E1,8.4000656E1,7.0477347E0],"tree_param":{"num_deleted":"0","num_feature":"25","num_nodes":"13","size_leaf_vector":"1"}},{"base_weights":[-4.7461126E-2,8.143157E-1,-5.637991E-1,-2.1570174E-2,9.3195117E-1,-2.5242874E-1,-2.370598E-2,1.0429709E0,-2.2178251E-2,-2.2801932E-2,3.2607578E-2,4.4739928E-2,1.9272355E-2],"categories":[],"categories_nodes":[],"categories_segments":[],"categories_sizes":[],"default_left":[0,0,0,0,0,0,0,0,0,0,0,0,0],"id":47,"left_children":[1,3,5,-1,7,9,-1,11,-1,-1,-1,-1,-1],"loss_changes":[1.1869197E2,1.6419449E1,1.3483315E0,0E0,1.5815712E1,5.8502464E0,0E0,3.1173325E0,0E0,0E0,0E0,0E0,0E0],"parents":[2147483647,0,0,1,1,2,2,4,4,5,5,7,7],"right_children":[2,4,6,-1,8,10,-1,12,-1,-1,-1,-1,-1],"split_conditions":[8.832602E-3,7.78E3,9.656784E-3,-2.1570174E-2,9.102138E4,9.585238E-3,-2.370598E-2,8.253989E-3,-2.2178251E-2,-2.2801932E-2,3.2607578E-2,4.4739928E-2,1.9272355E-2],"split_indices":[23,19,23,0,22,23,0,23,0,0,0,0,0],"split_type":[0,0,0,0,0,0,0,0,0,0,0,0,0],"sum_hessian":[2.647109E2,9.896295E1,1.6574796E2,7.6263533E0,9.133659E1,1.4882055E1,1.5086589E2,8.526638E1,6.070215E0,1.182896E1,3.053095E0,7.427628E1,1.0990094E1],"tree_param":{"num_deleted":"0","num_feature":"25","num_nodes":"13","size_leaf_vector":"1"}},{"base_weights":[-3.0903308E-2,-2.6782095E-1,2.4261384E-1,-3.9718744E-1,9.799478E-2,-3.3187225E-1,4.4750807E-1,9.99255E-3,-4.6714854E-1,9.6752435E-1,-7.42419E-2,-4.8326465E-1,1.3773204E-1,6.3048303E-1,-5.341513E-2,-1.3093382E-2,2.3509754E-2,-2.206136E-2,-1.248311E-2,5.385101E-2,9.782376E-3,-1.4619684E-2,3.0093536E-2,-2.2751028E-2,-7.474617E-3,2.961639E-2,-1.9783285E-2,3.3463545E-2,-5.275373E-3,-9.976161E-3,2.5644388E-2],"categories":[],"categories_nodes":[],"categories_segments":[],"categories_sizes":[],"default_left":[0,0,0,0,0,0,0,0,0,0,0,0,0,0,0,0,0,0,0,0,0,0,0,0,0,0,0,0,0,0,0],"id":48,"left_children":[1,3,5,7,9,11,13,15,17,19,21,23,25,27,29,-1,-1,-1,-1,-1,-1,-1,-1,-1,-1,-1,-1,-1,-1,-1,-1],"loss_changes":[1.8548248E1,7.294531E0,1.5793712E1,3.2367935E0,6.1906466E0,2.5915914E0,9.052467E0,3.6254532E0,1.0951672E0,1.539895E0,8.708173E0,5.800643E-1,3.9623702E0,1.1447111E1,3.8688624E0,0E0,0E0,0E0,0E0,0E0,0E0,0E0,0E0,0E0,0E0,0E0,0E0,0E0,0E0,0E0,0E0],"parents":[2147483647,0,0,1,1,2,2,3,3,4,4,5,5,6,6,7,7,8,8,9,9,10,10,11,11,12,12,13,13,14,14],"right_children":[2,4,6,8,10,12,14,16,18,20,22,24,26,28,30,-1,-1,-1,-1,-1,-1,-1,-1,-1,-1,-1,-1,-1,-1,-1,-1],"split_conditions":[9.086716E-2,7.761263E4,7.7E3,3.39462E3,3E0,6E0,1.664928E6,1.1E1,1.4E1,6.24829E3,8.35675E3,3.58446E3,6.9E1,6E0,3E0,-1.3093382E-2,2.3509754E-2,-2.206136E-2,-1.248311E-2,5.385101E-2,9.782376E-3,-1.4619684E-2,3.0093536E-2,-2.2751028E-2,-7.474617E-3,2.961639E-2,-1.9783285E-2,3.3463545E-2,-5.275373E-3,-9.976161E-3,2.5644388E-2],"split_indices":[24,22,16,21,7,7,18,6,6,21,21,21,10,8,1,0,0,0,0,0,0,0,0,0,0,0,0,0,0,0,0],"split_type":[0,0,0,0,0,0,0,0,0,0,0,0,0,0,0,0,0,0,0,0,0,0,0,0,0,0,0,0,0,0,0],"sum_hessian":[2.842311E2,1.5231677E2,1.3191434E2,1.1246062E2,3.9856148E1,3.4516533E1,9.739781E1,1.6615288E1,9.584533E1,5.82607E0,3.4030075E1,2.6079773E1,8.436762E0,7.1149864E1,2.6247944E1,1.0764019E1,5.8512692E0,6.0413315E1,3.543202E1,3.257404E0,2.5686657E0,2.5576042E1,8.454035E0,1.9527224E1,6.5525484E0,4.2320833E0,4.2046785E0,5.5931465E1,1.52184E1,2.0971006E1,5.276937E0],"tree_param":{"num_deleted":"0","num_feature":"25","num_nodes":"31","size_leaf_vector":"1"}},{"base_weights":[3.3570614E-3,3.1203648E-1,-3.3340484E-1,5.353415E-1,-1.2390739E-2,1.5395886E-1,-4.0441263E-1,-3.0189005E-1,6.184159E-1,-1.6365123E-1,5.4784346E-1,4.8702243E-1,-1.9404745E-1,-4.9432293E-1,-1.7851467E-1,-3.4829979E-3,-1.9040946E-2,2.0565707E-2,4.429843E-2,1.5908955E-2,-8.398285E-3,2.065734E-3,4.0125288E-2,-7.4499315E-3,3.0193985E-2,4.4212467E-3,-1.46710295E-2,-6.1325044E-3,-2.0434149E-2,1.1187774E-2,-1.6463676E-2],"categories":[],"categories_nodes":[],"categories_segments":[],"categories_sizes":[],"default_left":[0,0,0,0,0,0,0,0,0,0,0,0,0,0,0,0,0,0,0,0,0,0,0,0,0,0,0,0,0,0,0],"id":49,"left_children":[1,3,5,7,9,11,13,15,17,19,21,23,25,27,29,-1,-1,-1,-1,-1,-1,-1,-1,-1,-1,-1,-1,-1,-1,-1,-1],"loss_changes":[2.9759869E1,1.0827597E1,4.8005953E0,6.341625E0,5.3327866E0,2.1966512E0,2.3446274E0,2.8249443E-1,3.552637E0,1.3699563E0,2.9717774E0,1.8630121E0,5.4476273E-1,4.0149307E-1,3.9243453E0,0E0,0E0,0E0,0E0,0E0,0E0,0E0,0E0,0E0,0E0,0E0,0E0,0E0,0E0,0E0,0E0],"parents":[2147483647,0,0,1,1,2,2,3,3,4,4,5,5,6,6,7,7,8,8,9,9,10,10,11,11,12,12,13,13,14,14],"right_children":[2,4,6,8,10,12,14,16,18,20,22,24,26,28,30,-1,-1,-1,-1,-1,-1,-1,-1,-1,-1,-1,-1,-1,-1,-1,-1],"split_conditions":[1.1393323E-2,1.859934E6,4E0,3.70653E5,8.49428E-3,8.41E2,1.803E3,6.5E1,2E1,1E0,3E0,2.83252E3,8E0,2.5445E3,1.4761994E-2,-3.4829979E-3,-1.9040946E-2,2.0565707E-2,4.429843E-2,1.5908955E-2,-8.398285E-3,2.065734E-3,4.0125288E-2,-7.4499315E-3,3.0193985E-2,4.4212467E-3,-1.46710295E-2,-6.1325044E-3,-2.0434149E-2,1.1187774E-2,-1.6463676E-2],"split_indices":[23,18,0,18,23,17,17,10,6,4,8,21,5,21,23,0,0,0,0,0,0,0,0,0,0,0,0,0,0,0,0],"split_type":[0,0,0,0,0,0,0,0,0,0,0,0,0,0,0,0,0,0,0,0,0,0,0,0,0,0,0,0,0,0,0],"sum_hessian":[2.8428537E2,1.4836548E2,1.3591989E2,8.749327E1,6.0872208E1,1.7136295E1,1.187836E2,7.6600995E0,7.983317E1,4.848845E1,1.2383757E1,8.55202E0,8.584276E0,8.411606E1,3.466754E1,4.1010275E0,3.5590718E0,6.749363E1,1.233954E1,3.1165752E0,4.5371876E1,6.4584227E0,5.9253335E0,2.5205054E0,6.031514E0,3.2367947E0,5.3474813E0,4.3641124E0,7.9751945E1,1.1621231E1,2.3046309E1],"tree_param":{"num_deleted":"0","num_feature":"25","num_nodes":"31","size_leaf_vector":"1"}},{"base_weights":[4.3654107E-2,4.435183E-1,-2.6687294E-2,-2.9433224E-1,6.094767E-1,-2.7768375E-2,4.9857333E-1,7.787227E-1,3.782431E-1,-2.246098E-2,3.383025E-2,-2.1935498E-2,3.2772318E-2,1.0121106E-3,3.4731194E-2],"categories":[],"categories_nodes":[],"categories_segments":[],"categories_sizes":[],"default_left":[0,0,0,0,0,0,0,0,0,0,0,0,0,0,0],"id":50,"left_children":[1,3,-1,5,7,-1,9,11,13,-1,-1,-1,-1,-1,-1],"loss_changes":[1.0743405E2,2.9792374E1,0E0,1.4639357E1,7.4445724E0,0E0,6.2513943E0,6.5483246E0,1.4768408E1,0E0,0E0,0E0,0E0,0E0,0E0],"parents":[2147483647,0,0,1,1,3,3,4,4,6,6,7,7,8,8],"right_children":[2,4,-1,6,8,-1,10,12,14,-1,-1,-1,-1,-1,-1],"split_conditions":[9.49441E5,2E0,-2.6687294E-2,8.4E1,5.64866E5,-2.7768375E-2,1.2016935E-2,3E0,8.104298E4,-2.246098E-2,3.383025E-2,-2.1935498E-2,3.2772318E-2,1.0121106E-3,3.4731194E-2],"split_indices":[15,1,0,10,15,0,23,1,22,0,0,0,0,0,0],"split_type":[0,0,0,0,0,0,0,0,0,0,0,0,0,0,0],"sum_hessian":[3.7593103E2,2.4083247E2,1.3509854E2,4.407988E1,1.967526E2,2.9384964E1,1.4694914E1,1.1223623E2,8.451637E1,3.472998E0,1.1221916E1,2.9592319E0,1.0927699E2,4.9742123E1,3.4774246E1],"tree_param":{"num_deleted":"0","num_feature":"25","num_nodes":"15","size_leaf_vector":"1"}},{"base_weights":[1.9002091E-2,8.4800124E-1,-5.294044E-1,-2.8729588E-1,9.5387965E-1,-7.392292E-2,-2.3556175E-2,1.8356685E-2,-2.1257414E-2,1.0436219E0,-2.1785948E-2,-2.280324E-2,7.999482E-1,4.416328E-2,2.0575456E-2,8.095489E-3,4.4830296E-2],"categories":[],"categories_nodes":[],"categories_segments":[],"categories_sizes":[],"default_left":[0,0,0,0,0,0,0,0,0,0,0,0,0,0,0,0,0],"id":51,"left_children":[1,3,5,7,9,11,-1,-1,-1,13,-1,-1,15,-1,-1,-1,-1],"loss_changes":[1.2595632E2,1.35323105E1,4.476055E0,2.0980284E0,1.4167267E1,9.306031E0,0E0,0E0,0E0,2.4958496E0,0E0,0E0,1.2700238E0,0E0,0E0,0E0,0E0],"parents":[2147483647,0,0,1,1,2,2,3,3,4,4,5,5,9,9,12,12],"right_children":[2,4,6,8,10,12,-1,-1,-1,14,-1,-1,16,-1,-1,-1,-1],"split_conditions":[8.832602E-3,7.78E3,9.77247E-3,3.5E2,9.102138E4,9.585238E-3,-2.3556175E-2,1.8356685E-2,-2.1257414E-2,8.253989E-3,-2.1785948E-2,-2.280324E-2,6.3E1,4.416328E-2,2.0575456E-2,8.095489E-3,4.4830296E-2],"split_indices":[23,19,23,20,22,23,0,0,0,23,0,0,10,0,0,0,0],"split_type":[0,0,0,0,0,0,0,0,0,0,0,0,0,0,0,0,0],"sum_hessian":[2.750658E2,1.0929843E2,1.6576736E2,9.177533E0,1.00120895E2,1.9411533E1,1.4635583E2,2.045555E0,7.1319776E0,9.475017E1,5.370727E0,1.2603358E1,6.8081746E0,8.406085E1,1.0689322E1,2.9479632E0,3.8602116E0],"tree_param":{"num_deleted":"0","num_feature":"25","num_nodes":"17","size_leaf_vector":"1"}},{"base_weights":[2.0700458E-2,-2.591441E-1,3.6393675E-1,-3.735395E-1,3.725897E-1,-2.4288523E-1,5.199874E-1,-3.9937106E-1,3.3801123E-2,-2.5392053E-1,4.879698E-2,2.762387E-2,-3.6669523E-1,6.988773E-1,-7.340513E-2,-1.0722562E-2,-2.2745347E-2,-2.2749318E-2,6.849136E-3,-2.23219E-2,-3.180534E-3,1.079918E-2,3.425924E-2,-1.2967687E-2,3.4027457E-2],"categories":[],"categories_nodes":[],"categories_segments":[],"categories_sizes":[],"default_left":[0,0,0,0,0,0,0,0,0,0,0,0,0,0,0,0,0,0,0,0,0,0,0,0,0],"id":52,"left_children":[1,3,5,7,9,11,13,15,-1,17,-1,-1,19,21,23,-1,-1,-1,-1,-1,-1,-1,-1,-1,-1],"loss_changes":[2.681563E1,1.1256277E1,1.1997381E1,4.4530563E0,1.3096174E1,3.2957468E0,1.0670336E1,2.7082329E0,0E0,2.0615344E0,0E0,0E0,1.2687597E0,4.9708824E0,5.8556643E0,0E0,0E0,0E0,0E0,0E0,0E0,0E0,0E0,0E0,0E0],"parents":[2147483647,0,0,1,1,2,2,3,3,4,4,5,5,6,6,7,7,9,9,12,12,13,13,14,14],"right_children":[2,4,6,8,10,12,14,16,-1,18,-1,-1,20,22,24,-1,-1,-1,-1,-1,-1,-1,-1,-1,-1],"split_conditions":[9.086716E-2,9.143319E4,5.64866E5,3E1,1E1,8E0,3.758421E4,9.85417E5,3.3801123E-2,9.94788E5,4.879698E-2,2.762387E-2,3.58446E3,3E0,1.5E1,-1.0722562E-2,-2.2745347E-2,-2.2749318E-2,6.849136E-3,-2.23219E-2,-3.180534E-3,1.079918E-2,3.425924E-2,-1.2967687E-2,3.4027457E-2],"split_indices":[24,22,15,9,9,5,22,15,0,15,0,0,21,5,9,0,0,0,0,0,0,0,0,0,0],"split_type":[0,0,0,0,0,0,0,0,0,0,0,0,0,0,0,0,0,0,0,0,0,0,0,0,0],"sum_hessian":[2.7719403E2,1.5283273E2,1.24361305E2,1.2974669E2,2.3086039E1,2.5325106E1,9.90362E1,1.27711685E2,2.035009E0,1.3675127E1,9.410911E0,2.429522E0,2.2895584E1,7.5959076E1,2.3077122E1,7.337448E1,5.43372E1,7.663078E0,6.012049E0,1.3174254E1,9.72133E0,2.1140638E1,5.481844E1,1.8661736E1,4.415387E0],"tree_param":{"num_deleted":"0","num_feature":"25","num_nodes":"25","size_leaf_vector":"1"}},{"base_weights":[-1.647073E-2,2.2083764E-1,-4.475557E-1,7.410955E-1,1.2195101E-1,-1.0602147E-1,-5.2432823E-1,9.662299E-1,-1.3184289E-2,3.804783E-2,7.842307E-1,-2.7989468E-1,2.157774E-2,-3.8415763E-1,-5.6532323E-1,1.234282E-2,4.6748526E-2,-1.30426325E-2,1.043256E-2,5.247939E-2,2.287555E-3,1.2030979E-3,-1.750231E-2,6.2446743E-3,-2.0700037E-2,-2.3026777E-2,-8.105471E-3],"categories":[],"categories_nodes":[],"categories_segments":[],"categories_sizes":[],"default_left":[0,0,0,0,0,0,0,0,0,0,0,0,0,0,0,0,0,0,0,0,0,0,0,0,0,0,0],"id":53,"left_children":[1,3,5,7,9,11,13,15,-1,17,19,21,-1,23,25,-1,-1,-1,-1,-1,-1,-1,-1,-1,-1,-1,-1],"loss_changes":[2.9302078E1,9.4160795E0,2.610592E0,7.3850784E0,8.66465E0,2.3860915E0,2.584343E-1,2.8988304E0,0E0,1.1434652E1,6.6560984E0,8.1208825E-1,0E0,1.6548753E0,1.1569214E-1,0E0,0E0,0E0,0E0,0E0,0E0,0E0,0E0,0E0,0E0,0E0,0E0],"parents":[2147483647,0,0,1,1,2,2,3,3,4,4,5,5,6,6,7,7,9,9,10,10,11,11,13,13,14,14],"right_children":[2,4,6,8,10,12,14,16,-1,18,20,22,-1,24,26,-1,-1,-1,-1,-1,-1,-1,-1,-1,-1,-1,-1],"split_conditions":[1.24804145E-2,7.722E3,3E0,1.2359226E-1,9.240443E4,1.8242873E-1,1.603777E4,5E0,-1.3184289E-2,8.253989E-3,9.756312E-3,1.3028875E-2,2.157774E-2,1.6803578E-2,1.425496E6,1.234282E-2,4.6748526E-2,-1.30426325E-2,1.043256E-2,5.247939E-2,2.287555E-3,1.2030979E-3,-1.750231E-2,6.2446743E-3,-2.0700037E-2,-2.3026777E-2,-8.105471E-3],"split_indices":[23,19,1,24,22,24,22,5,0,23,23,23,0,23,18,0,0,0,0,0,0,0,0,0,0,0,0],"split_type":[0,0,0,0,0,0,0,0,0,0,0,0,0,0,0,0,0,0,0,0,0,0,0,0,0,0,0],"sum_hessian":[2.8446646E2,1.837832E2,1.0068327E2,2.8315674E1,1.5546753E2,1.8915558E1,8.1767715E1,2.3476826E1,4.8388486E0,1.389248E2,1.6542717E1,1.5347631E1,3.5679264E0,2.0849543E1,6.0918175E1,6.1207504E0,1.7356073E1,5.255667E1,8.636813E1,9.118856E0,7.42386E0,5.447282E0,9.90035E0,4.0933795E0,1.6756163E1,5.8657635E1,2.2605412E0],"tree_param":{"num_deleted":"0","num_feature":"25","num_nodes":"27","size_leaf_vector":"1"}},{"base_weights":[2.023249E-3,5.10831E-1,-5.645877E-1,-3.286878E-2,6.524386E-1,-2.6559798E-2,-2.527101E-2,4.9067244E-1,-2.6657555E-2,7.620389E-1,3.3527213E-1,5.491026E-1,-2.5793469E-2,-2.3290796E-2,2.9748857E-2,2.342589E-2,3.3766765E-2,2.7087517E-2,-3.0194376E-2,3.3160444E-2,-2.0197134E-2],"categories":[],"categories_nodes":[],"categories_segments":[],"categories_sizes":[],"default_left":[0,0,0,0,0,0,0,0,0,0,0,0,0,0,0,0,0,0,0,0,0],"id":54,"left_children":[1,3,5,7,9,-1,11,13,-1,15,17,19,-1,-1,-1,-1,-1,-1,-1,-1,-1],"loss_changes":[1.09844124E2,1.5477074E1,9.647743E0,1.4401822E1,5.282402E0,0E0,1.0708035E1,6.8975096E0,0E0,1.209465E0,1.642656E1,5.0324354E0,0E0,0E0,0E0,0E0,0E0,0E0,0E0,0E0,0E0],"parents":[2147483647,0,0,1,1,2,2,3,3,4,4,6,6,7,7,9,9,10,10,11,11],"right_children":[2,4,6,8,10,-1,12,14,-1,16,18,20,-1,-1,-1,-1,-1,-1,-1,-1,-1],"split_conditions":[7.4001E5,4E0,5E0,1E1,6.00791E5,-2.6559798E-2,4E0,1.033411E-1,-2.6657555E-2,4E0,9E0,9.49441E5,-2.5793469E-2,-2.3290796E-2,2.9748857E-2,2.342589E-2,3.3766765E-2,2.7087517E-2,-3.0194376E-2,3.3160444E-2,-2.0197134E-2],"split_indices":[15,0,0,6,15,0,5,24,0,1,6,15,0,0,0,0,0,0,0,0,0],"split_type":[0,0,0,0,0,0,0,0,0,0,0,0,0,0,0,0,0,0,0,0,0],"sum_hessian":[3.7901117E2,1.9974329E2,1.792679E2,4.1432365E1,1.5831093E2,1.5117249E2,2.8095406E1,2.2809565E1,1.8622803E1,1.1661181E2,4.1699116E1,1.4638443E1,1.3456962E1,4.104639E0,1.8704926E1,3.9629677E1,7.698213E1,3.2031387E1,9.6677265E0,1.1735459E1,2.9029841E0],"tree_param":{"num_deleted":"0","num_feature":"25","num_nodes":"21","size_leaf_vector":"1"}},{"base_weights":[-2.2843549E-2,7.826543E-1,-5.5740416E-1,-2.1391578E-2,8.900444E-1,-2.690686E-1,-2.3463082E-2,9.7418416E-1,5.71779E-1,-2.2709532E-2,2.9300105E-2,2.0241821E-2,4.0223088E-2,-1.9632628E-2,3.0431945E-2],"categories":[],"categories_nodes":[],"categories_segments":[],"categories_sizes":[],"default_left":[0,0,0,0,0,0,0,0,0,0,0,0,0,0,0],"id":55,"left_children":[1,3,5,-1,7,9,-1,11,13,-1,-1,-1,-1,-1,-1],"loss_changes":[1.15392685E2,1.5602341E1,1.196949E0,0E0,2.1003036E0,5.3952813E0,0E0,6.236572E-1,5.027044E0,0E0,0E0,0E0,0E0,0E0,0E0],"parents":[2147483647,0,0,1,1,2,2,4,4,5,5,7,7,8,8],"right_children":[2,4,6,-1,8,10,-1,12,14,-1,-1,-1,-1,-1,-1],"split_conditions":[8.832602E-3,7.78E3,9.656784E-3,-2.1391578E-2,2E0,9.585238E-3,-2.3463082E-2,9.821E3,1.295E3,-2.2709532E-2,2.9300105E-2,2.0241821E-2,4.0223088E-2,-1.9632628E-2,3.0431945E-2],"split_indices":[23,19,23,0,1,23,0,19,20,0,0,0,0,0,0],"split_type":[0,0,0,0,0,0,0,0,0,0,0,0,0,0,0],"sum_hessian":[2.6597583E2,1.0591486E2,1.6006096E2,7.682868E0,9.8232E1,1.5645816E1,1.4441515E2,7.6062454E1,2.2169542E1,1.2385575E1,3.26024E0,5.8560305E0,7.020643E1,3.1069336E0,1.9062609E1],"tree_param":{"num_deleted":"0",