{"learner":{"attributes":{"scikit_learn":"{\"_estimator_type\": \"regressor\"}"},"feature_names":[],"feature_types":[],"gradient_booster":{"model":{"cats":{"enc":[],"feature_segments":[],"sorted_idx":[]},"gbtree_model_param":{"num_parallel_tree":"1","num_trees":"500"},"iteration_indptr":[0,1,2,3,4,5,6,7,8,9,10,11,12,13,14,15,16,17,18,19,20,21,22,23,24,25,26,27,28,29,30,31,32,33,34,35,36,37,38,39,40,41,42,43,44,45,46,47,48,49,50,51,52,53,54,55,56,57,58,59,60,61,62,63,64,65,66,67,68,69,70,71,72,73,74,75,76,77,78,79,80,81,82,83,84,85,86,87,88,89,90,91,92,93,94,95,96,97,98,99,100,101,102,103,104,105,106,107,108,109,110,111,112,113,114,115,116,117,118,119,120,121,122,123,124,125,126,127,128,129,130,131,132,133,134,135,136,137,138,139,140,141,142,143,144,145,146,147,148,149,150,151,152,153,154,155,156,157,158,159,160,161,162,163,164,165,166,167,168,169,170,171,172,173,174,175,176,177,178,179,180,181,182,183,184,185,186,187,188,189,190,191,192,193,194,195,196,197,198,199,200,201,202,203,204,205,206,207,208,209,210,211,212,213,214,215,216,217,218,219,220,221,222,223,224,225,226,227,228,229,230,231,232,233,234,235,236,237,238,239,240,241,242,243,244,245,246,247,248,249,250,251,252,253,254,255,256,257,258,259,260,261,262,263,264,265,266,267,268,269,270,271,272,273,274,275,276,277,278,279,280,281,282,283,284,285,286,287,288,289,290,291,292,293,294,295,296,297,298,299,300,301,302,303,304,305,306,307,308,309,310,311,312,313,314,315,316,317,318,319,320,321,322,323,324,325,326,327,328,329,330,331,332,333,334,335,336,337,338,339,340,341,342,343,344,345,346,347,348,349,350,351,352,353,354,355,356,357,358,359,360,361,362,363,364,365,366,367,368,369,370,371,372,373,374,375,376,377,378,379,380,381,382,383,384,385,386,387,388,389,390,391,392,393,394,395,396,397,398,399,400,401,402,403,404,405,406,407,408,409,410,411,412,413,414,415,416,417,418,419,420,421,422,423,424,425,426,427,428,429,430,431,432,433,434,435,436,437,438,439,440,441,442,443,444,445,446,447,448,449,450,451,452,453,454,455,456,457,458,459,460,461,462,463,464,465,466,467,468,469,470,471,472,473,474,475,476,477,478,479,480,481,482,483,484,485,486,487,488,489,490,491,492,493,494,495,496,497,498,499,500],"tree_info":[0,0,0,0,0,0,0,0,0,0,0,0,0,0,0,0,0,0,0,0,0,0,0,0,0,0,0,0,0,0,0,0,0,0,0,0,0,0,0,0,0,0,0,0,0,0,0,0,0,0,0,0,0,0,0,0,0,0,0,0,0,0,0,0,0,0,0,0,0,0,0,0,0,0,0,0,0,0,0,0,0,0,0,0,0,0,0,0,0,0,0,0,0,0,0,0,0,0,0,0,0,0,0,0,0,0,0,0,0,0,0,0,0,0,0,0,0,0,0,0,0,0,0,0,0,0,0,0,0,0,0,0,0,0,0,0,0,0,0,0,0,0,0,0,0,0,0,0,0,0,0,0,0,0,0,0,0,0,0,0,0,0,0,0,0,0,0,0,0,0,0,0,0,0,0,0,0,0,0,0,0,0,0,0,0,0,0,0,0,0,0,0,0,0,0,0,0,0,0,0,0,0,0,0,0,0,0,0,0,0,0,0,0,0,0,0,0,0,0,0,0,0,0,0,0,0,0,0,0,0,0,0,0,0,0,0,0,0,0,0,0,0,0,0,0,0,0,0,0,0,0,0,0,0,0,0,0,0,0,0,0,0,0,0,0,0,0,0,0,0,0,0,0,0,0,0,0,0,0,0,0,0,0,0,0,0,0,0,0,0,0,0,0,0,0,0,0,0,0,0,0,0,0,0,0,0,0,0,0,0,0,0,0,0,0,0,0,0,0,0,0,0,0,0,0,0,0,0,0,0,0,0,0,0,0,0,0,0,0,0,0,0,0,0,0,0,0,0,0,0,0,0,0,0,0,0,0,0,0,0,0,0,0,0,0,0,0,0,0,0,0,0,0,0,0,0,0,0,0,0,0,0,0,0,0,0,0,0,0,0,0,0,0,0,0,0,0,0,0,0,0,0,0,0,0,0,0,0,0,0,0,0,0,0,0,0,0,0,0,0,0,0,0,0,0,0,0,0,0,0,0,0,0,0,0,0,0,0,0,0,0,0,0,0,0,0,0,0,0,0,0,0,0,0,0,0,0,0,0,0,0,0,0,0,0,0,0,0,0,0,0,0,0,0,0,0,0,0,0,0,0,0,0,0,0,0,0,0,0,0,0,0,0,0,0,0,0,0,0,0],"trees":[{"base_weights":[-2.1640843E-5,-3.7214685E-2,1.7775428E-1,-7.013769E-2,2.559966E-3,1.285583E-1,3.1101897E-1,-9.644471E-2,-1.6458217E-2,-1.4656532E-2,4.7370423E-2,1.8390688E-1,9.232847E-2,1.7155534E-2,8.521636E-3,-1.1854721E-1,-6.586243E-2,-4.4603452E-2,1.5787033E-2,-2.8049631E-2,2.4100378E-2,6.7269966E-2,1.9878643E-2,3.9146715E-5,9.5190825E-3,9.629974E-2,-0E0,-6.0532386E-3,-0E0,-3.4750781E-3,-0E0,-1.3740616E-3,-3.1546291E-3,1.8799879E-3,-4.2356327E-4,1.3582154E-4,-2.0848901E-3,2.9072447E-3,2.2332296E-4,-0E0,3.58077E-3,2.488071E-3,-0E0,4.9650497E-3,-0E0],"categories":[],"categories_nodes":[],"categories_segments":[],"categories_sizes":[],"default_left":[0,0,0,0,0,0,0,0,0,0,0,0,0,0,0,0,0,0,0,0,0,0,0,0,0,0,0,0,0,0,0,0,0,0,0,0,0,0,0,0,0,0,0,0,0],"id":0,"left_children":[1,3,5,7,9,11,13,15,17,19,21,23,25,-1,-1,27,29,31,33,35,37,39,41,-1,-1,43,-1,-1,-1,-1,-1,-1,-1,-1,-1,-1,-1,-1,-1,-1,-1,-1,-1,-1,-1],"loss_changes":[5.850817E0,9.681108E-1,9.191394E-1,5.562177E-1,2.6009673E-1,1.8399751E-1,7.06346E-2,1.5558052E-1,1.2610506E-1,1.2512988E-1,4.137285E-2,3.171885E-2,1.68401E-2,0E0,0E0,3.3669233E-2,3.348267E-2,1.26353055E-2,3.603802E-2,7.959351E-2,3.3584792E-2,1.5996605E-2,2.5103487E-2,0E0,0E0,1.0337293E-2,0E0,0E0,0E0,0E0,0E0,0E0,0E0,0E0,0E0,0E0,0E0,0E0,0E0,0E0,0E0,0E0,0E0,0E0,0E0],"parents":[2147483647,0,0,1,1,2,2,3,3,4,4,5,5,6,6,7,7,8,8,9,9,10,10,11,11,12,12,15,15,16,16,17,17,18,18,19,19,20,20,21,21,22,22,25,25],"right_children":[2,4,6,8,10,12,14,16,18,20,22,24,26,-1,-1,28,30,32,34,36,38,40,42,-1,-1,44,-1,-1,-1,-1,-1,-1,-1,-1,-1,-1,-1,-1,-1,-1,-1,-1,-1,-1,-1],"split_conditions":[1.2787398E-2,9.650061E-3,1.6033659E-2,8.855552E0,1.0209172E1,5.5E1,2.983E3,8.425591E-3,7.475419E-3,1.1968964E0,3.207E3,6E0,6.63E-1,1.7155534E-2,8.521636E-3,-6.580559E-5,1.75798E4,3.015E3,3.015E3,5.3E1,2.375E3,-2.2613153E-1,5.2E1,3.9146715E-5,9.5190825E-3,6.793555E-2,-0E0,-6.0532386E-3,-0E0,-3.4750781E-3,-0E0,-1.3740616E-3,-3.1546291E-3,1.8799879E-3,-4.2356327E-4,1.3582154E-4,-2.0848901E-3,2.9072447E-3,2.2332296E-4,-0E0,3.58077E-3,2.488071E-3,-0E0,4.9650497E-3,-0E0],"split_indices":[88,88,88,93,93,68,67,88,88,92,67,65,60,0,0,95,80,67,67,68,67,118,68,0,0,119,0,0,0,0,0,0,0,0,0,0,0,0,0,0,0,0,0,0,0],"split_type":[0,0,0,0,0,0,0,0,0,0,0,0,0,0,0,0,0,0,0,0,0,0,0,0,0,0,0,0,0,0,0,0,0,0,0,0,0,0,0,0,0,0,0,0,0],"sum_hessian":[8.85E2,7.33E2,1.52E2,4.02E2,3.31E2,1.13E2,3.9E1,2.68E2,1.34E2,2.38E2,9.3E1,4.2E1,7.1E1,3E1,9E0,1.52E2,1.16E2,7.3E1,6.1E1,1.79E2,5.9E1,5.1E1,4.2E1,2E0,4E1,6.7E1,4E0,1.48E2,4E0,1.11E2,5E0,4.2E1,3.1E1,3.4E1,2.7E1,5.3E1,1.26E2,1.9E1,4E1,3E0,4.8E1,1.6E1,2.6E1,6.4E1,3E0],"tree_param":{"num_deleted":"0","num_feature":"145","num_nodes":"45","size_leaf_vector":"1"}},{"base_weights":[-3.821925E-3,-3.57622E-2,1.6706759E-1,-6.1638385E-2,9.547046E-3,1.2790479E-1,2.7468762E-1,-8.775049E-2,-2.636901E-2,-8.696361E-3,5.2781247E-2,9.671252E-2,1.5471427E-1,1.0109526E-2,1.8092413E-2,-9.4913244E-2,-1.3585099E-2,-3.4901302E-2,3.1776972E-2,-1.9957198E-2,2.6082199E-2,9.223514E-2,3.4811404E-2,1.2650062E-1,7.101682E-2,1.8530047E-1,1.0714287E-1,-4.92116E-3,-0E0,3.9094756E-4,-1.5629473E-3,-2.013867E-3,8.067197E-4,1.9712842E-3,-0E0,-1.9184396E-3,-0E0,3.611897E-3,4.6462478E-4,5.033536E-3,-0E0,1.679119E-4,2.254077E-3,7.1509066E-3,1.2520474E-3,-0E0,3.7309912E-3,9.994807E-3,2.7631035E-3,-0E0,5.7007633E-3],"categories":[],"categories_nodes":[],"categories_segments":[],"categories_sizes":[],"default_left":[0,0,0,0,0,0,0,0,0,0,0,0,0,0,0,0,0,0,0,0,0,0,0,0,0,0,0,0,0,0,0,0,0,0,0,0,0,0,0,0,0,0,0,0,0,0,0,0,0,0,0],"id":1,"left_children":[1,3,5,7,9,11,13,15,17,19,21,23,25,-1,-1,27,29,31,33,35,37,39,41,43,45,47,49,-1,-1,-1,-1,-1,-1,-1,-1,-1,-1,-1,-1,-1,-1,-1,-1,-1,-1,-1,-1,-1,-1,-1,-1],"loss_changes":[4.752445E0,8.6870635E-1,5.020213E-1,4.1912436E-1,2.1546087E-1,4.6028018E-2,9.1594934E-2,1.3022995E-1,1.0213357E-1,7.314389E-2,4.151191E-2,1.1066765E-2,2.6563644E-2,0E0,0E0,7.771587E-2,1.24240015E-2,5.2176356E-2,8.952055E-3,5.6002907E-2,2.5273094E-2,1.7158076E-2,1.4063284E-2,1.4805853E-2,5.65511E-3,1.8479347E-2,1.0478318E-2,0E0,0E0,0E0,0E0,0E0,0E0,0E0,0E0,0E0,0E0,0E0,0E0,0E0,0E0,0E0,0E0,0E0,0E0,0E0,0E0,0E0,0E0,0E0,0E0],"parents":[2147483647,0,0,1,1,2,2,3,3,4,4,5,5,6,6,7,7,8,8,9,9,10,10,11,11,12,12,15,15,16,16,17,17,18,18,19,19,20,20,21,21,22,22,23,23,24,24,25,25,26,26],"right_children":[2,4,6,8,10,12,14,16,18,20,22,24,26,-1,-1,28,30,32,34,36,38,40,42,44,46,48,50,-1,-1,-1,-1,-1,-1,-1,-1,-1,-1,-1,-1,-1,-1,-1,-1,-1,-1,-1,-1,-1,-1,-1,-1],"split_conditions":[1.2811173E-2,1.0128771E-2,1.6148772E-2,-2.515663E-4,1E0,1.4035218E-2,-1.2619195E-4,1E0,1.0974886E-1,1.0937103E-1,4.75762E3,-8.767302E-2,5E0,1.0109526E-2,1.8092413E-2,1.338006E6,3.31E3,1E0,8E0,-1.9222384E-4,2.324E3,1.0438184E-1,5E0,3.443E3,6.9615066E-2,1E0,3.4684882E-1,-4.92116E-3,-0E0,3.9094756E-4,-1.5629473E-3,-2.013867E-3,8.067197E-4,1.9712842E-3,-0E0,-1.9184396E-3,-0E0,3.611897E-3,4.6462478E-4,5.033536E-3,-0E0,1.679119E-4,2.254077E-3,7.1509066E-3,1.2520474E-3,-0E0,3.7309912E-3,9.994807E-3,2.7631035E-3,-0E0,5.7007633E-3],"split_indices":[88,88,88,95,36,88,95,36,89,89,80,114,55,0,0,83,67,36,103,95,67,140,54,67,89,22,94,0,0,0,0,0,0,0,0,0,0,0,0,0,0,0,0,0,0,0,0,0,0,0,0],"split_type":[0,0,0,0,0,0,0,0,0,0,0,0,0,0,0,0,0,0,0,0,0,0,0,0,0,0,0,0,0,0,0,0,0,0,0,0,0,0,0,0,0,0,0,0,0,0,0,0,0,0,0],"sum_hessian":[8.71E2,7.35E2,1.36E2,4.69E2,2.66E2,1.02E2,3.4E1,2.67E2,2.02E2,1.86E2,8E1,5.1E1,5.1E1,2.1E1,1.3E1,2.42E2,2.5E1,1.78E2,2.4E1,1.43E2,4.3E1,2.2E1,5.8E1,2E1,3.1E1,2.8E1,2.3E1,2.33E2,9E0,9E0,1.6E1,1.63E2,1.5E1,2.1E1,3E0,7.6E1,6.7E1,9E0,3.4E1,2E1,2E0,1.7E1,4.1E1,1.6E1,4E0,2E0,2.9E1,2.4E1,4E0,2E0,2.1E1],"tree_param":{"num_deleted":"0","num_feature":"145","num_nodes":"51","size_leaf_vector":"1"}},{"base_weights":[-0E0,-2.3727695E-2,1.9188453E-1,-4.9290966E-2,3.670661E-2,1.257808E-1,2.6992542E-1,-7.374741E-2,1.418158E-3,1.6866596E-2,1.0161E-1,1.6582532E-1,6.025015E-2,2.8392193E-1,4.4783386E-3,-3.8950924E-2,-8.927507E-2,5.3540584E-2,-7.715037E-3,-6.023576E-3,5.2533947E-2,1.1189729E-1,-0E0,1.1898424E-3,8.812454E-3,3.454859E-3,3.500349E-4,4.442258E-3,1.47623615E-2,-0E0,-2.197123E-3,-3.6672417E-3,-5.7237707E-3,-0E0,3.118426E-3,-1.6636866E-3,3.2648313E-4,1.0171267E-3,-1.434137E-3,3.9979983E-3,5.670191E-4,1.9285948E-3,6.5226527E-3],"categories":[],"categories_nodes":[],"categories_segments":[],"categories_sizes":[],"default_left":[0,0,0,0,0,0,0,0,0,0,0,0,0,0,0,0,0,0,0,0,0,0,0,0,0,0,0,0,0,0,0,0,0,0,0,0,0,0,0,0,0,0,0],"id":2,"left_children":[1,3,5,7,9,11,13,15,17,19,21,23,25,27,-1,29,31,33,35,37,39,41,-1,-1,-1,-1,-1,-1,-1,-1,-1,-1,-1,-1,-1,-1,-1,-1,-1,-1,-1,-1,-1],"loss_changes":[3.930819E0,1.1910949E0,4.1656303E-1,6.79507E-1,2.8003046E-1,1.0910523E-1,4.3245792E-2,1.8199277E-1,8.877941E-2,1.4947592E-1,5.1608443E-2,2.3176253E-2,2.741769E-3,1.9312859E-2,0E0,2.3308322E-2,7.358527E-2,1.698117E-2,5.713898E-2,6.534293E-2,7.017727E-2,4.20143E-2,0E0,0E0,0E0,0E0,0E0,0E0,0E0,0E0,0E0,0E0,0E0,0E0,0E0,0E0,0E0,0E0,0E0,0E0,0E0,0E0,0E0],"parents":[2147483647,0,0,1,1,2,2,3,3,4,4,5,5,6,6,7,7,8,8,9,9,10,10,11,11,12,12,13,13,15,15,16,16,17,17,18,18,19,19,20,20,21,21],"right_children":[2,4,6,8,10,12,14,16,18,20,22,24,26,28,-1,30,32,34,36,38,40,42,-1,-1,-1,-1,-1,-1,-1,-1,-1,-1,-1,-1,-1,-1,-1,-1,-1,-1,-1,-1,-1],"split_conditions":[2.5652573E0,1.0209172E1,3.3911424E0,9.3969804E-1,6.43204E-1,6.5E1,5E0,1.098573E6,2.153E3,1.3964282E1,7.2E1,-4.5873335E-1,7.3945785E-1,2.2247274E0,4.4783386E-3,4.8E1,1E0,1.505E3,1.0859723E0,8.51193E5,6.57E2,1.1317364E1,-0E0,1.1898424E-3,8.812454E-3,3.454859E-3,3.500349E-4,4.442258E-3,1.47623615E-2,-0E0,-2.197123E-3,-3.6672417E-3,-5.7237707E-3,-0E0,3.118426E-3,-1.6636866E-3,3.2648313E-4,1.0171267E-3,-1.434137E-3,3.9979983E-3,5.670191E-4,1.9285948E-3,6.5226527E-3],"split_indices":[92,93,92,92,91,68,107,77,67,93,68,113,73,93,0,68,0,67,92,77,79,93,0,0,0,0,0,0,0,0,0,0,0,0,0,0,0,0,0,0,0,0,0],"split_type":[0,0,0,0,0,0,0,0,0,0,0,0,0,0,0,0,0,0,0,0,0,0,0,0,0,0,0,0,0,0,0,0,0,0,0,0,0,0,0,0,0,0,0],"sum_hessian":[8.62E2,7.68E2,9.4E1,5.41E2,2.27E2,5.3E1,4.1E1,3.66E2,1.75E2,1.76E2,5.1E1,3.1E1,2.2E1,3.7E1,4E0,1.16E2,2.5E2,2.7E1,1.48E2,1.06E2,7E1,4.6E1,5E0,3E0,2.8E1,1.7E1,5E0,3E0,3.4E1,1.3E1,1.03E2,1.58E2,9.2E1,3E0,2.4E1,5.5E1,9.3E1,4.7E1,5.9E1,4E1,3E1,1.1E1,3.5E1],"tree_param":{"num_deleted":"0","num_feature":"145","num_nodes":"43","size_leaf_vector":"1"}},{"base_weights":[8.2297245E-4,-2.367106E-2,1.9887261E-1,-4.432777E-2,3.80045E-2,1.3132386E-1,2.882023E-1,-6.91267E-2,-3.131697E-3,1.6730187E-2,1.0160224E-1,6.842511E-2,1.5442267E-1,1.0290643E-2,3.2695347E-1,-3.0978343E-2,-8.2071796E-2,-2.112678E-2,2.8328607E-2,4.6711978E-2,-1.0910857E-2,4.5218293E-2,1.2420034E-1,3.7873655E-3,-0E0,1.924356E-1,1.15264304E-1,3.6092305E-3,1.7114386E-2,-2.5403555E-4,-2.3868126E-3,-4.4828714E-3,-1.701454E-3,4.525648E-4,-1.65131E-3,2.9065458E-3,1.19149765E-4,1.3746984E-3,4.8107677E-3,3.9131308E-4,-1.431093E-3,-0E0,2.7492975E-3,7.050165E-4,6.814276E-3,1.0251894E-2,1.5972833E-3,6.0631675E-3,7.581152E-5],"categories":[],"categories_nodes":[],"categories_segments":[],"categories_sizes":[],"default_left":[0,0,0,0,0,0,0,0,0,0,0,0,0,0,0,0,0,0,0,0,0,0,0,0,0,0,0,0,0,0,0,0,0,0,0,0,0,0,0,0,0,0,0,0,0,0,0,0,0],"id":3,"left_children":[1,3,5,7,9,11,13,15,17,19,21,23,25,-1,27,29,31,33,35,37,39,41,43,-1,-1,45,47,-1,-1,-1,-1,-1,-1,-1,-1,-1,-1,-1,-1,-1,-1,-1,-1,-1,-1,-1,-1,-1,-1],"loss_changes":[4.1407557E0,9.654716E-1,4.8740578E-1,5.728371E-1,2.4218357E-1,4.851049E-2,3.946781E-3,1.6047597E-1,1.2216257E-1,1.23426616E-1,3.6053807E-2,7.526554E-3,5.101502E-3,0E0,2.7605295E-2,3.483685E-2,7.969761E-2,5.2970637E-2,5.334949E-2,5.2530035E-2,2.6860699E-2,9.613257E-3,2.4287641E-2,0E0,0E0,4.1347146E-3,3.2328665E-3,0E0,0E0,0E0,0E0,0E0,0E0,0E0,0E0,0E0,0E0,0E0,0E0,0E0,0E0,0E0,0E0,0E0,0E0,0E0,0E0,0E0,0E0],"parents":[2147483647,0,0,1,1,2,2,3,3,4,4,5,5,6,6,7,7,8,8,9,9,10,10,11,11,12,12,14,14,15,15,16,16,17,17,18,18,19,19,20,20,21,21,22,22,25,25,26,26],"right_children":[2,4,6,8,10,12,14,16,18,20,22,24,26,-1,28,30,32,34,36,38,40,42,44,-1,-1,46,48,-1,-1,-1,-1,-1,-1,-1,-1,-1,-1,-1,-1,-1,-1,-1,-1,-1,-1,-1,-1,-1,-1],"split_conditions":[2.5652573E0,1.1317364E1,-1.8494975E-4,8.6165905E-1,1.53453E5,1.5E1,3.4870136E0,9.80939E5,1.1968964E0,9.57597E5,7.37136E-1,6.63E-1,2.968E3,1.0290643E-2,-6.326364E-2,6.666667E-1,8.855552E0,2.354E3,2.785E3,1.6204878E1,1E0,3.4E-1,-7.959357E-2,3.7873655E-3,-0E0,1E0,4.8064742E-2,3.6092305E-3,1.7114386E-2,-2.5403555E-4,-2.3868126E-3,-4.4828714E-3,-1.701454E-3,4.525648E-4,-1.65131E-3,2.9065458E-3,1.19149765E-4,1.3746984E-3,4.8107677E-3,3.9131308E-4,-1.431093E-3,-0E0,2.7492975E-3,7.050165E-4,6.814276E-3,1.0251894E-2,1.5972833E-3,6.0631675E-3,7.581152E-5],"split_indices":[92,93,95,92,83,65,92,77,92,77,92,60,67,0,144,76,93,67,67,93,33,61,121,0,0,48,142,0,0,0,0,0,0,0,0,0,0,0,0,0,0,0,0,0,0,0,0,0,0],"split_type":[0,0,0,0,0,0,0,0,0,0,0,0,0,0,0,0,0,0,0,0,0,0,0,0,0,0,0,0,0,0,0,0,0,0,0,0,0,0,0,0,0,0,0,0,0,0,0,0,0],"sum_hessian":[8.48E2,7.55E2,9.3E1,5.67E2,1.88E2,5.5E1,3.8E1,3.52E2,2.15E2,1.43E2,4.5E1,1.7E1,3.8E1,1.5E1,2.3E1,9.2E1,2.6E2,1.39E2,7.6E1,7E1,7.3E1,1.5E1,3E1,1.5E1,2E0,1.6E1,2.2E1,2E0,2.1E1,3.9E1,5.3E1,2.22E2,3.8E1,3.7E1,1.02E2,3.3E1,4.3E1,5.3E1,1.7E1,3.3E1,4E1,2E0,1.3E1,4E0,2.6E1,1.4E1,2E0,2E1,2E0],"tree_param":{"num_deleted":"0","num_feature":"145","num_nodes":"49","size_leaf_vector":"1"}},{"base_weights":[-3.036644E-4,-3.2670207E-2,1.4717476E-1,-5.6667842E-2,2.0481795E-3,1.0444871E-1,2.4774484E-1,-7.853255E-2,-1.1615971E-2,-1.4902904E-2,3.933647E-2,1.5377364E-1,8.193544E-2,9.38959E-3,1.5751228E-2,-9.861242E-2,-5.4547895E-2,-4.0335022E-2,2.025874E-2,4.5818817E-3,-3.635028E-2,2.2631346E-3,5.070652E-2,1.3615913E-3,1.6780828E-1,1.0227415E-1,5.4480784E-2,-5.1375083E-3,-1.5075741E-3,-9.4090885E-4,-3.1682018E-3,-8.913932E-4,-3.070243E-3,-3.0032726E-4,1.8468917E-3,-3.6504117E-4,1.990155E-3,-3.2227003E-4,-2.411886E-3,1.0604224E-3,-3.8533134E-4,2.9844805E-3,6.32689E-4,1.2303927E-3,8.714001E-3,5.3017563E-3,-0E0,-0E0,2.8902288E-3],"categories":[],"categories_nodes":[],"categories_segments":[],"categories_sizes":[],"default_left":[0,0,0,0,0,0,0,0,0,0,0,0,0,0,0,0,0,0,0,0,0,0,0,0,0,0,0,0,0,0,0,0,0,0,0,0,0,0,0,0,0,0,0,0,0,0,0,0,0],"id":4,"left_children":[1,3,5,7,9,11,13,15,17,19,21,23,25,-1,-1,27,29,31,33,35,37,39,41,-1,43,45,47,-1,-1,-1,-1,-1,-1,-1,-1,-1,-1,-1,-1,-1,-1,-1,-1,-1,-1,-1,-1,-1,-1],"loss_changes":[3.9552524E0,5.7379246E-1,5.791514E-1,3.890165E-1,1.7874695E-1,8.264935E-2,6.4005375E-2,1.0982084E-1,1.264053E-1,8.274393E-2,3.2104075E-2,3.0981362E-2,2.1748722E-2,0E0,0E0,2.4403214E-2,3.090915E-2,2.5600217E-2,3.091411E-2,4.455611E-2,2.728156E-2,6.046754E-3,1.457122E-2,0E0,8.4489584E-4,9.634435E-3,7.1261525E-3,0E0,0E0,0E0,0E0,0E0,0E0,0E0,0E0,0E0,0E0,0E0,0E0,0E0,0E0,0E0,0E0,0E0,0E0,0E0,0E0,0E0,0E0],"parents":[2147483647,0,0,1,1,2,2,3,3,4,4,5,5,6,6,7,7,8,8,9,9,10,10,11,11,12,12,15,15,16,16,17,17,18,18,19,19,20,20,21,21,22,22,24,24,25,25,26,26],"right_children":[2,4,6,8,10,12,14,16,18,20,22,24,26,-1,-1,28,30,32,34,36,38,40,42,-1,44,46,48,-1,-1,-1,-1,-1,-1,-1,-1,-1,-1,-1,-1,-1,-1,-1,-1,-1,-1,-1,-1,-1,-1],"split_conditions":[1.2727876E-2,9.778501E-3,1.6033659E-2,8.855552E0,8.855552E0,5.4E1,7.39E-1,8.425591E-3,7.328665E-3,6.1E1,5.7676667E-1,2.9714853E-1,1.1E1,9.38959E-3,1.5751228E-2,7.657511E-1,4.9E1,3.015E3,-1.7002632E-4,1.1968964E0,2.375E3,6.2E1,3.553E3,1.3615913E-3,-2.4238685E-1,7.2765E-1,-1.4193204E-1,-5.1375083E-3,-1.5075741E-3,-9.4090885E-4,-3.1682018E-3,-8.913932E-4,-3.070243E-3,-3.0032726E-4,1.8468917E-3,-3.6504117E-4,1.990155E-3,-3.2227003E-4,-2.411886E-3,1.0604224E-3,-3.8533134E-4,2.9844805E-3,6.32689E-4,1.2303927E-3,8.714001E-3,5.3017563E-3,-0E0,-0E0,2.8902288E-3],"split_indices":[88,88,88,93,93,68,61,88,88,68,92,94,54,0,0,92,68,67,95,92,67,68,67,0,118,74,128,0,0,0,0,0,0,0,0,0,0,0,0,0,0,0,0,0,0,0,0,0,0],"split_type":[0,0,0,0,0,0,0,0,0,0,0,0,0,0,0,0,0,0,0,0,0,0,0,0,0,0,0,0,0,0,0,0,0,0,0,0,0,0,0,0,0,0,0,0,0,0,0,0,0],"sum_hessian":[8.29E2,6.81E2,1.48E2,4.04E2,2.77E2,1.06E2,4.2E1,2.7E2,1.34E2,1.89E2,8.8E1,3E1,7.6E1,2.5E1,1.7E1,1.43E2,1.27E2,7.2E1,6.2E1,9.7E1,9.2E1,2.3E1,6.5E1,4E0,2.6E1,4E1,3.6E1,1.33E2,1E1,2.8E1,9.9E1,3.8E1,3.4E1,2.2E1,4E1,7.1E1,2.6E1,2.9E1,6.3E1,1.1E1,1.2E1,5E1,1.5E1,2E0,2.4E1,3.8E1,2E0,2E0,3.4E1],"tree_param":{"num_deleted":"0","num_feature":"145","num_nodes":"49","size_leaf_vector":"1"}},{"base_weights":[2.9012552E-5,-3.139109E-2,1.3490762E-1,-5.5244364E-2,9.460751E-4,1.0158657E-1,2.4359576E-1,-7.569694E-2,-1.1994624E-2,-1.5152355E-2,4.1129388E-2,7.617905E-2,1.3246845E-1,8.929882E-3,2.9393086E-1,-9.548524E-2,-4.9225472E-2,-3.506274E-2,1.2203823E-2,-2.276607E-2,3.7988233E-3,2.0052008E-2,7.16942E-2,-0E0,8.059151E-2,1.0010758E-1,1.768743E-1,1.6862592E-2,7.860089E-3,-4.876725E-3,-0E0,-2.6043057E-3,-0E0,-2.4376165E-3,-7.693771E-4,1.2793113E-3,-5.2851246E-4,-1.3501224E-3,3.064058E-4,8.1537216E-4,-9.0651214E-4,1.525378E-3,-0E0,3.4408295E-4,4.226944E-3,5.0395075E-3,2.917594E-3,6.227542E-3,2.775954E-3,9.3698185E-3,8.971546E-4],"categories":[],"categories_nodes":[],"categories_segments":[],"categories_sizes":[],"default_left":[0,0,0,0,0,0,0,0,0,0,0,0,0,0,0,0,0,0,0,0,0,0,0,0,0,0,0,0,0,0,0,0,0,0,0,0,0,0,0,0,0,0,0,0,0,0,0,0,0,0,0],"id":5,"left_children":[1,3,5,7,9,11,13,15,17,19,21,23,25,-1,27,29,31,33,35,37,39,41,43,-1,45,47,49,-1,-1,-1,-1,-1,-1,-1,-1,-1,-1,-1,-1,-1,-1,-1,-1,-1,-1,-1,-1,-1,-1,-1,-1],"loss_changes":[3.765128E0,5.593094E-1,5.49165E-1,3.5741878E-1,1.9987492E-1,7.183063E-2,2.4575949E-2,1.274997E-1,7.863071E-2,3.3149604E-2,4.6723917E-2,2.6592523E-2,3.5067976E-2,0E0,1.0079622E-2,2.4049044E-2,2.2372365E-2,1.2228698E-2,2.1582216E-2,2.1593168E-2,1.629722E-2,1.0058241E-2,1.8581048E-2,0E0,1.0547638E-2,1.4314055E-2,1.1221588E-2,0E0,0E0,0E0,0E0,0E0,0E0,0E0,0E0,0E0,0E0,0E0,0E0,0E0,0E0,0E0,0E0,0E0,0E0,0E0,0E0,0E0,0E0,0E0,0E0],"parents":[2147483647,0,0,1,1,2,2,3,3,4,4,5,5,6,6,7,7,8,8,9,9,10,10,11,11,12,12,14,14,15,15,16,16,17,17,18,18,19,19,20,20,21,21,22,22,24,24,25,25,26,26],"right_children":[2,4,6,8,10,12,14,16,18,20,22,24,26,-1,28,30,32,34,36,38,40,42,44,-1,46,48,50,-1,-1,-1,-1,-1,-1,-1,-1,-1,-1,-1,-1,-1,-1,-1,-1,-1,-1,-1,-1,-1,-1,-1,-1],"split_conditions":[1.2554741E-2,9.778501E-3,1.6148772E-2,8.855552E0,8.855552E0,1.4035218E-2,-1.3447001E-4,8.425591E-3,7.475419E-3,1.1549464E-2,1.13314735E-2,-8.485966E-2,-1.2619195E-4,8.929882E-3,1.3670228E4,-6.580559E-5,1.338006E6,4.7542512E-2,6.55816E3,9.0848875E4,2.0431927E-1,1E0,5.24E-1,-0E0,1.0547E4,5.3E1,6.952374E-2,1.6862592E-2,7.860089E-3,-4.876725E-3,-0E0,-2.6043057E-3,-0E0,-2.4376165E-3,-7.693771E-4,1.2793113E-3,-5.2851246E-4,-1.3501224E-3,3.064058E-4,8.1537216E-4,-9.0651214E-4,1.525378E-3,-0E0,3.4408295E-4,4.226944E-3,5.0395075E-3,2.917594E-3,6.227542E-3,2.775954E-3,9.3698185E-3,8.971546E-4],"split_indices":[88,88,88,93,93,88,95,88,88,88,88,140,95,0,86,95,83,114,80,86,115,1,61,0,78,66,138,0,0,0,0,0,0,0,0,0,0,0,0,0,0,0,0,0,0,0,0,0,0,0,0],"split_type":[0,0,0,0,0,0,0,0,0,0,0,0,0,0,0,0,0,0,0,0,0,0,0,0,0,0,0,0,0,0,0,0,0,0,0,0,0,0,0,0,0,0,0,0,0,0,0,0,0,0,0],"sum_hessian":[8.84E2,7.17E2,1.67E2,4.14E2,3.03E2,1.3E2,3.7E1,2.79E2,1.35E2,2.15E2,8.8E1,7.5E1,5.5E1,1.9E1,1.8E1,1.56E2,1.23E2,7.1E1,6.4E1,1.57E2,5.8E1,5.5E1,3.3E1,4E0,7.1E1,3.5E1,2E1,1.2E1,6E0,1.52E2,4E0,1.18E2,5E0,3.8E1,3.3E1,4.3E1,2.1E1,1.4E2,1.7E1,4E1,1.8E1,3.4E1,2.1E1,7E0,2.6E1,3.3E1,3.8E1,2E1,1.5E1,1.8E1,2E0],"tree_param":{"num_deleted":"0","num_feature":"145","num_nodes":"51","size_leaf_vector":"1"}},{"base_weights":[-0E0,-2.858099E-2,1.2811421E-1,-4.7492426E-2,8.468293E-3,8.617069E-2,1.9916902E-1,-6.75086E-2,-1.09489355E-2,-7.4640196E-3,4.544526E-2,1.13879465E-1,5.054248E-2,3.2139614E-3,2.0897998E-1,-8.7551154E-2,-4.937771E-2,-3.6328774E-2,1.0903462E-2,2.1993294E-2,-2.158851E-2,5.1890574E-2,-9.3728425E-3,1.24770515E-1,5.612233E-2,5.4790374E-2,-0E0,1.1758428E-2,1.2910764E-1,-4.515094E-3,-4.0506796E-4,-7.335996E-4,-2.8461243E-3,-6.305665E-4,-2.4390682E-3,1.4709256E-3,-3.021556E-4,2.4959564E-3,3.3100724E-4,-2.0162812E-3,-0E0,2.7940476E-3,-0E0,-6.7582185E-4,-0E0,7.008258E-3,3.4793E-3,3.1420493E-3,-0E0,-0E0,2.8513384E-3,4.71076E-4,6.9194916E-3],"categories":[],"categories_nodes":[],"categories_segments":[],"categories_sizes":[],"default_left":[0,0,0,0,0,0,0,0,0,0,0,0,0,0,0,0,0,0,0,0,0,0,0,0,0,0,0,0,0,0,0,0,0,0,0,0,0,0,0,0,0,0,0,0,0,0,0,0,0,0,0,0,0],"id":6,"left_children":[1,3,5,7,9,11,13,15,17,19,21,23,25,-1,27,29,31,33,35,37,39,41,43,45,47,49,-1,-1,51,-1,-1,-1,-1,-1,-1,-1,-1,-1,-1,-1,-1,-1,-1,-1,-1,-1,-1,-1,-1,-1,-1,-1,-1],"loss_changes":[3.1732733E0,5.017697E-1,4.2518926E-1,3.3666456E-1,1.4493905E-1,7.849789E-2,3.4674883E-2,9.2090964E-2,9.7222395E-2,6.950187E-2,3.0883819E-2,9.5053315E-3,1.2471281E-2,0E0,4.198098E-2,2.00243E-2,3.494832E-2,1.7168358E-2,3.075432E-2,1.6339615E-2,4.559818E-2,1.0507256E-2,2.9851904E-4,6.6514015E-3,1.6933046E-3,1.4968663E-3,0E0,0E0,1.6902089E-3,0E0,0E0,0E0,0E0,0E0,0E0,0E0,0E0,0E0,0E0,0E0,0E0,0E0,0E0,0E0,0E0,0E0,0E0,0E0,0E0,0E0,0E0,0E0,0E0],"parents":[2147483647,0,0,1,1,2,2,3,3,4,4,5,5,6,6,7,7,8,8,9,9,10,10,11,11,12,12,14,14,15,15,16,16,17,17,18,18,19,19,20,20,21,21,22,22,23,23,24,24,25,25,28,28],"right_children":[2,4,6,8,10,12,14,16,18,20,22,24,26,-1,28,30,32,34,36,38,40,42,44,46,48,50,-1,-1,52,-1,-1,-1,-1,-1,-1,-1,-1,-1,-1,-1,-1,-1,-1,-1,-1,-1,-1,-1,-1,-1,-1,-1,-1],"split_conditions":[1.2554741E-2,1.01722E-2,1.534916E-2,8.855552E0,7.6113486E0,6.2E1,-7.988802E-2,8.425591E-3,7.38354E-3,5.4E1,7.2E1,3.848694E-2,2.1237853E-1,3.2139614E-3,2.983E3,1.0549472E-1,4.9E1,5.4E1,6.2E1,2.153E3,1.0622938E0,1E0,1.6957108E1,9.55E-1,1.5834E4,-7.4594155E-2,-0E0,1.1758428E-2,4.99E-1,-4.515094E-3,-4.0506796E-4,-7.335996E-4,-2.8461243E-3,-6.305665E-4,-2.4390682E-3,1.4709256E-3,-3.021556E-4,2.4959564E-3,3.3100724E-4,-2.0162812E-3,-0E0,2.7940476E-3,-0E0,-6.7582185E-4,-0E0,7.008258E-3,3.4793E-3,3.1420493E-3,-0E0,-0E0,2.8513384E-3,4.71076E-4,6.9194916E-3],"split_indices":[88,88,88,93,93,68,140,88,88,68,68,115,115,0,67,89,68,68,68,67,92,29,93,62,78,141,0,0,61,0,0,0,0,0,0,0,0,0,0,0,0,0,0,0,0,0,0,0,0,0,0,0,0],"split_type":[0,0,0,0,0,0,0,0,0,0,0,0,0,0,0,0,0,0,0,0,0,0,0,0,0,0,0,0,0,0,0,0,0,0,0,0,0,0,0,0,0,0,0,0,0,0,0,0,0,0,0,0,0],"sum_hessian":[8.66E2,7.09E2,1.57E2,4.71E2,2.38E2,1.01E2,5.6E1,3.02E2,1.69E2,1.65E2,7.3E1,5.4E1,4.7E1,5E0,5.1E1,1.39E2,1.63E2,8E1,8.9E1,5.1E1,1.14E2,6.7E1,6E0,4.3E1,1.1E1,4.4E1,3E0,3.6E1,1.5E1,1.33E2,6E0,3.2E1,1.31E2,3.1E1,4.9E1,4.5E1,4.4E1,1.5E1,3.6E1,6E1,5.4E1,6.1E1,6E0,4E0,2E0,3.1E1,1.2E1,9E0,2E0,3E0,4.1E1,2E0,1.3E1],"tree_param":{"num_deleted":"0","num_feature":"145","num_nodes":"53","size_leaf_vector":"1"}},{"base_weights":[5.79532E-4,-1.6362663E-2,1.769235E-1,-3.0926144E-2,4.8999142E-2,1.1473427E-1,1.1390404E-2,-6.071521E-2,-2.67051E-3,-4.732034E-3,7.556578E-2,8.1621334E-2,7.445661E-3,-7.910974E-2,-3.3505525E-2,-1.1714511E-2,5.221661E-2,8.147382E-3,-2.0906992E-2,5.1034573E-2,1.2005139E-1,8.546348E-2,-0E0,-2.2032696E-3,-4.255586E-3,-1.0610379E-3,-2.4880697E-3,-1.9513017E-3,2.4083958E-4,3.2399297E-3,5.393873E-4,1.1934922E-3,-6.154499E-5,-1.2629087E-3,-0E0,3.1270955E-3,2.0980292E-4,-0E0,6.303376E-3,4.4948454E-3,-0E0],"categories":[],"categories_nodes":[],"categories_segments":[],"categories_sizes":[],"default_left":[0,0,0,0,0,0,0,0,0,0,0,0,0,0,0,0,0,0,0,0,0,0,0,0,0,0,0,0,0,0,0,0,0,0,0,0,0,0,0,0,0],"id":7,"left_children":[1,3,5,7,9,11,-1,13,15,17,19,21,-1,23,25,27,29,31,33,35,37,39,-1,-1,-1,-1,-1,-1,-1,-1,-1,-1,-1,-1,-1,-1,-1,-1,-1,-1,-1],"loss_changes":[2.6570494E0,7.6693565E-1,1.8643713E-1,5.498689E-1,2.1584973E-1,7.7991486E-3,0E0,1.4625096E-1,1.6632998E-1,1.1445851E-2,8.480191E-2,1.5717745E-4,0E0,2.2874832E-2,1.840584E-2,1.3725144E-1,1.6241446E-2,5.8320677E-3,3.107898E-3,2.9175878E-2,1.7076522E-2,1.6346574E-4,0E0,0E0,0E0,0E0,0E0,0E0,0E0,0E0,0E0,0E0,0E0,0E0,0E0,0E0,0E0,0E0,0E0,0E0,0E0],"parents":[2147483647,0,0,1,1,2,2,3,3,4,4,5,5,7,7,8,8,9,9,10,10,11,11,13,13,14,14,15,15,16,16,17,17,18,18,19,19,20,20,21,21],"right_children":[2,4,6,8,10,12,-1,14,16,18,20,22,-1,24,26,28,30,32,34,36,38,40,-1,-1,-1,-1,-1,-1,-1,-1,-1,-1,-1,-1,-1,-1,-1,-1,-1,-1,-1],"split_conditions":[2.7843575E0,1E0,-2.8423793E-4,7.9010874E-1,5.7676667E-1,6.76E-1,1.1390404E-2,-2.5778677E-4,2.0669196E0,6.3E1,7.37136E-1,9.678599E-2,7.445661E-3,4.9E1,6.1E1,-2.9796007E-4,6.4E1,-1.2126001E-2,9.15E-1,3.553E3,-2.6568063E-4,1E0,-0E0,-2.2032696E-3,-4.255586E-3,-1.0610379E-3,-2.4880697E-3,-1.9513017E-3,2.4083958E-4,3.2399297E-3,5.393873E-4,1.1934922E-3,-6.154499E-5,-1.2629087E-3,-0E0,3.1270955E-3,2.0980292E-4,-0E0,6.303376E-3,4.4948454E-3,-0E0],"split_indices":[92,37,95,92,92,61,0,95,92,68,92,128,0,68,68,95,68,136,61,67,95,45,0,0,0,0,0,0,0,0,0,0,0,0,0,0,0,0,0,0,0],"split_type":[0,0,0,0,0,0,0,0,0,0,0,0,0,0,0,0,0,0,0,0,0,0,0,0,0,0,0,0,0,0,0,0,0,0,0,0,0,0,0,0,0],"sum_hessian":[8.82E2,8.05E2,7.7E1,6.6E2,1.45E2,3.7E1,4E1,3.19E2,3.41E2,4.7E1,9.8E1,2.2E1,1.5E1,1.87E2,1.32E2,2.95E2,4.6E1,2.3E1,2.4E1,6.6E1,3.2E1,2E1,2E0,3.1E1,1.56E2,8E1,5.2E1,1.13E2,1.82E2,3.3E1,1.3E1,1.2E1,1.1E1,2.1E1,3E0,5.1E1,1.5E1,2E0,3E1,1.8E1,2E0],"tree_param":{"num_deleted":"0","num_feature":"145","num_nodes":"41","size_leaf_vector":"1"}},{"base_weights":[2.9811086E-4,-2.8660944E-2,1.10644035E-1,-4.222932E-2,7.477329E-3,7.57976E-2,1.9102877E-1,-7.554355E-2,-2.214706E-2,-2.4618812E-2,2.273132E-2,1.2087267E-1,5.226417E-2,1.19614154E-1,2.3607902E-1,-8.3704546E-2,-4.39663E-2,-3.3378072E-2,7.631091E-3,-4.422504E-2,-7.113862E-3,5.05637E-2,5.410073E-3,-0E0,6.267541E-3,-0E0,5.6593385E-2,8.0656254E-4,6.4665014E-3,2.4447975E-1,2.282297E-3,-4.247713E-3,-0E0,-0E0,-2.3783518E-3,-3.918324E-4,-2.3012506E-3,9.512945E-4,-5.397301E-4,-4.6851803E-4,-3.0654536E-3,9.6093216E-5,-7.562746E-4,-0E0,2.816516E-3,8.737035E-4,-5.6929304E-4,-0E0,2.6295273E-4,3.007331E-3,-0E0,4.0585697E-3,1.2841495E-2],"categories":[],"categories_nodes":[],"categories_segments":[],"categories_sizes":[],"default_left":[0,0,0,0,0,0,0,0,0,0,0,0,0,0,0,0,0,0,0,0,0,0,0,0,0,0,0,0,0,0,0,0,0,0,0,0,0,0,0,0,0,0,0,0,0,0,0,0,0,0,0,0,0],"id":8,"left_children":[1,3,5,7,9,11,13,15,17,19,21,23,25,27,29,31,33,35,37,39,41,43,45,-1,-1,47,49,-1,-1,51,-1,-1,-1,-1,-1,-1,-1,-1,-1,-1,-1,-1,-1,-1,-1,-1,-1,-1,-1,-1,-1,-1,-1],"loss_changes":[2.7179694E0,3.328076E-1,4.5463634E-1,3.163802E-1,8.947702E-2,1.1002618E-1,1.0348904E-1,3.0454397E-2,1.0617097E-1,1.4114246E-2,5.4872602E-2,1.3782084E-2,1.8109351E-2,6.492436E-3,7.821202E-3,8.067608E-3,7.054776E-3,6.757891E-2,1.8454943E-2,6.648574E-3,3.8107233E-3,1.5662767E-2,1.7220492E-2,0E0,0E0,8.297296E-5,1.8299073E-2,0E0,0E0,1.8252134E-3,0E0,0E0,0E0,0E0,0E0,0E0,0E0,0E0,0E0,0E0,0E0,0E0,0E0,0E0,0E0,0E0,0E0,0E0,0E0,0E0,0E0,0E0,0E0],"parents":[2147483647,0,0,1,1,2,2,3,3,4,4,5,5,6,6,7,7,8,8,9,9,10,10,11,11,12,12,13,13,14,14,15,15,16,16,17,17,18,18,19,19,20,20,21,21,22,22,25,25,26,26,29,29],"right_children":[2,4,6,8,10,12,14,16,18,20,22,24,26,28,30,32,34,36,38,40,42,44,46,-1,-1,48,50,-1,-1,52,-1,-1,-1,-1,-1,-1,-1,-1,-1,-1,-1,-1,-1,-1,-1,-1,-1,-1,-1,-1,-1,-1,-1],"split_conditions":[1.2258662E-2,9.9097185E0,1.534916E-2,8.612543E-3,7.475419E-3,5.4E1,-2.3415263E-4,6.988657E0,1.0622938E0,6.0082144E-1,5.3E1,2.57629E-1,1.94909E-1,1.7316142E-1,4.581411E-2,9.27E-1,-1.6819601E-1,5.3E1,1E0,5.3E1,2.695E3,4.7497144E-1,3.348E3,-0E0,6.267541E-3,1E0,1.5042931E-1,8.0656254E-4,6.4665014E-3,1.13E-1,2.282297E-3,-4.247713E-3,-0E0,-0E0,-2.3783518E-3,-3.918324E-4,-2.3012506E-3,9.512945E-4,-5.397301E-4,-4.6851803E-4,-3.0654536E-3,9.6093216E-5,-7.562746E-4,-0E0,2.816516E-3,8.737035E-4,-5.6929304E-4,-0E0,2.6295273E-4,3.007331E-3,-0E0,4.0585697E-3,1.2841495E-2],"split_indices":[88,93,88,88,88,68,95,93,92,92,68,94,74,89,137,61,126,68,70,68,67,92,67,0,0,25,129,0,0,57,0,0,0,0,0,0,0,0,0,0,0,0,0,0,0,0,0,0,0,0,0,0,0],"split_type":[0,0,0,0,0,0,0,0,0,0,0,0,0,0,0,0,0,0,0,0,0,0,0,0,0,0,0,0,0,0,0,0,0,0,0,0,0,0,0,0,0,0,0,0,0,0,0,0,0,0,0,0,0],"sum_hessian":[8.46E2,6.7E2,1.76E2,4.89E2,1.81E2,1.25E2,5.1E1,1.81E2,3.08E2,5.6E1,1.25E2,4E1,8.5E1,2.2E1,2.9E1,1.4E2,4.1E1,2.26E2,8.2E1,2.3E1,3.3E1,4.5E1,8E1,2E0,3.8E1,7E0,7.8E1,3E0,1.9E1,2.7E1,2E0,1.37E2,3E0,3E0,3.8E1,7.8E1,1.48E2,5.4E1,2.8E1,1E1,1.3E1,1E1,2.3E1,4E0,4.1E1,5E1,3E1,5E0,2E0,7.4E1,4E0,3E0,2.4E1],"tree_param":{"num_deleted":"0","num_feature":"145","num_nodes":"53","size_leaf_vector":"1"}},{"base_weights":[-2.4578033E-3,-2.480788E-2,1.1137997E-1,-4.3560263E-2,9.357705E-3,7.862597E-2,1.8325002E-1,-6.0248546E-2,-7.674883E-3,-3.525623E-3,4.726748E-2,1.10559665E-1,4.3257155E-2,1.0318248E-2,5.228165E-3,-7.712286E-2,-4.3023024E-2,-3.0533336E-2,1.3458045E-2,3.1745475E-2,-1.0693565E-2,6.131537E-2,4.784384E-3,-0E0,1.1381102E-1,-0E0,4.55718E-2,-4.080233E-3,-2.0173793E-3,-6.8173365E-4,-2.508858E-3,-0E0,-1.9015049E-3,1.5081374E-3,-1.5836133E-4,-0E0,1.9193216E-3,-9.326745E-4,7.430027E-4,3.3165512E-3,-0E0,-2.9561776E-4,1.1582329E-3,3.9744633E-3,6.929461E-3,2.4422274E-3,-0E0],"categories":[],"categories_nodes":[],"categories_segments":[],"categories_sizes":[],"default_left":[0,0,0,0,0,0,0,0,0,0,0,0,0,0,0,0,0,0,0,0,0,0,0,0,0,0,0,0,0,0,0,0,0,0,0,0,0,0,0,0,0,0,0,0,0,0,0],"id":9,"left_children":[1,3,5,7,9,11,13,15,17,19,21,23,25,-1,-1,27,29,31,33,35,37,39,41,-1,43,-1,45,-1,-1,-1,-1,-1,-1,-1,-1,-1,-1,-1,-1,-1,-1,-1,-1,-1,-1,-1,-1],"loss_changes":[2.2661505E0,4.8306116E-1,3.0309296E-1,2.8319496E-1,1.334795E-1,9.616989E-2,2.7357697E-2,8.029735E-2,7.795981E-2,4.778723E-2,3.4275725E-2,1.2028635E-2,6.5380186E-3,0E0,0E0,1.1212885E-2,2.8256387E-2,1.5505403E-2,2.5012704E-2,8.543955E-3,3.442175E-2,1.0012478E-2,5.7943678E-3,0E0,9.697318E-3,0E0,5.9068874E-3,0E0,0E0,0E0,0E0,0E0,0E0,0E0,0E0,0E0,0E0,0E0,0E0,0E0,0E0,0E0,0E0,0E0,0E0,0E0,0E0],"parents":[2147483647,0,0,1,1,2,2,3,3,4,4,5,5,6,6,7,7,8,8,9,9,10,10,11,11,12,12,15,15,16,16,17,17,18,18,19,19,20,20,21,21,22,22,24,24,26,26],"right_children":[2,4,6,8,10,12,14,16,18,20,22,24,26,-1,-1,28,30,32,34,36,38,40,42,-1,44,-1,46,-1,-1,-1,-1,-1,-1,-1,-1,-1,-1,-1,-1,-1,-1,-1,-1,-1,-1,-1,-1],"split_conditions":[1.2787398E-2,1.01722E-2,1.5789185E-2,8.855552E0,1.0239779E1,5.8E1,2.983E3,8.425591E-3,7.38354E-3,4.9E1,3.553E3,-1.21293776E-1,-1.4038952E-1,1.0318248E-2,5.228165E-3,6.988657E0,4.9E1,5.1E1,3.015E3,3.378942E-1,1.2673587E0,1E0,1.1288231E-2,-0E0,1.3849267E-2,-0E0,6.63E-1,-4.080233E-3,-2.0173793E-3,-6.8173365E-4,-2.508858E-3,-0E0,-1.9015049E-3,1.5081374E-3,-1.5836133E-4,-0E0,1.9193216E-3,-9.326745E-4,7.430027E-4,3.3165512E-3,-0E0,-2.9561776E-4,1.1582329E-3,3.9744633E-3,6.929461E-3,2.4422274E-3,-0E0],"split_indices":[88,88,88,93,93,68,67,88,88,68,67,138,135,0,0,93,68,68,67,94,92,20,134,0,88,0,60,0,0,0,0,0,0,0,0,0,0,0,0,0,0,0,0,0,0,0,0],"split_type":[0,0,0,0,0,0,0,0,0,0,0,0,0,0,0,0,0,0,0,0,0,0,0,0,0,0,0,0,0,0,0,0,0,0,0,0,0,0,0,0,0,0,0,0,0,0,0],"sum_hessian":[8.92E2,7.47E2,1.45E2,4.84E2,2.63E2,1.02E2,4.3E1,3.28E2,1.56E2,1.95E2,6.8E1,5.1E1,5.1E1,3.1E1,1.2E1,1.61E2,1.67E2,7.7E1,7.9E1,3E1,1.65E2,4.9E1,1.9E1,2E0,4.9E1,2E0,4.9E1,1.4E2,2.1E1,3.6E1,1.31E2,1.7E1,6E1,4.2E1,3.7E1,4E0,2.6E1,1.29E2,3.6E1,4.4E1,5E0,9E0,1E1,2.4E1,2.5E1,4.5E1,4E0],"tree_param":{"num_deleted":"0","num_feature":"145","num_nodes":"47","size_leaf_vector":"1"}},{"base_weights":[1.1744438E-3,-2.204151E-2,1.13243125E-1,-4.0703863E-2,8.497195E-3,8.380895E-2,1.8885602E-1,-5.7462424E-2,-8.540761E-3,3.877365E-2,-2.203201E-3,1.2963471E-1,5.5402767E-2,1.5616362E-1,1.3650029E-2,-7.539459E-2,-4.0370848E-2,-2.946718E-2,8.556494E-3,1.593053E-2,5.7866134E-2,2.9258592E-2,-1.2031626E-2,1.3465983E-1,-0E0,4.5969617E-3,4.1284174E-2,8.1968885E-3,1.7880098E-3,-4.0951953E-3,-1.6402215E-3,-4.97261E-4,-2.3572617E-3,-7.643962E-4,-2.2973923E-3,1.4902779E-3,-5.5106374E-4,1.5854434E-3,-2.551705E-5,3.083456E-3,-0E0,-6.082167E-4,2.297954E-3,-1.1234478E-3,2.930499E-4,2.1907326E-3,7.2033107E-3,2.1981036E-3,-0E0],"categories":[],"categories_nodes":[],"categories_segments":[],"categories_sizes":[],"default_left":[0,0,0,0,0,0,0,0,0,0,0,0,0,0,0,0,0,0,0,0,0,0,0,0,0,0,0,0,0,0,0,0,0,0,0,0,0,0,0,0,0,0,0,0,0,0,0,0,0],"id":10,"left_children":[1,3,5,7,9,11,13,15,17,19,21,23,25,27,-1,29,31,33,35,37,39,41,43,45,-1,-1,47,-1,-1,-1,-1,-1,-1,-1,-1,-1,-1,-1,-1,-1,-1,-1,-1,-1,-1,-1,-1,-1,-1],"loss_changes":[2.2569537E0,4.1106233E-1,2.8852057E-1,2.3330605E-1,9.121439E-2,1.17504895E-1,2.4486303E-2,7.456815E-2,5.8157556E-2,2.3536116E-2,5.9854873E-2,1.6857922E-2,1.9506902E-2,4.1208267E-3,0E0,2.4100423E-2,2.5563776E-2,1.0232881E-2,3.71517E-2,1.2734189E-2,9.213716E-3,3.5068765E-2,3.055217E-2,7.371664E-3,0E0,0E0,4.8248023E-3,0E0,0E0,0E0,0E0,0E0,0E0,0E0,0E0,0E0,0E0,0E0,0E0,0E0,0E0,0E0,0E0,0E0,0E0,0E0,0E0,0E0,0E0],"parents":[2147483647,0,0,1,1,2,2,3,3,4,4,5,5,6,6,7,7,8,8,9,9,10,10,11,11,12,12,13,13,15,15,16,16,17,17,18,18,19,19,20,20,21,21,22,22,23,23,26,26],"right_children":[2,4,6,8,10,12,14,16,18,20,22,24,26,28,-1,30,32,34,36,38,40,42,44,46,-1,-1,48,-1,-1,-1,-1,-1,-1,-1,-1,-1,-1,-1,-1,-1,-1,-1,-1,-1,-1,-1,-1,-1,-1],"split_conditions":[1.2787398E-2,1.0088456E-2,3.3911424E0,8.855552E0,5.3E1,5.4E1,8.58E-1,8.425591E-3,7.328665E-3,-2.3415263E-4,2.064E3,6.2011246E-2,2.012E3,2.536634E-2,1.3650029E-2,9.46263E-2,4.9E1,6.1E1,6.2E1,4.3882787E-2,3E0,-1.0692624E-1,-1.7114572E-4,-3.2459773E-2,-0E0,4.5969617E-3,1E0,8.1968885E-3,1.7880098E-3,-4.0951953E-3,-1.6402215E-3,-4.97261E-4,-2.3572617E-3,-7.643962E-4,-2.2973923E-3,1.4902779E-3,-5.5106374E-4,1.5854434E-3,-2.551705E-5,3.083456E-3,-0E0,-6.082167E-4,2.297954E-3,-1.1234478E-3,2.930499E-4,2.1907326E-3,7.2033107E-3,2.1981036E-3,-0E0],"split_indices":[88,88,92,93,68,68,61,88,88,95,67,115,67,119,0,89,68,68,68,115,64,118,95,132,0,0,23,0,0,0,0,0,0,0,0,0,0,0,0,0,0,0,0,0,0,0,0,0,0],"split_type":[0,0,0,0,0,0,0,0,0,0,0,0,0,0,0,0,0,0,0,0,0,0,0,0,0,0,0,0,0,0,0,0,0,0,0,0,0,0,0,0,0,0,0,0,0,0,0,0,0],"sum_hessian":[8.62E2,7.14E2,1.48E2,4.45E2,2.69E2,1.09E2,3.9E1,2.9E2,1.55E2,7.2E1,1.97E2,3.9E1,7E1,3.1E1,8E0,1.37E2,1.53E2,7.2E1,8.3E1,3.6E1,3.6E1,4.4E1,1.53E2,3.7E1,2E0,1.6E1,5.4E1,2.8E1,3E0,1.16E2,2.1E1,3.1E1,1.22E2,4.3E1,2.9E1,4.2E1,4.1E1,2.1E1,1.5E1,3.4E1,2E0,1.1E1,3.3E1,1E2,5.3E1,5E0,3.2E1,5E1,4E0],"tree_param":{"num_deleted":"0","num_feature":"145","num_nodes":"49","size_leaf_vector":"1"}},{"base_weights":[2.2887632E-3,-2.19926E-2,1.11030675E-1,-3.775316E-2,8.304529E-3,9.153429E-2,2.3890352E-1,-5.1600795E-2,-9.629675E-3,3.9779548E-2,-4.520941E-3,1.2420296E-1,6.341353E-2,5.0577815E-3,1.3570457E-2,-3.2228976E-2,-6.1493162E-2,5.545781E-3,-2.5352009E-2,-0E0,4.8477236E-2,-1.3469938E-2,1.811044E-2,1.3682209E-1,2.1509791E-3,3.1114023E-2,7.414642E-2,-8.2689105E-4,-2.6104471E-3,-3.2582895E-3,-7.183425E-4,-4.031662E-4,8.555387E-4,-1.7126348E-3,6.591827E-4,-1.1438241E-3,1.6763415E-3,1.321179E-3,3.1911728E-3,-1.3395654E-3,-2.1735423E-5,1.9663682E-3,-0E0,4.281543E-3,7.7919657E-3,-0E0,1.7573005E-3,4.711389E-3,1.8008122E-3],"categories":[],"categories_nodes":[],"categories_segments":[],"categories_sizes":[],"default_left":[0,0,0,0,0,0,0,0,0,0,0,0,0,0,0,0,0,0,0,0,0,0,0,0,0,0,0,0,0,0,0,0,0,0,0,0,0,0,0,0,0,0,0,0,0,0,0,0,0],"id":11,"left_children":[1,3,5,7,9,11,13,15,17,19,21,23,25,-1,-1,27,29,31,33,35,37,39,41,43,-1,45,47,-1,-1,-1,-1,-1,-1,-1,-1,-1,-1,-1,-1,-1,-1,-1,-1,-1,-1,-1,-1,-1,-1],"loss_changes":[2.326978E0,3.4562573E-1,3.464707E-1,1.7797637E-1,1.02204084E-1,1.0381305E-1,2.4840593E-2,4.9010396E-2,4.0296193E-2,2.5486447E-2,3.4614738E-2,4.067099E-2,1.4900297E-2,0E0,0E0,2.7374864E-2,2.641821E-2,1.3476461E-2,3.0683968E-2,1.145429E-2,9.595275E-3,1.9318936E-2,1.7392024E-2,1.4104664E-2,0E0,3.9413404E-3,2.7227104E-2,0E0,0E0,0E0,0E0,0E0,0E0,0E0,0E0,0E0,0E0,0E0,0E0,0E0,0E0,0E0,0E0,0E0,0E0,0E0,0E0,0E0,0E0],"parents":[2147483647,0,0,1,1,2,2,3,3,4,4,5,5,6,6,7,7,8,8,9,9,10,10,11,11,12,12,15,15,16,16,17,17,18,18,19,19,20,20,21,21,22,22,23,23,25,25,26,26],"right_children":[2,4,6,8,10,12,14,16,18,20,22,24,26,-1,-1,28,30,32,34,36,38,40,42,44,-1,46,48,-1,-1,-1,-1,-1,-1,-1,-1,-1,-1,-1,-1,-1,-1,-1,-1,-1,-1,-1,-1,-1,-1],"split_conditions":[1.2787398E-2,1.0271116E-2,1.730716E-2,-1.8494975E-4,5.3E1,5.7E1,3.6638906E0,5.4E1,5.9E1,-5.9124525E-4,4.288234E4,2.1009019E-2,1.363226E-2,5.0577815E-3,1.3570457E-2,1E0,1E0,3.720464E4,1.10839754E-1,2.4455E4,4E0,1.0622938E0,-9.020393E-2,1.3849267E-2,2.1509791E-3,-1.03531726E-1,1E0,-8.2689105E-4,-2.6104471E-3,-3.2582895E-3,-7.183425E-4,-4.031662E-4,8.555387E-4,-1.7126348E-3,6.591827E-4,-1.1438241E-3,1.6763415E-3,1.321179E-3,3.1911728E-3,-1.3395654E-3,-2.1735423E-5,1.9663682E-3,-0E0,4.281543E-3,7.7919657E-3,-0E0,1.7573005E-3,4.711389E-3,1.8008122E-3],"split_indices":[88,88,88,95,68,68,92,68,68,95,81,115,88,0,0,0,36,81,89,78,55,92,116,88,0,118,50,0,0,0,0,0,0,0,0,0,0,0,0,0,0,0,0,0,0,0,0,0,0],"split_type":[0,0,0,0,0,0,0,0,0,0,0,0,0,0,0,0,0,0,0,0,0,0,0,0,0,0,0,0,0,0,0,0,0,0,0,0,0,0,0,0,0,0,0,0,0,0,0,0,0],"sum_hessian":[8.76E2,7.16E2,1.6E2,4.73E2,2.43E2,1.41E2,1.9E1,3.14E2,1.59E2,7.2E1,1.71E2,6.2E1,7.9E1,5E0,1.4E1,1.11E2,2.03E2,7.8E1,8.1E1,1.3E1,5.9E1,1.26E2,4.5E1,5.2E1,1E1,2.3E1,5.6E1,6.6E1,4.5E1,1.86E2,1.7E1,3.2E1,4.6E1,6.8E1,1.3E1,8E0,5E0,2.8E1,3.1E1,5.8E1,6.8E1,2E1,2.5E1,1.7E1,3.5E1,2E0,2.1E1,3.4E1,2.2E1],"tree_param":{"num_deleted":"0","num_feature":"145","num_nodes":"49","size_leaf_vector":"1"}},{"base_weights":[8.6531823E-4,-2.1710623E-2,1.0771356E-1,-3.4532383E-2,1.6317287E-2,7.603847E-2,1.839123E-1,-4.6536393E-2,-1.128137E-2,-1.0218344E-2,2.8662428E-2,1.0155239E-1,5.2239552E-2,2.6950198E-3,1.9696912E-1,-5.9332613E-2,-2.9897131E-2,-1.6432997E-2,2.3557322E-2,-2.1757351E-2,1.301782E-2,3.7635434E-2,-0E0,-0E0,1.0803414E-1,3.6649413E-2,4.094552E-3,3.8800624E-4,2.044874E-1,-3.404226E-3,-1.5001912E-3,-1.6833068E-3,9.6253486E-4,-1.1713232E-3,-4.47073E-5,1.3761047E-3,-0E0,-1.0335206E-4,-1.4744428E-3,1.2689854E-3,-0E0,-2.2214132E-4,2.2839077E-3,-1.3057956E-3,5.8357464E-4,5.6403945E-3,1.7572186E-4,1.9630878E-3,-0E0,1.3000309E-2,7.3843994E-3],"categories":[],"categories_nodes":[],"categories_segments":[],"categories_sizes":[],"default_left":[0,0,0,0,0,0,0,0,0,0,0,0,0,0,0,0,0,0,0,0,0,0,0,0,0,0,0,0,0,0,0,0,0,0,0,0,0,0,0,0,0,0,0,0,0,0,0,0,0,0,0],"id":12,"left_children":[1,3,5,7,9,11,13,15,17,19,21,23,25,-1,27,29,31,33,35,37,39,41,43,-1,45,47,-1,-1,49,-1,-1,-1,-1,-1,-1,-1,-1,-1,-1,-1,-1,-1,-1,-1,-1,-1,-1,-1,-1,-1,-1],"loss_changes":[2.0999036E0,3.510081E-1,3.2688808E-1,1.435728E-1,6.0775205E-2,4.6108127E-2,3.7290692E-2,6.403798E-2,3.323668E-2,1.5903912E-2,3.04522E-2,3.2910347E-2,1.33432E-2,0E0,3.1244159E-2,3.7944794E-2,3.1357273E-2,1.5586287E-2,2.9404694E-3,2.8728843E-3,4.3740063E-3,3.613828E-2,9.407737E-3,0E0,1.14219785E-2,4.1010156E-3,0E0,0E0,3.435445E-2,0E0,0E0,0E0,0E0,0E0,0E0,0E0,0E0,0E0,0E0,0E0,0E0,0E0,0E0,0E0,0E0,0E0,0E0,0E0,0E0,0E0,0E0],"parents":[2147483647,0,0,1,1,2,2,3,3,4,4,5,5,6,6,7,7,8,8,9,9,10,10,11,11,12,12,14,14,15,15,16,16,17,17,18,18,19,19,20,20,21,21,22,22,24,24,25,25,28,28],"right_children":[2,4,6,8,10,12,14,16,18,20,22,24,26,-1,28,30,32,34,36,38,40,42,44,-1,46,48,-1,-1,50,-1,-1,-1,-1,-1,-1,-1,-1,-1,-1,-1,-1,-1,-1,-1,-1,-1,-1,-1,-1,-1,-1],"split_conditions":[1.2787398E-2,1.0686182E-2,1.6033659E-2,-1.8494975E-4,2.46684E-1,6.65898E5,-4.645659E-4,8.634448E-3,1.1363637E-1,6.3908374E-1,2E0,-1.4396632E-1,2.062926E-1,2.6950198E-3,-1.3073839E-1,9.110662E4,4.022E3,1.8E1,8.839254E-2,2.004185E4,1.7378004E-2,3.6206216E-1,3.212121E-1,-0E0,1E0,7.502253E-2,4.094552E-3,3.8800624E-4,1.3670228E4,-3.404226E-3,-1.5001912E-3,-1.6833068E-3,9.6253486E-4,-1.1713232E-3,-4.47073E-5,1.3761047E-3,-0E0,-1.0335206E-4,-1.4744428E-3,1.2689854E-3,-0E0,-2.2214132E-4,2.2839077E-3,-1.3057956E-3,5.8357464E-4,5.6403945E-3,1.7572186E-4,1.9630878E-3,-0E0,1.3000309E-2,7.3843994E-3],"split_indices":[88,88,88,95,74,82,95,88,89,94,97,122,89,0,124,81,79,54,124,81,138,94,73,0,22,127,0,0,86,0,0,0,0,0,0,0,0,0,0,0,0,0,0,0,0,0,0,0,0,0,0],"split_type":[0,0,0,0,0,0,0,0,0,0,0,0,0,0,0,0,0,0,0,0,0,0,0,0,0,0,0,0,0,0,0,0,0,0,0,0,0,0,0,0,0,0,0,0,0,0,0,0,0,0,0],"sum_hessian":[8.65E2,7.14E2,1.51E2,5.36E2,1.78E2,1.09E2,4.2E1,3.5E2,1.86E2,5.4E1,1.24E2,4.9E1,6E1,5E0,3.7E1,1.93E2,1.57E2,1.65E2,2.1E1,3.9E1,1.5E1,9.3E1,3.1E1,3E0,4.6E1,4.3E1,1.7E1,2E0,3.5E1,1.45E2,4.8E1,1.48E2,9E0,1.09E2,5.6E1,1.9E1,2E0,1.5E1,2.4E1,1E1,5E0,1.3E1,8E1,8E0,2.3E1,4.3E1,3E0,4E1,3E0,1.5E1,2E1],"tree_param":{"num_deleted":"0","num_feature":"145","num_nodes":"51","size_leaf_vector":"1"}},{"base_weights":[-2.0175E-3,-1.3313708E-2,1.24552645E-1,1.33404285E-2,-3.0655576E-2,1.5406501E-1,6.483691E-2,1.0509162E-3,5.133453E-2,-3.6208317E-2,2.7649794E-2,1.22564875E-1,1.1107164E-2,3.175968E-2,4.8982045E-3,-2.0963652E-2,1.9039564E-2,8.386995E-2,3.0982377E-2,-4.394007E-2,6.3451095E-3,-0E0,3.780175E-2,6.931389E-3,3.364268E-3,1.9337215E-3,-0E0,-4.055104E-5,-1.522327E-3,1.5509072E-3,-0E0,-0E0,4.560673E-3,3.3337884E-3,6.731608E-4,-3.2646998E-3,-1.6663101E-3,1.3518938E-3,-7.0037687E-4,-7.907522E-4,6.7485205E-4,-0E0,2.185207E-3],"categories":[],"categories_nodes":[],"categories_segments":[],"categories_sizes":[],"default_left":[0,0,0,0,0,0,0,0,0,0,0,0,0,0,0,0,0,0,0,0,0,0,0,0,0,0,0,0,0,0,0,0,0,0,0,0,0,0,0,0,0,0,0],"id":13,"left_children":[1,3,5,7,9,11,13,15,17,19,21,23,-1,25,-1,27,29,31,33,35,37,39,41,-1,-1,-1,-1,-1,-1,-1,-1,-1,-1,-1,-1,-1,-1,-1,-1,-1,-1,-1,-1],"loss_changes":[1.2229898E0,3.6869085E-1,9.148526E-2,1.3992243E-1,1.5823048E-1,3.480363E-2,1.2405947E-2,9.4457656E-2,3.491655E-2,1.4979094E-1,1.1524215E-2,2.7126074E-4,0E0,1.8097013E-3,0E0,1.691559E-2,2.9356465E-2,1.6789094E-2,2.1729026E-2,7.340819E-2,2.9898988E-2,2.7758845E-3,4.882127E-3,0E0,0E0,0E0,0E0,0E0,0E0,0E0,0E0,0E0,0E0,0E0,0E0,0E0,0E0,0E0,0E0,0E0,0E0,0E0,0E0],"parents":[2147483647,0,0,1,1,2,2,3,3,4,4,5,5,6,6,7,7,8,8,9,9,10,10,11,11,13,13,15,15,16,16,17,17,18,18,19,19,20,20,21,21,22,22],"right_children":[2,4,6,8,10,12,14,16,18,20,22,24,-1,26,-1,28,30,32,34,36,38,40,42,-1,-1,-1,-1,-1,-1,-1,-1,-1,-1,-1,-1,-1,-1,-1,-1,-1,-1,-1,-1],"split_conditions":[2.7843575E0,8.47947E5,6.5E1,1E0,1.8085923E0,3.8105888E0,3.3911424E0,8.515812E-1,5.57858E5,1E0,1.7840348E-1,2.968E3,1.1107164E-2,1.5E1,4.8982045E-3,6.666667E-1,6.1E1,1.24096E-1,5.1E1,5.9062356E-1,3.553E3,2.1484752E0,-1.388375E-1,6.931389E-3,3.364268E-3,1.9337215E-3,-0E0,-4.055104E-5,-1.522327E-3,1.5509072E-3,-0E0,-0E0,4.560673E-3,3.3337884E-3,6.731608E-4,-3.2646998E-3,-1.6663101E-3,1.3518938E-3,-7.0037687E-4,-7.907522E-4,6.7485205E-4,-0E0,2.185207E-3],"split_indices":[92,82,68,36,92,92,92,92,82,36,89,67,0,54,0,76,68,74,68,92,67,92,116,0,0,0,0,0,0,0,0,0,0,0,0,0,0,0,0,0,0,0,0],"split_type":[0,0,0,0,0,0,0,0,0,0,0,0,0,0,0,0,0,0,0,0,0,0,0,0,0,0,0,0,0,0,0,0,0,0,0,0,0,0,0,0,0,0,0],"sum_hessian":[8.61E2,7.92E2,6.9E1,3.1E2,4.82E2,4.4E1,2.5E1,2.37E2,7.3E1,4.42E2,4E1,3.3E1,1.1E1,1.5E1,1E1,1.04E2,1.33E2,2.5E1,4.8E1,3.76E2,6.6E1,1.1E1,2.9E1,2.3E1,1E1,1.1E1,4E0,3.7E1,6.7E1,8E1,5.3E1,2E0,2.3E1,1.3E1,3.5E1,1.2E2,2.56E2,3.5E1,3.1E1,5E0,6E0,5E0,2.4E1],"tree_param":{"num_deleted":"0","num_feature":"145","num_nodes":"43","size_leaf_vector":"1"}},{"base_weights":[2.2722904E-4,-2.2056207E-2,8.9165986E-2,-3.3596087E-2,7.3164194E-3,6.493894E-2,1.6373324E-1,-5.7518937E-2,-1.7281944E-2,-2.2538466E-2,1.94939E-2,9.268208E-2,3.4319956E-2,5.9273597E-3,1.1763363E-2,-6.353245E-2,-3.0356312E-2,-2.4764707E-2,1.0637845E-3,-4.6156924E-3,-4.3852698E-2,2.5658188E-2,-2.3632962E-2,6.749288E-2,1.190053E-1,4.207255E-2,-0E0,-3.460465E-3,-2.12068E-3,-1.694832E-3,-0E0,-3.122574E-5,-1.7212905E-3,-5.1477615E-4,7.833669E-4,-6.0269044E-4,-0E0,-2.348774E-3,-0E0,7.0329354E-4,2.4147984E-3,-1.3213672E-3,-0E0,3.5149958E-3,-0E0,6.1921664E-3,4.243292E-5,2.3299542E-3,-0E0,-6.31416E-4,-0E0],"categories":[],"categories_nodes":[],"categories_segments":[],"categories_sizes":[],"default_left":[0,0,0,0,0,0,0,0,0,0,0,0,0,0,0,0,0,0,0,0,0,0,0,0,0,0,0,0,0,0,0,0,0,0,0,0,0,0,0,0,0,0,0,0,0,0,0,0,0,0,0],"id":14,"left_children":[1,3,5,7,9,11,13,15,17,19,21,23,25,-1,-1,27,29,31,33,35,37,39,41,43,45,47,49,-1,-1,-1,-1,-1,-1,-1,-1,-1,-1,-1,-1,-1,-1,-1,-1,-1,-1,-1,-1,-1,-1,-1,-1],"loss_changes":[1.7190237E0,2.3675376E-1,2.8083873E-1,1.8588573E-1,7.030147E-2,9.794742E-2,6.925416E-2,2.1187723E-2,4.357946E-2,1.5579298E-2,3.80274E-2,1.8406332E-2,2.1979094E-2,0E0,0E0,4.9645305E-3,5.879592E-3,4.7082394E-2,1.463293E-2,2.2028333E-3,1.8266179E-3,2.5887527E-2,8.4139314E-4,5.2006543E-3,4.575044E-3,1.2021005E-2,1.1163213E-3,0E0,0E0,0E0,0E0,0E0,0E0,0E0,0E0,0E0,0E0,0E0,0E0,0E0,0E0,0E0,0E0,0E0,0E0,0E0,0E0,0E0,0E0,0E0,0E0],"parents":[2147483647,0,0,1,1,2,2,3,3,4,4,5,5,6,6,7,7,8,8,9,9,10,10,11,11,12,12,15,15,16,16,17,17,18,18,19,19,20,20,21,21,22,22,23,23,24,24,25,25,26,26],"right_children":[2,4,6,8,10,12,14,16,18,20,22,24,26,-1,-1,28,30,32,34,36,38,40,42,44,46,48,50,-1,-1,-1,-1,-1,-1,-1,-1,-1,-1,-1,-1,-1,-1,-1,-1,-1,-1,-1,-1,-1,-1,-1,-1],"split_conditions":[1.2326022E-2,9.9097185E0,3.3911424E0,8.612543E-3,7.197254E-3,5.8E1,8.18E-1,6.988657E0,1.0622938E0,6.1E1,7.2E1,-1.7002632E-4,1E0,5.9273597E-3,1.1763363E-2,8.163949E-3,1.10839754E-1,5.2E1,4.29627E-1,6.5370775E-3,7.022232E-3,1.5002791E1,-1.24791175E-1,3E0,1E0,1E0,3.0267278E-2,-3.460465E-3,-2.12068E-3,-1.694832E-3,-0E0,-3.122574E-5,-1.7212905E-3,-5.1477615E-4,7.833669E-4,-6.0269044E-4,-0E0,-2.348774E-3,-0E0,7.0329354E-4,2.4147984E-3,-1.3213672E-3,-0E0,3.5149958E-3,-0E0,6.1921664E-3,4.243292E-5,2.3299542E-3,-0E0,-6.31416E-4,-0E0],"split_indices":[88,93,92,88,88,68,61,93,92,68,68,95,34,0,0,88,89,68,74,88,88,93,114,63,40,40,113,0,0,0,0,0,0,0,0,0,0,0,0,0,0,0,0,0,0,0,0,0,0,0,0],"split_type":[0,0,0,0,0,0,0,0,0,0,0,0,0,0,0,0,0,0,0,0,0,0,0,0,0,0,0,0,0,0,0,0,0,0,0,0,0,0,0,0,0,0,0,0,0,0,0,0,0,0,0],"sum_hessian":[8.62E2,6.89E2,1.73E2,4.97E2,1.92E2,1.33E2,4E1,1.98E2,2.99E2,5.3E1,1.39E2,6.7E1,6.6E1,2.7E1,1.3E1,1.58E2,4E1,2.16E2,8.3E1,3.2E1,2.1E1,1.24E2,1.5E1,3.8E1,2.9E1,5.6E1,1E1,1.19E2,3.9E1,3.7E1,3E0,6.5E1,1.51E2,4.3E1,4E1,1.9E1,1.3E1,1.9E1,2E0,8.6E1,3.8E1,1.3E1,2E0,3.6E1,2E0,2.7E1,2E0,5.1E1,5E0,6E0,4E0],"tree_param":{"num_deleted":"0","num_feature":"145","num_nodes":"51","size_leaf_vector":"1"}},{"base_weights":[-4.118469E-4,-1.0879299E-2,1.24961026E-1,1.8343048E-2,-2.6907215E-2,5.321405E-2,1.4629072E-1,4.377771E-3,5.994479E-2,-1.6221965E-2,-6.03412E-2,-0E0,5.74767E-2,-0E0,1.5036611E-1,-1.1318271E-3,3.488802E-2,-0E0,6.393561E-2,-2.3875041E-2,2.1701692E-2,-6.372443E-2,-1.0394647E-2,-0E0,3.1171015E-3,9.520548E-3,1.1903794E-1,-7.6033286E-4,5.571276E-4,2.4191034E-3,1.5421891E-4,4.389984E-3,2.1299475E-3,-1.7354956E-3,6.295254E-5,1.405994E-4,1.570485E-3,-3.2182261E-3,-0E0,-9.948418E-4,-0E0,7.422409E-4,6.304994E-3],"categories":[],"categories_nodes":[],"categories_segments":[],"categories_sizes":[],"default_left":[0,0,0,0,0,0,0,0,0,0,0,0,0,0,0,0,0,0,0,0,0,0,0,0,0,0,0,0,0,0,0,0,0,0,0,0,0,0,0,0,0,0,0],"id":15,"left_children":[1,3,5,7,9,11,13,15,17,19,21,-1,23,-1,25,27,29,-1,31,33,35,37,39,-1,-1,-1,41,-1,-1,-1,-1,-1,-1,-1,-1,-1,-1,-1,-1,-1,-1,-1,-1],"loss_changes":[1.142181E0,3.816691E-1,7.479775E-2,1.5946555E-1,1.796358E-1,1.8859021E-3,1.5229821E-2,3.9892636E-2,1.825583E-2,1.1769919E-1,1.3048261E-2,0E0,1.5542693E-3,0E0,6.6064596E-3,3.2018133E-2,1.0153882E-2,0E0,1.6825825E-2,9.543452E-2,8.59268E-3,1.1431575E-3,1.978537E-3,0E0,0E0,0E0,6.8435967E-3,0E0,0E0,0E0,0E0,0E0,0E0,0E0,0E0,0E0,0E0,0E0,0E0,0E0,0E0,0E0,0E0],"parents":[2147483647,0,0,1,1,2,2,3,3,4,4,5,5,6,6,7,7,8,8,9,9,10,10,12,12,14,14,15,15,16,16,18,18,19,19,20,20,21,21,22,22,26,26],"right_children":[2,4,6,8,10,12,14,16,18,20,22,-1,24,-1,26,28,30,-1,32,34,36,38,40,-1,-1,-1,42,-1,-1,-1,-1,-1,-1,-1,-1,-1,-1,-1,-1,-1,-1,-1,-1],"split_conditions":[2.8927107E0,9.46077E5,-4.0120358E-4,1.3279944E1,1E0,4.7E-1,3.2079E-1,1.1230059E-1,3.14E-1,1.1968964E0,1.2671126E1,-0E0,1E1,-0E0,1.4308073E4,5.64E-1,1E0,-0E0,5.10173E5,8.855552E0,1.7840348E-1,1.7069335E-1,2.72E-1,-0E0,3.1171015E-3,9.520548E-3,-7.782171E-2,-7.6033286E-4,5.571276E-4,2.4191034E-3,1.5421891E-4,4.389984E-3,2.1299475E-3,-1.7354956E-3,6.295254E-5,1.405994E-4,1.570485E-3,-3.2182261E-3,-0E0,-9.948418E-4,-0E0,7.422409E-4,6.304994E-3],"split_indices":[92,77,95,93,0,61,74,89,61,92,93,0,65,0,86,61,42,0,82,93,89,89,57,0,0,0,132,0,0,0,0,0,0,0,0,0,0,0,0,0,0,0,0],"split_type":[0,0,0,0,0,0,0,0,0,0,0,0,0,0,0,0,0,0,0,0,0,0,0,0,0,0,0,0,0,0,0,0,0,0,0,0,0,0,0,0,0,0,0],"sum_hessian":[8.77E2,8.11E2,6.6E1,2.85E2,5.26E2,1.7E1,4.9E1,2.16E2,6.9E1,4.02E2,1.24E2,2E0,1.5E1,2E0,4.7E1,1.81E2,3.5E1,4E0,6.5E1,3.37E2,6.5E1,1.14E2,1E1,2E0,1.3E1,1.7E1,3E1,8.8E1,9.3E1,2.2E1,1.3E1,2.7E1,3.8E1,2.38E2,9.9E1,2.6E1,3.9E1,1.12E2,2E0,7E0,3E0,3E0,2.7E1],"tree_param":{"num_deleted":"0","num_feature":"145","num_nodes":"43","size_leaf_vector":"1"}},{"base_weights":[1.695395E-3,-9.606704E-3,1.2010293E-1,-1.8095242E-2,4.9500197E-2,7.833242E-2,1.6513231E-1,-2.7517172E-2,1.6556257E-2,2.182487E-2,7.418552E-2,4.9577854E-3,4.4427846E-2,9.59064E-3,5.2133924E-3,-4.564756E-2,-1.2940958E-2,2.5890483E-2,-7.902496E-4,-5.0709806E-3,3.4114517E-2,2.2742124E-2,8.894287E-2,6.07688E-2,-0E0,-2.6940373E-3,-6.6144846E-4,-2.2218538E-4,-1.9848251E-3,6.8924756E-4,2.5802273E-3,-6.125132E-4,9.6679013E-4,-7.0971757E-4,-0E0,2.059788E-3,-0E0,-0E0,1.8479576E-3,4.648452E-3,-0E0,-0E0,3.3243042E-3,8.964495E-5,-0E0],"categories":[],"categories_nodes":[],"categories_segments":[],"categories_sizes":[],"default_left":[0,0,0,0,0,0,0,0,0,0,0,0,0,0,0,0,0,0,0,0,0,0,0,0,0,0,0,0,0,0,0,0,0,0,0,0,0,0,0,0,0,0,0,0,0],"id":16,"left_children":[1,3,5,7,9,11,13,15,17,19,21,-1,23,-1,-1,25,27,29,31,33,35,37,39,41,43,-1,-1,-1,-1,-1,-1,-1,-1,-1,-1,-1,-1,-1,-1,-1,-1,-1,-1,-1,-1],"loss_changes":[1.181837E0,3.981367E-1,1.0754776E-1,2.3009042E-1,5.6414172E-2,1.15945935E-2,7.228315E-3,1.3969308E-1,2.6494086E-2,1.9604377E-2,2.476713E-2,0E0,8.530345E-3,0E0,0E0,5.7434976E-2,6.611498E-2,2.3877926E-2,1.08299125E-2,1.2518291E-3,6.1550103E-3,6.4189313E-3,9.812593E-3,6.1737746E-4,1.9286921E-5,0E0,0E0,0E0,0E0,0E0,0E0,0E0,0E0,0E0,0E0,0E0,0E0,0E0,0E0,0E0,0E0,0E0,0E0,0E0,0E0],"parents":[2147483647,0,0,1,1,2,2,3,3,4,4,5,5,6,6,7,7,8,8,9,9,10,10,12,12,15,15,16,16,17,17,18,18,19,19,20,20,21,21,22,22,23,23,24,24],"right_children":[2,4,6,8,10,12,14,16,18,20,22,-1,24,-1,-1,26,28,30,32,34,36,38,40,42,44,-1,-1,-1,-1,-1,-1,-1,-1,-1,-1,-1,-1,-1,-1,-1,-1,-1,-1,-1,-1],"split_conditions":[2.7843575E0,1.4071656E1,-1.8035395E-4,1.0622938E0,5E0,6.5E1,5.7E1,-3.1973314E-4,6.5E1,-2.4598444E-4,4.19E-1,4.9577854E-3,5.4E1,9.59064E-3,5.2133924E-3,6.9317536E0,1E0,2.2907178E0,5.176778E-1,7E0,2.0121979E-2,-3.495959E-2,1.2386282E-1,2.83E-1,1E0,-2.6940373E-3,-6.6144846E-4,-2.2218538E-4,-1.9848251E-3,6.8924756E-4,2.5802273E-3,-6.125132E-4,9.6679013E-4,-7.0971757E-4,-0E0,2.059788E-3,-0E0,-0E0,1.8479576E-3,4.648452E-3,-0E0,-0E0,3.3243042E-3,8.964495E-5,-0E0],"split_indices":[92,93,95,92,65,68,68,95,68,95,62,0,66,0,0,93,0,92,91,54,134,124,119,60,22,0,0,0,0,0,0,0,0,0,0,0,0,0,0,0,0,0,0,0,0],"split_type":[0,0,0,0,0,0,0,0,0,0,0,0,0,0,0,0,0,0,0,0,0,0,0,0,0,0,0,0,0,0,0,0,0,0,0,0,0,0,0,0,0,0,0,0,0],"sum_hessian":[8.73E2,7.97E2,7.6E1,6.99E2,9.8E1,4.2E1,3.4E1,5.52E2,1.47E2,4.9E1,4.9E1,2.3E1,1.9E1,2.1E1,1.3E1,2.42E2,3.1E2,9.9E1,4.8E1,1.3E1,3.6E1,1.3E1,3.6E1,1.2E1,7E0,1.9E2,5.2E1,2.39E2,7.1E1,7.1E1,2.8E1,3.4E1,1.4E1,7E0,6E0,2.8E1,8E0,4E0,9E0,3.4E1,2E0,2E0,1E1,5E0,2E0],"tree_param":{"num_deleted":"0","num_feature":"145","num_nodes":"45","size_leaf_vector":"1"}},{"base_weights":[8.520158E-4,-1.0981616E-2,9.82124E-2,-2.2870548E-2,1.7750643E-2,6.593051E-2,1.4141911E-1,-3.659318E-2,2.5692757E-3,3.583596E-2,-3.2806369E-3,8.094851E-2,3.946952E-2,1.7984831E-1,8.826107E-2,-9.888355E-3,-4.2630617E-2,1.4997521E-2,-1.3301678E-2,9.837431E-3,5.553867E-2,1.2342345E-2,-2.6072735E-2,-0E0,8.4559955E-2,4.8154764E-2,-0E0,1.0123896E-2,3.8316443E-3,-0E0,9.474218E-2,-1.1537939E-3,-0E0,-7.001366E-4,-2.4022795E-3,1.6922652E-3,2.009805E-4,-1.5586922E-3,-5.7781494E-5,-1.09218156E-4,1.2276868E-3,1.4303348E-3,3.8243856E-3,-0E0,1.5918417E-3,-1.4746614E-3,-0E0,4.4531245E-3,3.451123E-4,-0E0,2.6321763E-3,4.0223217E-4,5.2801375E-3],"categories":[],"categories_nodes":[],"categories_segments":[],"categories_sizes":[],"default_left":[0,0,0,0,0,0,0,0,0,0,0,0,0,0,0,0,0,0,0,0,0,0,0,0,0,0,0,0,0,0,0,0,0,0,0,0,0,0,0,0,0,0,0,0,0,0,0,0,0,0,0,0,0],"id":17,"left_children":[1,3,5,7,9,11,13,15,17,19,21,23,25,27,29,31,33,35,37,39,41,43,45,-1,47,49,-1,-1,-1,-1,51,-1,-1,-1,-1,-1,-1,-1,-1,-1,-1,-1,-1,-1,-1,-1,-1,-1,-1,-1,-1,-1,-1],"loss_changes":[9.983264E-1,2.622388E-1,1.0105181E-1,1.934075E-1,8.781242E-2,7.414475E-3,3.4942746E-2,5.1724017E-2,3.764897E-2,5.540949E-2,3.765897E-2,5.424157E-3,5.1126666E-3,3.2869577E-3,4.5830756E-3,8.597816E-3,3.7612915E-2,1.8837485E-2,1.4097121E-2,1.21978875E-2,2.5103837E-2,1.3463508E-2,4.883373E-3,0E0,6.2814355E-4,3.0540414E-3,0E0,0E0,0E0,0E0,3.7926733E-3,0E0,0E0,0E0,0E0,0E0,0E0,0E0,0E0,0E0,0E0,0E0,0E0,0E0,0E0,0E0,0E0,0E0,0E0,0E0,0E0,0E0,0E0],"parents":[2147483647,0,0,1,1,2,2,3,3,4,4,5,5,6,6,7,7,8,8,9,9,10,10,11,11,12,12,13,13,14,14,15,15,16,16,17,17,18,18,19,19,20,20,21,21,22,22,24,24,25,25,30,30],"right_children":[2,4,6,8,10,12,14,16,18,20,22,24,26,28,30,32,34,36,38,40,42,44,46,-1,48,50,-1,-1,-1,-1,52,-1,-1,-1,-1,-1,-1,-1,-1,-1,-1,-1,-1,-1,-1,-1,-1,-1,-1,-1,-1,-1,-1],"split_conditions":[2.5652573E0,1.0209172E1,-1.8494975E-4,9.3969804E-1,6.2E1,6.5E1,5.7E1,4.9E1,6.1E1,1E0,3.348E3,2.5743523E0,-7.777323E-2,2.1753313E-2,2.17258E0,6.2431306E-1,2.202E3,2.606E3,1.072832E0,7.888352E-1,-1.6230972E-4,-6.171876E-5,1E0,-0E0,6.769363E-2,2.847E3,-0E0,1.0123896E-2,3.8316443E-3,-0E0,-9.549909E-2,-1.1537939E-3,-0E0,-7.001366E-4,-2.4022795E-3,1.6922652E-3,2.009805E-4,-1.5586922E-3,-5.7781494E-5,-1.09218156E-4,1.2276868E-3,1.4303348E-3,3.8243856E-3,-0E0,1.5918417E-3,-1.4746614E-3,-0E0,4.4531245E-3,3.451123E-4,-0E0,2.6321763E-3,4.0223217E-4,5.2801375E-3],"split_indices":[92,93,95,92,68,68,68,68,68,36,67,92,116,136,93,92,67,67,92,92,95,95,27,0,142,67,0,0,0,0,119,0,0,0,0,0,0,0,0,0,0,0,0,0,0,0,0,0,0,0,0,0,0],"split_type":[0,0,0,0,0,0,0,0,0,0,0,0,0,0,0,0,0,0,0,0,0,0,0,0,0,0,0,0,0,0,0,0,0,0,0,0,0,0,0,0,0,0,0,0,0,0,0,0,0,0,0,0,0],"sum_hessian":[8.57E2,7.64E2,9.3E1,5.43E2,2.21E2,5.6E1,3.7E1,3.55E2,1.88E2,1.21E2,1E2,3.2E1,2.4E1,1.9E1,1.8E1,6.9E1,2.86E2,1.09E2,7.9E1,5.5E1,6.6E1,5.7E1,4.3E1,2E0,3E1,1.8E1,6E0,1.4E1,5E0,2E0,1.6E1,2.8E1,4.1E1,4.9E1,2.37E2,3.6E1,7.3E1,2.8E1,5.1E1,2.7E1,2.8E1,3.2E1,3.4E1,3.6E1,2.1E1,3.9E1,4E0,2.7E1,3E0,2E0,1.6E1,3E0,1.3E1],"tree_param":{"num_deleted":"0","num_feature":"145","num_nodes":"53","size_leaf_vector":"1"}},{"base_weights":[1.6783108E-3,-1.5902134E-2,7.661683E-2,-2.9360428E-2,3.8916406E-3,6.354732E-2,1.7499128E-1,-4.1517224E-2,-3.94917E-3,1.6145047E-2,-1.1491064E-2,8.901261E-2,3.8590576E-2,1.3738427E-3,9.799785E-3,-5.559646E-2,-2.931658E-2,-1.3384619E-2,1.8265316E-2,2.4394223E-2,-1.648292E-4,2.353623E-2,-1.8741328E-2,9.7880416E-2,3.4226947E-2,4.723197E-2,1.1263047E-3,-2.9084792E-3,-2.285745E-4,-1.6213027E-4,-1.7975284E-3,-4.1860218E-5,-1.3816319E-3,-0E0,1.6050434E-3,-0E0,1.357986E-3,1.9355046E-4,-9.975986E-4,-0E0,2.197703E-3,-1.1677087E-3,1.7592472E-4,5.302887E-3,1.8602889E-3,1.9319662E-3,-0E0,2.8790408E-3,5.2842527E-4,5.177287E-4,-2.8438493E-5],"categories":[],"categories_nodes":[],"categories_segments":[],"categories_sizes":[],"default_left":[0,0,0,0,0,0,0,0,0,0,0,0,0,0,0,0,0,0,0,0,0,0,0,0,0,0,0,0,0,0,0,0,0,0,0,0,0,0,0,0,0,0,0,0,0,0,0,0,0,0,0],"id":18,"left_children":[1,3,5,7,9,11,13,15,17,19,21,23,25,-1,-1,27,29,31,33,35,37,39,41,43,45,47,49,-1,-1,-1,-1,-1,-1,-1,-1,-1,-1,-1,-1,-1,-1,-1,-1,-1,-1,-1,-1,-1,-1,-1,-1],"loss_changes":[1.1495211E0,1.8966727E-1,1.7845303E-1,1.2534446E-1,5.380525E-2,7.849872E-2,2.8039694E-2,3.8319558E-2,2.9100915E-2,2.4088386E-2,3.0944385E-2,1.7932951E-2,2.0686708E-2,0E0,0E0,1.0002941E-2,2.3121089E-2,1.5365014E-2,9.658996E-3,7.711366E-3,5.7580736E-3,8.794467E-3,1.2744572E-2,1.1000872E-2,1.1936771E-3,1.6100839E-2,1.2660365E-3,0E0,0E0,0E0,0E0,0E0,0E0,0E0,0E0,0E0,0E0,0E0,0E0,0E0,0E0,0E0,0E0,0E0,0E0,0E0,0E0,0E0,0E0,0E0,0E0],"parents":[2147483647,0,0,1,1,2,2,3,3,4,4,5,5,6,6,7,7,8,8,9,9,10,10,11,11,12,12,15,15,16,16,17,17,18,18,19,19,20,20,21,21,22,22,23,23,24,24,25,25,26,26],"right_children":[2,4,6,8,10,12,14,16,18,20,22,24,26,-1,-1,28,30,32,34,36,38,40,42,44,46,48,50,-1,-1,-1,-1,-1,-1,-1,-1,-1,-1,-1,-1,-1,-1,-1,-1,-1,-1,-1,-1,-1,-1,-1,-1],"split_conditions":[1.2459284E-2,9.912142E-3,1.7533604E-2,8.855552E0,6.3E1,5.8E1,5.01008E-1,8.163949E-3,8.425591E-3,4.512511E-2,2.012E3,3.848694E-2,2.4671024E-2,1.3738427E-3,9.799785E-3,7.734379E-1,4.9E1,3.015E3,6.1388385E-1,2.37586E-1,1.312691E6,-3.1058948E-2,6.887997E-2,3.553E3,1E0,3.437E3,2.1237853E-1,-2.9084792E-3,-2.285745E-4,-1.6213027E-4,-1.7975284E-3,-4.1860218E-5,-1.3816319E-3,-0E0,1.6050434E-3,-0E0,1.357986E-3,1.9355046E-4,-9.975986E-4,-0E0,2.197703E-3,-1.1677087E-3,1.7592472E-4,5.302887E-3,1.8602889E-3,1.9319662E-3,-0E0,2.8790408E-3,5.2842527E-4,5.177287E-4,-2.8438493E-5],"split_indices":[88,88,88,93,68,68,74,88,88,115,67,115,115,0,0,92,68,67,92,75,77,133,130,67,18,67,115,0,0,0,0,0,0,0,0,0,0,0,0,0,0,0,0,0,0,0,0,0,0,0,0],"split_type":[0,0,0,0,0,0,0,0,0,0,0,0,0,0,0,0,0,0,0,0,0,0,0,0,0,0,0,0,0,0,0,0,0,0,0,0,0,0,0,0,0,0,0,0,0,0,0,0,0,0,0],"sum_hessian":[8.66E2,7.01E2,1.65E2,4.2E2,2.81E2,1.48E2,1.7E1,2.81E2,1.39E2,1.6E2,1.21E2,7E1,7.8E1,3E0,1.4E1,1.25E2,1.56E2,1.01E2,3.8E1,1.1E2,5E1,1.8E1,1.03E2,5.8E1,1.2E1,6.1E1,1.7E1,1.17E2,8E0,3.5E1,1.21E2,5.8E1,4.3E1,1.7E1,2.1E1,1.1E1,9.9E1,3.8E1,1.2E1,9E0,9E0,8.9E1,1.4E1,4.9E1,9E0,1E1,2E0,4.5E1,1.6E1,1.1E1,6E0],"tree_param":{"num_deleted":"0","num_feature":"145","num_nodes":"51","size_leaf_vector":"1"}},{"base_weights":[4.2691518E-4,-1.5785657E-2,7.811393E-2,-2.7923174E-2,5.2279565E-3,5.5913992E-2,1.2486454E-1,-3.990274E-2,-3.374401E-3,1.4173683E-2,-1.5382752E-2,3.9682966E-2,7.7707656E-2,8.05336E-2,1.6703454E-1,-1.0186854E-2,-4.403768E-2,-1.5930831E-2,1.3361887E-2,3.5742582E-3,3.0561652E-2,2.2587716E-3,-2.4298612E-2,4.1794393E-2,-0E0,3.8583907E-3,8.713091E-2,4.2899274E-3,-0E0,9.617596E-3,3.5509223E-3,-0E0,-1.2982666E-3,-2.6934906E-3,-1.7114904E-3,-1.1933768E-3,3.1112577E-4,-0E0,1.7007322E-3,-1.4541116E-4,9.7551633E-4,5.2802265E-4,2.3190274E-3,-1.5317247E-4,9.742002E-4,-0E0,-1.3671586E-3,-0E0,2.1610043E-3,4.0331893E-4,-0E0,2.0422062E-3,5.0931666E-3],"categories":[],"categories_nodes":[],"categories_segments":[],"categories_sizes":[],"default_left":[0,0,0,0,0,0,0,0,0,0,0,0,0,0,0,0,0,0,0,0,0,0,0,0,0,0,0,0,0,0,0,0,0,0,0,0,0,0,0,0,0,0,0,0,0,0,0,0,0,0,0,0,0],"id":19,"left_children":[1,3,5,7,9,11,13,15,17,19,21,23,25,27,29,31,33,35,37,39,41,43,45,47,-1,49,51,-1,-1,-1,-1,-1,-1,-1,-1,-1,-1,-1,-1,-1,-1,-1,-1,-1,-1,-1,-1,-1,-1,-1,-1,-1,-1],"loss_changes":[1.1145719E0,1.878391E-1,1.337331E-1,1.3199243E-1,4.8772857E-2,2.3026764E-2,4.9654722E-2,3.2096803E-2,3.3252854E-2,2.9133342E-2,1.4370149E-2,4.367128E-3,1.9792706E-2,8.046195E-3,1.3481736E-2,9.125544E-3,1.5190005E-2,1.8264702E-2,1.5184342E-2,1.40102785E-2,1.5963897E-2,3.8103033E-3,4.909206E-3,3.7787184E-3,0E0,2.2112206E-4,6.1177313E-3,0E0,0E0,0E0,0E0,0E0,0E0,0E0,0E0,0E0,0E0,0E0,0E0,0E0,0E0,0E0,0E0,0E0,0E0,0E0,0E0,0E0,0E0,0E0,0E0,0E0,0E0],"parents":[2147483647,0,0,1,1,2,2,3,3,4,4,5,5,6,6,7,7,8,8,9,9,10,10,11,11,12,12,13,13,14,14,15,15,16,16,17,17,18,18,19,19,20,20,21,21,22,22,23,23,25,25,26,26],"right_children":[2,4,6,8,10,12,14,16,18,20,22,24,26,28,30,32,34,36,38,40,42,44,46,48,-1,50,52,-1,-1,-1,-1,-1,-1,-1,-1,-1,-1,-1,-1,-1,-1,-1,-1,-1,-1,-1,-1,-1,-1,-1,-1,-1,-1],"split_conditions":[1.2787398E-2,1.0128771E-2,1.5789185E-2,8.855552E0,8.705795E-2,-1.2619195E-4,-1.2619195E-4,2.183E3,7.266792E-1,1.1549464E-2,2.364E3,1.3561364E-1,-7.687312E-2,1E0,1.5978977E4,1E0,8.163949E-3,1.4071656E1,8.425591E-3,5.163973E4,-4.9031777E-3,6.73E2,6.61E2,3E0,-0E0,6.11E-1,1.3150246E-2,4.2899274E-3,-0E0,9.617596E-3,3.5509223E-3,-0E0,-1.2982666E-3,-2.6934906E-3,-1.7114904E-3,-1.1933768E-3,3.1112577E-4,-0E0,1.7007322E-3,-1.4541116E-4,9.7551633E-4,5.2802265E-4,2.3190274E-3,-1.5317247E-4,9.742002E-4,-0E0,-1.3671586E-3,-0E0,2.1610043E-3,4.0331893E-4,-0E0,2.0422062E-3,5.0931666E-3],"split_indices":[88,88,88,93,115,95,95,67,92,88,67,129,119,22,86,0,88,93,88,81,135,79,79,101,0,59,88,0,0,0,0,0,0,0,0,0,0,0,0,0,0,0,0,0,0,0,0,0,0,0,0,0,0],"split_type":[0,0,0,0,0,0,0,0,0,0,0,0,0,0,0,0,0,0,0,0,0,0,0,0,0,0,0,0,0,0,0,0,0,0,0,0,0,0,0,0,0,0,0,0,0,0,0,0,0,0,0,0,0],"sum_hessian":[8.78E2,7.26E2,1.52E2,4.63E2,2.63E2,1.06E2,4.6E1,3.08E2,1.55E2,1.87E2,7.6E1,6.5E1,4.1E1,2.5E1,2.1E1,4.1E1,2.67E2,9.2E1,6.3E1,1.18E2,6.9E1,2.2E1,5.4E1,6.1E1,4E0,6E0,3.5E1,2.3E1,2E0,1.5E1,6E0,2.2E1,1.9E1,1.26E2,1.41E2,7.1E1,2.1E1,4.1E1,2.2E1,8E1,3.8E1,3.4E1,3.5E1,1.3E1,9E0,5E0,4.9E1,2E0,5.9E1,4E0,2E0,1.1E1,2.4E1],"tree_param":{"num_deleted":"0","num_feature":"145","num_nodes":"53","size_leaf_vector":"1"}},{"base_weights":[1.6365885E-3,-1.47082135E-2,7.1349934E-2,-2.5447188E-2,4.895117E-3,5.6095175E-2,1.5940796E-1,-3.566273E-2,-4.668117E-3,2.7033035E-2,-3.152138E-3,8.361634E-2,3.6495157E-2,7.4706925E-4,8.766544E-3,-1.5824815E-2,-4.2991005E-2,8.620092E-3,-1.39662875E-2,4.402669E-2,5.303485E-3,-1.1520496E-2,1.0034707E-2,5.69261E-4,8.9930095E-2,1.619455E-2,5.503778E-2,-3.0203755E-5,-1.6837176E-3,-0E0,-2.2024345E-3,7.39427E-4,-0E0,-1.0661286E-3,1.406518E-4,-0E0,2.492197E-3,-6.210991E-4,8.0907665E-4,-9.827414E-4,8.584945E-4,9.733813E-4,-2.947314E-4,4.6168286E-3,-0E0,-0E0,9.5483864E-4,2.9946514E-3,-0E0],"categories":[],"categories_nodes":[],"categories_segments":[],"categories_sizes":[],"default_left":[0,0,0,0,0,0,0,0,0,0,0,0,0,0,0,0,0,0,0,0,0,0,0,0,0,0,0,0,0,0,0,0,0,0,0,0,0,0,0,0,0,0,0,0,0,0,0,0,0],"id":20,"left_children":[1,3,5,7,9,11,13,15,17,19,21,23,25,-1,-1,27,29,31,33,35,37,39,41,-1,43,45,47,-1,-1,-1,-1,-1,-1,-1,-1,-1,-1,-1,-1,-1,-1,-1,-1,-1,-1,-1,-1,-1,-1],"loss_changes":[9.946174E-1,1.4996456E-1,1.9249612E-1,9.280759E-2,4.6298075E-2,6.261307E-2,3.126073E-2,3.7487537E-2,1.9806195E-2,2.0312741E-2,1.9906882E-2,1.4839441E-2,2.511099E-2,0E0,0E0,2.0188252E-2,1.2215972E-2,4.5083794E-3,1.3760546E-2,1.2205228E-2,7.132788E-3,2.719095E-2,1.1238963E-2,0E0,5.317569E-3,3.6174124E-3,9.646043E-3,0E0,0E0,0E0,0E0,0E0,0E0,0E0,0E0,0E0,0E0,0E0,0E0,0E0,0E0,0E0,0E0,0E0,0E0,0E0,0E0,0E0,0E0],"parents":[2147483647,0,0,1,1,2,2,3,3,4,4,5,5,6,6,7,7,8,8,9,9,10,10,11,11,12,12,15,15,16,16,17,17,18,18,19,19,20,20,21,21,22,22,24,24,25,25,26,26],"right_children":[2,4,6,8,10,12,14,16,18,20,22,24,26,-1,-1,28,30,32,34,36,38,40,42,-1,44,46,48,-1,-1,-1,-1,-1,-1,-1,-1,-1,-1,-1,-1,-1,-1,-1,-1,-1,-1,-1,-1,-1,-1],"split_conditions":[1.2554741E-2,1.01722E-2,1.730716E-2,-1.8708382E-4,5.3E1,5.7E1,-9.396519E-2,5.2E1,5.6E1,3.82E-1,-1.7520052E-4,2.5974977E-1,1.4136539E-2,7.4706925E-4,8.766544E-3,1E0,-1.1788837E-1,1E0,5.9330873E-2,-7.559418E-2,-5.777759E-4,7.188115E4,5.5E-1,5.69261E-4,6.99E-1,-1.4038952E-1,8.143185E-2,-3.0203755E-5,-1.6837176E-3,-0E0,-2.2024345E-3,7.39427E-4,-0E0,-1.0661286E-3,1.406518E-4,-0E0,2.492197E-3,-6.210991E-4,8.0907665E-4,-9.827414E-4,8.584945E-4,9.733813E-4,-2.947314E-4,4.6168286E-3,-0E0,-0E0,9.5483864E-4,2.9946514E-3,-0E0],"split_indices":[88,88,88,95,68,68,133,68,68,60,95,94,88,0,0,0,142,0,128,142,95,86,57,0,60,135,139,0,0,0,0,0,0,0,0,0,0,0,0,0,0,0,0,0,0,0,0,0,0],"split_type":[0,0,0,0,0,0,0,0,0,0,0,0,0,0,0,0,0,0,0,0,0,0,0,0,0,0,0,0,0,0,0,0,0,0,0,0,0,0,0,0,0,0,0,0,0,0,0,0,0],"sum_hessian":[8.66E2,7.01E2,1.65E2,4.56E2,2.45E2,1.43E2,2.2E1,3.02E2,1.54E2,6.8E1,1.77E2,5.6E1,8.7E1,3E0,1.9E1,8.6E1,2.16E2,5.9E1,9.5E1,3.5E1,3.3E1,1.13E2,6.4E1,6E0,5E1,4.5E1,4.2E1,5E1,3.6E1,4E0,2.12E2,4E1,1.9E1,7E1,2.5E1,3E0,3.2E1,9E0,2.4E1,9.1E1,2.2E1,4.4E1,2E1,4.8E1,2E0,3E0,4.2E1,3.8E1,4E0],"tree_param":{"num_deleted":"0","num_feature":"145","num_nodes":"49","size_leaf_vector":"1"}},{"base_weights":[5.971187E-4,-1.3090106E-2,7.5801514E-2,-2.3286046E-2,1.3679414E-2,5.352656E-2,1.24309495E-1,-3.2568235E-2,-1.7059736E-3,4.3198798E-2,5.8226725E-3,8.5507736E-2,3.4337584E-2,9.06047E-3,9.30299E-2,-4.402582E-2,-2.0198407E-2,-1.09643E-2,1.6522812E-2,5.1746108E-2,-0E0,2.724488E-2,-0E0,1.3699112E-3,1.0199055E-1,4.0856503E-2,1.4601952E-3,-0E0,9.7845376E-2,-2.2719398E-3,-0E0,-0E0,-1.3675748E-3,2.3201628E-5,-1.2898791E-3,-0E0,1.5986006E-3,2.7969964E-3,-0E0,2.3451039E-4,-0E0,-0E0,1.9305565E-3,-3.912905E-4,7.139565E-4,5.4231277E-3,-0E0,6.4917875E-4,2.5895769E-3,-0E0,2.0264093E-4,-0E0,5.146791E-3],"categories":[],"categories_nodes":[],"categories_segments":[],"categories_sizes":[],"default_left":[0,0,0,0,0,0,0,0,0,0,0,0,0,0,0,0,0,0,0,0,0,0,0,0,0,0,0,0,0,0,0,0,0,0,0,0,0,0,0,0,0,0,0,0,0,0,0,0,0,0,0,0,0],"id":21,"left_children":[1,3,5,7,9,11,13,15,17,19,21,23,25,-1,27,29,31,33,35,37,39,41,43,-1,45,47,49,-1,51,-1,-1,-1,-1,-1,-1,-1,-1,-1,-1,-1,-1,-1,-1,-1,-1,-1,-1,-1,-1,-1,-1,-1,-1],"loss_changes":[8.9455396E-1,2.0025279E-1,1.20351374E-1,1.0288176E-1,4.0999632E-2,4.3379515E-2,2.6910424E-2,4.484439E-2,2.7303267E-2,1.0228127E-2,2.1263741E-2,1.5874416E-2,9.211138E-3,0E0,7.5080693E-3,9.059727E-3,2.4838328E-2,2.1701049E-2,1.033686E-2,4.6122745E-3,1.0999023E-4,1.2039097E-2,1.3911859E-2,0E0,9.16104E-3,8.089632E-3,1.1797769E-4,0E0,6.404221E-3,0E0,0E0,0E0,0E0,0E0,0E0,0E0,0E0,0E0,0E0,0E0,0E0,0E0,0E0,0E0,0E0,0E0,0E0,0E0,0E0,0E0,0E0,0E0,0E0],"parents":[2147483647,0,0,1,1,2,2,3,3,4,4,5,5,6,6,7,7,8,8,9,9,10,10,11,11,12,12,14,14,15,15,16,16,17,17,18,18,19,19,20,20,21,21,22,22,24,24,25,25,26,26,28,28],"right_children":[2,4,6,8,10,12,14,16,18,20,22,24,26,-1,28,30,32,34,36,38,40,42,44,-1,46,48,50,-1,52,-1,-1,-1,-1,-1,-1,-1,-1,-1,-1,-1,-1,-1,-1,-1,-1,-1,-1,-1,-1,-1,-1,-1,-1],"split_conditions":[1.3003317E-2,1.0686182E-2,3.3911424E0,8.855552E0,5E1,5.4E1,6.13661E5,8.655525E-3,7.9268664E-1,3.553E3,2.012E3,-3.4778757E-4,3.5515554E-2,9.06047E-3,-1.227933E-1,-6.580559E-5,5.2E1,6.3E1,8.425591E-3,1.406493E-1,6.88427E3,-1.5358594E-1,-1.6122684E-4,1.3699112E-3,9.76E-1,-4.0120358E-4,5.510684E-2,-0E0,-7.782171E-2,-2.2719398E-3,-0E0,-0E0,-1.3675748E-3,2.3201628E-5,-1.2898791E-3,-0E0,1.5986006E-3,2.7969964E-3,-0E0,2.3451039E-4,-0E0,-0E0,1.9305565E-3,-3.912905E-4,7.139565E-4,5.4231277E-3,-0E0,6.4917875E-4,2.5895769E-3,-0E0,2.0264093E-4,-0E0,5.146791E-3],"split_indices":[88,88,92,93,68,68,77,88,92,67,67,95,138,0,133,95,68,68,88,119,80,118,95,0,58,95,138,0,132,0,0,0,0,0,0,0,0,0,0,0,0,0,0,0,0,0,0,0,0,0,0,0,0],"split_type":[0,0,0,0,0,0,0,0,0,0,0,0,0,0,0,0,0,0,0,0,0,0,0,0,0,0,0,0,0,0,0,0,0,0,0,0,0,0,0,0,0,0,0,0,0,0,0,0,0,0,0,0,0],"sum_hessian":[8.61E2,7.28E2,1.33E2,5.3E2,1.98E2,9.4E1,3.9E1,3.67E2,1.63E2,3.8E1,1.6E2,3.2E1,6.2E1,1.1E1,2.8E1,1.85E2,1.82E2,1.12E2,5.1E1,3E1,8E0,3.5E1,1.25E2,9E0,2.3E1,4.9E1,1.3E1,2E0,2.6E1,1.78E2,7E0,5E1,1.32E2,6E1,5.2E1,2.8E1,2.3E1,2.7E1,3E0,4E0,4E0,1E1,2.5E1,8.3E1,4.2E1,2.1E1,2E0,1.7E1,3.2E1,5E0,8E0,2E0,2.4E1],"tree_param":{"num_deleted":"0","num_feature":"145","num_nodes":"53","size_leaf_vector":"1"}},{"base_weights":[1.6076259E-3,-8.861634E-3,6.9384925E-2,-1.9014219E-2,1.9991552E-2,8.775852E-2,2.9850816E-2,-5.076105E-3,-2.9944781E-2,1.0598415E-2,5.7367507E-2,1.3724077E-1,6.9268E-2,-0E0,4.2364445E-2,-2.323021E-2,2.9800385E-3,-6.348156E-3,-3.4783296E-2,-4.7552746E-4,3.4196813E-2,6.1149035E-2,-0E0,7.5040655E-3,1.3284209E-3,1.7657921E-3,8.033365E-2,-0E0,2.8054763E-4,4.645918E-2,-0E0,-0E0,-1.7153727E-3,-6.282541E-5,1.1639086E-3,-6.46841E-4,1.296836E-4,-1.8377326E-3,-0E0,7.722079E-4,-6.946071E-4,2.0976875E-3,-0E0,3.265065E-3,-0E0,-0E0,4.1442746E-3,-0E0,2.6124006E-3],"categories":[],"categories_nodes":[],"categories_segments":[],"categories_sizes":[],"default_left":[0,0,0,0,0,0,0,0,0,0,0,0,0,0,0,0,0,0,0,0,0,0,0,0,0,0,0,0,0,0,0,0,0,0,0,0,0,0,0,0,0,0,0,0,0,0,0,0,0],"id":22,"left_children":[1,3,5,7,9,11,13,15,17,19,21,23,25,27,29,31,33,35,37,39,41,43,-1,-1,-1,-1,45,-1,-1,47,-1,-1,-1,-1,-1,-1,-1,-1,-1,-1,-1,-1,-1,-1,-1,-1,-1,-1,-1],"loss_changes":[6.303864E-1,2.2320546E-1,7.2058976E-2,8.25768E-2,6.1406597E-2,4.2124033E-2,1.192423E-2,3.924227E-2,3.140208E-2,4.5200758E-2,9.104006E-3,5.3483844E-3,8.515835E-3,2.2037952E-4,5.5032335E-3,1.9307368E-2,1.7108377E-2,4.484921E-3,1.7190248E-2,2.2913296E-2,1.7816596E-2,5.5841506E-3,0E0,0E0,0E0,0E0,4.169911E-3,0E0,0E0,3.3655725E-3,0E0,0E0,0E0,0E0,0E0,0E0,0E0,0E0,0E0,0E0,0E0,0E0,0E0,0E0,0E0,0E0,0E0,0E0,0E0],"parents":[2147483647,0,0,1,1,2,2,3,3,4,4,5,5,6,6,7,7,8,8,9,9,10,10,11,11,12,12,13,13,14,14,15,15,16,16,17,17,18,18,19,19,20,20,21,21,26,26,29,29],"right_children":[2,4,6,8,10,12,14,16,18,20,22,24,26,28,30,32,34,36,38,40,42,44,-1,-1,-1,-1,46,-1,-1,48,-1,-1,-1,-1,-1,-1,-1,-1,-1,-1,-1,-1,-1,-1,-1,-1,-1,-1,-1],"split_conditions":[1.804035E-1,1.0793706E1,6.5E1,1.236379E6,6.4956737E-1,6.53557E5,2.0265192E-1,4.88E-1,4.9E1,1.5002791E1,7.2E1,5.34E-1,4.33268E5,3.2296382E-2,7.296946E-2,5.4E1,8.52E-1,2.4359768E-2,9.9097185E0,8.84404E5,1.134E3,3E1,-0E0,7.5040655E-3,1.3284209E-3,1.7657921E-3,-1.227933E-1,-0E0,2.8054763E-4,-4.8118703E-2,-0E0,-0E0,-1.7153727E-3,-6.282541E-5,1.1639086E-3,-6.46841E-4,1.296836E-4,-1.8377326E-3,-0E0,7.722079E-4,-6.946071E-4,2.0976875E-3,-0E0,3.265065E-3,-0E0,-0E0,4.1442746E-3,-0E0,2.6124006E-3],"split_indices":[89,93,68,77,91,77,89,61,68,93,68,57,83,130,130,68,61,137,93,77,79,65,0,0,0,0,133,0,0,140,0,0,0,0,0,0,0,0,0,0,0,0,0,0,0,0,0,0,0],"split_type":[0,0,0,0,0,0,0,0,0,0,0,0,0,0,0,0,0,0,0,0,0,0,0,0,0,0,0,0,0,0,0,0,0,0,0,0,0,0,0,0,0,0,0,0,0,0,0,0,0],"sum_hessian":[8.78E2,7.6E2,1.18E2,5.65E2,1.95E2,7.8E1,4E1,2.53E2,3.12E2,1.59E2,3.6E1,1.8E1,6E1,1.4E1,2.6E1,8.1E1,1.72E2,5.7E1,2.55E2,1.06E2,5.3E1,3.4E1,2E0,1.5E1,3E0,1.8E1,4.2E1,8E0,6E0,2.4E1,2E0,2.8E1,5.3E1,1.39E2,3.3E1,3.9E1,1.8E1,2.41E2,1.4E1,4.5E1,6.1E1,4.5E1,8E0,3.1E1,3E0,2E0,4E1,4E0,2E1],"tree_param":{"num_deleted":"0","num_feature":"145","num_nodes":"49","size_leaf_vector":"1"}},{"base_weights":[1.1338056E-3,-1.1547342E-2,4.6267822E-2,3.7759668E-3,-2.6725616E-2,7.8651614E-2,2.378993E-2,-5.1354466E-4,4.1837327E-2,-1.8612672E-2,-4.5359146E-2,4.0511146E-2,1.2163363E-1,3.9318357E-2,-4.197044E-3,3.3221822E-2,-4.945944E-3,-0E0,4.6777297E-2,-5.9891357E-3,-3.0875945E-2,-1.3923929E-2,-5.0938282E-2,5.0685313E-2,1.1473678E-2,1.2946716E-1,2.75769E-4,1.6052656E-2,6.392141E-2,2.7577626E-3,-2.4452953E-2,2.7052357E-3,4.2091022E-4,4.4228788E-4,-6.2478514E-4,2.5154853E-3,-0E0,9.3772786E-4,-5.355365E-4,-0E0,-1.7374576E-3,-0E0,-9.684972E-4,-0E0,-2.5812667E-3,-0E0,2.6659246E-3,7.829461E-4,-0E0,6.771517E-3,-0E0,1.4804098E-3,-0E0,3.3934314E-3,-0E0,-2.458753E-4,4.63556E-4,-1.6367352E-3,-0E0],"categories":[],"categories_nodes":[],"categories_segments":[],"categories_sizes":[],"default_left":[0,0,0,0,0,0,0,0,0,0,0,0,0,0,0,0,0,0,0,0,0,0,0,0,0,0,0,0,0,0,0,0,0,0,0,0,0,0,0,0,0,0,0,0,0,0,0,0,0,0,0,0,0,0,0,0,0,0,0],"id":23,"left_children":[1,3,5,7,9,11,13,15,17,19,21,23,25,27,29,31,33,-1,35,37,39,41,43,45,47,49,-1,51,53,55,57,-1,-1,-1,-1,-1,-1,-1,-1,-1,-1,-1,-1,-1,-1,-1,-1,-1,-1,-1,-1,-1,-1,-1,-1,-1,-1,-1,-1],"loss_changes":[4.9737304E-1,1.5869057E-1,1.2691733E-1,5.8357723E-2,4.4308484E-2,1.034489E-1,5.4090023E-2,4.1746724E-2,9.194784E-3,3.374639E-2,1.0167286E-2,5.906135E-3,1.6714573E-2,3.505186E-2,7.871992E-3,9.867322E-3,2.8172513E-2,0E0,3.7241876E-3,1.4000198E-2,1.09273195E-2,2.3194745E-3,3.774315E-4,2.2562295E-3,9.677431E-4,1.2285888E-2,0E0,9.958907E-3,8.994833E-3,1.8307298E-3,3.4159124E-3,0E0,0E0,0E0,0E0,0E0,0E0,0E0,0E0,0E0,0E0,0E0,0E0,0E0,0E0,0E0,0E0,0E0,0E0,0E0,0E0,0E0,0E0,0E0,0E0,0E0,0E0,0E0,0E0],"parents":[2147483647,0,0,1,1,2,2,3,3,4,4,5,5,6,6,7,7,8,8,9,9,10,10,11,11,12,12,13,13,14,14,15,15,16,16,18,18,19,19,20,20,21,21,22,22,23,23,24,24,25,25,27,27,28,28,29,29,30,30],"right_children":[2,4,6,8,10,12,14,16,18,20,22,24,26,28,30,32,34,-1,36,38,40,42,44,46,48,50,-1,52,54,56,58,-1,-1,-1,-1,-1,-1,-1,-1,-1,-1,-1,-1,-1,-1,-1,-1,-1,-1,-1,-1,-1,-1,-1,-1,-1,-1,-1,-1],"split_conditions":[6.090924E-1,1.242009E6,-2.4454199E-1,1.5522082E1,1E0,-2.8423793E-4,3.553E3,-2.9278895E-1,-2.3136474E-1,3.553E3,4.9E1,1.1E1,1E0,1.0793706E1,5.8E1,2.489E3,5.6E1,-0E0,4.5808953E4,2.153E3,-2.2784835E-1,-1.14208154E-1,3.73616E3,5.6E-2,-8.400647E-2,-7.6630535E-3,2.75769E-4,6.6E1,7.2E1,-7.408466E-2,4.53894E-1,2.7052357E-3,4.2091022E-4,4.4228788E-4,-6.2478514E-4,2.5154853E-3,-0E0,9.3772786E-4,-5.355365E-4,-0E0,-1.7374576E-3,-0E0,-9.684972E-4,-0E0,-2.5812667E-3,-0E0,2.6659246E-3,7.829461E-4,-0E0,6.771517E-3,-0E0,1.4804098E-3,-0E0,3.3934314E-3,-0E0,-2.458753E-4,4.63556E-4,-1.6367352E-3,-0E0],"split_indices":[91,77,113,93,0,95,67,113,123,67,68,53,42,93,68,67,68,0,86,67,113,130,80,57,116,116,0,68,68,142,75,0,0,0,0,0,0,0,0,0,0,0,0,0,0,0,0,0,0,0,0,0,0,0,0,0,0,0,0],"split_type":[0,0,0,0,0,0,0,0,0,0,0,0,0,0,0,0,0,0,0,0,0,0,0,0,0,0,0,0,0,0,0,0,0,0,0,0,0,0,0,0,0,0,0,0,0,0,0,0,0,0,0,0,0,0,0,0,0,0,0],"sum_hessian":[8.61E2,6.71E2,1.9E2,3.31E2,3.4E2,7.5E1,1.15E2,2.96E2,3.5E1,2.42E2,9.8E1,4.2E1,3.3E1,7.6E1,3.9E1,3.1E1,2.65E2,3E0,3.2E1,1.24E2,1.18E2,1.8E1,8E1,2.8E1,1.4E1,3E1,3E0,4.2E1,3.4E1,2.6E1,1.3E1,1.4E1,1.7E1,8.9E1,1.76E2,2.9E1,3E0,1.6E1,1.08E2,1.6E1,1.02E2,3E0,1.5E1,2E0,7.8E1,2E0,2.6E1,1.1E1,3E0,2.8E1,2E0,2.3E1,1.9E1,3.2E1,2E0,5E0,2.1E1,1E1,3E0],"tree_param":{"num_deleted":"0","num_feature":"145","num_nodes":"59","size_leaf_vector":"1"}},{"base_weights":[1.8122672E-3,-7.330895E-3,6.312315E-2,-1.5684724E-2,2.5909834E-2,6.5333988E-3,4.701656E-2,-7.831355E-3,-4.0028486E-2,7.6595186E-3,5.0174065E-2,7.4283094E-3,5.6264356E-2,-1.8071529E-2,3.461515E-3,-2.3193374E-2,-5.071419E-2,1.9737331E-2,-5.4571526E-3,6.376811E-2,1.6482158E-2,9.498425E-4,-0E0,3.6695983E-2,8.0408104E-2,-1.2409354E-3,-0E0,1.2035395E-3,-2.7839938E-5,-0E0,-1.4417383E-3,-2.594115E-3,-0E0,-0E0,1.3935183E-3,-0E0,-9.930081E-4,3.333366E-3,-0E0,-0E0,1.2158571E-3,2.008315E-3,-0E0,4.247583E-3,-0E0],"categories":[],"categories_nodes":[],"categories_segments":[],"categories_sizes":[],"default_left":[0,0,0,0,0,0,0,0,0,0,0,0,0,0,0,0,0,0,0,0,0,0,0,0,0,0,0,0,0,0,0,0,0,0,0,0,0,0,0,0,0,0,0,0,0],"id":24,"left_children":[1,3,5,7,9,-1,11,13,15,17,19,21,23,25,27,29,31,33,35,37,39,-1,-1,41,43,-1,-1,-1,-1,-1,-1,-1,-1,-1,-1,-1,-1,-1,-1,-1,-1,-1,-1,-1,-1],"loss_changes":[4.8757616E-1,2.0681633E-1,9.902257E-2,1.0960887E-1,5.9371144E-2,0E0,2.762656E-2,5.4487113E-2,1.7158002E-2,1.547675E-2,1.8862516E-2,2.089147E-3,2.0300508E-2,2.8398268E-2,2.0087112E-2,9.589739E-3,1.8717349E-3,8.485146E-3,4.360524E-3,6.615475E-3,4.347605E-3,0E0,0E0,3.9364696E-3,8.1061125E-3,0E0,0E0,0E0,0E0,0E0,0E0,0E0,0E0,0E0,0E0,0E0,0E0,0E0,0E0,0E0,0E0,0E0,0E0,0E0,0E0],"parents":[2147483647,0,0,1,1,2,2,3,3,4,4,6,6,7,7,8,8,9,9,10,10,11,11,12,12,13,13,14,14,15,15,16,16,17,17,18,18,19,19,20,20,23,23,24,24],"right_children":[2,4,6,8,10,-1,12,14,16,18,20,22,24,26,28,30,32,34,36,38,40,-1,-1,42,44,-1,-1,-1,-1,-1,-1,-1,-1,-1,-1,-1,-1,-1,-1,-1,-1,-1,-1,-1,-1],"split_conditions":[1.804035E-1,1E0,7.745475E4,3.767E3,-1.6230972E-4,6.5333988E-3,6E0,9.385863E-2,5.7E1,6.2E1,1.3E1,6E1,6.96E-1,-1.4127113E-4,2.153E3,9.18608E5,1.1230059E-1,5.1950853E-2,3.24E-1,1.8368116E-1,-5.3161524E-2,9.498425E-4,-0E0,6.09168E-1,8.76E-1,-1.2409354E-3,-0E0,1.2035395E-3,-2.7839938E-5,-0E0,-1.4417383E-3,-2.594115E-3,-0E0,-0E0,1.3935183E-3,-0E0,-9.930081E-4,3.333366E-3,-0E0,-0E0,1.2158571E-3,2.008315E-3,-0E0,4.247583E-3,-0E0],"split_indices":[89,37,84,67,95,0,65,89,68,68,53,68,61,95,67,82,89,89,60,122,119,0,0,74,58,0,0,0,0,0,0,0,0,0,0,0,0,0,0,0,0,0,0,0,0],"split_type":[0,0,0,0,0,0,0,0,0,0,0,0,0,0,0,0,0,0,0,0,0,0,0,0,0,0,0,0,0,0,0,0,0,0,0,0,0,0,0,0,0,0,0,0,0],"sum_hessian":[8.58E2,7.46E2,1.12E2,5.99E2,1.47E2,1.9E1,9.3E1,4.57E2,1.42E2,8.7E1,6E1,2E1,7.3E1,2.44E2,2.13E2,6E1,8.2E1,4.9E1,3.8E1,4E1,2E1,8E0,1.2E1,4.4E1,2.9E1,1.75E2,6.9E1,3.8E1,1.75E2,1E1,5E1,7.9E1,3E0,1.4E1,3.5E1,2.5E1,1.3E1,3.8E1,2E0,4E0,1.6E1,3.9E1,5E0,2.7E1,2E0],"tree_param":{"num_deleted":"0","num_feature":"145","num_nodes":"45","size_leaf_vector":"1"}},{"base_weights":[1.7396451E-3,-5.667543E-3,9.065483E-2,1.7047505E-3,-3.61673E-2,6.890396E-2,8.124323E-3,-4.517716E-3,2.5986051E-2,-5.2997954E-2,-2.8397331E-2,1.5983956E-2,7.673649E-2,-1.1530266E-2,2.3073135E-2,1.6235601E-2,6.841278E-2,-2.7225658E-3,-0E0,-0E0,-2.9558081E-2,9.934541E-4,-0E0,-0E0,7.9149105E-2,1.2397468E-4,-9.493753E-4,-0E0,1.2959567E-3,2.0651657E-3,3.7541855E-4,3.620118E-3,-0E0,-1.5329827E-3,-0E0,4.075238E-3,-0E0],"categories":[],"categories_nodes":[],"categories_segments":[],"categories_sizes":[],"default_left":[0,0,0,0,0,0,0,0,0,0,0,0,0,0,0,0,0,0,0,0,0,0,0,0,0,0,0,0,0,0,0,0,0,0,0,0,0],"id":25,"left_children":[1,3,5,7,9,11,-1,13,15,17,19,21,23,25,27,29,31,-1,-1,-1,33,-1,-1,-1,35,-1,-1,-1,-1,-1,-1,-1,-1,-1,-1,-1,-1],"loss_changes":[5.820045E-1,1.84065E-1,7.1908236E-2,9.9717E-2,1.1148497E-2,1.2298733E-2,0E0,9.798118E-2,4.6271205E-2,1.0974258E-3,5.9888884E-3,6.033743E-4,4.7711134E-3,4.463675E-2,7.364601E-3,1.9529909E-2,2.4370402E-3,0E0,0E0,0E0,5.615726E-3,0E0,0E0,0E0,3.3655465E-3,0E0,0E0,0E0,0E0,0E0,0E0,0E0,0E0,0E0,0E0,0E0,0E0],"parents":[2147483647,0,0,1,1,2,2,3,3,4,4,5,5,7,7,8,8,9,9,10,10,11,11,12,12,13,13,14,14,15,15,16,16,20,20,24,24],"right_children":[2,4,6,8,10,12,-1,14,16,18,20,22,24,26,28,30,32,-1,-1,-1,34,-1,-1,-1,36,-1,-1,-1,-1,-1,-1,-1,-1,-1,-1,-1,-1],"split_conditions":[2.8927107E0,1E0,3.8880095E0,1E0,4.4275382E-1,5.46E-1,8.124323E-3,1.2008125E0,7.798961E-1,1.2819439E-1,7.05248E3,1E0,7.924142E-1,9.251E3,-8.485966E-2,4.9654E3,1.0201252E-2,-2.7225658E-3,-0E0,-0E0,1.9E1,9.934541E-4,-0E0,-0E0,5.6831066E-2,1.2397468E-4,-9.493753E-4,-0E0,1.2959567E-3,2.0651657E-3,3.7541855E-4,3.620118E-3,-0E0,-1.5329827E-3,-0E0,4.075238E-3,-0E0],"split_indices":[92,0,92,37,92,61,0,92,92,117,86,49,90,78,140,80,115,0,0,0,53,0,0,0,127,0,0,0,0,0,0,0,0,0,0,0,0],"split_type":[0,0,0,0,0,0,0,0,0,0,0,0,0,0,0,0,0,0,0,0,0,0,0,0,0,0,0,0,0,0,0,0,0,0,0,0,0],"sum_hessian":[8.69E2,8.02E2,6.7E1,6.44E2,1.58E2,5.4E1,1.3E1,5.1E2,1.34E2,4.4E1,1.14E2,9E0,4.5E1,4.1E2,1E2,1.12E2,2.2E1,4.2E1,2E0,2E0,1.12E2,7E0,2E0,2E0,4.3E1,1.38E2,2.72E2,1E1,9E1,2.5E1,8.7E1,2E1,2E0,1.1E2,2E0,4.1E1,2E0],"tree_param":{"num_deleted":"0","num_feature":"145","num_nodes":"37","size_leaf_vector":"1"}},{"base_weights":[2.016961E-3,-1.1116559E-2,5.7771582E-2,-1.9268861E-2,7.376183E-3,4.7376566E-2,1.3960014E-1,-3.4956526E-2,-8.796139E-3,2.2765445E-2,-2.5500478E-3,6.505882E-2,2.6173893E-2,8.154226E-3,2.6349018E-3,-3.9564617E-2,-1.3536371E-2,9.606978E-3,-1.3261045E-2,-0E0,3.363114E-2,-2.6306558E-2,7.888555E-4,1.6087698E-2,6.899713E-2,3.0404484E-2,-0E0,-2.9022712E-3,-1.6555786E-3,-8.7403384E-4,-0E0,-0E0,1.0981475E-3,-1.0195232E-3,-0E0,-1.8998797E-4,2.75479E-4,-0E0,2.038014E-3,-0E0,-1.4454674E-3,2.8800612E-4,-9.846834E-4,9.2785055E-4,-0E0,3.5550233E-3,-0E0,1.8302522E-3,9.345286E-5],"categories":[],"categories_nodes":[],"categories_segments":[],"categories_sizes":[],"default_left":[0,0,0,0,0,0,0,0,0,0,0,0,0,0,0,0,0,0,0,0,0,0,0,0,0,0,0,0,0,0,0,0,0,0,0,0,0,0,0,0,0,0,0,0,0,0,0,0,0],"id":26,"left_children":[1,3,5,7,9,11,13,15,17,19,21,23,25,-1,-1,27,29,31,33,35,37,39,41,43,45,47,-1,-1,-1,-1,-1,-1,-1,-1,-1,-1,-1,-1,-1,-1,-1,-1,-1,-1,-1,-1,-1,-1,-1],"loss_changes":[6.3284975E-1,1.0580698E-1,1.1503905E-1,7.499914E-2,3.400588E-2,4.503563E-2,4.521847E-3,1.2908474E-2,2.4814585E-2,2.2161324E-2,1.2408289E-2,5.424857E-3,7.989597E-3,0E0,0E0,7.089451E-3,2.9378436E-3,7.0753996E-3,2.2543218E-2,5.619626E-4,1.1353649E-2,1.0590889E-3,9.513437E-3,8.121226E-5,5.461246E-3,7.05418E-3,0E0,0E0,0E0,0E0,0E0,0E0,0E0,0E0,0E0,0E0,0E0,0E0,0E0,0E0,0E0,0E0,0E0,0E0,0E0,0E0,0E0,0E0,0E0],"parents":[2147483647,0,0,1,1,2,2,3,3,4,4,5,5,6,6,7,7,8,8,9,9,10,10,11,11,12,12,15,15,16,16,17,17,18,18,19,19,20,20,21,21,22,22,23,23,24,24,25,25],"right_children":[2,4,6,8,10,12,14,16,18,20,22,24,26,-1,-1,28,30,32,34,36,38,40,42,44,46,48,-1,-1,-1,-1,-1,-1,-1,-1,-1,-1,-1,-1,-1,-1,-1,-1,-1,-1,-1,-1,-1,-1,-1],"split_conditions":[1.2554741E-2,9.9097185E0,3.8880095E0,8.66786E-3,5.5E1,5.8E1,1E0,6.988657E0,4.9E1,5.737241E-1,6.5112724E-3,2.5974977E-1,6.858702E-2,8.154226E-3,2.6349018E-3,4.176692E-1,1E0,5.048307E-1,1.0417215E0,1.4675439E1,3.56E-1,-1.0966211E-1,7.2E1,8.2E-1,2.3723058E-1,3.5515554E-2,-0E0,-2.9022712E-3,-1.6555786E-3,-8.7403384E-4,-0E0,-0E0,1.0981475E-3,-1.0195232E-3,-0E0,-1.8998797E-4,2.75479E-4,-0E0,2.038014E-3,-0E0,-1.4454674E-3,2.8800612E-4,-9.846834E-4,9.2785055E-4,-0E0,3.5550233E-3,-0E0,1.8302522E-3,9.345286E-5],"split_indices":[88,93,92,88,68,68,21,93,68,92,88,94,115,0,0,92,44,94,92,93,61,122,68,58,123,138,0,0,0,0,0,0,0,0,0,0,0,0,0,0,0,0,0,0,0,0,0,0,0],"split_type":[0,0,0,0,0,0,0,0,0,0,0,0,0,0,0,0,0,0,0,0,0,0,0,0,0,0,0,0,0,0,0,0,0,0,0,0,0,0,0,0,0,0,0,0,0,0,0,0,0],"sum_hessian":[8.56E2,6.92E2,1.64E2,4.84E2,2.08E2,1.48E2,1.6E1,1.89E2,2.95E2,8.5E1,1.23E2,7.7E1,7.1E1,1.1E1,5E0,1.51E2,3.8E1,5.3E1,2.42E2,2.7E1,5.8E1,1.8E1,1.05E2,8E0,6.9E1,6.1E1,1E1,3.3E1,1.18E2,3.2E1,6E0,2.9E1,2.4E1,1.56E2,8.6E1,1.9E1,8E0,1.2E1,4.6E1,2E0,1.6E1,8.9E1,1.6E1,6E0,2E0,6.6E1,3E0,4.7E1,1.4E1],"tree_param":{"num_deleted":"0","num_feature":"145","num_nodes":"49","size_leaf_vector":"1"}},{"base_weights":[8.544039E-4,-9.090478E-3,6.9821194E-2,-1.775684E-2,1.1512598E-2,4.633685E-2,9.829277E-2,-2.5714453E-2,-1.1687173E-3,2.7161753E-2,-1.1064456E-3,4.950854E-2,-0E0,1.0441818E-1,-0E0,-3.9679483E-2,-1.6617833E-2,8.1690615E-3,-1.5061343E-2,-1.417419E-3,3.1833533E-2,-5.6240982E-3,2.3321865E-2,3.431968E-2,6.825761E-2,1.1173091E-1,1.201727E-3,-2.0764682E-3,-0E0,-8.376534E-5,-1.142757E-3,-2.0678081E-4,8.4549113E-4,-1.1474201E-3,2.1847727E-5,-3.5824892E-4,-0E0,1.0494168E-3,2.411085E-3,6.394335E-5,-6.485867E-4,-0E0,1.6540916E-3,1.8043116E-3,-0E0,3.7898158E-3,-0E0,5.7598674E-3,-0E0],"categories":[],"categories_nodes":[],"categories_segments":[],"categories_sizes":[],"default_left":[0,0,0,0,0,0,0,0,0,0,0,0,0,0,0,0,0,0,0,0,0,0,0,0,0,0,0,0,0,0,0,0,0,0,0,0,0,0,0,0,0,0,0,0,0,0,0,0,0],"id":27,"left_children":[1,3,5,7,9,11,13,15,17,19,21,23,-1,25,-1,27,29,31,33,35,37,39,41,43,45,47,-1,-1,-1,-1,-1,-1,-1,-1,-1,-1,-1,-1,-1,-1,-1,-1,-1,-1,-1,-1,-1,-1,-1],"loss_changes":[5.869509E-1,1.3278005E-1,5.319518E-2,6.6450596E-2,4.52907E-2,6.896049E-3,2.4408221E-2,3.817299E-2,2.351436E-2,1.643829E-2,1.1273347E-2,3.9167404E-3,0E0,9.014457E-3,0E0,9.632036E-3,1.7826509E-2,1.2210128E-2,1.142887E-2,3.865864E-4,7.885128E-3,6.4100847E-3,3.8798423E-3,1.9974671E-3,6.6563264E-3,3.351152E-3,0E0,0E0,0E0,0E0,0E0,0E0,0E0,0E0,0E0,0E0,0E0,0E0,0E0,0E0,0E0,0E0,0E0,0E0,0E0,0E0,0E0,0E0,0E0],"parents":[2147483647,0,0,1,1,2,2,3,3,4,4,5,5,6,6,7,7,8,8,9,9,10,10,11,11,13,13,15,15,16,16,17,17,18,18,19,19,20,20,21,21,22,22,23,23,24,24,25,25],"right_children":[2,4,6,8,10,12,14,16,18,20,22,24,-1,26,-1,28,30,32,34,36,38,40,42,44,46,48,-1,-1,-1,-1,-1,-1,-1,-1,-1,-1,-1,-1,-1,-1,-1,-1,-1,-1,-1,-1,-1,-1,-1],"split_conditions":[1.3773212E-2,1.0686182E-2,-1.2619195E-4,8.855552E0,5.8E1,6.858702E-2,1E0,8.135937E-3,6.3E1,3.3208194E-1,1.5002791E1,-3.3897784E-1,-0E0,9.8318115E-2,-0E0,1.0937103E-1,5.3E1,6.8480736E-3,-5.8723283E-5,1.5659668E-2,2.233368E-2,1E0,-4.27954E-2,7.3401076E-1,1E0,4.505156E-2,1.201727E-3,-2.0764682E-3,-0E0,-8.376534E-5,-1.142757E-3,-2.0678081E-4,8.4549113E-4,-1.1474201E-3,2.1847727E-5,-3.5824892E-4,-0E0,1.0494168E-3,2.411085E-3,6.394335E-5,-6.485867E-4,-0E0,1.6540916E-3,1.8043116E-3,-0E0,3.7898158E-3,-0E0,5.7598674E-3,-0E0],"split_indices":[88,88,95,93,68,115,31,88,68,94,93,113,0,137,0,89,68,88,95,123,139,70,119,91,27,144,0,0,0,0,0,0,0,0,0,0,0,0,0,0,0,0,0,0,0,0,0,0,0],"split_type":[0,0,0,0,0,0,0,0,0,0,0,0,0,0,0,0,0,0,0,0,0,0,0,0,0,0,0,0,0,0,0,0,0,0,0,0,0,0,0,0,0,0,0,0,0,0,0,0,0],"sum_hessian":[8.45E2,7.38E2,1.07E2,5.23E2,2.15E2,6.2E1,4.5E1,3.49E2,1.74E2,9.9E1,1.16E2,5.7E1,5E0,4.2E1,3E0,1.32E2,2.17E2,1E2,7.4E1,1.1E1,8.8E1,1.02E2,1.4E1,3.6E1,2.1E1,3.7E1,5E0,1.26E2,6E0,6.9E1,1.48E2,3.7E1,6.3E1,5.3E1,2.1E1,7E0,4E0,5.8E1,3E1,4.6E1,5.6E1,4E0,1E1,3.4E1,2E0,1.8E1,3E0,3.5E1,2E0],"tree_param":{"num_deleted":"0","num_feature":"145","num_nodes":"49","size_leaf_vector":"1"}},{"base_weights":[9.094528E-4,-1.1279038E-2,4.8739612E-2,-1.805051E-2,4.7794203E-3,7.372329E-2,2.6735803E-2,-3.2824326E-2,-8.840694E-3,9.058166E-3,-2.5496555E-2,5.709497E-2,1.1824773E-1,1.2081563E-2,4.389544E-2,-1.0986905E-2,-3.593278E-2,-0E0,-1.6993854E-2,-6.5135686E-3,1.629013E-2,-2.7088273E-2,-0E0,-0E0,5.8763802E-2,5.660816E-4,1.3056871E-1,2.1577755E-2,-0E0,3.4580243E-4,5.053951E-2,-0E0,-7.6891424E-4,-1.0421186E-3,-2.0287482E-3,-2.0384886E-4,7.668788E-4,-1.0004555E-3,3.5109496E-4,-0E0,-7.6530495E-4,-0E0,1.0086428E-3,-1.4406387E-3,-0E0,3.0173906E-3,-0E0,1.05648E-3,7.2683925E-3,1.4129471E-3,-0E0,6.1260146E-4,-2.1986046E-4,2.6620193E-3,-0E0],"categories":[],"categories_nodes":[],"categories_segments":[],"categories_sizes":[],"default_left":[0,0,0,0,0,0,0,0,0,0,0,0,0,0,0,0,0,0,0,0,0,0,0,0,0,0,0,0,0,0,0,0,0,0,0,0,0,0,0,0,0,0,0,0,0,0,0,0,0,0,0,0,0,0,0],"id":28,"left_children":[1,3,5,7,9,11,13,15,17,19,21,23,25,27,29,31,33,35,37,39,41,43,-1,-1,45,-1,47,49,51,-1,53,-1,-1,-1,-1,-1,-1,-1,-1,-1,-1,-1,-1,-1,-1,-1,-1,-1,-1,-1,-1,-1,-1,-1,-1],"loss_changes":[5.2431166E-1,7.861835E-2,8.858472E-2,6.411962E-2,2.5402555E-2,3.7164778E-2,1.9269586E-2,7.742688E-3,2.179747E-2,2.1917397E-2,4.5755692E-4,5.4679513E-3,1.0681391E-2,6.287298E-3,4.469745E-3,1.4656743E-3,4.291028E-3,9.168198E-3,1.3097819E-2,3.2891787E-3,8.372825E-3,3.6407728E-4,0E0,0E0,4.4140667E-3,0E0,7.8119636E-3,6.662149E-3,1.7377188E-3,0E0,3.8609952E-3,0E0,0E0,0E0,0E0,0E0,0E0,0E0,0E0,0E0,0E0,0E0,0E0,0E0,0E0,0E0,0E0,0E0,0E0,0E0,0E0,0E0,0E0,0E0,0E0],"parents":[2147483647,0,0,1,1,2,2,3,3,4,4,5,5,6,6,7,7,8,8,9,9,10,10,11,11,12,12,13,13,14,14,15,15,16,16,17,17,18,18,19,19,20,20,21,21,24,24,26,26,27,27,28,28,30,30],"right_children":[2,4,6,8,10,12,14,16,18,20,22,24,26,28,30,32,34,36,38,40,42,44,-1,-1,46,-1,48,50,52,-1,54,-1,-1,-1,-1,-1,-1,-1,-1,-1,-1,-1,-1,-1,-1,-1,-1,-1,-1,-1,-1,-1,-1,-1,-1],"split_conditions":[1.2326022E-2,9.9097185E0,5.7E1,8.612543E-3,7.2E1,2.1236907E-1,1.463431E-2,4.9E1,5.8E1,7.475419E-3,7.966435E-2,-9.549909E-2,2.37E-1,1.6309522E-2,-4.1619933E-4,1E0,2.46E-1,1.13314735E-2,1.198053E4,1.2294299E-2,5.2195527E-2,5.89237E5,-0E0,-0E0,2.592029E-1,5.660816E-4,2.1452029E0,7.2E1,-5.703952E-2,3.4580243E-4,1.409957E-1,-0E0,-7.6891424E-4,-1.0421186E-3,-2.0287482E-3,-2.0384886E-4,7.668788E-4,-1.0004555E-3,3.5109496E-4,-0E0,-7.6530495E-4,-0E0,1.0086428E-3,-1.4406387E-3,-0E0,3.0173906E-3,-0E0,1.05648E-3,7.2683925E-3,1.4129471E-3,-0E0,6.1260146E-4,-2.1986046E-4,2.6620193E-3,-0E0],"split_indices":[88,93,68,88,68,89,88,68,68,88,136,119,57,114,95,56,60,88,80,132,89,83,0,0,124,0,93,68,115,0,114,0,0,0,0,0,0,0,0,0,0,0,0,0,0,0,0,0,0,0,0,0,0,0,0],"split_type":[0,0,0,0,0,0,0,0,0,0,0,0,0,0,0,0,0,0,0,0,0,0,0,0,0,0,0,0,0,0,0,0,0,0,0,0,0,0,0,0,0,0,0,0,0,0,0,0,0,0,0,0,0,0,0],"sum_hessian":[8.91E2,7.09E2,1.82E2,5.03E2,2.06E2,8.2E1,1E2,1.88E2,3.15E2,1.84E2,2.2E1,6.3E1,1.9E1,5.8E1,4.2E1,2.8E1,1.6E2,1.55E2,1.6E2,5.4E1,1.3E2,2E1,2E0,2E0,6.1E1,3E0,1.6E1,3.1E1,2.7E1,9E0,3.3E1,8E0,2E1,4.4E1,1.16E2,1.26E2,2.9E1,1.46E2,1.4E1,3.1E1,2.3E1,2.5E1,1.05E2,1.8E1,2E0,5.9E1,2E0,3E0,1.3E1,2.6E1,5E0,8E0,1.9E1,3.1E1,2E0],"tree_param":{"num_deleted":"0","num_feature":"145","num_nodes":"55","size_leaf_vector":"1"}},{"base_weights":[4.6009826E-4,-1.3382997E-2,3.9315674E-2,-2.0524582E-2,4.03903E-3,2.705361E-2,8.613502E-2,-1.3546005E-2,-3.3569086E-2,1.8655706E-2,-3.0786612E-3,4.97509E-2,1.5687767E-2,6.0921606E-2,7.2081457E-3,-1.5886476E-2,2.1431819E-2,-3.453274E-2,-0E0,6.590237E-3,3.2654285E-2,-9.160533E-3,9.633147E-3,-0E0,5.5960912E-2,2.4453511E-2,3.8758968E-3,-0E0,6.638511E-2,-4.958511E-4,-1.3613797E-3,1.3979202E-3,-0E0,-1.9522518E-3,-8.4360124E-4,-8.3399784E-5,6.6142314E-4,1.746732E-3,-0E0,-7.142047E-4,-0E0,-0E0,1.1767511E-3,3.068502E-3,6.093648E-4,2.2226009E-3,6.671428E-4,-0E0,7.5656275E-4,3.71062E-5,3.6189405E-3],"categories":[],"categories_nodes":[],"categories_segments":[],"categories_sizes":[],"default_left":[0,0,0,0,0,0,0,0,0,0,0,0,0,0,0,0,0,0,0,0,0,0,0,0,0,0,0,0,0,0,0,0,0,0,0,0,0,0,0,0,0,0,0,0,0,0,0,0,0,0,0],"id":29,"left_children":[1,3,5,7,9,11,13,15,17,19,21,23,25,27,-1,29,31,33,-1,35,37,39,41,-1,43,45,47,-1,49,-1,-1,-1,-1,-1,-1,-1,-1,-1,-1,-1,-1,-1,-1,-1,-1,-1,-1,-1,-1,-1,-1],"loss_changes":[4.737657E-1,8.1858486E-2,1.1954251E-1,3.6799565E-2,2.0757943E-2,4.0916786E-2,3.8010657E-2,2.4918366E-2,5.402088E-3,6.8388116E-3,9.318374E-3,1.6810447E-2,1.042892E-2,6.715998E-3,0E0,1.5716307E-2,3.134924E-3,5.782783E-3,0E0,3.3709125E-3,1.5664343E-3,5.3495523E-3,4.599445E-3,0E0,4.2087436E-3,8.958951E-3,4.1206297E-3,0E0,4.8309565E-3,0E0,0E0,0E0,0E0,0E0,0E0,0E0,0E0,0E0,0E0,0E0,0E0,0E0,0E0,0E0,0E0,0E0,0E0,0E0,0E0,0E0,0E0],"parents":[2147483647,0,0,1,1,2,2,3,3,4,4,5,5,6,6,7,7,8,8,9,9,10,10,11,11,12,12,13,13,15,15,16,16,17,17,19,19,20,20,21,21,22,22,24,24,25,25,26,26,28,28],"right_children":[2,4,6,8,10,12,14,16,18,20,22,24,26,28,-1,30,32,34,-1,36,38,40,42,-1,44,46,48,-1,50,-1,-1,-1,-1,-1,-1,-1,-1,-1,-1,-1,-1,-1,-1,-1,-1,-1,-1,-1,-1,-1,-1],"split_conditions":[1.1779676E-2,-1.31781E-4,1.6033659E-2,3.762E3,5.6E1,5.4E1,-7.006918E-5,7.70571E5,1.7612015E-1,1.0731217E1,1E0,2.9714853E-1,-8.3012365E-2,-1.227933E-1,7.2081457E-3,1E0,7E1,9.038318E4,-0E0,-6.556964E-2,1.1673E4,1.0650597E-1,8.260264E-1,-0E0,3.767E3,5.57858E5,7.05E-1,-0E0,-1.9150693E-2,-4.958511E-4,-1.3613797E-3,1.3979202E-3,-0E0,-1.9522518E-3,-8.4360124E-4,-8.3399784E-5,6.6142314E-4,1.746732E-3,-0E0,-7.142047E-4,-0E0,-0E0,1.1767511E-3,3.068502E-3,6.093648E-4,2.2226009E-3,6.671428E-4,-0E0,7.5656275E-4,3.71062E-5,3.6189405E-3],"split_indices":[88,95,88,67,68,68,95,83,89,93,44,94,116,133,0,0,68,81,0,126,78,89,90,0,67,82,61,0,120,0,0,0,0,0,0,0,0,0,0,0,0,0,0,0,0,0,0,0,0,0,0],"split_type":[0,0,0,0,0,0,0,0,0,0,0,0,0,0,0,0,0,0,0,0,0,0,0,0,0,0,0,0,0,0,0,0,0,0,0,0,0,0,0,0,0,0,0,0,0,0,0,0,0,0,0],"sum_hessian":[8.74E2,6.43E2,2.31E2,4.6E2,1.83E2,1.86E2,4.5E1,3.06E2,1.54E2,6.4E1,1.19E2,5.8E1,1.28E2,3.4E1,1.1E1,2.9E2,1.6E1,1.5E2,4E0,3.9E1,2.5E1,8.6E1,3.3E1,7E0,5.1E1,6.8E1,6E1,4E0,3E1,1.97E2,9.3E1,1.3E1,3E0,1.14E2,3.6E1,1.1E1,2.8E1,2.3E1,2E0,6.1E1,2.5E1,2E1,1.3E1,4.3E1,8E0,2E1,4.8E1,3.9E1,2.1E1,4E0,2.6E1],"tree_param":{"num_deleted":"0","num_feature":"145","num_nodes":"51","size_leaf_vector":"1"}},{"base_weights":[1.1901058E-3,-1.1822657E-2,3.996414E-2,-1.79407E-2,3.322469E-3,1.4504381E-2,5.88508E-2,-2.8997252E-3,-2.3680057E-2,1.6164092E-2,-3.0398406E-3,2.2007441E-2,-1.781492E-3,3.7543118E-2,8.31356E-2,4.3571405E-3,-1.2097018E-2,-1.7097661E-2,-3.7314773E-2,4.971074E-3,3.2039557E-2,1.7262658E-2,-7.2160796E-3,2.7374491E-2,-0E0,-1.157693E-2,9.983379E-4,4.116686E-2,-0E0,5.7551883E-2,1.0855058E-1,-1.8703054E-4,6.2087853E-4,-0E0,-8.8728237E-4,-1.0544955E-3,1.1302359E-5,-1.9084249E-3,-0E0,8.2861586E-4,-2.235666E-6,-0E0,1.7744219E-3,-0E0,1.1627625E-3,-6.407006E-4,-0E0,1.5531514E-3,-0E0,-7.560117E-4,-0E0,3.5170684E-4,-0E0,2.2273082E-3,-0E0,3.1488023E-3,-0E0,1.4729326E-3,6.127532E-3],"categories":[],"categories_nodes":[],"categories_segments":[],"categories_sizes":[],"default_left":[0,0,0,0,0,0,0,0,0,0,0,0,0,0,0,0,0,0,0,0,0,0,0,0,0,0,0,0,0,0,0,0,0,0,0,0,0,0,0,0,0,0,0,0,0,0,0,0,0,0,0,0,0,0,0,0,0,0,0],"id":30,"left_children":[1,3,5,7,9,11,13,15,17,19,21,23,25,27,29,31,33,35,37,39,41,43,45,47,-1,49,51,53,-1,55,57,-1,-1,-1,-1,-1,-1,-1,-1,-1,-1,-1,-1,-1,-1,-1,-1,-1,-1,-1,-1,-1,-1,-1,-1,-1,-1,-1,-1],"loss_changes":[4.346831E-1,6.0730226E-2,9.6155286E-2,3.6983103E-2,1.6067991E-2,1.3792414E-2,4.7940195E-2,9.703584E-3,2.3358464E-2,7.6897964E-3,8.95533E-3,8.06139E-3,1.8046175E-3,1.1206947E-2,1.2253791E-2,5.4178694E-3,3.3992697E-3,1.7859742E-2,3.5949796E-3,4.1556433E-3,1.5783254E-3,2.2624964E-3,5.2494756E-3,3.3865348E-3,0E0,8.6710346E-4,4.8083733E-4,1.0600179E-2,0E0,4.402727E-3,7.763922E-3,0E0,0E0,0E0,0E0,0E0,0E0,0E0,0E0,0E0,0E0,0E0,0E0,0E0,0E0,0E0,0E0,0E0,0E0,0E0,0E0,0E0,0E0,0E0,0E0,0E0,0E0,0E0,0E0],"parents":[2147483647,0,0,1,1,2,2,3,3,4,4,5,5,6,6,7,7,8,8,9,9,10,10,11,11,12,12,13,13,14,14,15,15,16,16,17,17,18,18,19,19,20,20,21,21,22,22,23,23,25,25,26,26,27,27,29,29,30,30],"right_children":[2,4,6,8,10,12,14,16,18,20,22,24,26,28,30,32,34,36,38,40,42,44,46,48,-1,50,52,54,-1,56,58,-1,-1,-1,-1,-1,-1,-1,-1,-1,-1,-1,-1,-1,-1,-1,-1,-1,-1,-1,-1,-1,-1,-1,-1,-1,-1,-1,-1],"split_conditions":[1.1779676E-2,-1.4127113E-4,6.45E-1,5.2E1,5.6E1,6.2011246E-2,1.4732139E-2,-2.2952E-3,3.855E3,1.0731217E1,-1.8454729E-1,6.8E1,2.59006E-1,1.4452486E-1,8.18E-1,8.124736E-3,-5.0256154E-3,9.249938E4,6.574E3,1.3812728E4,-4.447765E-2,-9.9137746E-2,9.867177E-3,1E0,-0E0,6.7549616E-2,4.400489E-2,7.2E1,-0E0,1E0,-7.8771085E-2,-1.8703054E-4,6.2087853E-4,-0E0,-8.8728237E-4,-1.0544955E-3,1.1302359E-5,-1.9084249E-3,-0E0,8.2861586E-4,-2.235666E-6,-0E0,1.7744219E-3,-0E0,1.1627625E-3,-6.407006E-4,-0E0,1.5531514E-3,-0E0,-7.560117E-4,-0E0,3.5170684E-4,-0E0,2.2273082E-3,-0E0,3.1488023E-3,-0E0,1.4729326E-3,6.127532E-3],"split_indices":[88,95,61,68,68,115,88,115,67,93,115,68,74,129,61,88,128,81,67,86,129,122,88,10,0,114,131,68,0,42,134,0,0,0,0,0,0,0,0,0,0,0,0,0,0,0,0,0,0,0,0,0,0,0,0,0,0,0,0],"split_type":[0,0,0,0,0,0,0,0,0,0,0,0,0,0,0,0,0,0,0,0,0,0,0,0,0,0,0,0,0,0,0,0,0,0,0,0,0,0,0,0,0,0,0,0,0,0,0,0,0,0,0,0,0,0,0,0,0,0,0],"sum_hessian":[8.54E2,6.38E2,2.16E2,4.59E2,1.79E2,9.5E1,1.21E2,1.32E2,3.27E2,6.4E1,1.15E2,6.9E1,2.6E1,6.8E1,5.3E1,6.8E1,6.4E1,2.27E2,1E2,4.2E1,2.2E1,1.5E1,1E2,5.5E1,1.4E1,1.3E1,1.3E1,6.3E1,5E0,3E1,2.3E1,2.8E1,4E1,2.4E1,4E1,1.89E2,3.8E1,9.8E1,2E0,1.8E1,2.4E1,3E0,1.9E1,3E0,1.2E1,6.3E1,3.7E1,4.6E1,9E0,1.1E1,2E0,9E0,4E0,5.9E1,4E0,2.6E1,4E0,5E0,1.8E1],"tree_param":{"num_deleted":"0","num_feature":"145","num_nodes":"59","size_leaf_vector":"1"}},{"base_weights":[1.0460279E-3,-1.2169959E-2,3.831897E-2,-3.4846794E-2,-7.803255E-3,2.4334963E-2,7.697853E-2,-0E0,-3.648195E-2,-2.8910607E-3,-2.0892844E-2,1.5754163E-2,4.0640064E-2,5.0525855E-2,1.0275482E-1,-0E0,-3.7109878E-2,9.214303E-3,-6.2753735E-3,-2.6138518E-2,-8.613122E-3,2.2859113E-2,8.5119955E-4,-0E0,4.4625685E-2,1.0538149E-2,6.811225E-2,2.1577363E-3,6.0157566E-3,-0E0,-1.8834578E-3,-0E0,7.658037E-4,-6.3761504E-4,1.4297974E-4,-1.3896814E-3,-0E0,-0E0,-6.5466715E-4,1.2797711E-3,-0E0,-2.1305044E-4,3.1791438E-4,7.8977685E-4,2.7984313E-3,-0E0,5.9709273E-4,3.6578444E-3,-0E0],"categories":[],"categories_nodes":[],"categories_segments":[],"categories_sizes":[],"default_left":[0,0,0,0,0,0,0,0,0,0,0,0,0,0,0,0,0,0,0,0,0,0,0,0,0,0,0,0,0,0,0,0,0,0,0,0,0,0,0,0,0,0,0,0,0,0,0,0,0],"id":31,"left_children":[1,3,5,7,9,11,13,-1,15,17,19,21,23,25,27,-1,29,31,33,35,37,39,41,-1,43,45,47,-1,-1,-1,-1,-1,-1,-1,-1,-1,-1,-1,-1,-1,-1,-1,-1,-1,-1,-1,-1,-1,-1],"loss_changes":[4.3361253E-1,5.923391E-2,1.1287755E-1,2.3468286E-3,3.260395E-2,1.792489E-2,1.9709408E-2,0E0,1.5432909E-3,1.6274173E-2,5.511109E-3,1.0209806E-2,8.733787E-3,1.4624089E-2,6.7189634E-3,0E0,9.678602E-4,4.7670268E-3,2.0077355E-2,2.2108927E-3,2.290954E-3,6.800946E-3,1.4755692E-3,0E0,8.290462E-3,1.250034E-4,4.261814E-3,0E0,0E0,0E0,0E0,0E0,0E0,0E0,0E0,0E0,0E0,0E0,0E0,0E0,0E0,0E0,0E0,0E0,0E0,0E0,0E0,0E0,0E0],"parents":[2147483647,0,0,1,1,2,2,3,3,4,4,5,5,6,6,8,8,9,9,10,10,11,11,12,12,13,13,14,14,16,16,17,17,18,18,19,19,20,20,21,21,22,22,24,24,25,25,26,26],"right_children":[2,4,6,8,10,12,14,-1,16,18,20,22,24,26,28,-1,30,32,34,36,38,40,42,-1,44,46,48,-1,-1,-1,-1,-1,-1,-1,-1,-1,-1,-1,-1,-1,-1,-1,-1,-1,-1,-1,-1,-1,-1],"split_conditions":[1.1779676E-2,4.9116844E-1,1.534916E-2,3.69E2,7.144107E-2,4.143187E4,7.7E-1,-0E0,-3.161686E-1,7.56899E5,1.01456605E-2,1E0,-9.135687E-2,3.9746368E-1,6.4879715E-1,-0E0,-1.7121501E-1,4.06E-1,6.471802E4,8.52E-1,8E0,6.5E1,2.08288E-1,-0E0,4.6E-1,4.5E-1,2.536634E-2,2.1577363E-3,6.0157566E-3,-0E0,-1.8834578E-3,-0E0,7.658037E-4,-6.3761504E-4,1.4297974E-4,-1.3896814E-3,-0E0,-0E0,-6.5466715E-4,1.2797711E-3,-0E0,-2.1305044E-4,3.1791438E-4,7.8977685E-4,2.7984313E-3,-0E0,5.9709273E-4,3.6578444E-3,-0E0],"split_indices":[88,92,88,79,115,81,61,0,114,77,88,70,129,94,91,0,132,61,81,61,110,66,74,0,62,61,119,0,0,0,0,0,0,0,0,0,0,0,0,0,0,0,0,0,0,0,0,0,0],"split_type":[0,0,0,0,0,0,0,0,0,0,0,0,0,0,0,0,0,0,0,0,0,0,0,0,0,0,0,0,0,0,0,0,0,0,0,0,0,0,0,0,0,0,0,0,0,0,0,0,0],"sum_hessian":[8.73E2,6.43E2,2.3E2,9.9E1,5.44E2,1.72E2,5.8E1,7E0,9.2E1,4.02E2,1.42E2,1.18E2,5.4E1,3.2E1,2.6E1,2E0,9E1,8.1E1,3.21E2,9.3E1,4.9E1,7.5E1,4.3E1,5E0,4.9E1,1.2E1,2E1,8E0,1.8E1,2E0,8.8E1,3.2E1,4.9E1,1.94E2,1.27E2,8.5E1,8E0,1.5E1,3.4E1,7E1,5E0,1.3E1,3E1,1.7E1,3.2E1,2E0,1E1,1.8E1,2E0],"tree_param":{"num_deleted":"0","num_feature":"145","num_nodes":"49","size_leaf_vector":"1"}},{"base_weights":[-0E0,-8.861844E-3,3.278469E-2,1.2547352E-2,-1.4046542E-2,5.2464925E-2,1.3156844E-2,-0E0,2.3523655E-2,-2.379987E-2,-4.75021E-3,2.822664E-2,8.391392E-2,2.1714257E-2,-0E0,8.046294E-3,-8.042514E-3,2.8196458E-2,-0E0,-6.4672674E-3,-2.8490769E-2,4.015129E-3,-1.5053779E-2,3.721805E-2,-3.9674138E-4,-0E0,8.8111706E-2,3.3085037E-2,5.9073125E-3,7.3366836E-3,-1.2939103E-2,8.2338083E-4,-0E0,-0E0,-7.3061645E-4,1.6076438E-3,-0E0,-5.1218896E-5,4.3844694E-4,-0E0,-7.4737304E-4,-1.5290732E-3,-0E0,4.6462571E-4,-6.5734657E-4,-9.027755E-4,-0E0,-0E0,1.9844526E-3,-3.2671518E-4,-0E0,4.5714094E-3,-0E0,2.8826448E-4,2.2386508E-3,4.1295306E-4,-0E0,-0E0,6.1636145E-4,-1.1268704E-3,-0E0],"categories":[],"categories_nodes":[],"categories_segments":[],"categories_sizes":[],"default_left":[0,0,0,0,0,0,0,0,0,0,0,0,0,0,0,0,0,0,0,0,0,0,0,0,0,0,0,0,0,0,0,0,0,0,0,0,0,0,0,0,0,0,0,0,0,0,0,0,0,0,0,0,0,0,0,0,0,0,0,0,0],"id":32,"left_children":[1,3,5,7,9,11,13,15,17,19,21,23,25,27,29,31,33,35,37,39,41,43,45,47,49,-1,51,53,55,57,59,-1,-1,-1,-1,-1,-1,-1,-1,-1,-1,-1,-1,-1,-1,-1,-1,-1,-1,-1,-1,-1,-1,-1,-1,-1,-1,-1,-1,-1,-1],"loss_changes":[2.480797E-1,7.4474305E-2,6.305058E-2,1.5974173E-2,4.6175174E-2,5.349709E-2,1.1845799E-2,4.1418397E-3,6.1685815E-3,1.7378077E-2,2.6813563E-2,1.7337214E-2,1.0469198E-2,6.689552E-3,3.8090916E-3,3.906452E-3,2.8863456E-3,4.3842085E-3,3.9391557E-4,3.0343062E-3,1.0548517E-2,1.3231774E-2,6.344354E-3,3.4459606E-3,3.3984554E-4,0E0,3.5266876E-3,4.586734E-3,7.266239E-4,9.970824E-4,3.4164907E-3,0E0,0E0,0E0,0E0,0E0,0E0,0E0,0E0,0E0,0E0,0E0,0E0,0E0,0E0,0E0,0E0,0E0,0E0,0E0,0E0,0E0,0E0,0E0,0E0,0E0,0E0,0E0,0E0,0E0,0E0],"parents":[2147483647,0,0,1,1,2,2,3,3,4,4,5,5,6,6,7,7,8,8,9,9,10,10,11,11,12,12,13,13,14,14,15,15,16,16,17,17,18,18,19,19,20,20,21,21,22,22,23,23,24,24,26,26,27,27,28,28,29,29,30,30],"right_children":[2,4,6,8,10,12,14,16,18,20,22,24,26,28,30,32,34,36,38,40,42,44,46,48,50,-1,52,54,56,58,60,-1,-1,-1,-1,-1,-1,-1,-1,-1,-1,-1,-1,-1,-1,-1,-1,-1,-1,-1,-1,-1,-1,-1,-1,-1,-1,-1,-1,-1,-1],"split_conditions":[6.090924E-1,2.202E3,2.983E3,2.94294E-1,-3.1973314E-4,5.2767E-1,1.3859094E-3,3E0,1E0,5.1E1,6E1,7E1,7.924142E-1,1.1E1,5.8E1,1E0,5E0,2.153E3,6.64203E3,1.1308256E-2,1.7840348E-1,1E0,8.18E-1,2.35E-1,9.2879444E-2,-0E0,8.143185E-2,4.04796E-1,7.2E1,-4.7027234E-2,8.214144E-2,8.2338083E-4,-0E0,-0E0,-7.3061645E-4,1.6076438E-3,-0E0,-5.1218896E-5,4.3844694E-4,-0E0,-7.4737304E-4,-1.5290732E-3,-0E0,4.6462571E-4,-6.5734657E-4,-9.027755E-4,-0E0,-0E0,1.9844526E-3,-3.2671518E-4,-0E0,4.5714094E-3,-0E0,2.8826448E-4,2.2386508E-3,4.1295306E-4,-0E0,-0E0,6.1636145E-4,-1.1268704E-3,-0E0],"split_indices":[91,67,67,74,95,74,143,96,31,68,68,68,90,53,68,31,111,67,80,126,89,31,61,61,113,0,139,74,66,129,140,0,0,0,0,0,0,0,0,0,0,0,0,0,0,0,0,0,0,0,0,0,0,0,0,0,0,0,0,0,0],"split_type":[0,0,0,0,0,0,0,0,0,0,0,0,0,0,0,0,0,0,0,0,0,0,0,0,0,0,0,0,0,0,0,0,0,0,0,0,0,0,0,0,0,0,0,0,0,0,0,0,0,0,0,0,0,0,0,0,0,0,0,0,0],"sum_hessian":[8.48E2,6.67E2,1.81E2,1.26E2,5.41E2,8.7E1,9.4E1,6.2E1,6.4E1,2.58E2,2.83E2,5.2E1,3.5E1,5.9E1,3.5E1,3.5E1,2.7E1,5.2E1,1.2E1,6E1,1.98E2,1.48E2,1.35E2,4.2E1,1E1,2E0,3.3E1,3E1,2.9E1,2E1,1.5E1,2.2E1,1.3E1,6E0,2.1E1,4.4E1,8E0,8E0,4E0,3.6E1,2.4E1,1.83E2,1.5E1,1.18E2,3E1,1.13E2,2.2E1,3E0,3.9E1,7E0,3E0,3.1E1,2E0,1.2E1,1.8E1,2.5E1,4E0,7E0,1.3E1,1.1E1,4E0],"tree_param":{"num_deleted":"0","num_feature":"145","num_nodes":"61","size_leaf_vector":"1"}},{"base_weights":[1.2583504E-3,-1.0087718E-2,3.285777E-2,-1.5791582E-2,5.041998E-3,2.2578916E-2,7.445784E-2,-2.3551123E-2,-5.2610035E-3,1.773224E-2,-2.083363E-3,4.2562313E-2,1.2105457E-2,5.159941E-2,1.173049E-1,-1.497577E-2,-3.3811145E-2,-9.534389E-3,1.3154901E-2,2.27307E-2,-0E0,-6.505047E-3,1.6945174E-2,1.8819373E-2,5.443103E-2,2.5312036E-2,3.117249E-3,7.29307E-4,6.321517E-2,6.4393147E-3,1.3857422E-4,-9.204939E-4,3.6884667E-5,-1.905096E-3,-1.5081513E-4,9.99901E-5,-7.389758E-4,1.165735E-3,-0E0,-0E0,1.2996878E-3,-0E0,-2.1628791E-4,8.584645E-5,-5.995703E-4,1.2100287E-3,-0E0,-0E0,1.243971E-3,-0E0,2.8481735E-3,-0E0,1.6796049E-3,4.981588E-4,-8.498155E-5,3.3708406E-3,-0E0],"categories":[],"categories_nodes":[],