{"learner":{"attributes":{"scikit_learn":"{\"_estimator_type\": \"classifier\"}"},"feature_names":[],"feature_types":[],"gradient_booster":{"model":{"cats":{"enc":[],"feature_segments":[],"sorted_idx":[]},"gbtree_model_param":{"num_parallel_tree":"1","num_trees":"2400"},"iteration_indptr":[0,4,8,12,16,20,24,28,32,36,40,44,48,52,56,60,64,68,72,76,80,84,88,92,96,100,104,108,112,116,120,124,128,132,136,140,144,148,152,156,160,164,168,172,176,180,184,188,192,196,200,204,208,212,216,220,224,228,232,236,240,244,248,252,256,260,264,268,272,276,280,284,288,292,296,300,304,308,312,316,320,324,328,332,336,340,344,348,352,356,360,364,368,372,376,380,384,388,392,396,400,404,408,412,416,420,424,428,432,436,440,444,448,452,456,460,464,468,472,476,480,484,488,492,496,500,504,508,512,516,520,524,528,532,536,540,544,548,552,556,560,564,568,572,576,580,584,588,592,596,600,604,608,612,616,620,624,628,632,636,640,644,648,652,656,660,664,668,672,676,680,684,688,692,696,700,704,708,712,716,720,724,728,732,736,740,744,748,752,756,760,764,768,772,776,780,784,788,792,796,800,804,808,812,816,820,824,828,832,836,840,844,848,852,856,860,864,868,872,876,880,884,888,892,896,900,904,908,912,916,920,924,928,932,936,940,944,948,952,956,960,964,968,972,976,980,984,988,992,996,1000,1004,1008,1012,1016,1020,1024,1028,1032,1036,1040,1044,1048,1052,1056,1060,1064,1068,1072,1076,1080,1084,1088,1092,1096,1100,1104,1108,1112,1116,1120,1124,1128,1132,1136,1140,1144,1148,1152,1156,1160,1164,1168,1172,1176,1180,1184,1188,1192,1196,1200,1204,1208,1212,1216,1220,1224,1228,1232,1236,1240,1244,1248,1252,1256,1260,1264,1268,1272,1276,1280,1284,1288,1292,1296,1300,1304,1308,1312,1316,1320,1324,1328,1332,1336,1340,1344,1348,1352,1356,1360,1364,1368,1372,1376,1380,1384,1388,1392,1396,1400,1404,1408,1412,1416,1420,1424,1428,1432,1436,1440,1444,1448,1452,1456,1460,1464,1468,1472,1476,1480,1484,1488,1492,1496,1500,1504,1508,1512,1516,1520,1524,1528,1532,1536,1540,1544,1548,1552,1556,1560,1564,1568,1572,1576,1580,1584,1588,1592,1596,1600,1604,1608,1612,1616,1620,1624,1628,1632,1636,1640,1644,1648,1652,1656,1660,1664,1668,1672,1676,1680,1684,1688,1692,1696,1700,1704,1708,1712,1716,1720,1724,1728,1732,1736,1740,1744,1748,1752,1756,1760,1764,1768,1772,1776,1780,1784,1788,1792,1796,1800,1804,1808,1812,1816,1820,1824,1828,1832,1836,1840,1844,1848,1852,1856,1860,1864,1868,1872,1876,1880,1884,1888,1892,1896,1900,1904,1908,1912,1916,1920,1924,1928,1932,1936,1940,1944,1948,1952,1956,1960,1964,1968,1972,1976,1980,1984,1988,1992,1996,2000,2004,2008,2012,2016,2020,2024,2028,2032,2036,2040,2044,2048,2052,2056,2060,2064,2068,2072,2076,2080,2084,2088,2092,2096,2100,2104,2108,2112,2116,2120,2124,2128,2132,2136,2140,2144,2148,2152,2156,2160,2164,2168,2172,2176,2180,2184,2188,2192,2196,2200,2204,2208,2212,2216,2220,2224,2228,2232,2236,2240,2244,2248,2252,2256,2260,2264,2268,2272,2276,2280,2284,2288,2292,2296,2300,2304,2308,2312,2316,2320,2324,2328,2332,2336,2340,2344,2348,2352,2356,2360,2364,2368,2372,2376,2380,2384,2388,2392,2396,2400],"tree_info":[0,1,2,3,0,1,2,3,0,1,2,3,0,1,2,3,0,1,2,3,0,1,2,3,0,1,2,3,0,1,2,3,0,1,2,3,0,1,2,3,0,1,2,3,0,1,2,3,0,1,2,3,0,1,2,3,0,1,2,3,0,1,2,3,0,1,2,3,0,1,2,3,0,1,2,3,0,1,2,3,0,1,2,3,0,1,2,3,0,1,2,3,0,1,2,3,0,1,2,3,0,1,2,3,0,1,2,3,0,1,2,3,0,1,2,3,0,1,2,3,0,1,2,3,0,1,2,3,0,1,2,3,0,1,2,3,0,1,2,3,0,1,2,3,0,1,2,3,0,1,2,3,0,1,2,3,0,1,2,3,0,1,2,3,0,1,2,3,0,1,2,3,0,1,2,3,0,1,2,3,0,1,2,3,0,1,2,3,0,1,2,3,0,1,2,3,0,1,2,3,0,1,2,3,0,1,2,3,0,1,2,3,0,1,2,3,0,1,2,3,0,1,2,3,0,1,2,3,0,1,2,3,0,1,2,3,0,1,2,3,0,1,2,3,0,1,2,3,0,1,2,3,0,1,2,3,0,1,2,3,0,1,2,3,0,1,2,3,0,1,2,3,0,1,2,3,0,1,2,3,0,1,2,3,0,1,2,3,0,1,2,3,0,1,2,3,0,1,2,3,0,1,2,3,0,1,2,3,0,1,2,3,0,1,2,3,0,1,2,3,0,1,2,3,0,1,2,3,0,1,2,3,0,1,2,3,0,1,2,3,0,1,2,3,0,1,2,3,0,1,2,3,0,1,2,3,0,1,2,3,0,1,2,3,0,1,2,3,0,1,2,3,0,1,2,3,0,1,2,3,0,1,2,3,0,1,2,3,0,1,2,3,0,1,2,3,0,1,2,3,0,1,2,3,0,1,2,3,0,1,2,3,0,1,2,3,0,1,2,3,0,1,2,3,0,1,2,3,0,1,2,3,0,1,2,3,0,1,2,3,0,1,2,3,0,1,2,3,0,1,2,3,0,1,2,3,0,1,2,3,0,1,2,3,0,1,2,3,0,1,2,3,0,1,2,3,0,1,2,3,0,1,2,3,0,1,2,3,0,1,2,3,0,1,2,3,0,1,2,3,0,1,2,3,0,1,2,3,0,1,2,3,0,1,2,3,0,1,2,3,0,1,2,3,0,1,2,3,0,1,2,3,0,1,2,3,0,1,2,3,0,1,2,3,0,1,2,3,0,1,2,3,0,1,2,3,0,1,2,3,0,1,2,3,0,1,2,3,0,1,2,3,0,1,2,3,0,1,2,3,0,1,2,3,0,1,2,3,0,1,2,3,0,1,2,3,0,1,2,3,0,1,2,3,0,1,2,3,0,1,2,3,0,1,2,3,0,1,2,3,0,1,2,3,0,1,2,3,0,1,2,3,0,1,2,3,0,1,2,3,0,1,2,3,0,1,2,3,0,1,2,3,0,1,2,3,0,1,2,3,0,1,2,3,0,1,2,3,0,1,2,3,0,1,2,3,0,1,2,3,0,1,2,3,0,1,2,3,0,1,2,3,0,1,2,3,0,1,2,3,0,1,2,3,0,1,2,3,0,1,2,3,0,1,2,3,0,1,2,3,0,1,2,3,0,1,2,3,0,1,2,3,0,1,2,3,0,1,2,3,0,1,2,3,0,1,2,3,0,1,2,3,0,1,2,3,0,1,2,3,0,1,2,3,0,1,2,3,0,1,2,3,0,1,2,3,0,1,2,3,0,1,2,3,0,1,2,3,0,1,2,3,0,1,2,3,0,1,2,3,0,1,2,3,0,1,2,3,0,1,2,3,0,1,2,3,0,1,2,3,0,1,2,3,0,1,2,3,0,1,2,3,0,1,2,3,0,1,2,3,0,1,2,3,0,1,2,3,0,1,2,3,0,1,2,3,0,1,2,3,0,1,2,3,0,1,2,3,0,1,2,3,0,1,2,3,0,1,2,3,0,1,2,3,0,1,2,3,0,1,2,3,0,1,2,3,0,1,2,3,0,1,2,3,0,1,2,3,0,1,2,3,0,1,2,3,0,1,2,3,0,1,2,3,0,1,2,3,0,1,2,3,0,1,2,3,0,1,2,3,0,1,2,3,0,1,2,3,0,1,2,3,0,1,2,3,0,1,2,3,0,1,2,3,0,1,2,3,0,1,2,3,0,1,2,3,0,1,2,3,0,1,2,3,0,1,2,3,0,1,2,3,0,1,2,3,0,1,2,3,0,1,2,3,0,1,2,3,0,1,2,3,0,1,2,3,0,1,2,3,0,1,2,3,0,1,2,3,0,1,2,3,0,1,2,3,0,1,2,3,0,1,2,3,0,1,2,3,0,1,2,3,0,1,2,3,0,1,2,3,0,1,2,3,0,1,2,3,0,1,2,3,0,1,2,3,0,1,2,3,0,1,2,3,0,1,2,3,0,1,2,3,0,1,2,3,0,1,2,3,0,1,2,3,0,1,2,3,0,1,2,3,0,1,2,3,0,1,2,3,0,1,2,3,0,1,2,3,0,1,2,3,0,1,2,3,0,1,2,3,0,1,2,3,0,1,2,3,0,1,2,3,0,1,2,3,0,1,2,3,0,1,2,3,0,1,2,3,0,1,2,3,0,1,2,3,0,1,2,3,0,1,2,3,0,1,2,3,0,1,2,3,0,1,2,3,0,1,2,3,0,1,2,3,0,1,2,3,0,1,2,3,0,1,2,3,0,1,2,3,0,1,2,3,0,1,2,3,0,1,2,3,0,1,2,3,0,1,2,3,0,1,2,3,0,1,2,3,0,1,2,3,0,1,2,3,0,1,2,3,0,1,2,3,0,1,2,3,0,1,2,3,0,1,2,3,0,1,2,3,0,1,2,3,0,1,2,3,0,1,2,3,0,1,2,3,0,1,2,3,0,1,2,3,0,1,2,3,0,1,2,3,0,1,2,3,0,1,2,3,0,1,2,3,0,1,2,3,0,1,2,3,0,1,2,3,0,1,2,3,0,1,2,3,0,1,2,3,0,1,2,3,0,1,2,3,0,1,2,3,0,1,2,3,0,1,2,3,0,1,2,3,0,1,2,3,0,1,2,3,0,1,2,3,0,1,2,3,0,1,2,3,0,1,2,3,0,1,2,3,0,1,2,3,0,1,2,3,0,1,2,3,0,1,2,3,0,1,2,3,0,1,2,3,0,1,2,3,0,1,2,3,0,1,2,3,0,1,2,3,0,1,2,3,0,1,2,3,0,1,2,3,0,1,2,3,0,1,2,3,0,1,2,3,0,1,2,3,0,1,2,3,0,1,2,3,0,1,2,3,0,1,2,3,0,1,2,3,0,1,2,3,0,1,2,3,0,1,2,3,0,1,2,3,0,1,2,3,0,1,2,3,0,1,2,3,0,1,2,3,0,1,2,3,0,1,2,3,0,1,2,3,0,1,2,3,0,1,2,3,0,1,2,3,0,1,2,3,0,1,2,3,0,1,2,3,0,1,2,3,0,1,2,3,0,1,2,3,0,1,2,3,0,1,2,3,0,1,2,3,0,1,2,3,0,1,2,3,0,1,2,3,0,1,2,3,0,1,2,3,0,1,2,3,0,1,2,3,0,1,2,3,0,1,2,3,0,1,2,3,0,1,2,3,0,1,2,3,0,1,2,3,0,1,2,3,0,1,2,3,0,1,2,3,0,1,2,3,0,1,2,3,0,1,2,3,0,1,2,3,0,1,2,3,0,1,2,3,0,1,2,3,0,1,2,3,0,1,2,3,0,1,2,3,0,1,2,3,0,1,2,3,0,1,2,3,0,1,2,3,0,1,2,3,0,1,2,3,0,1,2,3,0,1,2,3,0,1,2,3,0,1,2,3,0,1,2,3,0,1,2,3,0,1,2,3,0,1,2,3,0,1,2,3,0,1,2,3,0,1,2,3,0,1,2,3,0,1,2,3,0,1,2,3,0,1,2,3,0,1,2,3,0,1,2,3,0,1,2,3,0,1,2,3,0,1,2,3,0,1,2,3,0,1,2,3,0,1,2,3,0,1,2,3,0,1,2,3,0,1,2,3,0,1,2,3,0,1,2,3,0,1,2,3,0,1,2,3,0,1,2,3,0,1,2,3,0,1,2,3,0,1,2,3,0,1,2,3,0,1,2,3,0,1,2,3,0,1,2,3,0,1,2,3,0,1,2,3,0,1,2,3,0,1,2,3,0,1,2,3,0,1,2,3,0,1,2,3,0,1,2,3,0,1,2,3,0,1,2,3,0,1,2,3,0,1,2,3,0,1,2,3,0,1,2,3,0,1,2,3,0,1,2,3,0,1,2,3,0,1,2,3,0,1,2,3,0,1,2,3,0,1,2,3,0,1,2,3,0,1,2,3,0,1,2,3,0,1,2,3,0,1,2,3,0,1,2,3,0,1,2,3,0,1,2,3,0,1,2,3,0,1,2,3,0,1,2,3,0,1,2,3,0,1,2,3,0,1,2,3,0,1,2,3,0,1,2,3,0,1,2,3,0,1,2,3,0,1,2,3,0,1,2,3,0,1,2,3,0,1,2,3,0,1,2,3,0,1,2,3,0,1,2,3,0,1,2,3,0,1,2,3,0,1,2,3,0,1,2,3,0,1,2,3,0,1,2,3,0,1,2,3,0,1,2,3,0,1,2,3,0,1,2,3,0,1,2,3,0,1,2,3,0,1,2,3,0,1,2,3,0,1,2,3,0,1,2,3,0,1,2,3,0,1,2,3,0,1,2,3,0,1,2,3,0,1,2,3,0,1,2,3,0,1,2,3,0,1,2,3,0,1,2,3,0,1,2,3,0,1,2,3,0,1,2,3,0,1,2,3,0,1,2,3,0,1,2,3,0,1,2,3,0,1,2,3,0,1,2,3,0,1,2,3,0,1,2,3,0,1,2,3,0,1,2,3,0,1,2,3,0,1,2,3,0,1,2,3,0,1,2,3,0,1,2,3,0,1,2,3,0,1,2,3,0,1,2,3,0,1,2,3,0,1,2,3,0,1,2,3,0,1,2,3,0,1,2,3,0,1,2,3,0,1,2,3,0,1,2,3,0,1,2,3,0,1,2,3,0,1,2,3,0,1,2,3,0,1,2,3,0,1,2,3,0,1,2,3,0,1,2,3,0,1,2,3,0,1,2,3,0,1,2,3,0,1,2,3,0,1,2,3,0,1,2,3,0,1,2,3,0,1,2,3,0,1,2,3,0,1,2,3,0,1,2,3,0,1,2,3,0,1,2,3,0,1,2,3,0,1,2,3,0,1,2,3,0,1,2,3,0,1,2,3,0,1,2,3,0,1,2,3,0,1,2,3,0,1,2,3,0,1,2,3,0,1,2,3,0,1,2,3,0,1,2,3,0,1,2,3],"trees":[{"base_weights":[5.659925E-3,8.1307214E-1,-6.690424E-1,1.5925393E-1,1.06639E0,-7.4079245E-1,5.6377476E-1,-2.9724346E-2,6.15739E-1,1.1454577E0,-2.6714126E-2,4.0713924E-1,-3.119046E-2,-2.5547354E-2,4.948952E-2,-2.7900342E-2,9.982434E-1,-2.462152E-2,1.1998242E0,-2.32076E-2,4.472E-2,-2.4491688E-2,4.9880564E-2,-2.3118028E-2,4.976236E-2],"categories":[],"categories_nodes":[],"categories_segments":[],"categories_sizes":[],"default_left":[0,0,0,0,0,0,0,0,0,0,0,0,0,0,0,0,0,0,0,0,0,0,0,0,0],"id":0,"left_children":[1,3,5,7,9,11,13,-1,15,17,-1,19,-1,-1,-1,-1,21,-1,23,-1,-1,-1,-1,-1,-1],"loss_changes":[2.6972183E2,3.70466E1,2.4287018E1,2.6906748E1,2.305452E1,1.1776489E1,1.3257679E1,0E0,2.2467287E1,1.568956E1,0E0,6.988075E0,0E0,0E0,0E0,0E0,1.4444599E1,0E0,1.2682953E1,0E0,0E0,0E0,0E0,0E0,0E0],"parents":[2147483647,0,0,1,1,2,2,3,3,4,4,5,5,6,6,8,8,9,9,11,11,16,16,18,18],"right_children":[2,4,6,8,10,12,14,-1,16,18,-1,20,-1,-1,-1,-1,22,-1,24,-1,-1,-1,-1,-1,-1],"split_conditions":[8.30126E5,1.200196E-2,1.7387514E1,-4.308765E-5,1.0974152E-1,-8.139973E-2,-1.1241174E-4,-2.9724346E-2,4.48E-1,-2.0749918E-4,-2.6714126E-2,1E0,-3.119046E-2,-2.5547354E-2,4.948952E-2,-2.7900342E-2,5.9645348E0,-2.462152E-2,-1.3611473E-1,-2.32076E-2,4.472E-2,-2.4491688E-2,4.9880564E-2,-2.3118028E-2,4.976236E-2],"split_indices":[77,88,93,95,118,175,95,0,62,95,0,18,0,0,0,0,93,0,119,0,0,0,0,0,0],"split_type":[0,0,0,0,0,0,0,0,0,0,0,0,0,0,0,0,0,0,0,0,0,0,0,0,0],"sum_hessian":[4.9309286E2,2.2444455E2,2.6864832E2,6.324122E1,1.6120334E2,2.543267E2,1.4321612E1,2.0960443E1,4.2280777E1,1.5455406E2,6.6492696E0,7.9557724E0,2.4637093E2,5.1067476E0,9.214865E0,9.292384E0,3.298839E1,4.264371E0,1.5028969E2,3.3483398E0,4.6074324E0,4.164471E0,2.8823921E1,3.3009298E0,1.4698877E2],"tree_param":{"num_deleted":"0","num_feature":"177","num_nodes":"25","size_leaf_vector":"1"}},{"base_weights":[3.1504908E-3,4.5057943E-1,-4.4460467E-1,-2.860643E-1,6.8745667E-1,-7.8426115E-2,-5.586306E-1,-5.0282E-1,8.845608E-1,1.3830407E0,4.4353572E-1,7.290696E-1,-4.0937063E-1,-5.8086044E-1,1.5599838E-1,1.1414673E-2,-5.46438E-1,-1.3824004E-1,6.1128862E-2,1.6303514E0,-1.3302042E-1,1.3772063E0,3.1248114E-1,2.1663144E-1,7.054292E-2,2.4402078E-2,-4.7102332E-1,-1.0312741E-1,-6.0373694E-1,3.1396773E-2,-1.2444455E-2,-2.3351992E-2,7.279424E-3,3.2401634E-3,-1.3186809E-2,7.261996E-2,-9.143397E-3,-1.6158538E-2,2.0283904E-2,8.130935E-2,9.127448E-3,4.4495175E-3,3.9521378E-2,4.3735232E-2,-1.2762123E-2,-2.0897212E-2,6.321744E-3,2.4402078E-2,-1.3909192E-2,-2.4482353E-2,3.2401634E-3],"categories":[],"categories_nodes":[],"categories_segments":[],"categories_sizes":[],"default_left":[0,0,0,0,0,0,0,0,0,0,0,0,0,0,0,0,0,0,0,0,0,0,0,0,0,0,0,0,0,0,0,0,0,0,0,0,0,0,0,0,0,0,0,0,0,0,0,0,0,0,0],"id":1,"left_children":[1,3,5,7,9,11,13,15,17,19,21,23,25,27,29,-1,31,33,-1,35,37,39,41,43,-1,-1,45,47,49,-1,-1,-1,-1,-1,-1,-1,-1,-1,-1,-1,-1,-1,-1,-1,-1,-1,-1,-1,-1,-1,-1],"loss_changes":[7.2974495E1,3.2047237E1,7.48967E0,1.181497E1,2.2675728E1,1.2178961E1,2.3313446E0,1.510664E0,5.165835E0,1.361628E1,1.2126524E1,6.4334893E0,2.3064218E0,1.3375053E0,1.7096728E0,0E0,1.1556435E0,2.0611805E-1,0E0,1.1076012E1,1.204625E0,8.660414E0,1.2367528E1,5.147419E0,0E0,0E0,1.1266232E0,1.5037024E0,8.320389E-1,0E0,0E0,0E0,0E0,0E0,0E0,0E0,0E0,0E0,0E0,0E0,0E0,0E0,0E0,0E0,0E0,0E0,0E0,0E0,0E0,0E0,0E0],"parents":[2147483647,0,0,1,1,2,2,3,3,4,4,5,5,6,6,7,7,8,8,9,9,10,10,11,11,12,12,13,13,14,14,16,16,17,17,19,19,20,20,21,21,22,22,23,23,26,26,27,27,28,28],"right_children":[2,4,6,8,10,12,14,16,18,20,22,24,26,28,30,-1,32,34,-1,36,38,40,42,44,-1,-1,46,48,50,-1,-1,-1,-1,-1,-1,-1,-1,-1,-1,-1,-1,-1,-1,-1,-1,-1,-1,-1,-1,-1,-1],"split_conditions":[1.200196E-2,3.0331807E0,6.2728393E-1,8.500114E-3,3.85E-1,4.0120807E0,7.6335505E-2,4.9E1,-4.2893525E-2,1.85354E5,-4.542658E-2,8.2444596E-1,5.178366E-2,2.7434814E0,5.67175E-3,1.1414673E-2,1E0,1E0,6.1128862E-2,1.9304165E-1,2E1,3.2167565E-2,1.23192E-2,5.43312E-1,7.054292E-2,2.4402078E-2,3.0545637E-2,3E0,1.7854688E-1,3.1396773E-2,-1.2444455E-2,-2.3351992E-2,7.279424E-3,3.2401634E-3,-1.3186809E-2,7.261996E-2,-9.143397E-3,-1.6158538E-2,2.0283904E-2,8.130935E-2,9.127448E-3,4.4495175E-3,3.9521378E-2,4.3735232E-2,-1.2762123E-2,-2.0897212E-2,6.321744E-3,2.4402078E-2,-1.3909192E-2,-2.4482353E-2,3.2401634E-3],"split_indices":[88,93,91,88,62,93,138,68,151,83,143,90,89,93,140,0,71,18,0,117,65,140,140,74,0,0,169,55,113,0,0,0,0,0,0,0,0,0,0,0,0,0,0,0,0,0,0,0,0,0,0],"split_type":[0,0,0,0,0,0,0,0,0,0,0,0,0,0,0,0,0,0,0,0,0,0,0,0,0,0,0,0,0,0,0,0,0,0,0,0,0,0,0,0,0,0,0,0,0,0,0,0,0,0,0],"sum_hessian":[3.622528E2,1.8130096E2,1.8095184E2,4.3960922E1,1.3734004E2,4.357655E1,1.373753E2,3.7646164E1,6.3147583E0,3.4338287E1,1.03001755E2,1.2230151E1,3.13464E1,1.3354816E2,3.827143E0,1.5632293E0,3.6082935E1,2.68232E0,3.6324384E0,2.951428E1,4.824006E0,1.141393E1,9.158783E1,9.052228E0,3.177923E0,1.1878823E0,3.0158518E1,6.554236E0,1.2699392E2,1.4323379E0,2.3948052E0,3.4641933E1,1.4410014E0,1.2757143E0,1.4066057E0,2.6911129E1,2.6031516E0,3.7583516E0,1.0656545E0,6.722529E0,4.691401E0,7.1577896E1,2.000993E1,3.1091313E0,5.9430966E0,2.8183832E1,1.9746854E0,1.1878823E0,5.3663535E0,1.2571821E2,1.2757143E0],"tree_param":{"num_deleted":"0","num_feature":"177","num_nodes":"51","size_leaf_vector":"1"}},{"base_weights":[-1.734846E-2,-2.6258007E-1,7.141331E-1,-5.7094306E-1,-2.7717035E-2,1.643424E0,-1.8122585E-2,2.389478E-1,-5.931353E-1,1.0043244E0,-3.0901504E-1,-1.2863095E-2,1.7224092E0,1.4001818E0,-3.6247653E-1,-1.4455487E-2,3.8568974E-2,-6.162668E-1,7.9406396E-2,1.5158544E0,1.786195E-1,-3.865122E-1,1.1592407E0,1.7991204E0,-1.2173255E-2,-1.1403117E-2,1.6445489E0,-5.479003E-1,6.19749E-2,9.183758E-3,-2.51373E-2,-1.704043E-2,3.8568974E-2,-1.2173255E-2,6.610825E-2,-1.608844E-2,4.1312013E-2,-1.7534783E-2,3.9727632E-2,1.6315703E-3,6.282702E-2,7.432274E-2,5.7074768E-3,7.353653E-3,7.408464E-2,-2.4641663E-2,3.8568974E-2],"categories":[],"categories_nodes":[],"categories_segments":[],"categories_sizes":[],"default_left":[0,0,0,0,0,0,0,0,0,0,0,0,0,0,0,0,0,0,0,0,0,0,0,0,0,0,0,0,0,0,0,0,0,0,0,0,0,0,0,0,0,0,0,0,0,0,0],"id":2,"left_children":[1,3,5,7,9,11,13,15,17,19,21,-1,23,25,27,-1,-1,29,31,33,35,37,39,41,-1,-1,43,45,-1,-1,-1,-1,-1,-1,-1,-1,-1,-1,-1,-1,-1,-1,-1,-1,-1,-1,-1],"loss_changes":[6.496526E1,1.9584946E1,6.2046413E1,2.2824287E0,4.53363E1,6.9224625E0,2.5686932E1,2.0270264E0,1.8826027E0,1.367955E1,1.4355652E1,0E0,6.7271957E0,4.830982E0,1.581696E1,0E0,0E0,1.3250847E0,2.4978218E0,5.727707E0,7.422418E0,8.790928E0,2.6956148E0,3.2026672E0,0E0,0E0,2.233839E0,4.6326637E0,0E0,0E0,0E0,0E0,0E0,0E0,0E0,0E0,0E0,0E0,0E0,0E0,0E0,0E0,0E0,0E0,0E0,0E0,0E0],"parents":[2147483647,0,0,1,1,2,2,3,3,4,4,5,5,6,6,7,7,8,8,9,9,10,10,12,12,13,13,14,14,17,17,18,18,19,19,20,20,21,21,22,22,23,23,26,26,27,27],"right_children":[2,4,6,8,10,12,14,16,18,20,22,-1,24,26,28,-1,-1,30,32,34,36,38,40,42,-1,-1,44,46,-1,-1,-1,-1,-1,-1,-1,-1,-1,-1,-1,-1,-1,-1,-1,-1,-1,-1,-1],"split_conditions":[1.1653776E0,9.5641045E-3,-1.8227294E-4,-1.4255057E-1,-2.0556206E-4,9.708715E-3,6.6869426E-1,1E0,1.11451514E-1,5.8E1,8.102699E-2,-1.2863095E-2,5.2387252E-2,1.008656E4,2.4368855E4,-1.4455487E-2,3.8568974E-2,-1.2228373E-1,3E0,-5.1373176E-2,1.1078391E-2,8.79833E5,1.0686182E-2,9.1018766E-1,-1.2173255E-2,-1.1403117E-2,-3.1736523E-2,9.4168775E-2,6.19749E-2,9.183758E-3,-2.51373E-2,-1.704043E-2,3.8568974E-2,-1.2173255E-2,6.610825E-2,-1.608844E-2,4.1312013E-2,-1.7534783E-2,3.9727632E-2,1.6315703E-3,6.282702E-2,7.432274E-2,5.7074768E-3,7.353653E-3,7.408464E-2,-2.4641663E-2,3.8568974E-2],"split_indices":[92,88,95,138,95,88,91,8,141,68,124,0,174,81,86,0,0,141,56,156,88,82,88,73,0,0,147,137,0,0,0,0,0,0,0,0,0,0,0,0,0,0,0,0,0,0,0],"split_type":[0,0,0,0,0,0,0,0,0,0,0,0,0,0,0,0,0,0,0,0,0,0,0,0,0,0,0,0,0,0,0,0,0,0,0,0,0,0,0,0,0,0,0,0,0,0,0],"sum_hessian":[3.6036713E2,2.7046918E2,8.989795E1,1.1613422E2,1.5433496E2,3.9130478E1,5.076747E1,2.7166996E0,1.1341752E2,3.2429615E1,1.2190535E2,1.3444979E0,3.778598E1,9.262233E0,4.150524E1,1.6854471E0,1.0312526E0,1.09870964E2,3.5465572E0,1.943349E1,1.2996123E1,1.16558075E2,5.347281E0,3.656371E1,1.2222708E0,1.1000438E0,8.1621895E0,3.853371E1,2.9715307E0,1.1878753E0,1.0868309E2,2.5153046E0,1.0312526E0,1.2222708E0,1.821122E1,7.9811277E0,5.0149956E0,1.1306324E2,3.4948344E0,1.7990106E0,3.5482705E0,3.513138E1,1.4323294E0,1.3101023E0,6.8520865E0,3.7502457E1,1.0312526E0],"tree_param":{"num_deleted":"0","num_feature":"177","num_nodes":"47","size_leaf_vector":"1"}},{"base_weights":[6.673318E-3,1.4606327E0,-5.982983E-1,1.9072253E0,-2.3888677E-2,3.971961E-2,-6.0949296E-1,-1.4047369E-2,1.9549193E0,2.9936656E-2,-6.20763E-1,1.9928427E0,-1.21732615E-2,-2.5285851E-2,2.249228E-1,1.557327E-2,8.1287116E-2,-1.5096567E-2,3.971961E-2],"categories":[],"categories_nodes":[],"categories_segments":[],"categories_sizes":[],"default_left":[0,0,0,0,0,0,0,0,0,0,0,0,0,0,0,0,0,0,0],"id":3,"left_children":[1,3,5,7,-1,-1,9,-1,11,-1,13,15,-1,-1,17,-1,-1,-1,-1],"loss_changes":[3.1330408E2,9.746971E1,5.0456467E0,1.0141327E1,0E0,0E0,4.2830276E0,0E0,8.032288E0,0E0,2.5790253E0,4.2319336E0,0E0,0E0,2.2529845E0,0E0,0E0,0E0,0E0],"parents":[2147483647,0,0,1,1,2,2,3,3,6,6,8,8,10,10,11,11,14,14],"right_children":[2,4,6,8,-1,-1,10,-1,12,-1,14,16,-1,-1,18,-1,-1,-1,-1],"split_conditions":[8.796498E-3,6.8894243E0,1.42E-1,-1.0935094E-1,-2.3888677E-2,3.971961E-2,4.6071583E-1,-1.4047369E-2,8.3629227E-1,2.9936656E-2,8.540758E-1,1.015797E6,-1.21732615E-2,-2.5285851E-2,1E0,1.557327E-2,8.1287116E-2,-1.5096567E-2,3.971961E-2],"split_indices":[88,93,61,127,0,0,92,0,92,0,90,77,0,0,0,0,0,0,0],"split_type":[0,0,0,0,0,0,0,0,0,0,0,0,0,0,0,0,0,0,0],"sum_hessian":[3.54096E2,1.03676315E2,2.504197E2,8.528881E1,1.8387506E1,1.0743122E0,2.4934537E2,1.5889528E0,8.369986E1,1.4409937E0,2.4790437E2,8.2477585E1,1.2222714E0,2.4497762E2,2.9267597E0,2.2965837E0,8.0181E1,1.8524475E0,1.0743122E0],"tree_param":{"num_deleted":"0","num_feature":"177","num_nodes":"19","size_leaf_vector":"1"}},{"base_weights":[2.021098E-2,-7.2629267E-1,7.210748E-1,-3.0675467E-2,3.38931E-2,-2.9914226E-2,9.322816E-1,1.1021562E0,3.6884673E-2,-2.2514807E-2,1.1333252E0,1.0859513E0,-2.9567795E-2,4.613169E-2,-1.9177457E-2,-1.4948E-2,4.910193E-2],"categories":[],"categories_nodes":[],"categories_segments":[],"categories_sizes":[],"default_left":[0,0,0,0,0,0,0,0,0,0,0,0,0,0,0,0,0],"id":4,"left_children":[1,3,5,-1,-1,-1,7,9,11,-1,13,15,-1,-1,-1,-1,-1],"loss_changes":[2.6079694E2,1.6057152E1,8.0495346E1,0E0,0E0,0E0,3.4118805E1,1.0517441E1,3.1010538E1,0E0,6.6157074E0,3.8961868E0,0E0,0E0,0E0,0E0,0E0],"parents":[2147483647,0,0,1,1,2,2,6,6,7,7,8,8,10,10,11,11],"right_children":[2,4,6,-1,-1,-1,8,10,12,-1,14,16,-1,-1,-1,-1,-1],"split_conditions":[-1.7278142E-4,3.24877E-1,1.0286278E-2,-3.0675467E-2,3.38931E-2,-2.9914226E-2,6.1E1,-1.2844765E-1,-5.202632E-2,-2.2514807E-2,9.979929E-2,8E0,-2.9567795E-2,4.613169E-2,-1.9177457E-2,-1.4948E-2,4.910193E-2],"split_indices":[95,114,88,0,0,0,68,123,134,0,151,65,0,0,0,0,0],"split_type":[0,0,0,0,0,0,0,0,0,0,0,0,0,0,0,0,0],"sum_hessian":[4.964676E2,2.4031958E2,2.56148E2,2.3483778E2,5.481809E0,3.1820948E1,2.2432706E2,1.8826659E2,3.6060482E1,3.0871456E0,1.8517943E2,1.5218469E1,2.0842014E1,1.8325748E2,1.9219549E0,1.138352E0,1.4080116E1],"tree_param":{"num_deleted":"0","num_feature":"177","num_nodes":"17","size_leaf_vector":"1"}},{"base_weights":[-1.547772E-2,2.8782526E-1,-4.7696304E-1,1.5170914E0,1.4234357E-1,-5.302313E-1,4.7831687E-1,2.0022285E0,-2.5489342E-1,-4.0874135E-1,2.5634623E-1,2.5375643E-1,-5.5726033E-1,1.8343572E-2,5.510731E-2,1.9571763E-2,8.258744E-2,7.3525994E-3,-1.8594544E-2,-5.443091E-1,5.4670446E-2,2.7633313E-2,6.1532456E-1,-1.2534565E-2,3.6511216E-2,-5.752419E-1,1.9051863E-1,-1.5301918E-2,6.145509E-1,-2.3037462E-2,2.792798E-3,4.062041E-2,-3.389294E-3,-4.0613636E-3,3.194132E-2,-2.364508E-2,1.8036879E-3,2.7550222E-2,-1.3269752E-2,4.3496083E-2,-3.9764536E-3],"categories":[],"categories_nodes":[],"categories_segments":[],"categories_sizes":[],"default_left":[0,0,0,0,0,0,0,0,0,0,0,0,0,0,0,0,0,0,0,0,0,0,0,0,0,0,0,0,0,0,0,0,0,0,0,0,0,0,0,0,0],"id":5,"left_children":[1,3,5,7,9,11,13,15,17,19,21,23,25,27,-1,-1,-1,-1,-1,29,-1,31,33,-1,-1,35,37,-1,39,-1,-1,-1,-1,-1,-1,-1,-1,-1,-1,-1,-1],"loss_changes":[5.055922E1,3.856537E1,7.5516357E0,2.0345741E1,1.239774E1,3.0604515E0,3.14299E0,4.458313E-1,6.4399624E-1,8.80132E0,1.3309338E1,2.254702E0,1.9258423E0,1.782597E0,0E0,0E0,0E0,0E0,0E0,7.159643E-1,0E0,1.1372776E1,8.458353E0,0E0,0E0,1.3572502E0,1.2335409E0,0E0,1.2359154E0,0E0,0E0,0E0,0E0,0E0,0E0,0E0,0E0,0E0,0E0,0E0,0E0],"parents":[2147483647,0,0,1,1,2,2,3,3,4,4,5,5,6,6,7,7,8,8,9,9,10,10,11,11,12,12,13,13,19,19,21,21,22,22,25,25,26,26,28,28],"right_children":[2,4,6,8,10,12,14,16,18,20,22,24,26,28,-1,-1,-1,-1,-1,30,-1,32,34,-1,-1,36,38,-1,40,-1,-1,-1,-1,-1,-1,-1,-1,-1,-1,-1,-1],"split_conditions":[6.3298386E-1,-1.4396814E-1,8.6910054E-2,9.597981E-1,4.4275382E-1,1.50336E-1,3.636E3,5.633703E-1,1E0,8.3338E4,1E0,-1.0123267E-2,1.2143818E5,2.0998023E-3,5.510731E-2,1.9571763E-2,8.258744E-2,7.3525994E-3,-1.8594544E-2,7.876712E-2,5.4670446E-2,-6.541757E-2,5.393091E-1,-1.2534565E-2,3.6511216E-2,7.3E1,1E0,-1.5301918E-2,2.9047674E-2,-2.3037462E-2,2.792798E-3,4.062041E-2,-3.389294E-3,-4.0613636E-3,3.194132E-2,-2.364508E-2,1.8036879E-3,2.7550222E-2,-1.3269752E-2,4.3496083E-2,-3.9764536E-3],"split_indices":[91,115,116,92,92,74,67,94,15,81,50,175,86,168,0,0,0,0,0,115,0,139,92,0,0,68,37,0,165,0,0,0,0,0,0,0,0,0,0,0,0],"split_type":[0,0,0,0,0,0,0,0,0,0,0,0,0,0,0,0,0,0,0,0,0,0,0,0,0,0,0,0,0,0,0,0,0,0,0,0,0,0,0,0,0],"sum_hessian":[3.590991E2,2.1678236E2,1.4231671E2,2.1870377E1,1.9491199E2,1.353206E2,6.996108E0,1.7111938E1,4.758438E0,3.2816353E1,1.6209564E2,4.107018E0,1.312136E2,5.3774443E0,1.6186638E0,1.092121E0,1.6019817E1,1.4264157E0,3.3320224E0,3.1184992E1,1.6313603E0,9.9840576E1,6.2255062E1,2.4077773E0,1.6992407E0,1.2848834E2,2.7252517E0,3.32939E0,2.048054E0,2.987163E1,1.3133614E0,9.4665575E0,9.0374016E1,1.2651644E1,4.960342E1,1.2548333E2,3.0050068E0,1.3295485E0,1.3957031E0,1.0016683E0,1.0463856E0],"tree_param":{"num_deleted":"0","num_feature":"177","num_nodes":"41","size_leaf_vector":"1"}},{"base_weights":[-4.286375E-2,-1.8467931E-1,1.6269809E0,-3.934761E-1,3.5555848E-1,1.5525271E-3,1.7299476E0,-4.449672E-1,4.5699424E-1,1.2008184E0,-2.3214349E-1,1.7805942E0,1.0198491E-2,3.202844E-1,-4.853135E-1,-1.4006767E-1,1.4614289E0,-2.0073602E-2,1.4327247E0,-3.853559E-1,6.1553262E-2,1.8404981E0,2.2422863E-2,-2.113545E-2,5.187488E-2,1.5252822E-2,-2.0075811E-2,2.790607E-2,-2.131797E-2,6.894957E-2,9.3548605E-3,6.382761E-2,1.9868296E-3,5.6178577E-2,-1.9328179E-2,7.582664E-2,2.4676146E-2],"categories":[],"categories_nodes":[],"categories_segments":[],"categories_sizes":[],"default_left":[0,0,0,0,0,0,0,0,0,0,0,0,0,0,0,0,0,0,0,0,0,0,0,0,0,0,0,0,0,0,0,0,0,0,0,0,0],"id":6,"left_children":[1,3,5,7,9,-1,11,13,15,17,19,21,-1,23,25,27,29,-1,31,33,-1,35,-1,-1,-1,-1,-1,-1,-1,-1,-1,-1,-1,-1,-1,-1,-1],"loss_changes":[8.560591E1,3.77674E1,4.3826523E0,1.0763603E1,4.675752E1,0E0,1.3212051E0,7.212208E0,8.823115E0,1.6024029E1,1.5629959E1,5.827484E-1,0E0,1.0623427E1,3.3236237E0,3.5561352E0,1.1481142E0,0E0,7.4686203E0,9.736902E0,0E0,1.7725372E-1,0E0,0E0,0E0,0E0,0E0,0E0,0E0,0E0,0E0,0E0,0E0,0E0,0E0,0E0,0E0],"parents":[2147483647,0,0,1,1,2,2,3,3,4,4,6,6,7,7,8,8,9,9,10,10,11,11,13,13,14,14,15,15,16,16,18,18,19,19,21,21],"right_children":[2,4,6,8,10,-1,12,14,16,18,20,22,-1,24,26,28,30,-1,32,34,-1,36,-1,-1,-1,-1,-1,-1,-1,-1,-1,-1,-1,-1,-1,-1,-1],"split_conditions":[7.47564E5,1.1045929E0,9.634621E-3,1.14066444E-1,6.6869426E-1,1.5525271E-3,1.0547862E-1,-9.8833896E-2,1.1310131E-2,4.06259E5,2.4368855E4,1E0,1.0198491E-2,9.814588E-3,-1.7020924E-1,2.239E3,7.42E-1,-2.0073602E-2,3.437E3,-4.8116904E-2,6.1553262E-2,6.7339174E-2,2.2422863E-2,-2.113545E-2,5.187488E-2,1.5252822E-2,-2.0075811E-2,2.790607E-2,-2.131797E-2,6.894957E-2,9.3548605E-3,6.382761E-2,1.9868296E-3,5.6178577E-2,-1.9328179E-2,7.582664E-2,2.4676146E-2],"split_indices":[83,92,88,120,91,0,126,127,88,82,86,41,0,88,119,67,61,0,67,162,0,153,0,0,0,0,0,0,0,0,0,0,0,0,0,0,0],"split_type":[0,0,0,0,0,0,0,0,0,0,0,0,0,0,0,0,0,0,0,0,0,0,0,0,0,0,0,0,0,0,0,0,0,0,0,0,0],"sum_hessian":[3.5983652E2,3.3254373E2,2.7292784E1,2.4017508E2,9.236864E1,1.8047223E0,2.5488062E1,2.2702443E2,1.3150648E1,3.7525154E1,5.4843483E1,2.4376066E1,1.1119955E0,1.0898306E1,2.1612613E2,8.725172E0,4.4254756E0,4.3071113E0,3.321804E1,5.1248676E1,3.5948067E0,2.2672302E1,1.7037646E0,6.0218062E0,4.876499E0,3.5314434E0,2.1259468E2,2.4566774E0,6.268495E0,3.2461562E0,1.1793195E0,2.9514313E1,3.7037287E0,1.9113498E0,4.9337326E1,2.1090416E1,1.5818853E0],"tree_param":{"num_deleted":"0","num_feature":"177","num_nodes":"37","size_leaf_vector":"1"}},{"base_weights":[4.4089112E-2,-3.4971124E-1,1.559226E0,-5.3577846E-1,1.2071358E0,1.7682186E0,-2.1260237E-2,-5.797409E-1,4.702035E-1,1.3805075E-1,1.7994492E0,-2.3400353E-2,1.914625E0,8.3531725E-1,-6.0336465E-1,5.999598E-2,-2.059425E-2,1.1179051E0,-2.1548154E-2,7.753855E-2,4.4420135E-1,3.896558E-2,-1.9198148E-2,-1.3289128E-2,1.9751476E0,-1.2226273E-2,5.7585977E-2,3.4758437E-2,-2.461832E-2,1.76198E-2,5.6606896E-2,-1.1434336E-2,4.144452E-2,8.064397E-2,1.9854583E-2],"categories":[],"categories_nodes":[],"categories_segments":[],"categories_sizes":[],"default_left":[0,0,0,0,0,0,0,0,0,0,0,0,0,0,0,0,0,0,0,0,0,0,0,0,0,0,0,0,0,0,0,0,0,0,0],"id":7,"left_children":[1,3,5,7,9,11,-1,13,15,17,19,21,23,25,27,-1,-1,29,-1,-1,31,-1,-1,-1,33,-1,-1,-1,-1,-1,-1,-1,-1,-1,-1],"loss_changes":[2.0567976E2,7.980171E1,3.213835E1,1.1120407E1,1.8204082E1,1.726529E1,0E0,8.347305E0,1.1741025E1,8.379702E0,2.443489E0,3.0784645E0,8.991608E0,3.4590566E0,4.6422195E0,0E0,0E0,2.2635269E-1,0E0,0E0,1.7167119E0,0E0,0E0,0E0,2.3027954E0,0E0,0E0,0E0,0E0,0E0,0E0,0E0,0E0,0E0,0E0],"parents":[2147483647,0,0,1,1,2,2,3,3,4,4,5,5,7,7,8,8,9,9,10,10,11,11,12,12,13,13,14,14,17,17,20,20,24,24],"right_children":[2,4,6,8,10,12,-1,14,16,18,20,22,24,26,28,-1,-1,30,-1,-1,32,-1,-1,-1,34,-1,-1,-1,-1,-1,-1,-1,-1,-1,-1],"split_conditions":[1E0,2.132177E6,4.276925E-2,2.0347458E-1,4.256E3,1.595006E4,-2.1260237E-2,4.8646E-1,7.9620236E-1,-6.583154E-2,-1.9129489E-2,-5.7445128E-2,4.8E1,5.68E-1,-1.0694307E-1,5.999598E-2,-2.059425E-2,4.82E-1,-2.1548154E-2,7.753855E-2,1E0,3.896558E-2,-1.9198148E-2,-1.3289128E-2,8.753499E-2,-1.2226273E-2,5.7585977E-2,3.4758437E-2,-2.461832E-2,1.76198E-2,5.6606896E-2,-1.1434336E-2,4.144452E-2,8.064397E-2,1.9854583E-2],"split_indices":[0,82,114,116,67,81,0,92,92,119,117,168,68,57,174,0,0,57,0,0,20,0,0,0,89,0,0,0,0,0,0,0,0,0,0],"split_type":[0,0,0,0,0,0,0,0,0,0,0,0,0,0,0,0,0,0,0,0,0,0,0,0,0,0,0,0,0,0,0,0,0,0,0],"sum_hessian":[3.4260114E2,2.7248303E2,7.011808E1,2.4403694E2,2.8446093E1,6.3929665E1,6.1884127E0,2.3432004E2,9.716907E0,1.0641256E1,1.7804836E1,4.8413815E0,5.9088284E1,3.213928E0,2.3110611E2,4.544915E0,5.1719913E0,4.141212E0,6.5000443E0,1.5691186E1,2.1136508E0,1.095365E0,3.7460165E0,1.3887923E0,5.7699493E1,1.2266933E0,1.9872346E0,1.2381911E0,2.2986792E2,2.122558E0,2.0186539E0,1.1022536E0,1.0113972E0,5.5725327E1,1.9741637E0],"tree_param":{"num_deleted":"0","num_feature":"177","num_nodes":"35","size_leaf_vector":"1"}},{"base_weights":[2.3643512E-2,-7.1595126E-1,6.9856524E-1,-3.023256E-2,3.2866225E-2,5.412053E-2,9.898534E-1,-2.9467205E-2,4.360503E-1,1.0476696E0,-2.6097706E-2,-2.7976763E-2,7.5507885E-1,-2.4578324E-2,1.0935478E0,-2.7013449E-2,4.307439E-2,4.8074417E-2,2.1531114E-2],"categories":[],"categories_nodes":[],"categories_segments":[],"categories_sizes":[],"default_left":[0,0,0,0,0,0,0,0,0,0,0,0,0,0,0,0,0,0,0],"id":8,"left_children":[1,3,5,-1,-1,7,9,-1,11,13,-1,-1,15,-1,17,-1,-1,-1,-1],"loss_changes":[2.5343326E2,1.5459381E1,4.96846E1,0E0,0E0,2.5606892E1,1.807051E1,0E0,2.1266636E1,1.4211563E1,0E0,0E0,2.1585962E1,0E0,9.559296E0,0E0,0E0,0E0,0E0],"parents":[2147483647,0,0,1,1,2,2,5,5,6,6,8,8,9,9,12,12,14,14],"right_children":[2,4,6,-1,-1,8,10,-1,12,14,-1,-1,16,-1,18,-1,-1,-1,-1],"split_conditions":[-1.7361152E-4,2.0998985E1,1.200196E-2,-3.023256E-2,3.2866225E-2,-5.8723283E-5,4.5904875E-2,-2.9467205E-2,4.19E-1,2.7863708E0,-2.6097706E-2,-2.7976763E-2,5.9645348E0,-2.4578324E-2,6.1E1,-2.7013449E-2,4.307439E-2,4.8074417E-2,2.1531114E-2],"split_indices":[95,93,88,0,0,95,136,0,62,93,0,0,93,0,68,0,0,0,0],"split_type":[0,0,0,0,0,0,0,0,0,0,0,0,0,0,0,0,0,0,0],"sum_hessian":[5.057123E2,2.4119562E2,2.645167E2,2.3565959E2,5.5360317E0,8.281849E1,1.816982E2,2.6584196E1,5.623429E1,1.759277E2,5.770494E0,1.200411E1,4.4230183E1,4.3340964E0,1.715936E2,7.8637753E0,3.6366405E1,1.4246033E2,2.9133276E1],"tree_param":{"num_deleted":"0","num_feature":"177","num_nodes":"19","size_leaf_vector":"1"}},{"base_weights":[6.3932976E-3,4.2003396E-1,-3.8431945E-1,-7.385913E-2,7.183971E-1,-4.1990596E-1,1.1217915E0,-3.7644053E-1,1.1364644E0,9.8736876E-1,-1.3487576E-1,-1.2730655E-1,-5.395771E-1,-4.156517E-3,6.2573634E-2,-4.5233738E-1,5.176637E-2,3.0153772E-2,1.4537596E0,1.8134922E0,6.9038945E-1,-4.9233E-1,5.041406E-1,4.0654477E-1,-3.433711E-1,-7.2199576E-2,-5.727048E-1,3.610642E-3,-2.1233382E-2,2.3407625E-2,-1.5103771E-2,-3.3931918E-3,7.0652686E-2,1.3980506E-2,7.4574664E-2,1.249341E-3,3.8882073E-2,6.725001E-3,-2.271792E-2,3.702948E-2,-1.4380921E-2,4.709609E-2,1.9062699E-3,2.6958078E-2,-1.8009888E-2,-1.3068033E-2,3.1860173E-2,2.370786E-3,-2.336734E-2],"categories":[],"categories_nodes":[],"categories_segments":[],"categories_sizes":[],"default_left":[0,0,0,0,0,0,0,0,0,0,0,0,0,0,0,0,0,0,0,0,0,0,0,0,0,0,0,0,0,0,0,0,0,0,0,0,0,0,0,0,0,0,0,0,0,0,0,0,0],"id":9,"left_children":[1,3,5,7,9,11,13,15,17,19,21,23,25,-1,-1,27,-1,29,31,33,35,37,39,41,43,45,47,-1,-1,-1,-1,-1,-1,-1,-1,-1,-1,-1,-1,-1,-1,-1,-1,-1,-1,-1,-1,-1,-1],"loss_changes":[5.7722286E1,2.5698503E1,1.0238264E1,2.4579767E1,2.51059E1,6.1709156E0,2.7192707E0,7.315407E0,4.51647E0,1.877716E1,6.3642354E0,6.3422923E0,1.8646927E0,0E0,0E0,2.315545E0,0E0,1.165355E0,5.2870483E0,7.0248413E-1,1.1473972E1,1.0234513E0,4.030796E0,4.201812E0,4.520966E0,2.372772E0,9.467621E-1,0E0,0E0,0E0,0E0,0E0,0E0,0E0,0E0,0E0,0E0,0E0,0E0,0E0,0E0,0E0,0E0,0E0,0E0,0E0,0E0,0E0,0E0],"parents":[2147483647,0,0,1,1,2,2,3,3,4,4,5,5,6,6,7,7,8,8,9,9,10,10,11,11,12,12,15,15,17,17,18,18,19,19,20,20,21,21,22,22,23,23,24,24,25,25,26,26],"right_children":[2,4,6,8,10,12,14,16,18,20,22,24,26,-1,-1,28,-1,30,32,34,36,38,40,42,44,46,48,-1,-1,-1,-1,-1,-1,-1,-1,-1,-1,-1,-1,-1,-1,-1,-1,-1,-1,-1,-1,-1,-1],"split_conditions":[1.1393323E-2,3.5963411E0,4.9991198E-2,8.1216335E-1,9.67234E-1,6.2932867E-1,-5.9252396E-2,-1.7361152E-4,-4.5978095E-2,-1.4396814E-1,2.202E3,4.1148744E0,2.7434814E0,-4.156517E-3,6.2573634E-2,2.644E3,5.176637E-2,3.275E3,-7.761267E-2,-1.1337186E-1,8.163193E-3,5.38E-1,4.898763E-2,-1.2718021E-2,-2.9722575E-2,-1.3402993E-4,1.42728E-1,3.610642E-3,-2.1233382E-2,2.3407625E-2,-1.5103771E-2,-3.3931918E-3,7.0652686E-2,1.3980506E-2,7.4574664E-2,1.249341E-3,3.8882073E-2,6.725001E-3,-2.271792E-2,3.702948E-2,-1.4380921E-2,4.709609E-2,1.9062699E-3,2.6958078E-2,-1.8009888E-2,-1.3068033E-2,3.1860173E-2,2.370786E-3,-2.336734E-2],"split_indices":[88,93,174,92,92,91,138,95,158,115,67,93,93,0,0,67,0,67,137,147,88,59,144,135,139,95,74,0,0,0,0,0,0,0,0,0,0,0,0,0,0,0,0,0,0,0,0,0,0],"split_type":[0,0,0,0,0,0,0,0,0,0,0,0,0,0,0,0,0,0,0,0,0,0,0,0,0,0,0,0,0,0,0,0,0,0,0,0,0,0,0,0,0,0,0,0,0,0,0,0,0],"sum_hessian":[3.5513898E2,1.7259578E2,1.825432E2,6.515659E1,1.07439186E2,1.7909903E2,3.444171E0,5.2742535E1,1.2414059E1,8.165853E1,2.5780651E1,5.2829308E1,1.2626972E2,1.0567051E0,2.387466E0,5.1205326E1,1.5372086E0,3.0811687E0,9.3328905E0,2.015344E1,6.1505093E1,1.6780169E1,9.0004835E0,1.4833744E1,3.7995564E1,8.767834E0,1.1750189E2,6.29158E0,4.4913746E1,1.2244666E0,1.8567022E0,1.6448148E0,7.688075E0,1.0071484E0,1.9146292E1,1.8852278E1,4.2652817E1,1.4623219E0,1.5317847E1,6.0776157E0,2.9228673E0,3.899231E0,1.0934513E1,3.0188088E0,3.4976757E1,7.3527565E0,1.4150767E0,1.8664705E0,1.1563542E2],"tree_param":{"num_deleted":"0","num_feature":"177","num_nodes":"49","size_leaf_vector":"1"}},{"base_weights":[-6.2907315E-3,-1.407586E-1,1.5379498E0,-3.783926E-1,4.3736652E-1,1.651978E0,4.4609168E-1,1.1517059E0,-4.1359288E-1,1.1455746E0,-1.8558662E-1,5.7465183E-3,1.7275246E0,4.161869E-2,-1.372572E-2,-1.1614269E-2,6.399493E-2,-5.04162E-1,-1.2306365E-1,-1.9860787E-2,1.324993E0,-3.191935E-1,5.8194425E-2,7.093787E-2,1.15247285E-2,4.1478958E-2,-2.1034226E-2,2.3108304E-2,-1.660203E-2,5.9439268E-2,4.5221755E-3,-1.7711375E-2,5.1971097E-2],"categories":[],"categories_nodes":[],"categories_segments":[],"categories_sizes":[],"default_left":[0,0,0,0,0,0,0,0,0,0,0,0,0,0,0,0,0,0,0,0,0,0,0,0,0,0,0,0,0,0,0,0,0],"id":10,"left_children":[1,3,5,7,9,11,13,15,17,19,21,-1,23,-1,-1,-1,-1,25,27,-1,29,31,-1,-1,-1,-1,-1,-1,-1,-1,-1,-1,-1],"loss_changes":[7.594688E1,4.64687E1,2.700119E0,1.330452E1,4.3780186E1,2.5351868E0,2.4076102E0,4.20645E0,6.0577393E0,1.4389549E1,1.2012722E1,0E0,9.1368866E-1,0E0,0E0,0E0,0E0,6.46315E0,1.197346E1,0E0,7.884392E0,1.0506552E1,0E0,0E0,0E0,0E0,0E0,0E0,0E0,0E0,0E0,0E0,0E0],"parents":[2147483647,0,0,1,1,2,2,3,3,4,4,5,5,6,6,7,7,8,8,9,9,10,10,12,12,17,17,18,18,20,20,21,21],"right_children":[2,4,6,8,10,12,14,16,18,20,22,-1,24,-1,-1,-1,-1,26,28,-1,30,32,-1,-1,-1,-1,-1,-1,-1,-1,-1,-1,-1],"split_conditions":[7.47564E5,1.0547628E0,1.4535956E-1,-1.7020924E-1,6.7170775E-1,-5.0595414E-2,-1.351786E-2,3.458343E-2,7.226254E4,4.78761E5,8.71E-1,5.7465183E-3,3E0,4.161869E-2,-1.372572E-2,-1.1614269E-2,6.399493E-2,4.2766074E3,-4.276317E-3,-1.9860787E-2,3.437E3,2.4368855E4,5.8194425E-2,7.093787E-2,1.15247285E-2,4.1478958E-2,-2.1034226E-2,2.3108304E-2,-1.660203E-2,5.9439268E-2,4.5221755E-3,-1.7711375E-2,5.1971097E-2],"split_indices":[83,92,116,119,91,168,138,145,81,77,58,0,64,0,0,0,0,86,164,0,67,86,0,0,0,0,0,0,0,0,0,0,0],"split_type":[0,0,0,0,0,0,0,0,0,0,0,0,0,0,0,0,0,0,0,0,0,0,0,0,0,0,0,0,0,0,0,0,0],"sum_hessian":[3.643737E2,3.3608224E2,2.8291435E1,2.3854753E2,9.753472E1,2.5068792E1,3.222642E0,4.587259E0,2.3396028E2,4.5326546E1,5.2208176E1,1.3972639E0,2.367153E1,1.7289466E0,1.4936954E0,1.1182082E0,3.4690504E0,1.7753595E2,5.6424328E1,4.2356634E0,4.109088E1,4.9077427E1,3.130749E0,2.2647453E1,1.0240767E0,1.7507471E0,1.757852E2,1.6206821E1,4.0217506E1,3.6000145E1,5.090735E0,4.6327904E1,2.7495213E0],"tree_param":{"num_deleted":"0","num_feature":"177","num_nodes":"33","size_leaf_vector":"1"}},{"base_weights":[-1.9126477E-2,-3.7127787E-1,1.4425366E0,-5.4779327E-1,1.0735564E0,1.6983635E0,-2.7173597E-1,-5.6913304E-1,4.700465E-2,-4.428787E-2,1.5827298E0,-1.6941873E-2,1.796565E0,-2.1978483E-2,3.9783146E-2,8.0073214E-1,-5.906933E-1,-2.1898577E-2,4.891931E-2,1.7335277E0,-1.324566E-2,2.9950312E-1,1.8595332E0,-1.2220864E-2,5.497547E-2,2.8577134E-2,-2.451699E-2,2.2041056E-2,7.256038E-2,-1.4036307E-2,4.148794E-2,7.571657E-2,2.1813575E-2],"categories":[],"categories_nodes":[],"categories_segments":[],"categories_sizes":[],"default_left":[0,0,0,0,0,0,0,0,0,0,0,0,0,0,0,0,0,0,0,0,0,0,0,0,0,0,0,0,0,0,0,0,0],"id":11,"left_children":[1,3,5,7,9,11,13,15,-1,17,19,-1,21,-1,-1,23,25,-1,-1,27,-1,29,31,-1,-1,-1,-1,-1,-1,-1,-1,-1,-1],"loss_changes":[1.8359395E2,7.3886856E1,3.0968857E1,1.0058083E1,1.8203293E1,1.3491486E1,3.94928E0,7.9718018E0,0E0,7.486724E0,7.003483E0,0E0,4.6944733E0,0E0,0E0,3.2542462E0,7.7194977E0,0E0,0E0,7.0622253E-1,0E0,2.1584911E0,1.1542816E0,0E0,0E0,0E0,0E0,0E0,0E0,0E0,0E0,0E0,0E0],"parents":[2147483647,0,0,1,1,2,2,3,3,4,4,5,5,6,6,7,7,9,9,10,10,12,12,15,15,16,16,19,19,21,21,22,22],"right_children":[2,4,6,8,10,12,14,16,-1,18,20,-1,22,-1,-1,24,26,-1,-1,28,-1,30,32,-1,-1,-1,-1,-1,-1,-1,-1,-1,-1],"split_conditions":[1E0,3.1083138E5,5.1445794E0,6.546E3,3.767E3,4.8E1,5.23E-1,4.8646E-1,4.700465E-2,5.2182455E-2,2.7783971E-2,-1.6941873E-2,7.70959E5,-2.1978483E-2,3.9783146E-2,5.68E-1,-8.169813E-2,-2.1898577E-2,4.891931E-2,-3.48702E-2,-1.324566E-2,1E0,7.585286E-1,-1.2220864E-2,5.497547E-2,2.8577134E-2,-2.451699E-2,2.2041056E-2,7.256038E-2,-1.4036307E-2,4.148794E-2,7.571657E-2,2.1813575E-2],"split_indices":[0,84,93,67,67,68,60,92,0,176,152,0,82,0,0,57,167,0,0,136,0,12,92,0,0,0,0,0,0,0,0,0,0],"split_type":[0,0,0,0,0,0,0,0,0,0,0,0,0,0,0,0,0,0,0,0,0,0,0,0,0,0,0,0,0,0,0,0,0],"sum_hessian":[3.5485E2,2.866123E2,6.82377E1,2.5602393E2,3.058837E1,5.9435547E1,8.80216E0,2.5361044E2,2.4134853E0,9.796862E0,2.0791508E1,2.4374087E0,5.6998135E1,7.747954E0,1.0542059E0,3.2978604E0,2.5031258E2,7.4755588E0,2.3213034E0,1.9408733E1,1.3827745E0,2.5970886E0,5.4401047E1,1.2262372E0,2.0716233E0,3.5955846E0,2.46717E2,1.8159845E0,1.7592749E1,1.5868008E0,1.0102876E0,5.254981E1,1.8512404E0],"tree_param":{"num_deleted":"0","num_feature":"177","num_nodes":"33","size_leaf_vector":"1"}},{"base_weights":[-1.5148069E-3,-7.05189E-1,6.4334035E-1,3.3150148E-2,-2.9806813E-2,-2.3027694E-2,9.335449E-1,-2.9245926E-2,4.1850442E-1,1.0886914E0,1.625644E-1,7.17647E-1,-2.7382921E-2,1.1143805E0,-1.9606104E-2,4.1936807E-2,-2.8845448E-2,-2.4703378E-2,3.7192326E-2,4.559226E-2,-1.9714374E-2],"categories":[],"categories_nodes":[],"categories_segments":[],"categories_sizes":[],"default_left":[0,0,0,0,0,0,0,0,0,0,0,0,0,0,0,0,0,0,0,0,0],"id":12,"left_children":[1,3,5,-1,-1,7,9,-1,11,13,15,17,-1,19,-1,-1,-1,-1,-1,-1,-1],"loss_changes":[2.2583727E2,1.52091675E1,5.0318764E1,0E0,0E0,2.5235758E1,2.1346466E1,0E0,1.6861338E1,6.7080536E0,2.5528252E1,1.1817226E1,0E0,6.688614E0,0E0,0E0,0E0,0E0,0E0,0E0,0E0],"parents":[2147483647,0,0,1,1,2,2,5,5,6,6,8,8,9,9,10,10,11,11,13,13],"right_children":[2,4,6,-1,-1,8,10,-1,12,14,16,18,-1,20,-1,-1,-1,-1,-1,-1,-1],"split_conditions":[-1.7361152E-4,-1.4034759E-1,1.2185897E-2,3.3150148E-2,-2.9806813E-2,-5.8723283E-5,6.1E1,-2.9245926E-2,3.2060713E-2,7.428769E-2,-5.202632E-2,-6.2049734E-3,-2.7382921E-2,6.704857E-2,-1.9606104E-2,4.1936807E-2,-2.8845448E-2,-2.4703378E-2,3.7192326E-2,4.559226E-2,-1.9714374E-2],"split_indices":[95,139,88,0,0,95,68,0,126,136,134,114,0,144,0,0,0,0,0,0,0],"split_type":[0,0,0,0,0,0,0,0,0,0,0,0,0,0,0,0,0,0,0,0,0],"sum_hessian":[4.9567993E2,2.370593E2,2.5862064E2,5.457178E0,2.3160213E2,7.863497E1,1.7998566E2,3.003538E1,4.8599594E1,1.493831E2,3.0602554E1,3.857779E1,1.0021807E1,1.4734322E2,2.0398781E0,1.5246068E1,1.5356486E1,4.9627266E0,3.3615063E1,1.4539615E2,1.9470729E0],"tree_param":{"num_deleted":"0","num_feature":"177","num_nodes":"21","size_leaf_vector":"1"}},{"base_weights":[2.069885E-2,3.7378937E-1,-4.170415E-1,-2.9000083E-1,5.5793786E-1,8.334117E-1,-4.5860973E-1,-4.5363212E-1,5.093434E-2,9.9983734E-1,3.106471E-1,5.904173E-2,-4.9952626E-2,1.17055394E-1,-5.106984E-1,4.19817E-2,-5.24101E-1,4.997354E-1,1.4304959E0,9.7874695E-1,1.5333657E-1,-0E0,-3.6102198E-3,-6.3743755E-2,4.5040254E-2,-5.637524E-1,-1.4044868E-2,6.160075E-3,-2.2342497E-2,6.6592894E-2,3.6899773E-3,6.425529E-2,-2.8934842E-3,6.522653E-2,1.6712094E-2,1.999525E-2,-6.828164E-3,2.2377329E-2,-9.71687E-3,1.9346334E-2,-2.3104515E-2,5.0758038E-2,-1.0825042E-2],"categories":[],"categories_nodes":[],"categories_segments":[],"categories_sizes":[],"default_left":[0,0,0,0,0,0,0,0,0,0,0,0,0,0,0,0,0,0,0,0,0,0,0,0,0,0,0,0,0,0,0,0,0,0,0,0,0,0,0,0,0,0,0],"id":13,"left_children":[1,3,5,7,9,11,13,15,-1,17,19,-1,21,23,25,-1,27,29,31,33,35,-1,-1,37,-1,39,41,-1,-1,-1,-1,-1,-1,-1,-1,-1,-1,-1,-1,-1,-1,-1,-1],"loss_changes":[5.4298634E1,2.3971565E1,8.492973E0,1.1443079E1,1.6252892E1,3.236953E0,4.6701202E0,4.6853323E0,0E0,1.0769794E1,1.0199439E1,0E0,8.631603E-3,2.6047108E0,3.6268082E0,0E0,1.026041E0,1.2361915E1,7.7999687E0,5.9397984E0,9.313494E0,0E0,0E0,1.4602234E0,0E0,2.1238403E0,5.0933814E0,0E0,0E0,0E0,0E0,0E0,0E0,0E0,0E0,0E0,0E0,0E0,0E0,0E0,0E0,0E0,0E0],"parents":[2147483647,0,0,1,1,2,2,3,3,4,4,5,5,6,6,7,7,9,9,10,10,12,12,13,13,14,14,16,16,17,17,18,18,19,19,20,20,23,23,25,25,26,26],"right_children":[2,4,6,8,10,12,14,16,-1,18,20,-1,22,24,26,-1,28,30,32,34,36,-1,-1,38,-1,40,42,-1,-1,-1,-1,-1,-1,-1,-1,-1,-1,-1,-1,-1,-1,-1,-1],"split_conditions":[1.200196E-2,3.0331807E0,-1.23221345E-1,1.01698115E-1,4.34E-1,1.4970028E-2,2.7434814E0,4.9E1,5.093434E-2,-1.4002577E-2,-2.5679868E-2,5.904173E-2,2.5857E-1,3.7221543E-2,7.1867265E-2,4.19817E-2,1.015797E6,-1.8166892E-2,1.8391453E-1,2.005142E-2,8.2605475E-1,-0E0,-3.6102198E-3,7.41878E5,4.5040254E-2,5.178366E-2,4.0120807E0,6.160075E-3,-2.2342497E-2,6.6592894E-2,3.6899773E-3,6.425529E-2,-2.8934842E-3,6.522653E-2,1.6712094E-2,1.999525E-2,-6.828164E-3,2.2377329E-2,-9.71687E-3,1.9346334E-2,-2.3104515E-2,5.0758038E-2,-1.0825042E-2],"split_indices":[88,93,125,89,62,88,93,68,0,131,143,0,75,154,113,0,77,160,117,130,90,0,0,77,0,89,93,0,0,0,0,0,0,0,0,0,0,0,0,0,0,0,0],"split_type":[0,0,0,0,0,0,0,0,0,0,0,0,0,0,0,0,0,0,0,0,0,0,0,0,0,0,0,0,0,0,0,0,0,0,0,0,0,0,0,0,0,0,0],"sum_hessian":[3.49326E2,1.9356607E2,1.557599E2,4.1794346E1,1.5177173E2,4.3209953E0,1.514389E2,3.8534843E1,3.2595055E0,5.3220715E1,9.855101E1,2.1784682E0,2.1425269E0,1.2303049E1,1.3913586E2,1.0399009E0,3.749494E1,2.573202E1,2.7488695E1,1.766597E1,8.088504E1,1.120316E0,1.0222108E0,1.1143837E1,1.1592128E0,1.2540344E2,1.3732418E1,1.505254E0,3.598969E1,5.8045635E0,1.9927456E1,2.4606474E1,2.88222E0,7.2060285E0,1.0459941E1,3.8972225E1,4.1912815E1,1.8900303E0,9.253806E0,1.1009034E0,1.2430254E2,1.5660863E0,1.2166332E1],"tree_param":{"num_deleted":"0","num_feature":"177","num_nodes":"43","size_leaf_vector":"1"}},{"base_weights":[-1.9504733E-2,-1.8688634E-1,1.1800429E0,-4.1769725E-1,2.996234E-1,1.5239733E0,-2.5389016E-1,1.1280013E0,-4.5268804E-1,1.0337052E0,-2.8160563E-1,2.0128824E-3,1.5965629E0,3.7829153E-2,-2.143596E-2,6.0957093E-3,5.7615418E-2,-5.458045E-1,-1.1723858E-1,1.2135867E0,-1.9750426E-2,-3.8780507E-1,1.1981459E0,1.8507835E-2,6.5925695E-2,-2.2469282E-2,1.8934065E-2,5.621427E-2,-1.0659596E-2,-1.6513294E-2,5.282104E-2,-2.0243691E-2,4.4178374E-2,1.1671462E-2,5.5137012E-2],"categories":[],"categories_nodes":[],"categories_segments":[],"categories_sizes":[],"default_left":[0,0,0,0,0,0,0,0,0,0,0,0,0,0,0,0,0,0,0,0,0,0,0,0,0,0,0,0,0,0,0,0,0,0,0],"id":14,"left_children":[1,3,5,7,9,11,13,15,17,19,21,-1,23,-1,-1,-1,-1,25,27,29,-1,31,33,-1,-1,-1,-1,-1,-1,-1,-1,-1,-1,-1,-1],"loss_changes":[7.0585556E1,3.482518E1,2.1738914E1,1.1804821E1,4.296534E1,3.489441E0,3.5534E0,1.1064382E0,6.310463E0,1.2873219E1,9.2517605E0,0E0,9.6652985E-1,0E0,0E0,0E0,0E0,2.8863907E0,1.078417E1,7.6066475E0,0E0,9.937645E0,7.787418E-2,0E0,0E0,0E0,0E0,0E0,0E0,0E0,0E0,0E0,0E0,0E0,0E0],"parents":[2147483647,0,0,1,1,2,2,3,3,4,4,5,5,6,6,7,7,8,8,9,9,10,10,12,12,17,17,18,18,19,19,21,21,22,22],"right_children":[2,4,6,8,10,12,14,16,18,20,22,-1,24,-1,-1,-1,-1,26,28,30,-1,32,34,-1,-1,-1,-1,-1,-1,-1,-1,-1,-1,-1,-1],"split_conditions":[5.89237E5,9.3537736E-1,4.7635738E-2,-1.8649387E-1,-1.1890991E-4,9.634621E-3,3E0,2.2279672E-2,7.226254E4,3E0,1.7197575E-1,2.0128824E-3,1.155E4,3.7829153E-2,-2.143596E-2,6.0957093E-3,5.7615418E-2,1.5755738E-1,-1.2663119E-1,3E0,-1.9750426E-2,4.1719086E-2,7.04E-1,1.8507835E-2,6.5925695E-2,-2.2469282E-2,1.8934065E-2,5.621427E-2,-1.0659596E-2,-1.6513294E-2,5.282104E-2,-2.0243691E-2,4.4178374E-2,1.1671462E-2,5.5137012E-2],"split_indices":[83,92,164,119,95,88,54,123,81,63,121,0,78,0,0,0,0,120,120,54,0,167,58,0,0,0,0,0,0,0,0,0,0,0,0],"split_type":[0,0,0,0,0,0,0,0,0,0,0,0,0,0,0,0,0,0,0,0,0,0,0,0,0,0,0,0,0,0,0,0,0,0,0],"sum_hessian":[3.4994916E2,3.0791156E2,4.2037575E1,2.0907079E2,9.884078E1,3.3910942E1,8.126632E0,3.8733351E0,2.0519745E2,4.3409252E1,5.5431534E1,1.7361387E0,3.2174805E1,1.0313401E0,7.0952916E0,1.3779154E0,2.4954197E0,1.5988908E2,4.530836E1,3.907818E1,4.3310714E0,5.247126E1,2.9602754E0,1.9181263E0,3.0256678E1,1.579673E2,1.9217898E0,3.2336857E0,4.2074677E1,2.1767554E0,3.6901424E1,4.929191E1,3.1793504E0,1.017581E0,1.9426944E0],"tree_param":{"num_deleted":"0","num_feature":"177","num_nodes":"35","size_leaf_vector":"1"}},{"base_weights":[-1.4872E-2,1.2458116E0,-5.658775E-1,1.5899893E0,-2.3434404E-2,-5.975727E-1,3.1651503E-1,1.6188246E0,-1.2498696E-2,3.2793175E-2,-6.089225E-1,-2.0114549E-2,4.8754316E-2,-1.1316187E-2,1.6455495E0,2.9931583E-2,-2.4810918E-2,6.768171E-2,2.121643E-2],"categories":[],"categories_nodes":[],"categories_segments":[],"categories_sizes":[],"default_left":[0,0,0,0,0,0,0,0,0,0,0,0,0,0,0,0,0,0,0],"id":15,"left_children":[1,3,5,7,-1,9,11,13,-1,-1,15,-1,-1,-1,17,-1,-1,-1,-1],"loss_changes":[2.5513441E2,7.1440414E1,7.368187E0,5.8114014E0,0E0,4.4561005E0,7.641937E0,5.3354645E0,0E0,0E0,4.24028E0,0E0,0E0,0E0,3.652542E0,0E0,0E0,0E0,0E0],"parents":[2147483647,0,0,1,1,2,2,3,3,5,5,6,6,7,7,10,10,14,14],"right_children":[2,4,6,8,-1,10,12,14,-1,-1,16,-1,-1,-1,18,-1,-1,-1,-1],"split_conditions":[8.634448E-3,6.8894243E0,1E0,7.084476E-2,-2.3434404E-2,-1.4680976E-1,8.3622783E-1,-1.1624675E-1,-1.2498696E-2,3.2793175E-2,4.6071583E-1,-2.0114549E-2,4.8754316E-2,-1.1316187E-2,6.6619374E-2,2.9931583E-2,-2.4810918E-2,6.768171E-2,2.121643E-2],"split_indices":[88,93,0,165,0,144,90,127,0,0,92,0,0,0,166,0,0,0,0],"split_type":[0,0,0,0,0,0,0,0,0,0,0,0,0,0,0,0,0,0,0],"sum_hessian":[3.6537125E2,1.1068497E2,2.5468628E2,9.333376E1,1.7351208E1,2.4627623E2,8.4100485E0,9.213888E1,1.1948878E0,1.3205224E0,2.449557E2,4.5815926E0,3.8284564E0,1.0921817E0,9.104669E1,1.420041E0,2.4353568E2,8.681992E1,4.226772E0],"tree_param":{"num_deleted":"0","num_feature":"177","num_nodes":"19","size_leaf_vector":"1"}},{"base_weights":[-2.1288734E-2,-6.9521624E-1,5.97546E-1,-2.9388865E-2,3.711105E-2,-2.3667528E-1,8.26356E-1,5.422014E-1,-2.9422918E-2,9.21692E-1,-2.8184019E-2,-2.557433E-2,4.123712E-2,9.793602E-1,-2.6085578E-2,4.1041445E-2,-2.4819013E-2],"categories":[],"categories_nodes":[],"categories_segments":[],"categories_sizes":[],"default_left":[0,0,0,0,0,0,0,0,0,0,0,0,0,0,0,0,0],"id":16,"left_children":[1,3,5,-1,-1,7,9,11,-1,13,-1,-1,-1,15,-1,-1,-1],"loss_changes":[2.0663522E2,1.5872719E1,4.954329E1,0E0,0E0,2.228104E1,3.0293823E1,1.3670977E1,0E0,1.8056915E1,0E0,0E0,0E0,1.4510117E1,0E0,0E0,0E0],"parents":[2147483647,0,0,1,1,2,2,5,5,6,6,7,7,9,9,13,13],"right_children":[2,4,6,-1,-1,8,10,12,-1,14,-1,-1,-1,16,-1,-1,-1],"split_conditions":[-1.7361152E-4,3.2158622E-1,6E0,-2.9388865E-2,3.711105E-2,-5.8127813E-2,3.0965382E-2,2.986322E-2,-2.9422918E-2,4.627716E-2,-2.8184019E-2,-2.557433E-2,4.123712E-2,1.57241E-1,-2.6085578E-2,4.1041445E-2,-2.4819013E-2],"split_indices":[95,114,65,0,0,140,160,170,0,144,0,0,0,121,0,0,0],"split_type":[0,0,0,0,0,0,0,0,0,0,0,0,0,0,0,0,0],"sum_hessian":[4.934495E2,2.362285E2,2.5722098E2,2.3120953E2,5.018969E0,5.526354E1,2.0195744E2,2.1465096E1,3.3798443E1,1.9055449E2,1.1402956E1,6.1306453E0,1.5334451E1,1.8424466E2,6.3098197E0,1.7943085E2,4.813812E0],"tree_param":{"num_deleted":"0","num_feature":"177","num_nodes":"17","size_leaf_vector":"1"}},{"base_weights":[-1.6465148E-2,2.7288848E-1,-4.800876E-1,7.8401256E-1,1.2054732E-1,9.085128E-2,-5.348864E-1,1.0454972E0,-4.795188E-1,-3.771541E-1,4.286613E-1,4.62765E-1,-3.950372E-1,-5.5339056E-1,2.6536038E-2,1.219357E0,-1.6956445E-2,-2.1741118E-2,-0E0,4.875617E-2,-4.3107152E-1,8.8716096E-1,1.39197E-2,8.653991E-1,-1.2549745E-2,-1.9510193E-2,-0E0,1.337467E-1,-5.6896484E-1,1.9524062E-2,6.168943E-2,-2.1018898E-2,7.9561295E-3,-6.5478054E-3,4.445998E-2,-7.9950625E-3,3.228034E-2,-0E0,5.0183386E-2,-1.2845026E-2,2.4233775E-2,9.254993E-3,-2.3199257E-2],"categories":[],"categories_nodes":[],"categories_segments":[],"categories_sizes":[],"default_left":[0,0,0,0,0,0,0,0,0,0,0,0,0,0,0,0,0,0,0,0,0,0,0,0,0,0,0,0,0,0,0,0,0,0,0,0,0,0,0,0,0,0,0],"id":17,"left_children":[1,3,5,7,9,11,13,15,17,19,21,23,25,27,-1,29,-1,-1,-1,-1,31,33,35,37,-1,-1,-1,39,41,-1,-1,-1,-1,-1,-1,-1,-1,-1,-1,-1,-1,-1,-1],"loss_changes":[5.00368E1,1.7682396E1,4.579296E0,1.7856068E1,2.747964E1,2.584438E0,3.2639275E0,1.1775597E1,2.820344E-1,6.3423195E0,2.0928915E1,2.854075E0,2.3840952E-1,1.5084114E0,0E0,8.358147E0,0E0,0E0,0E0,0E0,4.125889E0,1.2629414E1,1.0260099E1,1.9348502E0,0E0,0E0,0E0,9.839803E-1,1.290844E0,0E0,0E0,0E0,0E0,0E0,0E0,0E0,0E0,0E0,0E0,0E0,0E0,0E0,0E0],"parents":[2147483647,0,0,1,1,2,2,3,3,4,4,5,5,6,6,7,7,8,8,9,9,10,10,11,11,12,12,13,13,15,15,20,20,21,21,22,22,23,23,27,27,28,28],"right_children":[2,4,6,8,10,12,14,16,18,20,22,24,26,28,-1,30,-1,-1,-1,-1,32,34,36,38,-1,-1,-1,40,42,-1,-1,-1,-1,-1,-1,-1,-1,-1,-1,-1,-1,-1,-1],"split_conditions":[1.24804145E-2,-3.1152938E-2,2.7434814E0,6.7622834E-1,8.30973E-3,5.66422E5,5.2387252E-2,1.11364834E-1,2.695E3,4.8E1,1.0686182E-2,5.455677E-2,5.2428365E-1,-1.0275105E-1,2.6536038E-2,5.092207E0,-1.6956445E-2,-2.1741118E-2,-0E0,4.875617E-2,1E0,-1.3573121E-2,6.4E1,-3.624472E-2,-1.2549745E-2,-1.9510193E-2,-0E0,-3.2370213E-2,6.12E-1,1.9524062E-2,6.168943E-2,-2.1018898E-2,7.9561295E-3,-6.5478054E-3,4.445998E-2,-7.9950625E-3,3.228034E-2,-0E0,5.0183386E-2,-1.2845026E-2,2.4233775E-2,9.254993E-3,-2.3199257E-2],"split_indices":[88,115,93,91,88,83,174,149,67,68,88,155,94,125,0,93,0,0,0,0,2,115,68,159,0,0,0,149,58,0,0,0,0,0,0,0,0,0,0,0,0,0,0],"split_type":[0,0,0,0,0,0,0,0,0,0,0,0,0,0,0,0,0,0,0,0,0,0,0,0,0,0,0,0,0,0,0,0,0,0,0,0,0,0,0,0,0,0,0],"sum_hessian":[3.7085806E2,2.2846523E2,1.4239282E2,5.13561E1,1.7710913E2,1.2252584E1,1.3014024E2,4.275895E1,8.597152E0,6.75102E1,1.0959893E2,7.083816E0,5.1687684E0,1.2877333E2,1.3669031E0,3.8448017E1,4.3109303E0,7.4244957E0,1.1726564E0,1.4394078E0,6.607079E1,5.1397957E1,5.8200974E1,4.6743736E0,2.4094424E0,4.0485444E0,1.1202239E0,2.5435474E0,1.2622979E2,1.2640731E1,2.5807287E1,5.7742737E1,8.328057E0,9.011322E0,4.2386635E1,4.633275E1,1.1868225E1,1.7451836E0,2.9291904E0,1.350394E0,1.1931533E0,1.3191074E0,1.2491068E2],"tree_param":{"num_deleted":"0","num_feature":"177","num_nodes":"43","size_leaf_vector":"1"}},{"base_weights":[2.4798851E-2,-1.3652861E-1,1.154761E0,-3.3760127E-1,3.6656883E-1,1.4620309E0,-3.760173E-1,-5.876011E-1,-1.4358437E-1,1.0020951E0,-2.8650004E-1,1.9636808E-3,1.5253484E0,1.1760359E-2,-2.088266E-2,-6.010116E-1,1.2134959E-2,1.414634E-1,-4.273615E-1,-2.0126214E-2,1.1826203E0,5.025196E-2,-4.1946426E-1,1.5546052E0,9.991249E-3,-2.4584658E-2,1.1356362E-2,-1.5600699E-3,4.49532E-2,5.3984255E-2,-2.0216322E-2,5.0204873E-2,-1.4642543E-2,3.906707E-2,-2.029496E-2,6.3394405E-2,1.0274587E-2],"categories":[],"categories_nodes":[],"categories_segments":[],"categories_sizes":[],"default_left":[0,0,0,0,0,0,0,0,0,0,0,0,0,0,0,0,0,0,0,0,0,0,0,0,0,0,0,0,0,0,0,0,0,0,0,0,0],"id":18,"left_children":[1,3,5,7,9,11,13,15,17,19,21,-1,23,-1,-1,25,-1,27,29,-1,31,-1,33,35,-1,-1,-1,-1,-1,-1,-1,-1,-1,-1,-1,-1,-1],"loss_changes":[6.646025E1,3.2350174E1,2.2085178E1,1.0915432E1,3.8257145E1,3.184967E0,9.940238E-1,1.3974152E0,1.0611557E1,1.3319778E1,9.825161E0,0E0,7.9182434E-1,0E0,0E0,1.3895645E0,0E0,1.1759435E1,9.697146E0,0E0,5.258316E0,0E0,5.7157845E0,7.975769E-1,0E0,0E0,0E0,0E0,0E0,0E0,0E0,0E0,0E0,0E0,0E0,0E0,0E0],"parents":[2147483647,0,0,1,1,2,2,3,3,4,4,5,5,6,6,7,7,8,8,9,9,10,10,12,12,15,15,17,17,18,18,20,20,22,22,23,23],"right_children":[2,4,6,8,10,12,14,16,18,20,22,-1,24,-1,-1,26,-1,28,30,-1,32,-1,34,36,-1,-1,-1,-1,-1,-1,-1,-1,-1,-1,-1,-1,-1],"split_conditions":[6.44224E5,1.0547628E0,5.5226624E-2,8.897701E-3,6.75278E-1,9.634621E-3,6.945875E-2,1.6204878E1,1.283799E-2,-5.7445128E-2,-4.1806843E-2,1.9636808E-3,1.5400319E-1,1.1760359E-2,-2.088266E-2,8.071326E-2,1.2134959E-2,1.5167269E-1,-4.5332674E-2,-2.0126214E-2,7.252078E-2,5.025196E-2,-8.354884E-2,6.2215127E-2,9.991249E-3,-2.4584658E-2,1.1356362E-2,-1.5600699E-3,4.49532E-2,5.3984255E-2,-2.0216322E-2,5.0204873E-2,-1.4642543E-2,3.906707E-2,-2.029496E-2,6.3394405E-2,1.0274587E-2],"split_indices":[83,92,164,88,91,88,124,93,88,168,143,0,113,0,0,166,0,115,147,0,138,0,124,155,0,0,0,0,0,0,0,0,0,0,0,0,0],"split_type":[0,0,0,0,0,0,0,0,0,0,0,0,0,0,0,0,0,0,0,0,0,0,0,0,0,0,0,0,0,0,0,0,0,0,0,0,0],"sum_hessian":[3.6215405E2,3.176002E2,4.4553883E1,2.2728789E2,9.0312294E1,3.7197533E1,7.356348E0,9.8203735E1,1.2908415E2,4.5577633E1,4.473466E1,1.7393074E0,3.5458225E1,1.0126873E0,6.343661E0,9.717874E1,1.024993E0,6.447229E1,6.461187E1,4.6300807E0,4.0947556E1,2.8194757E0,4.1915184E1,3.4372692E1,1.085535E0,9.611945E1,1.0592908E0,5.5191807E1,9.2804785E0,1.9790545E0,6.2632812E1,3.935909E1,1.5884669E0,1.8166419E0,4.009854E1,3.329809E1,1.0745978E0],"tree_param":{"num_deleted":"0","num_feature":"177","num_nodes":"37","size_leaf_vector":"1"}},{"base_weights":[2.5715247E-2,1.1853427E0,-5.6946933E-1,-2.3188204E-2,1.4582998E0,3.842836E-2,-5.811211E-1,-1.8374814E-2,1.5185776E0,-6.0406566E-1,2.762819E-1,-1.3250684E-2,1.5479249E0,2.8951103E-2,-2.4642682E-2,-1.8522216E-2,4.6500906E-2,6.2939614E-2,1.2933299E-2],"categories":[],"categories_nodes":[],"categories_segments":[],"categories_sizes":[],"default_left":[0,0,0,0,0,0,0,0,0,0,0,0,0,0,0,0,0,0,0],"id":19,"left_children":[1,3,5,-1,7,-1,9,-1,11,13,15,-1,17,-1,-1,-1,-1,-1,-1],"loss_changes":[2.4859273E2,5.9798584E1,4.7624207E0,0E0,1.3073883E1,0E0,4.858551E0,0E0,6.2369385E0,4.117523E0,5.0276694E0,0E0,2.4891968E0,0E0,0E0,0E0,0E0,0E0,0E0],"parents":[2147483647,0,0,1,1,2,2,4,4,6,6,8,8,9,9,10,10,12,12],"right_children":[2,4,6,-1,8,-1,10,-1,12,14,16,-1,18,-1,-1,-1,-1,-1,-1],"split_conditions":[8.796498E-3,-1.4396814E-1,1.2508E-2,-2.3188204E-2,4.8E1,3.842836E-2,1E0,-1.8374814E-2,-7.356398E-2,4.6071583E-1,4.8886787E-2,-1.3250684E-2,8.99E-1,2.8951103E-2,-2.4642682E-2,-1.8522216E-2,4.6500906E-2,6.2939614E-2,1.2933299E-2],"split_indices":[88,115,74,0,68,0,0,0,148,92,131,0,61,0,0,0,0,0,0],"split_type":[0,0,0,0,0,0,0,0,0,0,0,0,0,0,0,0,0,0,0],"sum_hessian":[3.5811166E2,1.21182434E2,2.3692924E2,1.6030802E1,1.0515163E2,1.1100976E0,2.3581915E2,2.9521577E0,1.0219947E2,2.3007434E2,5.7448134E0,1.3821716E0,1.008173E2,1.4549702E0,2.2861937E2,3.3307986E0,2.4140146E0,9.839653E1,2.420768E0],"tree_param":{"num_deleted":"0","num_feature":"177","num_nodes":"19","size_leaf_vector":"1"}},{"base_weights":[2.3299323E-2,6.794091E-1,-5.877157E-1,2.5453442E-1,9.310834E-1,-6.5296507E-1,5.963817E-1,7.104577E-1,-4.7313225E-1,-2.316368E-2,9.7094065E-1,-6.8834287E-1,3.681559E-2,-2.2690466E-2,4.16728E-2,-2.6429746E-2,9.152688E-1,3.8321536E-2,-2.905199E-2,-2.2616178E-2,1.0065305E0,5.910942E-1,-2.9037775E-2,-2.339839E-2,4.235558E-2,4.129328E-2,-1.9350138E-2,-1.703519E-2,3.9050315E-2],"categories":[],"categories_nodes":[],"categories_segments":[],"categories_sizes":[],"default_left":[0,0,0,0,0,0,0,0,0,0,0,0,0,0,0,0,0,0,0,0,0,0,0,0,0,0,0,0,0],"id":20,"left_children":[1,3,5,7,9,11,13,15,17,-1,19,21,-1,-1,-1,-1,23,-1,-1,-1,25,27,-1,-1,-1,-1,-1,-1,-1],"loss_changes":[2.06118E2,2.6160545E1,2.0958412E1,3.1469181E1,9.943527E0,1.4682175E1,8.072799E0,1.6956394E1,1.3947006E1,0E0,8.905334E0,1.2367973E1,0E0,0E0,0E0,0E0,1.1668789E1,0E0,0E0,0E0,6.26976E0,3.4290786E0,0E0,0E0,0E0,0E0,0E0,0E0,0E0],"parents":[2147483647,0,0,1,1,2,2,3,3,4,4,5,5,6,6,7,7,8,8,10,10,11,11,16,16,20,20,21,21],"right_children":[2,4,6,8,10,12,14,16,18,-1,20,22,-1,-1,-1,-1,24,-1,-1,-1,26,28,-1,-1,-1,-1,-1,-1,-1],"split_conditions":[8.30126E5,6.415084E-1,1.7387514E1,5.5E1,-2.8678823E-2,1.4221126E-1,1.9609049E-2,4.8303704E0,-1.7749582E-1,-2.316368E-2,-5.350343E-2,-1.4889795E-1,3.681559E-2,-2.2690466E-2,4.16728E-2,-2.6429746E-2,-1.1358576E-2,3.8321536E-2,-2.905199E-2,-2.2616178E-2,2.4368855E4,1E0,-2.9037775E-2,-2.339839E-2,4.235558E-2,4.129328E-2,-1.9350138E-2,-1.703519E-2,3.9050315E-2],"split_indices":[77,91,93,68,176,152,118,93,122,0,147,134,0,0,0,0,174,0,0,0,86,4,0,0,0,0,0,0,0],"split_type":[0,0,0,0,0,0,0,0,0,0,0,0,0,0,0,0,0,0,0,0,0,0,0,0,0,0,0,0,0],"sum_hessian":[5.121283E2,2.4697623E2,2.651521E2,9.277048E1,1.5420575E2,2.5180922E2,1.3342868E1,5.7133972E1,3.5636505E1,3.5528195E0,1.5065292E2,2.4688394E2,4.9252753E0,3.555818E0,9.78705E0,7.0721135E0,5.006186E1,4.8785543E0,3.0757952E1,3.0102465E0,1.4764268E2,6.552363E0,2.4033159E2,4.0445213E0,4.6017338E1,1.4549806E2,2.1446195E0,1.6995596E0,4.852803E0],"tree_param":{"num_deleted":"0","num_feature":"177","num_nodes":"29","size_leaf_vector":"1"}},{"base_weights":[6.1470345E-2,3.6310738E-1,-4.417974E-1,2.3248181E-1,1.1522404E0,-5.3625736E-2,-5.340871E-1,-3.1090492E-1,5.79165E-1,1.5693977E0,-2.1467501E-1,1.17881514E-1,-2.0832429E-2,-5.5472684E-1,2.2730753E-2,-4.3052822E-1,1.7109847E-1,7.4026644E-1,-3.0364302E-1,6.454855E-2,1.2210826E-2,1.9241046E-2,-1.8421289E-2,4.6595372E-2,-6.1735855E-3,-2.4825009E-2,-5.780864E-1,-1.9140584E-2,4.1706223E-2,-6.5362537E-3,5.6429073E-2,4.319272E-2,1.1259952E-2,8.338464E-3,-1.9719254E-2,2.1297967E-2,-8.4860325E-3,2.0768816E-2,-1.1882092E-2,-0E0,-2.3557179E-2],"categories":[],"categories_nodes":[],"categories_segments":[],"categories_sizes":[],"default_left":[0,0,0,0,0,0,0,0,0,0,0,0,0,0,0,0,0,0,0,0,0,0,0,0,0,0,0,0,0,0,0,0,0,0,0,0,0,0,0,0,0],"id":21,"left_children":[1,3,5,7,9,11,13,15,17,19,21,23,-1,25,-1,27,29,31,33,-1,-1,-1,-1,-1,35,37,39,-1,-1,-1,-1,-1,-1,-1,-1,-1,-1,-1,-1,-1,-1],"loss_changes":[5.050189E1,2.1039856E1,4.377037E0,3.4090527E1,1.711501E1,2.1254697E0,2.597374E0,4.1701E0,1.5951145E1,5.781059E-1,1.5276285E0,2.608313E0,0E0,1.152216E0,0E0,4.472703E0,6.4036145E0,1.41465E1,1.8407089E0,0E0,0E0,0E0,0E0,0E0,2.079749E0,9.333142E-1,6.145992E-1,0E0,0E0,0E0,0E0,0E0,0E0,0E0,0E0,0E0,0E0,0E0,0E0,0E0,0E0],"parents":[2147483647,0,0,1,1,2,2,3,3,4,4,5,5,6,6,7,7,8,8,9,9,10,10,11,11,13,13,15,15,16,16,17,17,18,18,24,24,25,25,26,26],"right_children":[2,4,6,8,10,12,14,16,18,20,22,24,-1,26,-1,28,30,32,34,-1,-1,-1,-1,-1,36,38,40,-1,-1,-1,-1,-1,-1,-1,-1,-1,-1,-1,-1,-1,-1],"split_conditions":[1.2443946E-2,1E0,3.0034966E0,8.30973E-3,8.77551E-3,3.555659E-2,5.2387252E-2,3.950129E0,7.710052E-2,1.6523668E1,3.32E-1,1.896E3,-2.0832429E-2,6E0,2.2730753E-2,7.3564416E-1,7E0,1.085517E-2,2.6533164E-2,6.454855E-2,1.2210826E-2,1.9241046E-2,-1.8421289E-2,4.6595372E-2,-6.0580536E-3,6.13746E5,-4.9110226E-2,-1.9140584E-2,4.1706223E-2,-6.5362537E-3,5.6429073E-2,4.319272E-2,1.1259952E-2,8.338464E-3,-1.9719254E-2,2.1297967E-2,-8.4860325E-3,2.0768816E-2,-1.1882092E-2,-0E0,-2.3557179E-2],"split_indices":[88,33,93,88,88,172,174,93,152,93,62,79,0,65,0,92,55,88,175,0,0,0,0,0,141,82,146,0,0,0,0,0,0,0,0,0,0,0,0,0,0],"split_type":[0,0,0,0,0,0,0,0,0,0,0,0,0,0,0,0,0,0,0,0,0,0,0,0,0,0,0,0,0,0,0,0,0,0,0,0,0,0,0,0,0],"sum_hessian":[3.306729E2,2.0705203E2,1.2362087E2,1.7886565E2,2.8186392E1,2.4257622E1,9.936325E1,6.95962E1,1.0926944E2,2.1538322E1,6.64807E0,1.8134087E1,6.123535E0,9.811374E1,1.2495126E0,5.600995E1,1.3586254E1,9.2638756E1,1.663068E1,2.0465227E1,1.0730944E0,1.3799539E0,5.268116E0,1.1176192E0,1.7016468E1,4.410355E0,9.3703384E1,5.4962696E1,1.0472502E0,1.1319327E1,2.266927E0,5.2333218E1,4.030554E1,4.3192415E0,1.2311438E1,4.134479E0,1.2881989E1,1.0457608E0,3.3645945E0,1.6831565E0,9.2020226E1],"tree_param":{"num_deleted":"0","num_feature":"177","num_nodes":"41","size_leaf_vector":"1"}},{"base_weights":[2.2613784E-2,-1.643856E-1,1.3439523E0,-3.465907E-1,4.5503655E-1,-5.7811115E-4,1.4186957E0,-5.68879E-1,-1.2740387E-1,1.1486291E0,-1.5592754E-1,-1.252678E-2,1.2088075E-2,1.4549054E0,5.8911326E-3,-6.0152304E-1,4.669966E-2,8.484673E-1,-3.1672704E-1,1.2480975E0,-1.5386762E-2,9.255838E-1,-4.6519226E-1,9.370086E-3,1.480666E0,-2.4532676E-2,1.1884328E-2,-1.9549148E-2,4.950087E-2,-1.3755158E-3,4.4958275E-2,-1.4965486E-2,4.7454767E-2,5.30208E-2,-1.2977115E-2,4.8684143E-2,-1.3313653E-2,3.6151707E-2,-2.1986835E-2,1.1030133E-2,6.009215E-2],"categories":[],"categories_nodes":[],"categories_segments":[],"categories_sizes":[],"default_left":[0,0,0,0,0,0,0,0,0,0,0,0,0,0,0,0,0,0,0,0,0,0,0,0,0,0,0,0,0,0,0,0,0,0,0,0,0,0,0,0,0],"id":22,"left_children":[1,3,5,7,9,11,13,15,17,19,21,-1,-1,23,-1,25,27,29,31,33,-1,35,37,-1,39,-1,-1,-1,-1,-1,-1,-1,-1,-1,-1,-1,-1,-1,-1,-1,-1],"loss_changes":[8.805272E1,3.5337475E1,4.583061E0,1.1630461E1,3.044097E1,4.0391442E-1,1.5558472E0,2.483883E0,2.297291E1,5.6804543E0,1.3310994E1,0E0,0E0,7.5766754E-1,0E0,1.418438E0,5.0083685E0,5.060566E0,9.335033E0,4.3999786E0,0E0,3.7425885E0,4.0223207E0,0E0,4.3704224E-1,0E0,0E0,0E0,0E0,0E0,0E0,0E0,0E0,0E0,0E0,0E0,0E0,0E0,0E0,0E0,0E0],"parents":[2147483647,0,0,1,1,2,2,3,3,4,4,5,5,6,6,7,7,8,8,9,9,10,10,13,13,15,15,16,16,17,17,18,18,19,19,21,21,22,22,24,24],"right_children":[2,4,6,8,10,12,14,16,18,20,22,-1,-1,24,-1,26,28,30,32,34,-1,36,38,-1,40,-1,-1,-1,-1,-1,-1,-1,-1,-1,-1,-1,-1,-1,-1,-1,-1],"split_conditions":[5.89237E5,1.1045929E0,9.634621E-3,9.77247E-3,-1.2619195E-4,2.0359293E-2,1E0,9.01E-1,-2.0556206E-4,9.46062E3,6.6869426E-1,-1.252678E-2,1.2088075E-2,6.249869E-1,5.8911326E-3,1.7286987E1,2.3211494E-2,1.0473059E-2,4.5478344E4,8.8628866E-2,-1.5386762E-2,2.4715157E-2,-3.8957376E-2,9.370086E-3,-7.3241726E-2,-2.4532676E-2,1.1884328E-2,-1.9549148E-2,4.950087E-2,-1.3755158E-3,4.4958275E-2,-1.4965486E-2,4.7454767E-2,5.30208E-2,-1.2977115E-2,4.8684143E-2,-1.3313653E-2,3.6151707E-2,-2.1986835E-2,1.1030133E-2,6.009215E-2],"split_indices":[83,92,88,88,95,125,31,61,95,80,91,0,0,91,0,93,143,88,86,138,0,117,145,0,162,0,0,0,0,0,0,0,0,0,0,0,0,0,0,0,0],"split_type":[0,0,0,0,0,0,0,0,0,0,0,0,0,0,0,0,0,0,0,0,0,0,0,0,0,0,0,0,0,0,0,0,0,0,0,0,0,0,0,0,0],"sum_hessian":[3.5398813E2,3.1080246E2,4.3185688E1,2.40624E2,7.017846E1,2.2560897E0,4.09296E1,1.1844817E2,1.2217583E2,3.2531242E1,3.7647213E1,1.2556796E0,1.0004101E0,3.957942E1,1.3501813E0,1.1265916E2,5.7890162E0,1.9199862E1,1.0297596E2,3.0785353E1,1.7458904E0,7.856502E0,2.979071E1,1.1068604E0,3.8472557E1,1.1162296E2,1.0361911E0,4.3422327E0,1.4467832E0,4.688124E0,1.4511738E1,9.9975075E1,3.000888E0,2.9551088E1,1.2342644E0,6.4699984E0,1.3865039E0,1.0990053E0,2.8691704E1,1.0026921E0,3.7469864E1],"tree_param":{"num_deleted":"0","num_feature":"177","num_nodes":"41","size_leaf_vector":"1"}},{"base_weights":[1.5659403E-2,-4.5481038E-1,1.0173821E0,-5.868811E-1,6.7656434E-1,1.2056478E0,-2.2675356E-2,2.836484E-2,-5.996583E-1,1.0939693E0,-2.1061875E-2,1.4240012E0,-2.241862E-2,2.8170826E-2,-2.4498148E-2,-1.6680347E-2,1.3238434E0,5.0101495E-1,1.4902785E0,5.7913423E-2,-1.0727015E-2,5.1883385E-2,-1.8706113E-2,1.5138699E-2,6.0584363E-2],"categories":[],"categories_nodes":[],"categories_segments":[],"categories_sizes":[],"default_left":[0,0,0,0,0,0,0,0,0,0,0,0,0,0,0,0,0,0,0,0,0,0,0,0,0],"id":23,"left_children":[1,3,5,7,9,11,-1,-1,13,15,-1,17,-1,-1,-1,-1,19,21,23,-1,-1,-1,-1,-1,-1],"loss_changes":[1.674314E2,3.648974E1,3.461769E1,4.0071106E0,1.3509448E1,4.0170624E1,0E0,0E0,4.0170975E0,7.3891544E0,0E0,4.620804E0,0E0,0E0,0E0,0E0,3.8927135E0,6.630312E0,1.5176544E0,0E0,0E0,0E0,0E0,0E0,0E0],"parents":[2147483647,0,0,1,1,2,2,3,3,4,4,5,5,8,8,9,9,11,11,16,16,17,17,18,18],"right_children":[2,4,6,8,10,12,-1,-1,14,16,-1,18,-1,-1,-1,-1,20,22,24,-1,-1,-1,-1,-1,-1],"split_conditions":[1.462058E6,1E0,6.0493007E0,-1.4680976E-1,-7.621396E-2,8.3629227E-1,-2.2675356E-2,2.836484E-2,4.6071583E-1,3E0,-2.1061875E-2,2.442E3,-2.241862E-2,2.8170826E-2,-2.4498148E-2,-1.6680347E-2,8.1216335E-1,4.736444E-1,-5.9364177E-2,5.7913423E-2,-1.0727015E-2,5.1883385E-2,-1.8706113E-2,1.5138699E-2,6.0584363E-2],"split_indices":[82,0,93,144,114,92,0,0,92,96,0,67,0,0,0,0,92,92,136,0,0,0,0,0,0],"split_type":[0,0,0,0,0,0,0,0,0,0,0,0,0,0,0,0,0,0,0,0,0,0,0,0,0],"sum_hessian":[3.531681E2,2.4060944E2,1.12558655E2,2.1596811E2,2.4641325E1,1.0087349E2,1.1685163E1,1.4999632E0,2.1446815E2,1.8423388E1,6.217939E0,8.999704E1,1.0876451E1,1.4830233E0,2.1298512E2,2.267811E0,1.6155575E1,6.7040277E0,8.3293015E1,1.5130534E1,1.0250415E0,3.5504196E0,3.1536078E0,2.2262754E0,8.106674E1],"tree_param":{"num_deleted":"0","num_feature":"177","num_nodes":"25","size_leaf_vector":"1"}},{"base_weights":[2.0529386E-2,6.784922E-1,-6.077182E-1,-2.8104943E-1,7.7361745E-1,-6.423698E-1,3.6187325E-2,-2.757713E-2,3.7775796E-2,-2.6535649E-2,8.320819E-1,5.810269E-1,-6.7897826E-1,8.803475E-1,-2.548991E-2,-1.69146E-2,3.8352758E-2,2.811584E-1,-2.870122E-2,-2.2942632E-2,3.63117E-2,3.8041517E-2,-2.2278232E-2],"categories":[],"categories_nodes":[],"categories_segments":[],"categories_sizes":[],"default_left":[0,0,0,0,0,0,0,0,0,0,0,0,0,0,0,0,0,0,0,0,0,0,0],"id":24,"left_children":[1,3,5,7,9,11,-1,-1,-1,-1,13,15,17,19,-1,-1,-1,21,-1,-1,-1,-1,-1],"loss_changes":[2.0176553E2,2.2033386E1,1.3636902E1,1.1709154E1,1.882698E1,1.1362732E1,0E0,0E0,0E0,0E0,1.5431046E1,3.329498E0,9.059196E0,8.660965E0,0E0,0E0,0E0,6.0768595E0,0E0,0E0,0E0,0E0,0E0],"parents":[2147483647,0,0,1,1,2,2,3,3,4,4,5,5,10,10,11,11,12,12,13,13,17,17],"right_children":[2,4,6,8,10,12,-1,-1,-1,-1,14,16,18,20,-1,-1,-1,22,-1,-1,-1,-1,-1],"split_conditions":[6.64284E5,1.75725E-1,1.4221126E-1,7.67E-1,-2.8678823E-2,-1.4889795E-1,3.6187325E-2,-2.757713E-2,3.7775796E-2,-2.6535649E-2,6.995448E-1,1E0,-1.1242167E-1,-1.8894902E-1,-2.548991E-2,-1.69146E-2,3.8352758E-2,9.3082E5,-2.870122E-2,-2.2942632E-2,3.63117E-2,3.8041517E-2,-2.2278232E-2],"split_indices":[82,74,152,61,176,134,0,0,0,0,73,4,137,116,0,0,0,77,0,0,0,0,0],"split_type":[0,0,0,0,0,0,0,0,0,0,0,0,0,0,0,0,0,0,0,0,0,0,0],"sum_hessian":[4.8609213E2,2.374697E2,2.4862245E2,2.1147385E1,2.1632231E2,2.4368071E2,4.9417377E0,1.6250816E1,4.8965693E0,7.985594E0,2.0833672E2,6.5685124E0,2.371122E2,2.0216478E2,6.171938E0,1.6910225E0,4.87749E0,8.810146E0,2.2830205E2,3.3093321E0,1.9885544E2,4.8879414E0,3.922205E0],"tree_param":{"num_deleted":"0","num_feature":"177","num_nodes":"23","size_leaf_vector":"1"}},{"base_weights":[-0E0,2.965438E-1,-4.0736508E-1,-2.9587916E-1,4.5750862E-1,-2.0842286E-2,-5.25052E-1,-4.7688487E-1,9.552061E-1,8.2198566E-1,2.649613E-1,3.3656713E-1,-4.6502295E-1,-5.392725E-1,1.0806629E-2,-5.768406E-1,-0E0,-0E0,5.547797E-2,1.889162E-1,1.0979658E0,-3.7386867E-1,3.7927234E-1,-6.330794E-3,1.1820077E0,-2.269452E-2,1.8718483E-2,-1.2349722E-1,-5.7274336E-1,-2.3920119E-2,-0E0,-1.6002094E-2,4.4898666E-2,-5.864834E-3,5.6690477E-2,5.2223682E-2,-9.158027E-3,4.123823E-2,-2.2345236E-2,2.5435245E-2,-1.0256332E-3,1.46718435E-2,-1.4935589E-2,-3.6815451E-3,5.911577E-2,2.4025323E-2,-1.6000994E-2,1.3922654E-2,-2.3436904E-2],"categories":[],"categories_nodes":[],"categories_segments":[],"categories_sizes":[],"default_left":[0,0,0,0,0,0,0,0,0,0,0,0,0,0,0,0,0,0,0,0,0,0,0,0,0,0,0,0,0,0,0,0,0,0,0,0,0,0,0,0,0,0,0,0,0,0,0,0,0],"id":25,"left_children":[1,3,5,7,9,11,13,15,17,19,21,23,25,27,-1,29,31,-1,-1,33,35,37,39,41,43,-1,-1,45,47,-1,-1,-1,-1,-1,-1,-1,-1,-1,-1,-1,-1,-1,-1,-1,-1,-1,-1,-1,-1],"loss_changes":[4.3556572E1,2.0053196E1,6.8432217E0,1.0612752E1,1.1227608E1,5.993965E0,1.486515E0,1.922225E0,2.558103E0,9.492493E0,8.130001E0,6.150876E0,1.8894255E0,1.4545288E0,0E0,4.229641E-1,4.0177417E0,0E0,0E0,7.9170628E0,1.1112267E1,4.934106E0,9.782967E0,2.28769E0,2.569357E0,0E0,0E0,2.229856E0,1.508873E0,0E0,0E0,0E0,0E0,0E0,0E0,0E0,0E0,0E0,0E0,0E0,0E0,0E0,0E0,0E0,0E0,0E0,0E0,0E0,0E0],"parents":[2147483647,0,0,1,1,2,2,3,3,4,4,5,5,6,6,7,7,8,8,9,9,10,10,11,11,12,12,13,13,15,15,16,16,19,19,20,20,21,21,22,22,23,23,24,24,27,27,28,28],"right_children":[2,4,6,8,10,12,14,16,18,20,22,24,26,28,-1,30,32,-1,-1,34,36,38,40,42,44,-1,-1,46,48,-1,-1,-1,-1,-1,-1,-1,-1,-1,-1,-1,-1,-1,-1,-1,-1,-1,-1,-1,-1],"split_conditions":[1.200196E-2,3.0331807E0,3.5447422E-2,8.3629227E-1,4.17E-1,8.69E-1,1.8491621E-1,1E0,2.217E3,-1.0365441E-1,1.0784976E4,5.3E1,9.34E-1,2.8972254E0,1.0806629E-2,4.9256623E-2,-1.6008144E-2,-0E0,5.547797E-2,5.0741234E-3,1.85354E5,5.8645062E0,1.890402E6,8.260271E-3,-3.225329E-2,-2.269452E-2,1.8718483E-2,3.01346E5,6.332394E-1,-2.3920119E-2,-0E0,-1.6002094E-2,4.4898666E-2,-5.864834E-3,5.6690477E-2,5.2223682E-2,-9.158027E-3,4.123823E-2,-2.2345236E-2,2.5435245E-2,-1.0256332E-3,1.46718435E-2,-1.4935589E-2,-3.6815451E-3,5.911577E-2,2.4025323E-2,-1.6000994E-2,1.3922654E-2,-2.3436904E-2],"split_indices":[88,93,115,92,62,61,113,48,67,114,86,66,61,93,0,162,118,0,0,158,83,93,77,131,122,0,0,83,92,0,0,0,0,0,0,0,0,0,0,0,0,0,0,0,0,0,0,0,0],"split_type":[0,0,0,0,0,0,0,0,0,0,0,0,0,0,0,0,0,0,0,0,0,0,0,0,0,0,0,0,0,0,0,0,0,0,0,0,0,0,0,0,0,0,0,0,0,0,0,0,0],"sum_hessian":[3.5858057E2,2.07702E2,1.5087857E2,4.406469E1,1.6363731E2,3.5689438E1,1.1518913E2,3.9105675E1,4.959015E0,5.5255196E1,1.0838212E2,1.9785889E1,1.590355E1,1.13605194E2,1.5839388E0,3.218764E1,6.9180317E0,1.8026919E0,3.1563227E0,1.739645E1,3.7858746E1,1.5972725E1,9.240939E1,1.4698592E1,5.087297E0,1.4781247E1,1.1223032E0,9.036099E0,1.0456909E2,3.106305E1,1.1245929E0,5.562811E0,1.3552208E0,1.4291723E1,3.1047268E0,3.2815456E1,5.04329E0,1.2613105E0,1.4711414E1,5.636519E1,3.6044205E1,7.154301E0,7.5442905E0,1.0249554E0,4.0623417E0,2.0732613E0,6.962838E0,1.0099223E0,1.03559166E2],"tree_param":{"num_deleted":"0","num_feature":"177","num_nodes":"49","size_leaf_vector":"1"}},{"base_weights":[1.3159464E-2,-5.63735E-1,2.8275886E-1,-5.7506824E-1,1.1573394E-2,1.0186237E0,-1.714353E-1,4.077966E-3,-5.8620214E-1,-1.870781E-2,1.084458E0,1.1286814E0,-2.5550455E-1,-5.979239E-1,3.095977E-3,1.1671463E0,-2.877767E-1,-1.2079823E-2,1.3787248E0,-5.701903E-1,2.0807821E-2,1.997806E-3,-2.4400253E-2,2.725223E-2,5.312106E-2,1.0953468E-2,-1.94775E-2,6.146486E-2,8.083803E-3,1.1688213E-2,-2.358515E-2,4.594269E-2,-1.0676567E-2],"categories":[],"categories_nodes":[],"categories_segments":[],"categories_sizes":[],"default_left":[0,0,0,0,0,0,0,0,0,0,0,0,0,0,0,0,0,0,0,0,0,0,0,0,0,0,0,0,0,0,0,0,0],"id":26,"left_children":[1,3,5,7,-1,9,11,-1,13,-1,15,17,19,21,-1,23,25,-1,27,29,31,-1,-1,-1,-1,-1,-1,-1,-1,-1,-1,-1,-1],"loss_changes":[5.5912663E1,1.3013954E0,8.221461E1,9.629288E-1,0E0,9.748634E0,1.6857874E1,0E0,9.6838E-1,0E0,1.0658684E1,3.875329E0,1.2590208E1,9.488907E-1,0E0,5.5646896E0,8.1008804E-1,0E0,1.0415611E0,1.3342876E0,2.5537195E1,0E0,0E0,0E0,0E0,0E0,0E0,0E0,0E0,0E0,0E0,0E0,0E0],"parents":[2147483647,0,0,1,1,2,2,3,3,5,5,6,6,8,8,10,10,11,11,12,12,13,13,15,15,16,16,18,18,19,19,20,20],"right_children":[2,4,6,8,-1,10,12,-1,14,-1,16,18,20,22,-1,24,26,-1,28,30,32,-1,-1,-1,-1,-1,-1,-1,-1,-1,-1,-1,-1],"split_conditions":[9.708715E-3,1.7286987E1,-1.7278142E-4,-7.27146E-2,1.1573394E-2,-1.6987652E-1,-3.2104995E-2,4.077966E-3,1.8819577E-1,-1.870781E-2,1E0,-2.5260841E-2,-3.441092E-2,-1.5871604E-1,3.095977E-3,1.1113458E-2,-2.3819862E-2,-1.2079823E-2,3.6267225E-2,-5.6672186E-2,-6.110564E-3,1.997806E-3,-2.4400253E-2,2.725223E-2,5.312106E-2,1.0953468E-2,-1.94775E-2,6.146486E-2,8.083803E-3,1.1688213E-2,-2.358515E-2,4.594269E-2,-1.0676567E-2],"split_indices":[88,93,95,175,0,124,176,0,121,0,31,171,134,125,0,88,176,0,121,139,152,0,0,0,0,0,0,0,0,0,0,0,0],"split_type":[0,0,0,0,0,0,0,0,0,0,0,0,0,0,0,0,0,0,0,0,0,0,0,0,0,0,0,0,0,0,0,0,0],"sum_hessian":[3.5765244E2,1.13442924E2,2.442095E2,1.1239287E2,1.0500513E0,9.281397E1,1.5139554E2,1.5411699E0,1.108517E2,3.6133542E0,8.9200615E1,8.368165E0,1.4302737E2,1.0917295E2,1.6787492E0,8.434073E1,4.859887E0,1.1545362E0,7.2136292E0,6.654227E1,7.648511E1,1.7898506E0,1.073831E2,2.2437725E1,6.1903004E1,1.0426526E0,3.8172348E0,6.0154514E0,1.1981778E0,1.0440862E0,6.549818E1,1.5009453E1,6.147565E1],"tree_param":{"num_deleted":"0","num_feature":"177","num_nodes":"33","size_leaf_vector":"1"}},{"base_weights":[1.2052942E-2,-3.4478495E-1,1.1824441E0,-5.3145033E-1,8.0938935E-1,1.306782E0,-2.0399114E-2,-5.5303544E-1,4.0924504E-2,1.2104131E0,-3.1928545E-1,-1.7784493E-2,1.3759601E0,7.612213E-1,-5.750016E-1,1.3199552E0,-1.41458595E-2,3.516036E-2,-2.2263523E-2,1.4258312E0,-1.5190314E-2,-1.1527905E-2,4.9470503E-2,2.3880124E-2,-2.3900595E-2,-1.1442772E-2,5.5837452E-2,7.901855E-3,5.882569E-2],"categories":[],"categories_nodes":[],"categories_segments":[],"categories_sizes":[],"default_left":[0,0,0,0,0,0,0,0,0,0,0,0,0,0,0,0,0,0,0,0,0,0,0,0,0,0,0,0,0],"id":27,"left_children":[1,3,5,7,9,11,-1,13,-1,15,17,-1,19,21,23,25,-1,-1,-1,27,-1,-1,-1,-1,-1,-1,-1,-1,-1],"loss_changes":[1.5577591E2,6.1943707E1,1.908863E1,8.792221E0,1.8620613E1,1.0583649E1,0E0,7.460144E0,0E0,5.67815E0,3.6518927E0,0E0,7.540222E0,2.629546E0,6.7033463E0,3.9478455E0,0E0,0E0,0E0,3.7713318E0,0E0,0E0,0E0,0E0,0E0,0E0,0E0,0E0,0E0],"parents":[2147483647,0,0,1,1,2,2,3,3,4,4,5,5,7,7,9,9,10,10,12,12,13,13,14,14,15,15,19,19],"right_children":[2,4,6,8,10,12,-1,14,-1,16,18,-1,20,22,24,26,-1,-1,-1,28,-1,-1,-1,-1,-1,-1,-1,-1,-1],"split_conditions":[1E0,2.9051588E5,6.8894243E0,6.546E3,-1.9129489E-2,4.8E1,-2.0399114E-2,4.8646E-1,4.0924504E-2,8.3629227E-1,-8.2717344E-2,-1.7784493E-2,8.1216335E-1,5.21E-1,-8.169813E-2,2.701E3,-1.41458595E-2,3.516036E-2,-2.2263523E-2,7.65E3,-1.5190314E-2,-1.1527905E-2,4.9470503E-2,2.3880124E-2,-2.3900595E-2,-1.1442772E-2,5.5837452E-2,7.901855E-3,5.882569E-2],"split_indices":[0,84,93,67,117,68,0,92,0,92,166,0,92,57,167,67,0,0,0,78,0,0,0,0,0,0,0,0,0],"split_type":[0,0,0,0,0,0,0,0,0,0,0,0,0,0,0,0,0,0,0,0,0,0,0,0,0,0,0,0,0],"sum_hessian":[3.708142E2,2.8464838E2,8.6165825E1,2.4555998E2,3.9088406E1,8.0536E1,5.629826E0,2.4289595E2,2.6640325E0,2.8852978E1,1.0235427E1,2.7990584E0,7.773694E1,3.3648763E0,2.3953108E2,2.7170074E1,1.6829042E0,1.1752515E0,9.060175E0,7.58279E1,1.909037E0,1.106574E0,2.2583022E0,3.9498343E0,2.3558124E2,1.0429959E0,2.6127079E1,2.9379513E0,7.288995E1],"tree_param":{"num_deleted":"0","num_feature":"177","num_nodes":"29","size_leaf_vector":"1"}},{"base_weights":[2.9882058E-3,-2.828306E-2,5.672728E-1,9.91901E-2,8.654563E-1,5.609853E-1,-5.266631E-1,-2.3511797E-2,9.061889E-1,7.875755E-1,-2.6903013E-2,3.336149E-2,-2.8856268E-2,-2.2322197E-2,9.375442E-1,-2.4515182E-2,3.7862778E-2,-2.0537376E-2,3.8548104E-2],"categories":[],"categories_nodes":[],"categories_segments":[],"categories_sizes":[],"default_left":[0,0,0,0,0,0,0,0,0,0,0,0,0,0,0,0,0,0,0],"id":28,"left_children":[1,-1,3,5,7,9,11,-1,13,15,-1,-1,-1,-1,17,-1,-1,-1,-1],"loss_changes":[1.9880028E2,0E0,3.841755E1,3.1766253E1,1.0549225E1,1.8213781E1,1.2952416E1,0E0,8.115387E0,1.2624851E1,0E0,0E0,0E0,0E0,6.6706696E0,0E0,0E0,0E0,0E0],"parents":[2147483647,0,0,2,2,3,3,4,4,5,5,6,6,8,8,9,9,14,14],"right_children":[2,-1,4,6,8,10,12,-1,14,16,-1,-1,-1,-1,18,-1,-1,-1,-1],"split_conditions":[-1.7361152E-4,-2.828306E-2,6.415084E-1,5.5E1,-3.7595924E-2,7.2438456E-3,-1.7749582E-1,-2.3511797E-2,2.9697223E0,-1.3184196E-2,-2.6903013E-2,3.336149E-2,-2.8856268E-2,-2.2322197E-2,-5.350343E-2,-2.4515182E-2,3.7862778E-2,-2.0537376E-2,3.8548104E-2],"split_indices":[95,0,91,68,117,120,122,0,93,139,0,0,0,0,147,0,0,0,0],"split_type":[0,0,0,0,0,0,0,0,0,0,0,0,0,0,0,0,0,0,0],"sum_hessian":[4.9419287E2,2.1863913E2,2.7555374E2,1.0787761E2,1.6767615E2,6.222637E1,4.5651234E1,4.1384807E0,1.6353766E2,5.2943836E1,9.282535E0,5.2402987E0,4.041094E1,3.0095468E0,1.605281E2,5.0427203E0,4.7901115E1,2.4451938E0,1.5808292E2],"tree_param":{"num_deleted":"0","num_feature":"177","num_nodes":"19","size_leaf_vector":"1"}},{"base_weights":[1.4567912E-2,2.9973474E-1,-4.4931677E-1,-1.7562903E-1,4.6372294E-1,-1.5519153E-1,-5.672893E-1,-4.7385833E-1,9.017045E-1,8.553981E-1,1.8436784E-1,-2.5433177E-1,4.2465616E-2,6.833511E-3,-5.857665E-1,1.705717E-2,-5.2598965E-1,1.2519697E0,-1.079668E-1,1.0720732E0,3.6502305E-1,5.52207E-1,-1.3376293E-1,2.0330907E-1,-3.954825E-1,-2.3720378E-2,-2.6639341E-3,3.8809686E-3,-2.197715E-2,5.840591E-2,-4.7837095E-3,-1.538784E-2,1.1079781E-2,4.8928384E-2,-8.006826E-3,-6.6966284E-3,2.965666E-2,-7.595493E-4,3.766499E-2,4.8789524E-2,-8.576119E-3,4.3689046E-2,-1.9771787E-3,-2.0732839E-2,-1.2571226E-4],"categories":[],"categories_nodes":[],"categories_segments":[],"categories_sizes":[],"default_left":[0,0,0,0,0,0,0,0,0,0,0,0,0,0,0,0,0,0,0,0,0,0,0,0,0,0,0,0,0,0,0,0,0,0,0,0,0,0,0,0,0,0,0,0,0],"id":29,"left_children":[1,3,5,7,9,11,13,15,17,19,21,23,-1,-1,25,-1,27,29,31,33,35,37,39,41,43,-1,-1,-1,-1,-1,-1,-1,-1,-1,-1,-1,-1,-1,-1,-1,-1,-1,-1,-1,-1],"loss_changes":[4.6062794E1,1.6934143E1,4.436844E0,1.8352556E1,1.7342728E1,4.9600773E0,1.4227676E0,2.324088E0,4.6336184E0,6.536831E0,1.12720375E1,2.5187652E0,0E0,0E0,2.4051285E-1,0E0,7.212639E-1,2.9802504E0,5.477009E-1,9.096642E0,4.601329E0,1.0020596E1,5.812752E0,2.2524555E0,1.3500662E0,0E0,0E0,0E0,0E0,0E0,0E0,0E0,0E0,0E0,0E0,0E0,0E0,0E0,0E0,0E0,0E0,0E0,0E0,0E0,0E0],"parents":[2147483647,0,0,1,1,2,2,3,3,4,4,5,5,6,6,7,7,8,8,9,9,10,10,11,11,14,14,16,16,17,17,18,18,19,19,20,20,21,21,22,22,23,23,24,24],"right_children":[2,4,6,8,10,12,14,16,18,20,22,24,-1,-1,26,-1,28,30,32,34,36,38,40,42,44,-1,-1,-1,-1,-1,-1,-1,-1,-1,-1,-1,-1,-1,-1,-1,-1,-1,-1,-1,-1],"split_conditions":[1.24804145E-2,3.2015808E0,3.5470607E0,8.500114E-3,4.81E-1,6.486843E-2,-5.9497304E-2,4.9E1,3.897604E-2,1.87075E3,2.2498345E-2,-1.0015476E-2,4.2465616E-2,6.833511E-3,7.399529E-2,1.705717E-2,-8.936324E-2,8.0944516E-2,9.756312E-3,1.1045929E0,3.534815E4,-4.860474E-2,-5.3243805E-2,2.153E3,-9.775775E-2,-2.3720378E-2,-2.6639341E-3,3.8809686E-3,-2.197715E-2,5.840591E-2,-4.7837095E-3,-1.538784E-2,1.1079781E-2,4.8928384E-2,-8.006826E-3,-6.6966284E-3,2.965666E-2,-7.595493E-4,3.766499E-2,4.8789524E-2,-8.576119E-3,4.3689046E-2,-1.9771787E-3,-2.0732839E-2,-1.2571226E-4],"split_indices":[88,93,93,88,62,142,140,68,176,85,142,140,0,0,148,0,142,139,88,92,81,131,131,79,116,0,0,0,0,0,0,0,0,0,0,0,0,0,0,0,0,0,0,0,0],"split_type":[0,0,0,0,0,0,0,0,0,0,0,0,0,0,0,0,0,0,0,0,0,0,0,0,0,0,0,0,0,0,0,0,0,0,0,0,0,0,0,0,0,0,0,0,0],"sum_hessian":[3.4630502E2,2.14818E2,1.3148703E2,5.4924324E1,1.5989366E2,3.854673E1,9.294029E1,4.352785E1,1.1396476E1,6.55575E1,9.433617E1,3.6450157E1,2.0965734E0,1.9361708E0,9.100413E1,1.8845351E0,4.1643314E1,8.356564E0,3.039912E0,4.4503304E1,2.10542E1,4.3554623E1,5.0781544E1,8.321439E0,2.8128717E1,8.942174E1,1.5823838E0,1.2413851E0,4.0401928E1,7.262562E0,1.0940018E0,1.9201028E0,1.1198092E0,3.9882587E1,4.6207166E0,8.83952E0,1.2214679E1,1.7937885E1,2.5616737E1,1.9913859E0,4.8790157E1,1.194459E0,7.12698E0,2.0983091E1,7.145626E0],"tree_param":{"num_deleted":"0","num_feature":"177","num_nodes":"45","size_leaf_vector":"1"}},{"base_weights":[-8.805475E-3,-1.6133727E-1,1.0671716E0,-3.5513785E-1,3.382179E-1,1.192273E0,-1.7650379E-2,1.0338221E0,-3.857372E-1,9.428852E-1,-3.292307E-1,9.775865E-4,1.2436378E0,5.6816847E-3,5.2235335E-2,-5.7603025E-1,-2.3940821E-1,-1.8933082E-2,1.0810103E0,-4.6752515E-1,8.0902785E-1,1.2847605E0,3.5445718E-3,1.2105969E-2,-2.3590973E-2,1.0947849E-2,-1.3926704E-2,-1.8714994E-2,4.794056E-2,-2.3946974E-2,3.131199E-2,1.2747189E-3,4.7067866E-2,5.914763E-3,5.272674E-2],"categories":[],"categories_nodes":[],"categories_segments":[],"categories_sizes":[],"default_left":[0,0,0,0,0,0,0,0,0,0,0,0,0,0,0,0,0,0,0,0,0,0,0,0,0,0,0,0,0,0,0,0,0,0,0],"id":30,"left_children":[1,3,5,7,9,11,-1,13,15,17,19,-1,21,-1,-1,23,25,-1,27,29,31,33,-1,-1,-1,-1,-1,-1,-1,-1,-1,-1,-1,-1,-1],"loss_changes":[5.8776142E1,3.053856E1,8.989857E0,9.981478E0,3.5961437E1,2.3250198E0,0E0,9.0567636E-1,5.987255E0,9.689125E0,7.0465827E0,0E0,1.6266289E0,0E0,0E0,1.3651791E0,7.246517E0,0E0,8.429352E0,6.792597E0,1.2419348E0,1.1024475E0,0E0,0E0,0E0,0E0,0E0,0E0,0E0,0E0,0E0,0E0,0E0,0E0,0E0],"parents":[2147483647,0,0,1,1,2,2,3,3,4,4,5,5,7,7,8,8,9,9,10,10,12,12,15,15,16,16,18,18,19,19,20,20,21,21],"right_children":[2,4,6,8,10,12,-1,14,16,18,20,-1,22,-1,-1,24,26,-1,28,30,32,34,-1,-1,-1,-1,-1,-1,-1,-1,-1,-1,-1,-1,-1],"split_conditions":[6.36471E5,1.0748613E0,1.4221126E-1,-1.8649387E-1,8.2E-1,9.471091E-3,-1.7650379E-2,2.2279672E-2,8.897701E-3,-9.233691E-2,6.4E1,9.775865E-4,1.5400319E-1,5.6816847E-3,5.2235335E-2,-1.2228373E-1,1E0,-1.8933082E-2,2.3707118E0,9.16347E5,3.2167565E-2,-5.3034745E-2,3.5445718E-3,1.2105969E-2,-2.3590973E-2,1.0947849E-2,-1.3926704E-2,-1.8714994E-2,4.794056E-2,-2.3946974E-2,3.131199E-2,1.2747189E-3,4.7067866E-2,5.914763E-3,5.272674E-2],"split_indices":[83,92,152,119,61,88,0,123,88,144,68,0,113,0,0,141,56,0,93,77,140,151,0,0,0,0,0,0,0,0,0,0,0,0,0],"split_type":[0,0,0,0,0,0,0,0,0,0,0,0,0,0,0,0,0,0,0,0,0,0,0,0,0,0,0,0,0,0,0,0,0,0,0],"sum_hessian":[3.5663034E2,3.1317697E2,4.345335E1,2.2599309E2,8.71839E1,4.0380306E1,3.0730445E0,4.0942454E0,2.2189883E2,4.5605385E1,4.1578518E1,1.8454173E0,3.853489E1,1.398807E0,2.6954384E0,9.488545E1,1.2701338E2,3.7726996E0,4.1832684E1,3.76779E1,3.900618E0,3.701802E1,1.5168676E0,1.0255259E0,9.3859924E1,2.178767E1,1.05225716E2,2.679519E0,3.9153168E1,3.464507E1,3.0328293E0,1.6890497E0,2.2115684E0,1.2970828E0,3.572094E1],"tree_param":{"num_deleted":"0","num_feature":"177","num_nodes":"35","size_leaf_vector":"1"}},{"base_weights":[-1.0512141E-2,9.935814E-1,-5.8130187E-1,1.2371918E0,-2.2927057E-2,2.0488586E-2,-5.93473E-1,-1.7509932E-2,1.2809939E0,1.4987873E-1,-2.4228087E-2,1.3080589E0,-1.3714052E-2,-1.5123909E-2,3.430134E-2,-1.1226225E-2,5.3091917E-2],"categories":[],"categories_nodes":[],"categories_segments":[],"categories_sizes":[],"default_left":[0,0,0,0,0,0,0,0,0,0,0,0,0,0,0,0,0],"id":31,"left_children":[1,3,5,7,-1,-1,9,-1,11,13,-1,15,-1,-1,-1,-1,-1],"loss_changes":[1.9979968E2,4.8987465E1,3.271614E0,8.692596E0,0E0,0E0,2.140541E0,0E0,5.256668E0,1.9554465E0,0E0,3.7084808E0,0E0,0E0,0E0,0E0,0E0],"parents":[2147483647,0,0,1,1,2,2,3,3,6,6,8,8,9,9,11,11],"right_children":[2,4,6,8,-1,-1,10,-1,12,14,-1,16,-1,-1,-1,-1,-1],"split_conditions":[8.796498E-3,6.8894243E0,-1.4231597E-1,4.8E1,-2.2927057E-2,2.0488586E-2,-1.1319638E-1,-1.7509932E-2,8.3629227E-1,1E0,-2.4228087E-2,-1.0935094E-1,-1.3714052E-2,-1.5123909E-2,3.430134E-2,-1.1226225E-2,5.3091917E-2],"split_indices":[88,93,154,68,0,0,142,0,92,20,0,127,0,0,0,0,0],"split_type":[0,0,0,0,0,0,0,0,0,0,0,0,0,0,0,0,0],"sum_hessian":[3.4667792E2,1.2531558E2,2.2136235E2,1.08689896E2,1.6625685E1,1.8940151E0,2.1946834E2,2.4825768E0,1.0620732E2,3.237594E0,2.1623074E2,1.0471802E2,1.4893031E0,2.0399742E0,1.1976197E0,1.0281755E0,1.0368984E2],"tree_param":{"num_deleted":"0","num_feature":"177","num_nodes":"17","size_leaf_vector":"1"}},{"base_weights":[-3.2309417E-2,-6.569408E-1,5.1223713E-1,-2.7938582E-2,2.8052509E-2,8.114558E-1,-2.1596447E-2,-2.5953438E-2,9.148439E-1,6.3686734E-1,-5.417961E-1,9.518104E-1,-2.2204641E-2,8.432271E-1,-2.4774956E-2,-2.8794961E-2,3.4933023E-2,-1.8105995E-2,3.8918793E-2,-1.996684E-2,3.8429428E-2],"categories":[],"categories_nodes":[],"categories_segments":[],"categories_sizes":[],"default_left":[0,0,0,0,0,0,0,0,0,0,0,0,0,0,0,0,0,0,0,0,0],"id":32,"left_children":[1,3,5,-1,-1,7,9,-1,11,13,15,17,-1,19,-1,-1,-1,-1,-1,-1,-1],"loss_changes":[1.549244E2,1.2456444E1,3.895313E1,0E0,0E0,2.417723E1,3.0556852E1,0E0,8.512085E0,1.0736435E1,1.3191902E1,4.7433167E0,0E0,5.9299183E0,0E0,0E0,0E0,0E0,0E0,0E0,0E0],"parents":[2147483647,0,0,1,1,2,2,5,5,6,6,8,8,9,9,10,10,11,11,13,13],"right_children":[2,4,6,-1,-1,8,10,-1,12,14,16,18,-1,20,-1,-1,-1,-1,-1,-1,-1],"split_conditions":[-1.7361152E-4,2.0998985E1,5.5E1,-2.7938582E-2,2.8052509E-2,1.02354735E-2,5.14339E5,-2.5953438E-2,6.889764E-1,-3.1587522E-2,1.8569048E-2,-4.6459142E-2,-2.2204641E-2,7.788781E-1,-2.4774956E-2,-2.8794961E-2,3.4933023E-2,-1.8105995E-2,3.8918793E-2,-1.996684E-2,3.8429428E-2],"split_indices":[95,93,68,0,0,88,77,0,73,131,88,157,0,92,0,0,0,0,0,0,0],"split_type":[0,0,0,0,0,0,0,0,0,0,0,0,0,0,0,0,0,0,0,0,0],"sum_hessian":[4.5343942E2,2.1117955E2,2.4225987E2,2.054578E2,5.7217546E0,1.550309E2,8.722898E1,9.837631E0,1.4519327E2,3.831443E1,4.891455E1,1.4204172E2,3.1515405E0,3.325937E1,5.0550632E0,4.394634E1,4.9682117E0,1.7354146E0,1.403063E2,2.347137E0,3.091223E1],"tree_param":{"num_deleted":"0","num_feature":"177","num_nodes":"21","size_leaf_vector":"1"}},{"base_weights":[-1.9576037E-2,2.4276997E-1,-4.436301E-1,1.0930595E0,1.2565568E-1,-4.9100408E-1,3.7480363E-1,1.3134353E0,-1.7976841E-2,2.7673823E-1,-2.13888E-1,1.8151204E-1,-5.156883E-1,-6.457608E-2,3.9280336E-2,5.5604618E-2,3.6191115E-1,5.2407477E-3,4.909575E-1,1.2347654E0,-3.599255E-1,3.9522845E-2,-2.9095256E-1,9.7018726E-2,-5.3494686E-1,2.4031414E-2,-1.8491011E-2,-5.7611433E-3,2.995933E-2,3.4131553E-2,-5.5303373E-3,1.3113375E-2,4.943754E-2,5.462839E-2,1.1649588E-2,4.3175038E-2,-1.6848287E-2,-1.5979059E-2,-0E0,2.044446E-2,-1.4276599E-2,-3.1971445E-3,-2.2684403E-2],"categories":[],"categories_nodes":[],"categories_segments":[],"categories_sizes":[],"default_left":[0,0,0,0,0,0,0,0,0,0,0,0,0,0,0,0,0,0,0,0,0,0,0,0,0,0,0,0,0,0,0,0,0,0,0,0,0,0,0,0,0,0,0],"id":33,"left_children":[1,3,5,7,9,11,13,15,-1,17,19,21,23,25,-1,-1,27,29,31,33,35,-1,37,39,41,-1,-1,-1,-1,-1,-1,-1,-1,-1,-1,-1,-1,-1,-1,-1,-1,-1,-1],"loss_changes":[4.1735863E1,2.2799892E1,5.757469E0,1.0126484E1,1.0569565E1,2.3871384E0,2.3696935E0,1.1192169E0,0E0,8.226735E0,1.3772689E1,2.4212563E0,1.6501007E0,1.761207E0,0E0,0E0,8.119861E-1,7.9775705E0,9.0813675E0,1.7418289E-1,5.5437346E0,0E0,1.232236E-1,1.081797E0,1.7636375E0,0E0,0E0,0E0,0E0,0E0,0E0,0E0,0E0,0E0,0E0,0E0,0E0,0E0,0E0,0E0,0E0,0E0,0E0],"parents":[2147483647,0,0,1,1,2,2,3,3,4,4,5,5,6,6,7,7,9,9,10,10,11,11,12,12,13,13,16,16,17,17,18,18,19,19,20,20,22,22,23,23,24,24],"right_children":[2,4,6,8,10,12,14,16,-1,18,20,22,24,26,-1,-1,28,30,32,34,36,-1,38,40,42,-1,-1,-1,-1,-1,-1,-1,-1,-1,-1,-1,-1,-1,-1,-1,-1,-1,-1],"split_conditions":[6.2144816E-1,-1.4396814E-1,9.980468E-2,1.2600315E-1,1E0,1.50336E-1,-1.053422E-2,1.5859759E-1,-1.7976841E-2,5.6E1,9.65213E5,2.6274312E-2,-1.23221345E-1,1E0,3.9280336E-2,5.5604618E-2,1.8036906E-1,2.92E-1,2.7976086E-2,7.24E2,4.8E1,3.9522845E-2,2.91E-1,3.5447422E-2,2.7434814E0,2.4031414E-2,-1.8491011E-2,-5.7611433E-3,2.995933E-2,3.4131553E-2,-5.5303373E-3,1.3113375E-2,4.943754E-2,5.462839E-2,1.1649588E-2,4.3175038E-2,-1.6848287E-2,-1.5979059E-2,-0E0,2.044446E-2,-1.4276599E-2,-3.1971445E-3,-2.2684403E-2],"split_indices":[91,115,116,146,0,74,171,114,0,68,77,139,125,50,0,0,114,75,152,79,68,0,57,115,93,0,0,0,0,0,0,0,0,0,0,0,0,0,0,0,0,0,0],"split_type":[0,0,0,0,0,0,0,0,0,0,0,0,0,0,0,0,0,0,0,0,0,0,0,0,0,0,0,0,0,0,0,0,0,0,0,0,0,0,0,0,0,0,0],"sum_hessian":[3.7300894E2,2.3056122E2,1.4244771E2,2.6799631E1,2.0376158E2,1.3514716E2,7.300563E0,2.3636047E1,3.1635833E0,1.4134744E2,6.2414135E1,4.4164834E0,1.3073067E2,4.6585493E0,2.6420135E0,2.1349531E1,2.2865174E0,6.2997227E1,7.835022E1,4.97029E0,5.7443848E1,1.3064852E0,3.1099982E0,3.7026174E0,1.27028046E2,1.4576921E0,3.2008572E0,1.151262E0,1.1352555E0,8.502128E0,5.4495102E1,6.5567635E1,1.2782586E1,3.8785746E0,1.0917156E0,1.6008174E0,5.584303E1,1.9524034E0,1.1575947E0,1.9856135E0,1.717004E0,8.821599E0,1.1820645E2],"tree_param":{"num_deleted":"0","num_feature":"177","num_nodes":"43","size_leaf_vector":"1"}},{"base_weights":[3.672106E-3,-2.4095437E-1,3.9544538E-1,-4.2833346E-1,3.1119844E-2,1.0326971E0,-1.3730858E-1,-4.8184785E-1,7.673176E-1,9.43684E-1,-2.7713406E-1,4.2602487E-2,1.1182045E0,-2.878501E-1,1.0226765E0,2.9482404E-2,-5.014245E-1,-1.2136784E-2,1.0879713E0,1.2132223E0,-1.8645087E-2,-3.9620626E-1,1.1334846E0,-1.9776775E-2,2.9366178E-2,1.1542634E0,-0E0,-3.8692445E-1,1.0782918E0,5.008437E-2,2.7089763E-1,-2.4720056E-3,-2.1920076E-2,9.076842E-3,5.0207213E-2,1.2496412E-2,5.574991E-2,4.4791006E-2,-1.8150229E-2,5.50297E-3,5.6329034E-2,7.051966E-3,4.7953136E-2,4.4234887E-2,-1.8431637E-2,1.0354875E-2,4.8080824E-2,3.1911563E-2,-1.2760987E-2],"categories":[],"categories_nodes":[],"categories_segments":[],"categories_sizes":[],"default_left":[0,0,0,0,0,0,0,0,0,0,0,0,0,0,0,0,0,0,0,0,0,0,0,0,0,0,0,0,0,0,0,0,0,0,0,0,0,0,0,0,0,0,0,0,0,0,0,0,0],"id":34,"left_children":[1,3,5,7,9,11,13,15,17,19,21,23,25,27,29,-1,31,-1,33,35,-1,37,39,-1,-1,41,-1,43,45,-1,47,-1,-1,-1,-1,-1,-1,-1,-1,-1,-1,-1,-1,-1,-1,-1,-1,-1,-1],"loss_changes":[3.4947968E1,1.1484963E1,4.785016E1,8.855772E0,2.6254599E1,5.260498E0,1.3700621E1,3.401947E0,2.470824E0,9.600811E0,1.2063297E1,2.6991537E0,2.3244324E0,9.711775E0,1.0626545E0,0E0,2.4998913E0,0E0,2.742033E-1,2.667982E0,0E0,6.1101875E0,1.1867366E0,0E0,0E0,2.134056E0,0E0,7.64641E0,3.686714E-2,0E0,1.3855789E0,0E0,0E0,0E0,0E0,0E0,0E0,0E0,0E0,0E0,0E0,0E0,0E0,0E0,0E0,0E0,0E0,0E0,0E0],"parents":[2147483647,0,0,1,1,2,2,3,3,4,4,5,5,6,6,7,7,8,8,9,9,10,10,11,11,12,12,13,13,14,14,16,16,18,18,19,19,21,21,22,22,25,25,27,27,28,28,30,30],"right_children":[2,4,6,8,10,12,14,16,18,20,22,24,26,28,30,-1,32,-1,34,36,-1,38,40,-1,-1,42,-1,44,46,-1,48,-1,-1,-1,-1,-1,-1,-1,-1,-1,-1,-1,-1,-1,-1,-1,-1,-1,-1],"split_conditions":[1.0317801E0,1.494375E-1,-1.7278142E-4,6.542252E-1,-1.7520052E-4,-6.661399E-2,4.008426E-2,-1.0187304E-1,-1.2898052E-2,6.666667E-1,2.8749986E-2,1.0075756E-2,7.470574E-2,1.57241E-1,6.337105E-1,2.9482404E-2,-7.3520556E-2,-1.2136784E-2,-7.980552E-3,5.7800543E-1,-1.8645087E-2,-1.2603934E-1,-1.36254E-2,-1.9776775E-2,2.9366178E-2,3.86E-1,-0E0,-5.8540598E-2,1E0,5.008437E-2,-9.878899E-2,-2.4720056E-3,-2.1920076E-2,9.076842E-3,5.0207213E-2,1.2496412E-2,5.574991E-2,4.4791006E-2,-1.8150229E-2,5.50297E-3,5.6329034E-2,7.051966E-3,4.7953136E-2,4.4234887E-2,-1.8431637E-2,1.0354875E-2,4.8080824E-2,3.1911563E-2,-1.2760987E-2],"split_indices":[92,114,95,91,95,142,160,165,166,76,144,162,142,121,94,0,138,0,171,92,0,132,147,0,0,61,0,162,9,0,135,0,0,0,0,0,0,0,0,0,0,0,0,0,0,0,0,0,0],"split_type":[0,0,0,0,0,0,0,0,0,0,0,0,0,0,0,0,0,0,0,0,0,0,0,0,0,0,0,0,0,0,0,0,0,0,0,0,0,0,0,0,0,0,0,0,0,0,0,0,0],"sum_hessian":[3.6250085E2,2.2323856E2,1.392623E2,1.320726E2,9.116595E1,6.307029E1,7.6192E1,1.2706608E2,5.0065293E0,2.258062E1,6.858533E1,5.2259927E0,5.7844296E1,6.818154E1,8.010464E0,1.3484577E0,1.2571762E2,1.094298E0,3.9122312E0,1.9133005E1,3.4476159E0,6.397512E1,4.6102085E0,3.0207205E0,2.2052722E0,5.5969814E1,1.8744837E0,6.430783E1,3.8737102E0,5.5255833E0,2.484881E0,1.2472141E1,1.13245476E2,1.1167322E0,2.7954988E0,3.742525E0,1.539048E1,1.6011815E0,6.237394E1,1.4000143E0,3.210194E0,2.7531419E0,5.321667E1,2.3094876E0,6.199834E1,1.0198718E0,2.8538384E0,1.215977E0,1.2689039E0],"tree_param":{"num_deleted":"0","num_feature":"177","num_nodes":"49","size_leaf_vector":"1"}},{"base_weights":[-1.7574612E-2,9.820662E-1,-5.4527384E-1,1.2337655E0,-4.429344E-1,7.4307805E-1,-5.6769085E-1,-1.6605265E-2,1.2719343E0,-2.3032216E-2,2.5904251E-2,-1.1439842E-2,4.93229E-2,-5.8991385E-1,1.6455615E-1,1.2953781E0,2.3420268E-1,-2.4076149E-2,2.5216855E-2,-1.9040406E-2,3.8612604E-2,5.288144E-2,2.0310998E-2,-1.3564054E-2,3.0455396E-2],"categories":[],"categories_nodes":[],"categories_segments":[],"categories_sizes":[],"default_left":[0,0,0,0,0,0,0,0,0,0,0,0,0,0,0,0,0,0,0,0,0,0,0,0,0],"id":35,"left_children":[1,3,5,7,9,11,13,-1,15,-1,-1,-1,-1,17,19,21,23,-1,-1,-1,-1,-1,-1,-1,-1],"loss_changes":[1.9209827E2,4.5742058E1,7.290718E0,7.362274E0,3.1998281E0,2.683499E0,3.963791E0,0E0,2.100769E0,0E0,0E0,0E0,0E0,3.718979E0,4.392138E0,1.2971802E0,1.3996521E0,0E0,0E0,0E0,0E0,0E0,0E0,0E0,0E0],"parents":[2147483647,0,0,1,1,2,2,3,3,4,4,5,5,6,6,8,8,13,13,14,14,15,15,16,16],"right_children":[2,4,6,8,10,12,14,-1,16,-1,-1,-1,-1,18,20,22,24,-1,-1,-1,-1,-1,-1,-1,-1],"split_conditions":[8.634448E-3,5.1445794E0,-1.6667856E-1,4.8E1,5.07E-1,1E0,1E0,-1.6605265E-2,7.8463924E-1,-2.3032216E-2,2.5904251E-2,-1.1439842E-2,4.93229E-2,7.57E-1,4.8886787E-2,8E0,7.6094127E-1,-2.4076149E-2,2.5216855E-2,-1.9040406E-2,3.8612604E-2,5.288144E-2,2.0310998E-2,-1.3564054E-2,3.0455396E-2],"split_indices":[88,93,126,68,60,27,0,0,92,0,0,0,0,60,131,103,94,0,0,0,0,0,0,0,0],"split_type":[0,0,0,0,0,0,0,0,0,0,0,0,0,0,0,0,0,0,0,0,0,0,0,0,0],"sum_hessian":[3.6222833E2,1.2478769E2,2.3744063E2,1.0622877E2,1.8558922E1,3.434664E0,2.3400597E2,2.1206362E0,1.0410813E2,1.7045769E1,1.513152E0,1.1763556E0,2.2583084E0,2.274345E2,6.5714774E0,1.01471115E2,2.6370199E0,2.2580466E2,1.6298305E0,3.8068564E0,2.7646213E0,9.736992E1,4.101195E0,1.3432887E0,1.2937311E0],"tree_param":{"num_deleted":"0","num_feature":"177","num_nodes":"25","size_leaf_vector":"1"}},{"base_weights":[-1.9837284E-2,-6.5179664E-1,5.34313E-1,-2.7624998E-2,2.7957255E-2,2.2319222E-2,8.285305E-1,6.3219136E-1,-4.0379813E-1,8.764709E-1,-2.4543416E-2,8.989665E-1,-2.5579428E-2,6.2492627E-1,-2.8398043E-2,-2.2889175E-2,9.1239E-1,3.9995644E-2,-1.758099E-2,-2.040108E-2,3.714402E-2,3.7667036E-2,-2.0498926E-2],"categories":[],"categories_nodes":[],"categories_segments":[],"categories_sizes":[],"default_left":[0,0,0,0,0,0,0,0,0,0,0,0,0,0,0,0,0,0,0,0,0,0,0],"id":36,"left_children":[1,3,5,-1,-1,7,9,11,13,15,-1,17,-1,19,-1,-1,21,-1,-1,-1,-1,-1,-1],"loss_changes":[1.6849196E2,1.2273857E1,3.849933E1,0E0,0E0,2.488124E1,1.1804932E1,1.3976274E1,1.8166626E1,8.769432E0,0E0,4.962866E0,0E0,5.1189938E0,0E0,0E0,6.9714355E0,0E0,0E0,0E0,0E0,0E0,0E0],"parents":[2147483647,0,0,1,1,2,2,5,5,6,6,7,7,8,8,9,9,11,11,13,13,16,16],"right_children":[2,4,6,-1,-1,8,10,12,14,16,-1,18,-1,20,-1,-1,22,-1,-1,-1,-1,-1,-1],"split_conditions":[-1.7361152E-4,3.24877E-1,6.415084E-1,-2.7624998E-2,2.7957255E-2,5E1,5.039781E-2,1E1,4.42252E5,-3.305542E-2,-2.4543416E-2,-2.1072963E-2,-2.5579428E-2,5.381341E-2,-2.8398043E-2,-2.2889175E-2,1.7197575E-1,3.9995644E-2,-1.758099E-2,-2.040108E-2,3.714402E-2,3.7667036E-2,-2.0498926E-2],"split_indices":[95,114,91,0,0,68,144,54,77,176,0,120,0,166,0,0,121,0,0,0,0,0,0],"split_type":[0,0,0,0,0,0,0,0,0,0,0,0,0,0,0,0,0,0,0,0,0,0,0],"sum_hessian":[4.7910196E2,2.2383838E2,2.552636E2,2.1813068E2,5.7076945E0,9.367214E1,1.6159145E2,3.8426308E1,5.5245834E1,1.568392E2,4.752249E0,3.2070263E1,6.356046E0,1.2356867E1,4.288897E1,3.3659863E0,1.5347322E2,3.0126364E1,1.9438989E0,2.395414E0,9.9614525E0,1.5078339E2,2.6898308E0],"tree_param":{"num_deleted":"0","num_feature":"177","num_nodes":"23","size_leaf_vector":"1"}},{"base_weights":[-1.4959347E-2,2.4143587E-1,-4.6944803E-1,-3.1005308E-1,3.4022498E-1,1.8071404E-1,-4.9455455E-1,-5.098883E-1,4.8269138E-2,7.248841E-1,2.0592503E-1,2.927942E-2,-2.3962036E-1,2.6798022E-1,-5.144774E-1,-5.3964233E-1,3.5539907E-3,1.6745886E-1,9.69017E-1,1.0279549E-1,1.1649435E0,-0E0,-1.4273392E-2,3.047895E-2,-1.2854198E-2,-5.348383E-1,1.1665999E-1,-0E0,-2.2423394E-2,-1.4562161E-2,2.8422398E-2,-4.5739533E-3,4.509712E-2,-1.5578932E-2,8.399436E-3,-1.4436769E-2,5.532587E-2,4.6304665E-3,-2.1720167E-2,-1.1696718E-2,2.7319426E-2],"categories":[],"categories_nodes":[],"categories_segments":[],"categories_sizes":[],"default_left":[0,0,0,0,0,0,0,0,0,0,0,0,0,0,0,0,0,0,0,0,0,0,0,0,0,0,0,0,0,0,0,0,0,0,0,0,0,0,0,0,0],"id":37,"left_children":[1,3,5,7,9,11,13,15,-1,17,19,-1,21,23,25,27,-1,29,31,33,35,-1,-1,-1,-1,37,39,-1,-1,-1,-1,-1,-1,-1,-1,-1,-1,-1,-1,-1,-1],"loss_changes":[4.3056038E1,1.2965913E1,2.2970238E0,1.1524658E1,1.0129663E1,1.5086412E0,2.118948E0,6.7675304E-1,0E0,6.714634E0,1.4629204E1,0E0,1.2806663E-1,1.397753E0,1.7230301E0,3.810072E-1,0E0,5.194636E0,6.3036766E0,7.292539E0,5.400173E0,0E0,0E0,0E0,0E0,7.5569916E-1,1.3054824E0,0E0,0E0,0E0,0E0,0E0,0E0,0E0,0E0,0E0,0E0,0E0,0E0,0E0,0E0],"parents":[2147483647,0,0,1,1,2,2,3,3,4,4,5,5,6,6,7,7,9,9,10,10,12,12,13,13,14,14,15,15,17,17,18,18,19,19,20,20,25,25,26,26],"right_children":[2,4,6,8,10,12,14,16,-1,18,20,-1,22,24,26,28,-1,30,32,34,36,-1,-1,-1,-1,38,40,-1,-1,-1,-1,-1,-1,-1,-1,-1,-1,-1,-1,-1,-1],"split_conditions":[1.283799E-2,4.4275382E-1,-1.23221345E-1,3.3639587E-2,3.85E-1,1.4970028E-2,3.42E-1,8.0617964E-2,4.8269138E-2,-5.1721238E-2,1E0,2.927942E-2,-3.4458134E-2,8.450422E-3,1.3055176E-1,-1.02332376E-1,3.5539907E-3,-5.104724E-3,-1.1440198E-1,1.0784976E4,-7.980917E-2,-0E0,-1.4273392E-2,3.047895E-2,-1.2854198E-2,1.45348E-1,2.7348954E-2,-0E0,-2.2423394E-2,-1.4562161E-2,2.8422398E-2,-4.5739533E-3,4.509712E-2,-1.5578932E-2,8.399436E-3,-1.4436769E-2,5.532587E-2,4.6304665E-3,-2.1720167E-2,-1.1696718E-2,2.7319426E-2],"split_indices":[88,92,125,114,62,88,59,140,0,124,31,0,168,120,122,141,0,170,116,86,173,0,0,0,0,75,142,0,0,0,0,0,0,0,0,0,0,0,0,0,0],"split_type":[0,0,0,0,0,0,0,0,0,0,0,0,0,0,0,0,0,0,0,0,0,0,0,0,0,0,0,0,0,0,0,0,0,0,0,0,0,0,0,0,0],"sum_hessian":[3.6732028E2,2.3499754E2,1.3232274E2,3.5221756E1,1.9977579E2,4.541236E0,1.2778151E2,3.1766323E1,3.4554334E0,5.0368706E1,1.4940707E2,1.7467848E0,2.7944508E0,2.8087292E0,1.2497278E2,3.0515583E1,1.2507403E0,1.5979194E1,3.4389515E1,1.3599419E2,1.3412886E1,1.0776273E0,1.7168236E0,1.4609085E0,1.3478205E0,1.2136838E2,3.6044037E0,1.09834E0,2.9417244E1,8.149312E0,7.829881E0,4.3419557E0,3.0047558E1,2.367966E1,1.1231453E2,1.5389439E0,1.1873941E1,1.1893293E0,1.2017905E2,2.2710333E0,1.3333704E0],"tree_param":{"num_deleted":"0","num_feature":"177","num_nodes":"41","size_leaf_vector":"1"}},{"base_weights":[-5.9848055E-3,-1.2540261E-1,1.0890646E0,-5.695012E-1,5.045838E-2,1.2160604E0,3.5311386E-1,-5.835549E-1,1.1802468E-2,6.83066E-1,-1.7459424E-1,6.9184816E-3,1.253995E0,3.5287093E-2,-1.8538369E-2,-2.3917146E-2,1.1771778E-2,-1.7129274E-1,9.595612E-1,-5.460745E-1,7.65426E-2,5.117948E-2,9.858237E-3,1.7288633E-2,-2.247275E-2,-1.7295606E-2,4.1369822E-2,3.20131E-2,-2.3278845E-2,-7.1639502E-3,3.4793198E-2],"categories":[],"categories_nodes":[],"categories_segments":[],"categories_sizes":[],"default_left":[0,0,0,0,0,0,0,0,0,0,0,0,0,0,0,0,0,0,0,0,0,0,0,0,0,0,0,0,0,0,0],"id":38,"left_children":[1,3,5,7,9,11,13,15,-1,17,19,-1,21,-1,-1,-1,-1,23,25,27,29,-1,-1,-1,-1,-1,-1,-1,-1,-1,-1],"loss_changes":[4.7337555E1,2.5627216E1,2.7395859E0,1.3313808E0,3.363733E1,8.2050323E-1,3.3720481E0,1.3670807E0,0E0,1.489011E1,1.6328003E1,0E0,2.6469803E-1,0E0,0E0,0E0,0E0,4.007931E0,5.402069E0,3.8510609E0,2.1431988E1,0E0,0E0,0E0,0E0,0E0,0E0,0E0,0E0,0E0,0E0],"parents":[2147483647,0,0,1,1,2,2,3,3,4,4,5,5,6,6,7,7,9,9,10,10,12,12,17,17,18,18,19,19,20,20],"right_children":[2,4,6,8,10,12,14,16,-1,18,20,-1,22,-1,-1,-1,-1,24,26,28,30,-1,-1,-1,-1,-1,-1,-1,-1,-1,-1],"split_conditions":[7.70571E5,8.897701E-3,6.8E1,8.732487E-2,-2.0556206E-4,9.634621E-3,5.3E1,1.6204878E1,1.1802468E-2,1.0429111E-2,-4.9299218E-2,6.9184816E-3,1.0547862E-1,3.5287093E-2,-1.8538369E-2,-2.3917146E-2,1.1771778E-2,-2.926803E-2,-5.0214894E-2,-1.4927717E-1,6.3E1,5.117948E-2,9.858237E-3,1.7288633E-2,-2.247275E-2,-1.7295606E-2,4.1369822E-2,3.20131E-2,-2.3278845E-2,-7.1639502E-3,3.4793198E-2],"split_indices":[83,88,68,166,95,88,66,93,0,88,134,0,126,0,0,0,0,129,157,133,68,0,0,0,0,0,0,0,0,0,0],"split_type":[0,0,0,0,0,0,0,0,0,0,0,0,0,0,0,0,0,0,0,0,0,0,0,0,0,0,0,0,0,0,0],"sum_hessian":[3.6068793E2,3.2610245E2,3.4585464E1,9.203029E1,2.3407216E2,2.882344E1,5.762024E0,9.099188E1,1.0384034E0,6.1003807E1,1.7306836E2,1.2990353E0,2.7524406E1,3.522132E0,2.239892E0,8.995182E1,1.0400686E0,1.4920109E1,4.60837E1,6.94952E1,1.0357315E2,2.6485132E1,1.0392739E0,5.7191176E0,9.200991E0,2.0346084E0,4.4049088E1,1.1793507E0,6.831585E1,7.882086E1,2.4752293E1],"tree_param":{"num_deleted":"0","num_feature":"177","num_nodes":"31","size_leaf_vector":"1"}},{"base_weights":[1.5187296E-2,6.218266E-1,-5.404125E-1,1.0646999E0,-2.357792E-2,-2.3934718E-2,-9.370068E-3,-1.8833643E-1,1.1413876E0,4.3675143E-2,-2.2265004E-2,3.2419432E-2,-2.0697657E-2,-1.40256295E-2,1.1649978E0,4.791482E-2,2.979907E-3],"categories":[],"categories_nodes":[],"categories_segments":[],"categories_sizes":[],"default_left":[0,0,0,0,0,0,0,0,0,0,0,0,0,0,0,0,0],"id":39,"left_children":[1,3,5,7,-1,-1,9,11,13,-1,-1,-1,-1,-1,15,-1,-1],"loss_changes":[1.1658806E2,8.941426E1,5.487774E0,1.199025E1,0E0,0E0,1.1970448E1,2.9518154E0,4.5324707E0,0E0,0E0,0E0,0E0,0E0,3.8438568E0,0E0,0E0],"parents":[2147483647,0,0,1,1,2,2,3,3,6,6,7,7,8,8,14,14],"right_children":[2,4,6,8,-1,-1,10,12,14,-1,-1,-1,-1,-1,16,-1,-1],"split_conditions":[7.585286E-1,6.8894243E0,4.201E3,8.34701E5,-2.357792E-2,-2.3934718E-2,-4.3716475E-2,3.4788242E-1,-7.302055E-2,4.3675143E-2,-2.2265004E-2,3.2419432E-2,-2.0697657E-2,-1.40256295E-2,8E0,4.791482E-2,2.979907E-3],"split_indices":[92,93,67,82,0,0,137,92,156,0,0,0,0,0,103,0,0],"split_type":[0,0,0,0,0,0,0,0,0,0,0,0,0,0,0,0,0],"sum_hessian":[3.438875E2,1.6442195E2,1.7946558E2,1.2054949E2,4.387245E1,1.6152267E2,1.7942905E1,6.79314E0,1.13756355E2,5.5654845E0,1.237742E1,1.2457578E0,5.547382E0,1.4903233E0,1.1226603E2,1.0879625E2,3.4697835E0],"tree_param":{"num_deleted":"0","num_feature":"177","num_nodes":"17","size_leaf_vector":"1"}},{"base_weights":[2.3981657E-2,5.965581E-1,-6.113117E-1,-3.4945056E-2,7.605022E-1,2.676814E-2,-6.4728177E-1,-2.7816614E-2,7.375976E-1,-2.530328E-2,8.018074E-1,-2.7404517E-2,4.5408818E-1,-2.1279976E-2,3.878019E-2,-2.2867093E-2,8.374352E-1,-1.69734E-2,3.3004306E-2,-2.2599293E-2,3.4592263E-2],"categories":[],"categories_nodes":[],"categories_segments":[],"categories_sizes":[],"default_left":[0,0,0,0,0,0,0,0,0,0,0,0,0,0,0,0,0,0,0,0,0],"id":40,"left_children":[1,3,5,7,9,-1,11,-1,13,-1,15,-1,17,-1,-1,-1,19,-1,-1,-1,-1],"loss_changes":[1.7555952E2,2.6386757E1,1.0966057E1,2.7634169E1,1.21330185E1,0E0,9.62822E0,0E0,7.896E0,0E0,1.0118408E1,0E0,2.9717762E0,0E0,0E0,0E0,7.8871613E0,0E0,0E0,0E0,0E0],"parents":[2147483647,0,0,1,1,2,2,3,3,4,4,6,6,8,8,10,10,12,12,16,16],"right_children":[2,4,6,8,10,-1,12,-1,14,-1,16,-1,18,-1,-1,-1,20,-1,-1,-1,-1],"split_conditions":[8.30126E5,1.200196E-2,-3.4501043E-1,8.42388E-2,-5.350343E-2,2.676814E-2,1.3202606E-1,-2.7816614E-2,4.42E-1,-2.530328E-2,2.7863708E0,-2.7404517E-2,1E0,-2.1279976E-2,3.878019E-2,-2.2867093E-2,-2.8678823E-2,-1.69734E-2,3.3004306E-2,-2.2599293E-2,3.4592263E-2],"split_indices":[77,88,113,137,147,0,140,0,62,0,93,0,36,0,0,0,176,0,0,0,0],"split_type":[0,0,0,0,0,0,0,0,0,0,0,0,0,0,0,0,0,0,0,0,0],"sum_hessian":[4.8063406E2,2.5291E2,2.2772406E2,5.2161983E1,2.0074802E2,5.6651034E0,2.2205896E2,2.8244324E1,2.3917658E1,5.2988787E0,1.9544914E2,2.1513788E2,6.921081E0,3.4276197E0,2.0490038E1,4.490322E0,1.9095882E2,1.9324942E0,4.988587E0,3.2097106E0,1.8774911E2],"tree_param":{"num_deleted":"0","num_feature":"177","num_nodes":"21","size_leaf_vector":"1"}},{"base_weights":[-0E0,2.5176367E-1,-3.9219686E-1,8.050454E-1,1.4971408E-1,-4.2196932E-1,3.7454635E-2,1.247155E0,-1.9301604E-1,-3.1863528E-1,4.5119768E-1,4.1789907E-1,-4.507701E-1,8.6360695E-3,5.1529422E-2,2.7034584E-2,-2.0242568E-2,