{"learner":{"attributes":{"scikit_learn":"{\"_estimator_type\": \"regressor\"}"},"feature_names":[],"feature_types":[],"gradient_booster":{"model":{"cats":{"enc":[],"feature_segments":[],"sorted_idx":[]},"gbtree_model_param":{"num_parallel_tree":"1","num_trees":"200"},"iteration_indptr":[0,1,2,3,4,5,6,7,8,9,10,11,12,13,14,15,16,17,18,19,20,21,22,23,24,25,26,27,28,29,30,31,32,33,34,35,36,37,38,39,40,41,42,43,44,45,46,47,48,49,50,51,52,53,54,55,56,57,58,59,60,61,62,63,64,65,66,67,68,69,70,71,72,73,74,75,76,77,78,79,80,81,82,83,84,85,86,87,88,89,90,91,92,93,94,95,96,97,98,99,100,101,102,103,104,105,106,107,108,109,110,111,112,113,114,115,116,117,118,119,120,121,122,123,124,125,126,127,128,129,130,131,132,133,134,135,136,137,138,139,140,141,142,143,144,145,146,147,148,149,150,151,152,153,154,155,156,157,158,159,160,161,162,163,164,165,166,167,168,169,170,171,172,173,174,175,176,177,178,179,180,181,182,183,184,185,186,187,188,189,190,191,192,193,194,195,196,197,198,199,200],"tree_info":[0,0,0,0,0,0,0,0,0,0,0,0,0,0,0,0,0,0,0,0,0,0,0,0,0,0,0,0,0,0,0,0,0,0,0,0,0,0,0,0,0,0,0,0,0,0,0,0,0,0,0,0,0,0,0,0,0,0,0,0,0,0,0,0,0,0,0,0,0,0,0,0,0,0,0,0,0,0,0,0,0,0,0,0,0,0,0,0,0,0,0,0,0,0,0,0,0,0,0,0,0,0,0,0,0,0,0,0,0,0,0,0,0,0,0,0,0,0,0,0,0,0,0,0,0,0,0,0,0,0,0,0,0,0,0,0,0,0,0,0,0,0,0,0,0,0,0,0,0,0,0,0,0,0,0,0,0,0,0,0,0,0,0,0,0,0,0,0,0,0,0,0,0,0,0,0,0,0,0,0,0,0,0,0,0,0,0,0,0,0,0,0,0,0,0,0,0,0,0,0],"trees":[{"base_weights":[-3.192515E-3,9.702269E-3,-6.549312E-2,1.6933683E-2,-3.3951767E-2,-1.7163852E-2,-1.0552912E-1,3.478857E-2,-1.1969844E-2,-5.0197385E-2,8.876157E-2,-1.3043435E-1,1.3237787E-2,4.3626256E-2,-1.197497E-1,3.2370654E-3,-6.547867E-5,-2.833064E-3,6.862783E-4,-2.2689828E-3,-1.05407955E-2,1.2399425E-2,-4.8778372E-4,-1.2281002E-2,-5.8179675E-4,1.2693035E-2,1.7872071E-5,6.2838173E-3,-4.365354E-3,-1.2252957E-3,-8.913806E-3],"categories":[],"categories_nodes":[],"categories_segments":[],"categories_sizes":[],"default_left":[0,0,0,0,0,0,0,0,0,0,0,0,0,0,0,0,0,0,0,0,0,0,0,0,0,0,0,0,0,0,0],"id":0,"left_children":[1,3,5,7,9,11,13,15,17,19,21,23,25,27,29,-1,-1,-1,-1,-1,-1,-1,-1,-1,-1,-1,-1,-1,-1,-1,-1],"loss_changes":[6.1841375E-1,2.0197906E-1,2.5359696E-1,2.8322235E-1,1.85869E-1,2.1178679E-1,1.579417E-1,2.33138E-1,1.7380604E-1,1.1919798E-1,1.2733361E-1,1.1455582E-1,1.2567843E-1,5.739968E-2,1.858589E-1,0E0,0E0,0E0,0E0,0E0,0E0,0E0,0E0,0E0,0E0,0E0,0E0,0E0,0E0,0E0,0E0],"parents":[2147483647,0,0,1,1,2,2,3,3,4,4,5,5,6,6,7,7,8,8,9,9,10,10,11,11,12,12,13,13,14,14],"right_children":[2,4,6,8,10,12,14,16,18,20,22,24,26,28,30,-1,-1,-1,-1,-1,-1,-1,-1,-1,-1,-1,-1,-1,-1,-1,-1],"split_conditions":[2.236068E0,2.4246612E0,-4.2450938E-1,8.366807E-1,1.3029635E0,-9.6620643E-1,-1.1437223E0,3.913725E-1,-5.578721E-1,1.8708433E0,-2.0591094E-1,1.4290744E0,-4.816827E-1,9.963761E-2,-7.7752894E-1,3.2370654E-3,-6.547867E-5,-2.833064E-3,6.862783E-4,-2.2689828E-3,-1.05407955E-2,1.2399425E-2,-4.8778372E-4,-1.2281002E-2,-5.8179675E-4,1.2693035E-2,1.7872071E-5,6.2838173E-3,-4.365354E-3,-1.2252957E-3,-8.913806E-3],"split_indices":[34,22,42,46,41,44,43,43,37,42,49,25,47,45,45,0,0,0,0,0,0,0,0,0,0,0,0,0,0,0,0],"split_type":[0,0,0,0,0,0,0,0,0,0,0,0,0,0,0,0,0,0,0,0,0,0,0,0,0,0,0,0,0,0,0],"sum_hessian":[7.68E2,6.37E2,1.31E2,5.47E2,9E1,6E1,7.1E1,3.38E2,2.09E2,8E1,1E1,1.2E1,4.8E1,6E0,6.5E1,2.2E2,1.18E2,8.3E1,1.26E2,7.4E1,6E0,4E0,6E0,7E0,5E0,2E0,4.6E1,4E0,2E0,1.5E1,5E1],"tree_param":{"num_deleted":"0","num_feature":"58","num_nodes":"31","size_leaf_vector":"1"}},{"base_weights":[2.627616E-4,1.2250433E-2,-5.9396684E-2,2.0232422E-2,-3.7124433E-2,-4.712092E-3,-9.001594E-2,5.133608E-3,4.9912613E-2,2.43527E-2,-7.7421695E-2,-5.868622E-2,6.4907596E-2,-6.62931E-2,-2.0050596E-1,1.1044181E-3,-2.5429698E-3,3.6526176E-3,-2.3167585E-3,-5.523152E-3,6.1567784E-3,-1.4886754E-3,-7.7467915E-3,-5.259222E-3,3.438534E-3,7.522087E-3,-2.940705E-3,-5.3667077E-3,2.4191462E-3,-1.3670061E-2,-1.461423E-3],"categories":[],"categories_nodes":[],"categories_segments":[],"categories_sizes":[],"default_left":[0,0,0,0,0,0,0,0,0,0,0,0,0,0,0,0,0,0,0,0,0,0,0,0,0,0,0,0,0,0,0],"id":1,"left_children":[1,3,5,7,9,11,13,15,17,19,21,23,25,27,29,-1,-1,-1,-1,-1,-1,-1,-1,-1,-1,-1,-1,-1,-1,-1,-1],"loss_changes":[5.471235E-1,2.51799E-1,2.1389922E-1,2.4577025E-1,2.2237048E-1,1.8041931E-1,2.0164114E-1,2.3098668E-1,1.8191567E-1,3.3740237E-1,1.4365026E-1,9.574567E-2,1.5078458E-1,1.7391822E-1,6.1844766E-2,0E0,0E0,0E0,0E0,0E0,0E0,0E0,0E0,0E0,0E0,0E0,0E0,0E0,0E0,0E0,0E0],"parents":[2147483647,0,0,1,1,2,2,3,3,4,4,5,5,6,6,7,7,8,8,9,9,10,10,11,11,12,12,13,13,14,14],"right_children":[2,4,6,8,10,12,14,16,18,20,22,24,26,28,30,-1,-1,-1,-1,-1,-1,-1,-1,-1,-1,-1,-1,-1,-1,-1,-1],"split_conditions":[2.236068E0,2.104076E0,-9.873806E-2,3.393682E-1,-5.83676E-1,2.0337766E-3,2.5292807E0,1.9603698E0,1.9002709E0,-1.3158132E0,1.8744026E-1,3.5237908E-1,-2.4850968E-1,1.5624416E0,2.0976176E0,1.1044181E-3,-2.5429698E-3,3.6526176E-3,-2.3167585E-3,-5.523152E-3,6.1567784E-3,-1.4886754E-3,-7.7467915E-3,-5.259222E-3,3.438534E-3,7.522087E-3,-2.940705E-3,-5.3667077E-3,2.4191462E-3,-1.3670061E-2,-1.461423E-3],"split_indices":[34,0,49,56,38,38,23,26,42,38,40,42,56,49,4,0,0,0,0,0,0,0,0,0,0,0,0,0,0,0,0],"split_type":[0,0,0,0,0,0,0,0,0,0,0,0,0,0,0,0,0,0,0,0,0,0,0,0,0,0,0,0,0,0,0],"sum_hessian":[7.63E2,6.36E2,1.27E2,5.48E2,8.8E1,4.6E1,8.1E1,3.64E2,1.84E2,3.5E1,5.3E1,2.6E1,2E1,6.8E1,1.3E1,2.85E2,7.9E1,1.64E2,2E1,1.4E1,2.1E1,2.7E1,2.6E1,2.1E1,5E0,1.3E1,7E0,5.6E1,1.2E1,1.1E1,2E0],"tree_param":{"num_deleted":"0","num_feature":"58","num_nodes":"31","size_leaf_vector":"1"}},{"base_weights":[3.473689E-4,1.1270227E-2,-5.3681437E-2,2.7986554E-2,-1.3945683E-2,1.1935749E-1,-6.301685E-2,4.1228034E-2,2.305685E-4,-2.16244E-2,4.4877417E-2,9.650689E-3,4.2356155E-3,-7.475359E-2,7.825732E-2,3.1901735E-3,-8.7176147E-4,-8.135184E-4,5.023145E-3,-7.605816E-4,-5.266085E-3,-2.4470794E-3,4.3633035E-3,-6.8656877E-3,-2.027411E-3,3.0261683E-4,7.5735515E-3],"categories":[],"categories_nodes":[],"categories_segments":[],"categories_sizes":[],"default_left":[0,0,0,0,0,0,0,0,0,0,0,0,0,0,0,0,0,0,0,0,0,0,0,0,0,0,0],"id":2,"left_children":[1,3,5,7,9,11,13,15,17,19,21,-1,-1,23,25,-1,-1,-1,-1,-1,-1,-1,-1,-1,-1,-1,-1],"loss_changes":[4.562E-1,2.71426E-1,2.1752217E-1,1.4222473E-1,1.1705372E-1,2.8069764E-3,2.1145421E-1,1.752195E-1,1.4619143E-1,1.3383065E-1,7.4521974E-2,0E0,0E0,1.8303192E-1,3.4482908E-2,0E0,0E0,0E0,0E0,0E0,0E0,0E0,0E0,0E0,0E0,0E0,0E0],"parents":[2147483647,0,0,1,1,2,2,3,3,4,4,5,5,6,6,7,7,8,8,9,9,10,10,13,13,14,14],"right_children":[2,4,6,8,10,12,14,16,18,20,22,-1,-1,24,26,-1,-1,-1,-1,-1,-1,-1,-1,-1,-1,-1,-1],"split_conditions":[2.236068E0,3.0716893E-1,-1.3562545E0,8.366807E-1,3.3574882E0,7.0832235E-1,8.805984E-1,2.4246612E0,2.5292807E0,1.8265355E0,-3.3743408E-2,9.650689E-3,4.2356155E-3,-4.4229698E-1,-1.3073375E0,3.1901735E-3,-8.7176147E-4,-8.135184E-4,5.023145E-3,-7.605816E-4,-5.266085E-3,-2.4470794E-3,4.3633035E-3,-6.8656877E-3,-2.027411E-3,3.0261683E-4,7.5735515E-3],"split_indices":[34,43,41,46,24,40,38,22,23,55,44,0,0,44,42,0,0,0,0,0,0,0,0,0,0,0,0],"split_type":[0,0,0,0,0,0,0,0,0,0,0,0,0,0,0,0,0,0,0,0,0,0,0,0,0,0,0],"sum_hessian":[7.71E2,6.42E2,1.29E2,3.86E2,2.56E2,6E0,1.23E2,2.61E2,1.25E2,2.27E2,2.9E1,2E0,4E0,1.14E2,9E0,2.15E2,4.6E1,1.08E2,1.7E1,2.01E2,2.6E1,7E0,2.2E1,5.7E1,5.7E1,4E0,5E0],"tree_param":{"num_deleted":"0","num_feature":"58","num_nodes":"27","size_leaf_vector":"1"}},{"base_weights":[3.0559383E-3,1.3099196E-2,-4.787916E-2,2.7581088E-2,-9.660732E-3,-1.7615578E-1,-3.4541357E-2,3.7335575E-2,-2.2791598E-2,-1.3025495E-3,-7.79722E-2,-2.205493E-1,-6.989497E-2,2.3258751E-2,-6.6370755E-2,1.548718E-3,6.0131415E-3,-1.2424943E-2,-5.4668664E-5,-1.0741896E-3,2.6989682E-3,1.5036082E-3,-7.6857572E-3,-1.48727195E-2,-5.5424483E-3,-1.8463647E-3,-5.143132E-3,-2.7454733E-3,4.208696E-3,-5.863947E-3,4.1751048E-4],"categories":[],"categories_nodes":[],"categories_segments":[],"categories_sizes":[],"default_left":[0,0,0,0,0,0,0,0,0,0,0,0,0,0,0,0,0,0,0,0,0,0,0,0,0,0,0,0,0,0,0],"id":3,"left_children":[1,3,5,7,9,11,13,15,17,19,21,23,25,27,29,-1,-1,-1,-1,-1,-1,-1,-1,-1,-1,-1,-1,-1,-1,-1,-1],"loss_changes":[4.03732E-1,2.1747735E-1,2.1633598E-1,1.988689E-1,1.4663512E-1,4.1192204E-2,2.2047308E-1,2.4234283E-1,2.659475E-1,1.775293E-1,1.4781237E-1,5.1259696E-3,4.5752712E-4,1.4235455E-1,1.7775926E-1,0E0,0E0,0E0,0E0,0E0,0E0,0E0,0E0,0E0,0E0,0E0,0E0,0E0,0E0,0E0,0E0],"parents":[2147483647,0,0,1,1,2,2,3,3,4,4,5,5,6,6,7,7,8,8,9,9,10,10,11,11,12,12,13,13,14,14],"right_children":[2,4,6,8,10,12,14,16,18,20,22,24,26,28,30,-1,-1,-1,-1,-1,-1,-1,-1,-1,-1,-1,-1,-1,-1,-1,-1],"split_conditions":[2.236068E0,3.0716893E-1,-1.1296341E0,9.4271904E-1,2.104076E0,1.2083688E0,-9.873806E-2,4.27046E-1,-1.4622407E0,4.7913414E-1,-4.5241717E-2,3.3997262E0,3.3997262E0,-4.5038536E-1,1.2945093E0,1.548718E-3,6.0131415E-3,-1.2424943E-2,-5.4668664E-5,-1.0741896E-3,2.6989682E-3,1.5036082E-3,-7.6857572E-3,-1.48727195E-2,-5.5424483E-3,-1.8463647E-3,-5.143132E-3,-2.7454733E-3,4.208696E-3,-5.863947E-3,4.1751048E-4],"split_indices":[34,43,56,40,0,40,49,40,38,40,41,30,30,54,49,0,0,0,0,0,0,0,0,0,0,0,0,0,0,0,0],"split_type":[0,0,0,0,0,0,0,0,0,0,0,0,0,0,0,0,0,0,0,0,0,0,0,0,0,0,0,0,0,0,0],"sum_hessian":[7.87E2,6.58E2,1.29E2,4.02E2,2.56E2,1.1E1,1.18E2,3.37E2,6.5E1,2.29E2,2.7E1,7E0,4E0,4.2E1,7.6E1,2.86E2,5.1E1,6E0,5.9E1,1.69E2,6E1,9E0,1.8E1,5E0,2E0,2E0,2E0,1.7E1,2.5E1,5.3E1,2.3E1],"tree_param":{"num_deleted":"0","num_feature":"58","num_nodes":"31","size_leaf_vector":"1"}},{"base_weights":[1.8465392E-3,1.0957402E-2,-4.442836E-2,1.7272044E-2,-2.5109211E-2,1.13546334E-1,-5.305758E-2,6.9207256E-3,7.32324E-2,-5.4856874E-3,-1.2533692E-1,9.297767E-3,3.9592325E-3,-4.3846358E-2,-1.3522121E-2,1.5784585E-3,-9.357695E-4,5.6754295E-3,-1.2166105E-3,-1.2080161E-3,4.971536E-3,-1.0370753E-2,-1.0408583E-3,-1.5021987E-3,-8.085727E-3],"categories":[],"categories_nodes":[],"categories_segments":[],"categories_sizes":[],"default_left":[0,0,0,0,0,0,0,0,0,0,0,0,0,0,0,0,0,0,0,0,0,0,0,0,0],"id":4,"left_children":[1,3,5,7,9,11,13,15,17,19,21,-1,-1,23,-1,-1,-1,-1,-1,-1,-1,-1,-1,-1,-1],"loss_changes":[3.3060294E-1,1.4960848E-1,1.8187714E-1,3.227222E-1,1.9206086E-1,3.5625473E-3,1.8534353E-1,2.0645386E-1,1.7567259E-1,1.090756E-1,7.90889E-2,0E0,0E0,1.9841774E-1,0E0,0E0,0E0,0E0,0E0,0E0,0E0,0E0,0E0,0E0,0E0],"parents":[2147483647,0,0,1,1,2,2,3,3,4,4,5,5,6,6,7,7,8,8,9,9,10,10,13,13],"right_children":[2,4,6,8,10,12,14,16,18,20,22,-1,-1,24,-1,-1,-1,-1,-1,-1,-1,-1,-1,-1,-1],"split_conditions":[2.236068E0,9.4271904E-1,-1.3562545E0,4.843429E-1,1.1337501E0,7.0832235E-1,3.3574882E0,7.3990084E-2,1.3553846E0,2.0976176E0,1.4409748E-1,9.297767E-3,3.9592325E-3,1.9603698E0,-1.3522121E-2,1.5784585E-3,-9.357695E-4,5.6754295E-3,-1.2166105E-3,-1.2080161E-3,4.971536E-3,-1.0370753E-2,-1.0408583E-3,-1.5021987E-3,-8.085727E-3],"split_indices":[34,40,41,40,49,40,24,43,37,4,44,0,0,26,0,0,0,0,0,0,0,0,0,0,0],"split_type":[0,0,0,0,0,0,0,0,0,0,0,0,0,0,0,0,0,0,0,0,0,0,0,0,0],"sum_hessian":[7.82E2,6.54E2,1.28E2,5.57E2,9.7E1,6E0,1.22E2,4.71E2,8.6E1,8.2E1,1.5E1,2E0,4E0,1.17E2,5E0,2.53E2,2.18E2,7E1,1.6E1,7.1E1,1.1E1,1E1,5E0,9.8E1,1.9E1],"tree_param":{"num_deleted":"0","num_feature":"58","num_nodes":"25","size_leaf_vector":"1"}},{"base_weights":[-1.0574297E-3,9.999994E-3,-5.5035897E-2,2.7550232E-2,-8.062293E-3,-9.651536E-2,-2.00124E-2,-1.5630089E-2,4.3828677E-2,-1.0257326E-2,1.3989124E-2,-1.0964322E-1,4.4285227E-2,9.84581E-3,-1.22460745E-1,5.003815E-3,-1.9658662E-3,1.8691351E-3,6.480993E-3,-1.1416512E-3,1.8879394E-3,-7.7917418E-3,7.5728033E-4,-3.97211E-4,5.843842E-3,-1.6945656E-3,4.806773E-3,7.0650545E-3,-1.0940727E-2],"categories":[],"categories_nodes":[],"categories_segments":[],"categories_sizes":[],"default_left":[0,0,0,0,0,0,0,0,0,0,0,0,0,0,0,0,0,0,0,0,0,0,0,0,0,0,0,0,0],"id":5,"left_children":[1,3,5,7,9,11,13,15,17,19,-1,21,23,25,27,-1,-1,-1,-1,-1,-1,-1,-1,-1,-1,-1,-1,-1,-1],"loss_changes":[4.774437E-1,2.107084E-1,1.9564334E-1,2.3756525E-1,1.7605883E-1,1.19457066E-1,2.3062502E-1,1.6053145E-1,1.9598484E-1,1.1988821E-1,0E0,1.4254779E-1,1.686696E-2,1.6016857E-1,2.6601648E-1,0E0,0E0,0E0,0E0,0E0,0E0,0E0,0E0,0E0,0E0,0E0,0E0,0E0,0E0],"parents":[2147483647,0,0,1,1,2,2,3,3,4,4,5,5,6,6,7,7,8,8,9,9,11,11,12,12,13,13,14,14],"right_children":[2,4,6,8,10,12,14,16,18,20,-1,22,24,26,28,-1,-1,-1,-1,-1,-1,-1,-1,-1,-1,-1,-1,-1,-1],"split_conditions":[2.236068E0,-2.3167916E-2,-4.4229698E-1,-8.172047E-1,9.5381445E-1,8.805984E-1,1.9603698E0,-8.282795E-1,2.4708831E0,2.2976227E0,1.3989124E-2,1.616028E0,5.4334384E-1,4.413161E-1,-5.542977E-1,5.003815E-3,-1.9658662E-3,1.8691351E-3,6.480993E-3,-1.1416512E-3,1.8879394E-3,-7.7917418E-3,7.5728033E-4,-3.97211E-4,5.843842E-3,-1.6945656E-3,4.806773E-3,7.0650545E-3,-1.0940727E-2],"split_indices":[34,43,44,44,56,38,26,40,17,18,0,49,39,38,43,0,0,0,0,0,0,0,0,0,0,0,0,0,0],"split_type":[0,0,0,0,0,0,0,0,0,0,0,0,0,0,0,0,0,0,0,0,0,0,0,0,0,0,0,0,0],"sum_hessian":[7.98E2,6.63E2,1.35E2,3.36E2,3.27E2,6.1E1,7.4E1,9.2E1,2.44E2,3.25E2,2E0,5.6E1,5E0,5.8E1,1.6E1,1.3E1,7.9E1,2.05E2,3.9E1,2.69E2,5.6E1,4.8E1,8E0,3E0,2E0,3.8E1,2E1,3E0,1.3E1],"tree_param":{"num_deleted":"0","num_feature":"58","num_nodes":"29","size_leaf_vector":"1"}},{"base_weights":[1.304564E-4,9.941253E-3,-4.7818027E-2,-9.692764E-3,2.5013225E-2,-1.725542E-1,-3.402143E-2,-2.9643796E-2,3.6353715E-2,8.9286424E-2,1.8835908E-2,-1.5332828E-2,-8.8740215E-2,9.797692E-3,-6.397886E-2,-7.4641727E-4,-4.902157E-3,-7.5493375E-4,5.275171E-3,7.4694827E-3,-3.6817433E-5,1.6307444E-3,-2.5236353E-3,-1.3096982E-3,-6.444368E-3,-2.711516E-3,3.2770694E-3,-3.329694E-4,-6.334919E-3],"categories":[],"categories_nodes":[],"categories_segments":[],"categories_sizes":[],"default_left":[0,0,0,0,0,0,0,0,0,0,0,0,0,0,0,0,0,0,0,0,0,0,0,0,0,0,0,0,0],"id":6,"left_children":[1,3,5,7,9,11,13,15,17,19,21,-1,23,25,27,-1,-1,-1,-1,-1,-1,-1,-1,-1,-1,-1,-1,-1,-1],"loss_changes":[3.683382E-1,1.9259264E-1,2.2301376E-1,2.6106265E-1,1.444274E-1,6.7750275E-2,1.5946457E-1,1.763113E-1,2.1812046E-1,1.0135403E-1,1.7236261E-1,0E0,7.647291E-3,1.2570041E-1,1.7443487E-1,0E0,0E0,0E0,0E0,0E0,0E0,0E0,0E0,0E0,0E0,0E0,0E0,0E0,0E0],"parents":[2147483647,0,0,1,1,2,2,3,3,4,4,5,5,6,6,7,7,8,8,9,9,10,10,12,12,13,13,14,14],"right_children":[2,4,6,8,10,12,14,16,18,20,22,-1,24,26,28,-1,-1,-1,-1,-1,-1,-1,-1,-1,-1,-1,-1,-1,-1],"split_conditions":[2.236068E0,-2.1000724E-1,-1.1296341E0,2.236068E0,-1.4292555E0,8.434819E-3,-4.5982274E-1,1.3600016E0,-3.738533E-1,1.1448979E0,1.1337501E0,-1.5332828E-2,-9.414853E-1,-4.6273082E-1,-7.157285E-1,-7.4641727E-4,-4.902157E-3,-7.5493375E-4,5.275171E-3,7.4694827E-3,-3.6817433E-5,1.6307444E-3,-2.5236353E-3,-1.3096982E-3,-6.444368E-3,-2.711516E-3,3.2770694E-3,-3.329694E-4,-6.334919E-3],"split_indices":[34,37,56,36,45,49,42,51,54,41,49,0,45,54,55,0,0,0,0,0,0,0,0,0,0,0,0,0,0],"split_type":[0,0,0,0,0,0,0,0,0,0,0,0,0,0,0,0,0,0,0,0,0,0,0,0,0,0,0,0,0],"sum_hessian":[7.81E2,6.49E2,1.32E2,2.82E2,3.67E2,1.2E1,1.2E2,1.97E2,8.5E1,3.1E1,3.36E2,5E0,7E0,4.9E1,7.1E1,1.49E2,4.8E1,4.4E1,4.1E1,2.2E1,9E0,2.96E2,4E1,2E0,5E0,2.2E1,2.7E1,3E1,4.1E1],"tree_param":{"num_deleted":"0","num_feature":"58","num_nodes":"29","size_leaf_vector":"1"}},{"base_weights":[-3.552031E-3,1.0334226E-2,-3.0420326E-2,2.9938826E-3,5.453638E-2,-1.22307844E-1,-1.9912446E-2,-9.7626485E-3,2.831433E-2,1.838449E-2,1.19180776E-1,-1.7190671E-1,-5.5670075E-2,-7.385341E-2,-6.006202E-4,2.051832E-4,-3.8780123E-3,2.679595E-4,5.833888E-3,2.1100855E-3,-5.096609E-3,8.564644E-3,-6.5431492E-3,-1.0941556E-2,-7.671332E-4,-8.257811E-3,7.655259E-4,-3.4701915E-3,-1.1623566E-2,5.4613966E-4,-8.086481E-3],"categories":[],"categories_nodes":[],"categories_segments":[],"categories_sizes":[],"default_left":[0,0,0,0,0,0,0,0,0,0,0,0,0,0,0,0,0,0,0,0,0,0,0,0,0,0,0,0,0,0,0],"id":7,"left_children":[1,3,5,7,9,11,13,15,17,19,21,23,25,27,29,-1,-1,-1,-1,-1,-1,-1,-1,-1,-1,-1,-1,-1,-1,-1,-1],"loss_changes":[2.902131E-1,1.662842E-1,2.5343344E-1,1.427199E-1,1.6841115E-1,7.966921E-2,2.4892159E-1,2.1287955E-1,2.4281253E-1,8.6229645E-2,1.553927E-1,2.2616744E-2,7.466565E-2,1.0975471E-1,2.316602E-1,0E0,0E0,0E0,0E0,0E0,0E0,0E0,0E0,0E0,0E0,0E0,0E0,0E0,0E0,0E0,0E0],"parents":[2147483647,0,0,1,1,2,2,3,3,4,4,5,5,6,6,7,7,8,8,9,9,10,10,11,11,12,12,13,13,14,14],"right_children":[2,4,6,8,10,12,14,16,18,20,22,24,26,28,30,-1,-1,-1,-1,-1,-1,-1,-1,-1,-1,-1,-1,-1,-1,-1,-1],"split_conditions":[1.3600016E0,2.236068E0,-1.4622407E0,4.3825287E-1,-9.9044695E-2,1.2935482E0,-6.3611805E-1,1.9603698E0,1.6543955E0,5.341469E-1,3.3997262E0,2.4708831E0,-6.8262243E-1,2.4246612E0,3.3574882E0,2.051832E-4,-3.8780123E-3,2.679595E-4,5.833888E-3,2.1100855E-3,-5.096609E-3,8.564644E-3,-6.5431492E-3,-1.0941556E-2,-7.671332E-4,-8.257811E-3,7.655259E-4,-3.4701915E-3,-1.1623566E-2,5.4613966E-4,-8.086481E-3],"split_indices":[51,36,38,41,40,53,56,26,2,54,30,17,44,22,24,0,0,0,0,0,0,0,0,0,0,0,0,0,0,0,0],"split_type":[0,0,0,0,0,0,0,0,0,0,0,0,0,0,0,0,0,0,0,0,0,0,0,0,0,0,0,0,0,0,0],"sum_hessian":[7.76E2,5.12E2,2.64E2,4.4E2,7.2E1,2.6E1,2.38E2,2.93E2,1.47E2,4.7E1,2.5E1,1.4E1,1.2E1,6.2E1,1.76E2,2.37E2,5.6E1,1.1E2,3.7E1,4.1E1,6E0,2.3E1,2E0,1.3E1,1E0,5E0,7E0,5.6E1,6E0,1.65E2,1.1E1],"tree_param":{"num_deleted":"0","num_feature":"58","num_nodes":"31","size_leaf_vector":"1"}},{"base_weights":[-1.4310575E-3,7.912079E-3,-4.7028806E-2,1.4636377E-2,-3.167559E-2,1.04009025E-2,-7.3984005E-2,3.5053655E-3,7.480519E-2,-4.9605347E-2,9.796652E-2,-5.92505E-2,6.089997E-2,-2.0087156E-2,-1.0523238E-1,1.0947447E-3,-1.468676E-3,5.7235574E-3,-6.3339877E-4,-5.107486E-3,5.366508E-4,9.219692E-3,9.996744E-4,-7.735901E-3,3.1606553E-3,-1.7119809E-4,6.470555E-3,-3.9347843E-3,2.6964967E-3,-6.7994404E-3,4.8533296E-3],"categories":[],"categories_nodes":[],"categories_segments":[],"categories_sizes":[],"default_left":[0,0,0,0,0,0,0,0,0,0,0,0,0,0,0,0,0,0,0,0,0,0,0,0,0,0,0,0,0,0,0],"id":8,"left_children":[1,3,5,7,9,11,13,15,17,19,21,23,25,27,29,-1,-1,-1,-1,-1,-1,-1,-1,-1,-1,-1,-1,-1,-1,-1,-1],"loss_changes":[3.3821067E-1,1.7588893E-1,2.0975345E-1,3.7747106E-1,2.2800705E-1,1.5837091E-1,1.5283161E-1,1.9720171E-1,1.5565658E-1,1.7753123E-1,5.1779397E-2,1.5497816E-1,7.81191E-2,1.064887E-1,9.651595E-2,0E0,0E0,0E0,0E0,0E0,0E0,0E0,0E0,0E0,0E0,0E0,0E0,0E0,0E0,0E0,0E0],"parents":[2147483647,0,0,1,1,2,2,3,3,4,4,5,5,6,6,7,7,8,8,9,9,10,10,11,11,12,12,13,13,14,14],"right_children":[2,4,6,8,10,12,14,16,18,20,22,24,26,28,30,-1,-1,-1,-1,-1,-1,-1,-1,-1,-1,-1,-1,-1,-1,-1,-1],"split_conditions":[2.236068E0,9.4271904E-1,-9.873806E-2,4.843429E-1,2.0976176E0,7.2846316E-2,-7.7752894E-1,1.4627149E0,1.3553846E0,3.6039025E-1,-7.318045E-1,-2.7428648E-2,-5.816857E-1,-2.115843E-1,8.805984E-1,1.0947447E-3,-1.468676E-3,5.7235574E-3,-6.3339877E-4,-5.107486E-3,5.366508E-4,9.219692E-3,9.996744E-4,-7.735901E-3,3.1606553E-3,-1.7119809E-4,6.470555E-3,-3.9347843E-3,2.6964967E-3,-6.7994404E-3,4.8533296E-3],"split_indices":[34,40,49,40,4,40,45,1,37,44,37,45,44,44,38,0,0,0,0,0,0,0,0,0,0,0,0,0,0,0,0],"split_type":[0,0,0,0,0,0,0,0,0,0,0,0,0,0,0,0,0,0,0,0,0,0,0,0,0,0,0,0,0,0,0],"sum_hessian":[7.92E2,6.58E2,1.34E2,5.63E2,9.5E1,4.3E1,9.1E1,4.76E2,8.7E1,8.4E1,1.1E1,1.8E1,2.5E1,3.4E1,5.7E1,3.12E2,1.64E2,7E1,1.7E1,5.2E1,3.2E1,6E0,5E0,1.1E1,7E0,1.1E1,1.4E1,2E1,1.4E1,5.5E1,2E0],"tree_param":{"num_deleted":"0","num_feature":"58","num_nodes":"31","size_leaf_vector":"1"}},{"base_weights":[-1.5993011E-3,6.9269203E-3,-4.2755015E-2,1.3922362E-2,-3.6521785E-2,-5.132775E-2,7.206685E-3,-1.6201497E-3,3.625907E-2,1.603699E-2,-9.697079E-2,1.1080546E-1,-6.020976E-2,4.0456286E-4,-3.2840874E-3,3.0958513E-3,-4.8945054E-5,-3.3286784E-3,4.581791E-3,-3.4164444E-3,-9.913729E-3,9.159599E-3,3.811899E-3,-1.1805208E-2,-3.08706E-3],"categories":[],"categories_nodes":[],"categories_segments":[],"categories_sizes":[],"default_left":[0,0,0,0,0,0,0,0,0,0,0,0,0,0,0,0,0,0,0,0,0,0,0,0,0],"id":9,"left_children":[1,3,5,7,9,11,-1,13,15,17,19,21,23,-1,-1,-1,-1,-1,-1,-1,-1,-1,-1,-1,-1],"loss_changes":[2.740003E-1,1.9715951E-1,1.9325732E-1,1.9377878E-1,2.8749642E-1,1.9100025E-1,0E0,1.4695191E-1,1.3026756E-1,2.1563354E-1,1.0535133E-1,4.15162E-3,1.357831E-1,0E0,0E0,0E0,0E0,0E0,0E0,0E0,0E0,0E0,0E0,0E0,0E0],"parents":[2147483647,0,0,1,1,2,2,3,3,4,4,5,5,7,7,8,8,9,9,10,10,11,11,12,12],"right_children":[2,4,6,8,10,12,-1,14,16,18,20,22,24,-1,-1,-1,-1,-1,-1,-1,-1,-1,-1,-1,-1],"split_conditions":[2.236068E0,2.104076E0,1.4703269E0,2.0230168E-2,1.8744026E-1,-1.3562545E0,7.206685E-3,2.4246612E0,8.366807E-1,5.110985E-1,6.525406E-1,7.0832235E-1,-1.2258013E0,4.0456286E-4,-3.2840874E-3,3.0958513E-3,-4.8945054E-5,-3.3286784E-3,4.581791E-3,-3.4164444E-3,-9.913729E-3,9.159599E-3,3.811899E-3,-1.1805208E-2,-3.08706E-3],"split_indices":[34,0,41,56,40,41,0,22,46,47,42,40,56,0,0,0,0,0,0,0,0,0,0,0,0],"split_type":[0,0,0,0,0,0,0,0,0,0,0,0,0,0,0,0,0,0,0,0,0,0,0,0,0],"sum_hessian":[7.79E2,6.46E2,1.33E2,5.57E2,8.9E1,1.27E2,6E0,3.29E2,2.28E2,4.8E1,4.1E1,6E0,1.21E2,2.85E2,4.4E1,1.61E2,6.7E1,2.2E1,2.6E1,2.7E1,1.4E1,2E0,4E0,6E0,1.15E2],"tree_param":{"num_deleted":"0","num_feature":"58","num_nodes":"25","size_leaf_vector":"1"}},{"base_weights":[-3.1933672E-4,7.6822527E-3,-3.9139498E-2,1.3925727E-2,-2.63037E-2,1.0723887E-1,-4.559435E-2,1.023314E-2,7.589315E-2,-3.7898336E-2,1.1467058E-1,8.793214E-3,3.0565872E-3,-3.6401827E-2,-1.2115192E-2,9.988399E-4,-1.503148E-3,-6.5839365E-3,5.9820353E-3,-5.909456E-4,-7.2280183E-3,1.5644252E-3,8.391433E-3,-9.826519E-3,-1.642884E-3],"categories":[],"categories_nodes":[],"categories_segments":[],"categories_sizes":[],"default_left":[0,0,0,0,0,0,0,0,0,0,0,0,0,0,0,0,0,0,0,0,0,0,0,0,0],"id":10,"left_children":[1,3,5,7,9,11,13,15,17,19,21,-1,-1,23,-1,-1,-1,-1,-1,-1,-1,-1,-1,-1,-1],"loss_changes":[2.4538222E-1,1.3935104E-1,1.3244432E-1,1.259897E-1,1.7106947E-1,5.813606E-3,1.7946312E-1,1.1901326E-1,1.479377E-1,2.1883233E-1,1.4205053E-2,0E0,0E0,1.37987E-1,0E0,0E0,0E0,0E0,0E0,0E0,0E0,0E0,0E0,0E0,0E0],"parents":[2147483647,0,0,1,1,2,2,3,3,4,4,5,5,6,6,7,7,8,8,9,9,10,10,13,13],"right_children":[2,4,6,8,10,12,14,16,18,20,22,-1,-1,24,-1,-1,-1,-1,-1,-1,-1,-1,-1,-1,-1],"split_conditions":[2.236068E0,2.4246612E0,-1.3562545E0,4.6368093E0,2.8689315E0,7.0832235E-1,3.3574882E0,9.225023E-1,-1.0796694E0,1.3600016E0,8.987717E-1,8.793214E-3,3.0565872E-3,-1.2258013E0,-1.2115192E-2,9.988399E-4,-1.503148E-3,-6.5839365E-3,5.9820353E-3,-5.909456E-4,-7.2280183E-3,1.5644252E-3,8.391433E-3,-9.826519E-3,-1.642884E-3],"split_indices":[34,22,41,3,29,40,24,43,37,51,39,0,0,56,0,0,0,0,0,0,0,0,0,0,0],"split_type":[0,0,0,0,0,0,0,0,0,0,0,0,0,0,0,0,0,0,0,0,0,0,0,0,0],"sum_hessian":[7.88E2,6.54E2,1.34E2,5.53E2,1.01E2,5E0,1.29E2,5.23E2,3E1,9.4E1,7E0,2E0,3E0,1.23E2,6E0,4.43E2,8E1,3E0,2.7E1,7.1E1,2.3E1,2E0,5E0,7E0,1.16E2],"tree_param":{"num_deleted":"0","num_feature":"58","num_nodes":"25","size_leaf_vector":"1"}},{"base_weights":[-2.480132E-3,6.341174E-3,-4.6567135E-2,-2.5403604E-3,4.2239916E-2,-7.046091E-2,9.153709E-3,-9.30043E-3,3.4458254E-2,6.304789E-2,-1.8311292E-2,-9.026517E-2,-2.1641286E-2,9.22133E-2,-6.6431336E-2,-6.284569E-5,-2.6394115E-3,1.1571733E-3,7.589741E-3,1.0691371E-2,3.0159045E-3,-3.9694686E-3,2.1996296E-3,-4.274376E-3,-1.1790184E-2,5.66579E-3,-4.01926E-3,-3.4387405E-3,8.982544E-3,4.6305824E-3,-6.28567E-3],"categories":[],"categories_nodes":[],"categories_segments":[],"categories_sizes":[],"default_left":[0,0,0,0,0,0,0,0,0,0,0,0,0,0,0,0,0,0,0,0,0,0,0,0,0,0,0,0,0,0,0],"id":11,"left_children":[1,3,5,7,9,11,13,15,17,19,21,23,25,27,29,-1,-1,-1,-1,-1,-1,-1,-1,-1,-1,-1,-1,-1,-1,-1,-1],"loss_changes":[2.9625192E-1,2.025681E-1,1.6973037E-1,1.278782E-1,1.5990794E-1,8.409503E-2,2.509703E-1,1.23633206E-1,1.07875556E-1,1.2939575E-1,8.922226E-2,1.1333907E-1,1.4843759E-1,1.7192486E-1,1.2367877E-1,0E0,0E0,0E0,0E0,0E0,0E0,0E0,0E0,0E0,0E0,0E0,0E0,0E0,0E0,0E0,0E0],"parents":[2147483647,0,0,1,1,2,2,3,3,4,4,5,5,6,6,7,7,8,8,9,9,10,10,11,11,12,12,13,13,14,14],"right_children":[2,4,6,8,10,12,14,16,18,20,22,24,26,28,30,-1,-1,-1,-1,-1,-1,-1,-1,-1,-1,-1,-1,-1,-1,-1,-1],"split_conditions":[2.104076E0,2.236068E0,2.236068E0,1.2015296E0,9.3236506E-1,8.3358735E-1,-5.83676E-1,2.236068E0,4.3161365E-1,-9.564422E-1,5.4334384E-1,6.659231E-1,-4.5713988E-1,-1.523245E-1,-1.1460176E0,-6.284569E-5,-2.6394115E-3,1.1571733E-3,7.589741E-3,1.0691371E-2,3.0159045E-3,-3.9694686E-3,2.1996296E-3,-4.274376E-3,-1.1790184E-2,5.66579E-3,-4.01926E-3,-3.4387405E-3,8.982544E-3,4.6305824E-3,-6.28567E-3],"split_indices":[0,36,33,44,44,37,38,34,56,41,39,56,43,49,40,0,0,0,0,0,0,0,0,0,0,0,0,0,0,0,0],"split_type":[0,0,0,0,0,0,0,0,0,0,0,0,0,0,0,0,0,0,0,0,0,0,0,0,0,0,0,0,0,0,0],"sum_hessian":[7.6E2,6.34E2,1.26E2,5.09E2,1.25E2,8.8E1,3.8E1,4.31E2,7.8E1,9.3E1,3.2E1,6.2E1,2.6E1,1.8E1,2E1,3.49E2,8.2E1,6.8E1,1E1,8E0,8.5E1,1.7E1,1.5E1,5.4E1,8E0,7E0,1.9E1,5E0,1.3E1,4E0,1.6E1],"tree_param":{"num_deleted":"0","num_feature":"58","num_nodes":"31","size_leaf_vector":"1"}},{"base_weights":[-1.1365083E-5,7.860217E-3,-3.51857E-2,2.2153107E-2,-1.4033888E-2,-6.944979E-2,1.6226327E-2,3.130984E-2,-3.7439495E-2,2.9269556E-2,-3.422779E-2,7.082306E-2,-7.8982964E-2,6.653901E-2,-4.005651E-2,-1.4142179E-3,2.5002619E-3,1.1912524E-4,-5.2341297E-3,-6.9981585E-3,2.5498285E-3,-1.2838772E-3,-4.4241105E-3,8.236011E-3,-2.4825805E-3,-5.7951524E-3,-8.6071304E-5,-2.4565446E-4,7.496904E-3,-1.2050197E-2,-7.637659E-4],"categories":[],"categories_nodes":[],"categories_segments":[],"categories_sizes":[],"default_left":[0,0,0,0,0,0,0,0,0,0,0,0,0,0,0,0,0,0,0,0,0,0,0,0,0,0,0,0,0,0,0],"id":12,"left_children":[1,3,5,7,9,11,13,15,17,19,21,23,25,27,29,-1,-1,-1,-1,-1,-1,-1,-1,-1,-1,-1,-1,-1,-1,-1,-1],"loss_changes":[2.16518E-1,2.0027319E-1,2.5303376E-1,2.1234787E-1,2.2224161E-1,1.20596945E-1,1.6690625E-1,1.9203979E-1,1.02259755E-1,1.6128495E-1,8.611129E-2,5.0409317E-2,1.104328E-1,1.284066E-1,1.2046568E-1,0E0,0E0,0E0,0E0,0E0,0E0,0E0,0E0,0E0,0E0,0E0,0E0,0E0,0E0,0E0,0E0],"parents":[2147483647,0,0,1,1,2,2,3,3,4,4,5,5,6,6,7,7,8,8,9,9,10,10,11,11,12,12,13,13,14,14],"right_children":[2,4,6,8,10,12,14,16,18,20,22,24,26,28,30,-1,-1,-1,-1,-1,-1,-1,-1,-1,-1,-1,-1,-1,-1,-1,-1],"split_conditions":[2.104076E0,1.4627149E0,8.3358735E-1,1.1873364E0,-6.5404487E-1,-1.3312261E0,1.8744026E-1,-1.0796694E0,2.727032E-1,-9.181414E-1,1.9603698E0,-9.127929E-1,2.4996643E0,-1.523245E-1,2.707814E-1,-1.4142179E-3,2.5002619E-3,1.1912524E-4,-5.2341297E-3,-6.9981585E-3,2.5498285E-3,-1.2838772E-3,-4.4241105E-3,8.236011E-3,-2.4825805E-3,-5.7951524E-3,-8.6071304E-5,-2.4565446E-4,7.496904E-3,-1.2050197E-2,-7.637659E-4],"split_indices":[0,1,37,49,42,49,40,37,56,44,26,45,20,49,40,0,0,0,0,0,0,0,0,0,0,0,0,0,0,0,0],"split_type":[0,0,0,0,0,0,0,0,0,0,0,0,0,0,0,0,0,0,0,0,0,0,0,0,0,0,0,0,0,0,0],"sum_hessian":[7.8E2,6.38E2,1.42E2,3.86E2,2.52E2,8.5E1,5.7E1,3.35E2,5.1E1,8E1,1.72E2,5E0,8E1,3E1,2.7E1,5.3E1,2.82E2,2.9E1,2.2E1,6E0,7.4E1,1.31E2,4.1E1,3E0,2E0,6.5E1,1.5E1,1.4E1,1.6E1,3E0,2.4E1],"tree_param":{"num_deleted":"0","num_feature":"58","num_nodes":"31","size_leaf_vector":"1"}},{"base_weights":[-2.838014E-3,4.6125236E-3,-3.0805655E-2,-1.9158877E-2,1.4860477E-2,8.404353E-2,-4.0425614E-2,2.5981808E-2,-4.3052204E-2,2.2212462E-2,-2.9253962E-2,1.3873611E-1,-7.3698826E-2,-7.5461245E-3,-6.992283E-2,-3.848069E-3,3.2579629E-3,-1.7914062E-3,-6.531364E-3,1.7286993E-3,-2.1721101E-3,-4.8710385E-4,-7.5904853E-3,9.554372E-3,-1.3738399E-3,-5.93064E-3,5.2101015E-5,-1.610847E-3,3.1753005E-3,-3.073051E-3,-1.1744294E-2],"categories":[],"categories_nodes":[],"categories_segments":[],"categories_sizes":[],"default_left":[0,0,0,0,0,0,0,0,0,0,0,0,0,0,0,0,0,0,0,0,0,0,0,0,0,0,0,0,0,0,0],"id":13,"left_children":[1,3,5,7,9,11,13,15,17,19,21,23,25,27,29,-1,-1,-1,-1,-1,-1,-1,-1,-1,-1,-1,-1,-1,-1,-1,-1],"loss_changes":[1.6246542E-1,1.5034737E-1,1.8459198E-1,2.0173094E-1,1.4043547E-1,1.22380085E-1,1.4689006E-1,1.6935433E-1,1.0268378E-1,1.4367329E-1,1.2641524E-1,3.6786556E-2,7.5858515E-3,8.661975E-2,1.7824808E-1,0E0,0E0,0E0,0E0,0E0,0E0,0E0,0E0,0E0,0E0,0E0,0E0,0E0,0E0,0E0,0E0],"parents":[2147483647,0,0,1,1,2,2,3,3,4,4,5,5,6,6,7,7,8,8,9,9,10,10,11,11,12,12,13,13,14,14],"right_children":[2,4,6,8,10,12,14,16,18,20,22,24,26,28,30,-1,-1,-1,-1,-1,-1,-1,-1,-1,-1,-1,-1,-1,-1,-1,-1],"split_conditions":[1.9603698E0,-4.9516848E-1,-1.4292555E0,-4.3724856E-1,2.104076E0,8.644194E-1,-4.904428E-3,-1.4622407E0,8.1886715E-1,1.8265355E0,2.4614677E0,3.6346288E0,2.4708831E0,8.987717E-1,2.236068E0,-3.848069E-3,3.2579629E-3,-1.7914062E-3,-6.531364E-3,1.7286993E-3,-2.1721101E-3,-4.8710385E-4,-7.5904853E-3,9.554372E-3,-1.3738399E-3,-5.93064E-3,5.2101015E-5,-1.610847E-3,3.1753005E-3,-3.073051E-3,-1.1744294E-2],"split_indices":[26,44,45,38,0,42,44,38,43,55,21,13,17,39,34,0,0,0,0,0,0,0,0,0,0,0,0,0,0,0,0],"split_type":[0,0,0,0,0,0,0,0,0,0,0,0,0,0,0,0,0,0,0,0,0,0,0,0,0,0,0,0,0,0,0],"sum_hessian":[7.78E2,6.15E2,1.63E2,1.85E2,4.3E2,1.2E1,1.51E2,6.4E1,1.21E2,3.69E2,6.1E1,9E0,3E0,7.2E1,7.9E1,1.5E1,4.9E1,1.02E2,1.9E1,3.32E2,3.7E1,5.1E1,1E1,8E0,1E0,2E0,1E0,5.5E1,1.7E1,7E1,9E0],"tree_param":{"num_deleted":"0","num_feature":"58","num_nodes":"31","size_leaf_vector":"1"}},{"base_weights":[-3.8788933E-4,1.1507275E-2,-1.8943053E-2,-3.2647685E-3,3.149192E-2,-9.457309E-3,-6.507036E-2,1.2065037E-4,-1.5224332E-1,9.017966E-3,7.277938E-2,3.4560468E-3,-5.8693856E-2,-1.0616623E-1,-3.2764386E-2,2.7615323E-3,-4.3780942E-4,-1.223715E-2,3.1890804E-3,4.25683E-3,-5.6796806E-4,6.0985247E-3,1.2015296E-3,2.259858E-3,-7.37999E-4,1.5459551E-3,-4.918934E-3,-7.7221575E-3,-2.281165E-4,2.1176476E-3,-4.441456E-3],"categories":[],"categories_nodes":[],"categories_segments":[],"categories_sizes":[],"default_left":[0,0,0,0,0,0,0,0,0,0,0,0,0,0,0,0,0,0,0,0,0,0,0,0,0,0,0,0,0,0,0],"id":14,"left_children":[1,3,5,7,9,11,13,15,17,19,21,23,25,27,29,-1,-1,-1,-1,-1,-1,-1,-1,-1,-1,-1,-1,-1,-1,-1,-1],"loss_changes":[1.6950771E-1,1.3826299E-1,1.3065016E-1,1.3619417E-1,1.8399426E-1,1.591551E-1,6.423129E-2,9.0567894E-2,7.456511E-2,1.4948335E-1,1.0454795E-1,1.07721545E-1,1.0439277E-1,5.0262958E-2,8.685521E-2,0E0,0E0,0E0,0E0,0E0,0E0,0E0,0E0,0E0,0E0,0E0,0E0,0E0,0E0,0E0,0E0],"parents":[2147483647,0,0,1,1,2,2,3,3,4,4,5,5,6,6,7,7,8,8,9,9,10,10,11,11,12,12,13,13,14,14],"right_children":[2,4,6,8,10,12,14,16,18,20,22,24,26,28,30,-1,-1,-1,-1,-1,-1,-1,-1,-1,-1,-1,-1,-1,-1,-1,-1],"split_conditions":[3.0716893E-1,1.4890394E-1,2.104076E0,1.248714E-1,1.4290744E0,5.442992E-1,-5.229397E-1,-9.7412646E-1,3.535534E0,-2.4131598E-1,2.76367E-1,-5.229397E-1,-8.45533E-1,1.5038797E0,1.3221542E0,2.7615323E-3,-4.3780942E-4,-1.223715E-2,3.1890804E-3,4.25683E-3,-5.6796806E-4,6.0985247E-3,1.2015296E-3,2.259858E-3,-7.37999E-4,1.5459551E-3,-4.918934E-3,-7.7221575E-3,-2.281165E-4,2.1176476E-3,-4.441456E-3],"split_indices":[43,44,0,44,25,49,39,40,6,55,49,39,55,47,50,0,0,0,0,0,0,0,0,0,0,0,0,0,0,0,0],"split_type":[0,0,0,0,0,0,0,0,0,0,0,0,0,0,0,0,0,0,0,0,0,0,0,0,0,0,0,0,0,0,0],"sum_hessian":[7.66E2,4.67E2,2.99E2,2.69E2,1.98E2,2.49E2,5E1,2.64E2,5E0,1.29E2,6.9E1,1.98E2,5.1E1,2.1E1,2.9E1,3.6E1,2.28E2,4E0,1E0,2.9E1,1E2,4.4E1,2.5E1,6.2E1,1.36E2,1.1E1,4E1,1.7E1,4E0,1.1E1,1.8E1],"tree_param":{"num_deleted":"0","num_feature":"58","num_nodes":"31","size_leaf_vector":"1"}},{"base_weights":[1.2504969E-4,7.0030354E-3,-3.1563707E-2,1.0102103E-2,-5.470438E-2,-4.45987E-2,3.0181201E-2,6.709556E-3,1.0574323E-1,-6.904528E-2,5.9358045E-2,2.5169493E-4,-7.858008E-2,5.199698E-2,-8.828009E-3,4.307672E-3,1.9487808E-4,-2.4065245E-3,9.229726E-3,-5.265791E-3,8.5285277E-4,4.66633E-3,1.2347102E-4,-1.9679111E-3,5.3964863E-3,3.5856E-3,-5.453946E-3,4.7333473E-3,-5.7277787E-3],"categories":[],"categories_nodes":[],"categories_segments":[],"categories_sizes":[],"default_left":[0,0,0,0,0,0,0,0,0,0,0,0,0,0,0,0,0,0,0,0,0,0,0,0,0,0,0,0,0],"id":15,"left_children":[1,3,5,7,9,11,13,15,17,19,21,23,25,27,-1,-1,-1,-1,-1,-1,-1,-1,-1,-1,-1,-1,-1,-1,-1],"loss_changes":[1.7109762E-1,1.2389951E-1,1.1402425E-1,1.9883776E-1,5.4806896E-2,1.7681287E-1,1.0435693E-1,1.3381876E-1,1.5345065E-1,4.4883892E-2,4.0604854E-3,1.5412748E-1,1.17910355E-1,9.873781E-2,0E0,0E0,0E0,0E0,0E0,0E0,0E0,0E0,0E0,0E0,0E0,0E0,0E0,0E0,0E0],"parents":[2147483647,0,0,1,1,2,2,3,3,4,4,5,5,6,6,7,7,8,8,9,9,10,10,11,11,12,12,13,13],"right_children":[2,4,6,8,10,12,14,16,18,20,22,24,26,28,-1,-1,-1,-1,-1,-1,-1,-1,-1,-1,-1,-1,-1,-1,-1],"split_conditions":[2.236068E0,1.9002709E0,1.2945093E0,1.6001093E0,3.3997262E0,-9.873806E-2,1.1297725E0,-1.4292555E0,-1.4292555E0,2.4996643E0,1.4627149E0,1.4290744E0,-1.1437223E0,3.393682E-1,-8.828009E-3,4.307672E-3,1.9487808E-4,-2.4065245E-3,9.229726E-3,-5.265791E-3,8.5285277E-4,4.66633E-3,1.2347102E-4,-1.9679111E-3,5.3964863E-3,3.5856E-3,-5.453946E-3,4.7333473E-3,-5.7277787E-3],"split_indices":[34,42,49,42,30,49,43,45,45,20,1,25,43,56,0,0,0,0,0,0,0,0,0,0,0,0,0,0,0],"split_type":[0,0,0,0,0,0,0,0,0,0,0,0,0,0,0,0,0,0,0,0,0,0,0,0,0,0,0,0,0],"sum_hessian":[7.83E2,6.44E2,1.39E2,6.14E2,3E1,1.15E2,2.4E1,5.94E2,2E1,2.7E1,3E0,5E1,6.5E1,2.2E1,2E0,2.9E1,5.65E2,5E0,1.5E1,2.2E1,5E0,2E0,1E0,3.7E1,1.3E1,5E0,6E1,1.9E1,3E0],"tree_param":{"num_deleted":"0","num_feature":"58","num_nodes":"29","size_leaf_vector":"1"}},{"base_weights":[-3.5384204E-4,9.697685E-3,-1.8482508E-2,1.8699571E-2,-2.4890706E-2,-2.6406106E-2,6.3834615E-2,4.6981048E-2,5.3450153E-3,-9.889275E-2,1.2476353E-2,-1.5603057E-2,-9.362511E-2,1.3758557E-1,-2.1381797E-2,1.7130589E-3,5.695607E-3,-4.3150052E-4,2.6780725E-3,-6.774714E-3,5.0165495E-3,-1.2953255E-4,7.3506255E-3,-1.3348524E-3,4.080775E-3,-7.3008165E-3,8.83252E-3,9.907505E-3,-5.552721E-4,-4.687261E-3,6.6976133E-3],"categories":[],"categories_nodes":[],"categories_segments":[],"categories_sizes":[],"default_left":[0,0,0,0,0,0,0,0,0,0,0,0,0,0,0,0,0,0,0,0,0,0,0,0,0,0,0,0,0,0,0],"id":16,"left_children":[1,3,5,7,9,11,13,15,17,19,21,23,25,27,29,-1,-1,-1,-1,-1,-1,-1,-1,-1,-1,-1,-1,-1,-1,-1,-1],"loss_changes":[1.3793816E-1,1.5209812E-1,1.7779249E-1,1.4591357E-1,2.805229E-1,1.7790323E-1,1.537768E-1,1.068615E-1,1.3035703E-1,9.643024E-2,1.097699E-1,1.2040834E-1,2.4763781E-1,5.4098934E-2,9.9282116E-2,0E0,0E0,0E0,0E0,0E0,0E0,0E0,0E0,0E0,0E0,0E0,0E0,0E0,0E0,0E0,0E0],"parents":[2147483647,0,0,1,1,2,2,3,3,4,4,5,5,6,6,7,7,8,8,9,9,10,10,11,11,12,12,13,13,14,14],"right_children":[2,4,6,8,10,12,14,16,18,20,22,24,26,28,30,-1,-1,-1,-1,-1,-1,-1,-1,-1,-1,-1,-1,-1,-1,-1,-1],"split_conditions":[1.3600016E0,1.9603698E0,1.3198807E0,-4.3724856E-1,-3.8393965E-1,2.4246612E0,-1.7243959E-1,6.7070174E-1,1.3221542E0,1.1337501E0,1.529317E0,1.4805776E0,2.8689315E0,2.2976227E0,-1.0509487E-1,1.7130589E-3,5.695607E-3,-4.3150052E-4,2.6780725E-3,-6.774714E-3,5.0165495E-3,-1.2953255E-4,7.3506255E-3,-1.3348524E-3,4.080775E-3,-7.3008165E-3,8.83252E-3,9.907505E-3,-5.552721E-4,-4.687261E-3,6.6976133E-3],"split_indices":[51,26,38,38,37,22,57,41,50,49,37,56,29,18,55,0,0,0,0,0,0,0,0,0,0,0,0,0,0,0,0],"split_type":[0,0,0,0,0,0,0,0,0,0,0,0,0,0,0,0,0,0,0,0,0,0,0,0,0,0,0,0,0,0,0],"sum_hessian":[7.55E2,4.86E2,2.69E2,3.86E2,1E2,2.46E2,2.3E1,1.23E2,2.63E2,3.3E1,6.7E1,2.13E2,3.3E1,1.2E1,1.1E1,9E1,3.3E1,2E2,6.3E1,3.1E1,2E0,6E1,7E0,1.98E2,1.5E1,3E1,3E0,1E1,2E0,8E0,3E0],"tree_param":{"num_deleted":"0","num_feature":"58","num_nodes":"31","size_leaf_vector":"1"}},{"base_weights":[9.175891E-4,5.373193E-2,-2.6779945E-3,-1.0053563E-2,9.1092974E-2,-8.635023E-3,2.8414076E-2,-5.8350522E-2,6.3648574E-2,2.3813915E-2,1.4509845E-1,-1.8979773E-2,7.28614E-3,3.946049E-2,-8.0616295E-2,5.070671E-3,-6.921673E-3,-1.1788916E-3,5.6813317E-3,-2.3782104E-3,5.0572758E-3,-2.103145E-3,9.512919E-3,-1.6639137E-3,1.4713388E-3,-5.913185E-4,2.928677E-3,1.4089565E-3,6.683187E-3,-7.467377E-3,4.6665464E-3],"categories":[],"categories_nodes":[],"categories_segments":[],"categories_sizes":[],"default_left":[0,0,0,0,0,0,0,0,0,0,0,0,0,0,0,0,0,0,0,0,0,0,0,0,0,0,0,0,0,0,0],"id":17,"left_children":[1,3,5,7,9,11,13,15,17,19,21,23,25,27,29,-1,-1,-1,-1,-1,-1,-1,-1,-1,-1,-1,-1,-1,-1,-1,-1],"loss_changes":[1.4598586E-1,1.1768733E-1,1.3360111E-1,7.134612E-2,1.09181166E-1,9.9782065E-2,1.4289095E-1,1.07485056E-1,2.2544913E-2,6.0897745E-2,4.674965E-2,1.4041002E-1,1.706015E-1,1.1920217E-1,8.606266E-2,0E0,0E0,0E0,0E0,0E0,0E0,0E0,0E0,0E0,0E0,0E0,0E0,0E0,0E0,0E0,0E0],"parents":[2147483647,0,0,1,1,2,2,3,3,4,4,5,5,6,6,7,7,8,8,9,9,10,10,11,11,12,12,13,13,14,14],"right_children":[2,4,6,8,10,12,14,16,18,20,22,24,26,28,30,-1,-1,-1,-1,-1,-1,-1,-1,-1,-1,-1,-1,-1,-1,-1,-1],"split_conditions":[-1.4545052E0,-6.1052483E-1,1.1297319E0,7.055103E-1,-4.6887094E-1,4.3825287E-1,1.1873364E0,-1.0229583E0,-1.8736972E0,-1.7979188E0,-1.3158132E0,2.236068E0,-2.83502E-3,2.5292807E0,4.843429E-1,5.070671E-3,-6.921673E-3,-1.1788916E-3,5.6813317E-3,-2.3782104E-3,5.0572758E-3,-2.103145E-3,9.512919E-3,-1.6639137E-3,1.4713388E-3,-5.913185E-4,2.928677E-3,1.4089565E-3,6.683187E-3,-7.467377E-3,4.6665464E-3],"split_indices":[54,44,48,42,40,41,49,38,54,43,38,36,45,23,40,0,0,0,0,0,0,0,0,0,0,0,0,0,0,0,0],"split_type":[0,0,0,0,0,0,0,0,0,0,0,0,0,0,0,0,0,0,0,0,0,0,0,0,0,0,0,0,0,0,0],"sum_hessian":[7.67E2,4.8E1,7.19E2,1.8E1,3E1,6.04E2,1.15E2,1.1E1,7E0,1.4E1,1.6E1,3.66E2,2.38E2,1.05E2,1E1,3E0,8E0,2E0,5E0,7E0,7E0,1E0,1.5E1,3.05E2,6.1E1,1.69E2,6.9E1,8.7E1,1.8E1,8E0,2E0],"tree_param":{"num_deleted":"0","num_feature":"58","num_nodes":"31","size_leaf_vector":"1"}},{"base_weights":[2.1122558E-4,6.191068E-3,-3.0904291E-2,9.094367E-2,4.2317426E-3,-3.819419E-2,6.033788E-3,3.2058813E-2,1.043567E-2,8.111707E-3,-3.4902673E-2,-5.9150655E-2,3.1312385E-3,-5.0584465E-4,5.69405E-3,1.115083E-3,-6.676463E-4,-1.0642556E-3,-9.592845E-3,-4.951561E-3,4.373392E-4,1.6681734E-3,-5.4252413E-3],"categories":[],"categories_nodes":[],"categories_segments":[],"categories_sizes":[],"default_left":[0,0,0,0,0,0,0,0,0,0,0,0,0,0,0,0,0,0,0,0,0,0,0],"id":18,"left_children":[1,3,5,7,9,11,-1,13,-1,15,17,19,21,-1,-1,-1,-1,-1,-1,-1,-1,-1,-1],"loss_changes":[1.4774157E-1,1.1020972E-1,1.265141E-1,6.772173E-2,9.928289E-2,1.0584149E-1,0E0,2.624454E-2,0E0,1.1989291E-1,1.2373439E-1,1.2639862E-1,9.945335E-2,0E0,0E0,0E0,0E0,0E0,0E0,0E0,0E0,0E0,0E0],"parents":[2147483647,0,0,1,1,2,2,3,3,4,4,5,5,7,7,9,9,10,10,11,11,12,12],"right_children":[2,4,6,8,10,12,-1,14,-1,16,18,20,22,-1,-1,-1,-1,-1,-1,-1,-1,-1,-1],"split_conditions":[2.236068E0,-2.1195393E0,1.2207557E0,1.124365E0,1.3480958E0,1.4290744E0,6.033788E-3,2.06526E-2,1.043567E-2,8.366807E-1,9.7397214E-1,2.8689315E0,1.3177541E0,-5.0584465E-4,5.69405E-3,1.115083E-3,-6.676463E-4,-1.0642556E-3,-9.592845E-3,-4.951561E-3,4.373392E-4,1.6681734E-3,-5.4252413E-3],"split_indices":[34,42,44,45,49,25,0,48,0,46,40,29,40,0,0,0,0,0,0,0,0,0,0],"split_type":[0,0,0,0,0,0,0,0,0,0,0,0,0,0,0,0,0,0,0,0,0,0,0],"sum_hessian":[7.92E2,6.65E2,1.27E2,1.4E1,6.51E2,1.21E2,6E0,9E0,5E0,5.93E2,5.8E1,8E1,4.1E1,6E0,3E0,3.84E2,2.09E2,5.2E1,6E0,5.9E1,2.1E1,3.3E1,8E0],"tree_param":{"num_deleted":"0","num_feature":"58","num_nodes":"23","size_leaf_vector":"1"}},{"base_weights":[3.008214E-3,9.5409965E-3,-3.0560978E-2,1.887909E-2,-7.819701E-3,-4.48876E-2,3.5548996E-2,2.500127E-2,-4.1727953E-2,-2.8584106E-2,1.3013299E-2,-4.4778194E-3,-7.4446805E-2,-5.106853E-2,6.912392E-2,1.988178E-3,-1.0590975E-3,-4.00567E-3,8.511009E-3,-2.2717481E-3,7.119075E-3,1.8770912E-3,-2.8212247E-3,-8.139636E-3,1.1509573E-3,-5.42212E-3,3.5408554E-3,-6.1269915E-3,3.0620587E-3,5.2316575E-3,-2.6561564E-3],"categories":[],"categories_nodes":[],"categories_segments":[],"categories_sizes":[],"default_left":[0,0,0,0,0,0,0,0,0,0,0,0,0,0,0,0,0,0,0,0,0,0,0,0,0,0,0,0,0,0,0],"id":19,"left_children":[1,3,5,7,9,11,13,15,17,19,21,23,25,27,29,-1,-1,-1,-1,-1,-1,-1,-1,-1,-1,-1,-1,-1,-1,-1,-1],"loss_changes":[1.6959135E-1,1.0503655E-1,1.209344E-1,1.5725416E-1,9.856872E-2,1.23892665E-1,7.041812E-2,1.3347916E-1,1.8869653E-1,1.602282E-1,1.265187E-1,1.4227524E-1,1.3282996E-1,4.1696463E-2,3.869401E-2,0E0,0E0,0E0,0E0,0E0,0E0,0E0,0E0,0E0,0E0,0E0,0E0,0E0,0E0,0E0,0E0],"parents":[2147483647,0,0,1,1,2,2,3,3,4,4,5,5,6,6,7,7,8,8,9,9,10,10,11,11,12,12,13,13,14,14],"right_children":[2,4,6,8,10,12,14,16,18,20,22,24,26,28,30,-1,-1,-1,-1,-1,-1,-1,-1,-1,-1,-1,-1,-1,-1,-1,-1],"split_conditions":[2.236068E0,8.366807E-1,2.8689315E0,1.3480958E0,-1.523245E-1,-4.4216606E-1,-6.881889E-1,2.4246612E0,1.6096274E0,4.6368093E0,1.0075197E0,-1.4191624E0,2.8689315E0,1.6543955E0,5.0540274E-1,1.988178E-3,-1.0590975E-3,-4.00567E-3,8.511009E-3,-2.2717481E-3,7.119075E-3,1.8770912E-3,-2.8212247E-3,-8.139636E-3,1.1509573E-3,-5.42212E-3,3.5408554E-3,-6.1269915E-3,3.0620587E-3,5.2316575E-3,-2.6561564E-3],"split_indices":[34,46,29,49,49,42,49,22,39,3,37,42,27,2,42,0,0,0,0,0,0,0,0,0,0,0,0,0,0,0,0],"split_type":[0,0,0,0,0,0,0,0,0,0,0,0,0,0,0,0,0,0,0,0,0,0,0,0,0,0,0,0,0,0,0],"sum_hessian":[7.71E2,6.46E2,1.25E2,4.2E2,2.26E2,1.03E2,2.2E1,3.82E2,3.8E1,1.13E2,1.13E2,4.4E1,5.9E1,6E0,1.6E1,3.21E2,6.1E1,3.4E1,4E0,1.07E2,6E0,8.7E1,2.6E1,6E0,3.8E1,5.3E1,6E0,4E0,2E0,1.4E1,2E0],"tree_param":{"num_deleted":"0","num_feature":"58","num_nodes":"31","size_leaf_vector":"1"}},{"base_weights":[-2.1417346E-3,3.650531E-3,-3.002256E-2,-7.5520235E-5,4.0601797E-2,-2.5967237E-2,-1.2069167E-2,-3.0351378E-2,6.68707E-3,8.847117E-2,-3.488856E-2,-4.455558E-2,1.3066994E-2,5.042118E-6,-5.524198E-3,1.4793765E-3,-8.24631E-4,1.0164227E-2,3.6182052E-3,-7.405623E-3,2.230166E-3,5.3859847E-3,-3.305592E-3,-1.3325029E-3,6.5391217E-3],"categories":[],"categories_nodes":[],"categories_segments":[],"categories_sizes":[],"default_left":[0,0,0,0,0,0,0,0,0,0,0,0,0,0,0,0,0,0,0,0,0,0,0,0,0],"id":20,"left_children":[1,3,5,7,9,11,-1,13,15,17,19,21,23,-1,-1,-1,-1,-1,-1,-1,-1,-1,-1,-1,-1],"loss_changes":[1.2768918E-1,9.018497E-2,8.915901E-2,1.2222992E-1,2.199072E-1,9.781013E-2,0E0,2.047567E-1,1.7949706E-1,7.413286E-2,1.5770546E-1,1.337501E-1,1.5129688E-1,0E0,0E0,0E0,0E0,0E0,0E0,0E0,0E0,0E0,0E0,0E0,0E0],"parents":[2147483647,0,0,1,1,2,2,3,3,4,4,5,5,7,7,8,8,9,9,10,10,11,11,12,12],"right_children":[2,4,6,8,10,12,-1,14,16,18,20,22,24,-1,-1,-1,-1,-1,-1,-1,-1,-1,-1,-1,-1],"split_conditions":[2.236068E0,1.6096274E0,7.043054E-1,-8.172047E-1,1.3221542E0,1.4290744E0,-1.2069167E-2,-8.254246E-1,1.7114788E-1,-5.971769E-1,-1.02578424E-1,-1.1437223E0,-3.4011307E-1,5.042118E-6,-5.524198E-3,1.4793765E-3,-8.24631E-4,1.0164227E-2,3.6182052E-3,-7.405623E-3,2.230166E-3,5.3859847E-3,-3.305592E-3,-1.3325029E-3,6.5391217E-3],"split_indices":[34,39,55,44,50,25,0,55,43,45,48,43,55,0,0,0,0,0,0,0,0,0,0,0,0],"split_type":[0,0,0,0,0,0,0,0,0,0,0,0,0,0,0,0,0,0,0,0,0,0,0,0,0],"sum_hessian":[7.89E2,6.54E2,1.35E2,5.95E2,5.9E1,1.33E2,2E0,1.08E2,4.87E2,3.6E1,2.3E1,9E1,4.3E1,7.3E1,3.5E1,2.59E2,2.28E2,8E0,2.8E1,1E1,1.3E1,6E0,8.4E1,3.2E1,1.1E1],"tree_param":{"num_deleted":"0","num_feature":"58","num_nodes":"25","size_leaf_vector":"1"}},{"base_weights":[1.092972E-3,-4.228871E-3,2.9425222E-2,-1.4842405E-2,1.2396236E-2,1.6130049E-2,1.0344909E-1,-6.8291486E-3,-6.4348556E-2,-3.2347974E-3,4.1804384E-2,1.006586E-1,1.4140613E-3,1.3658153E-1,8.898581E-3,-1.01416195E-2,-2.6955147E-4,-6.2853675E-3,2.818721E-4,3.7882808E-3,-1.0965113E-3,5.3059324E-3,-8.820164E-4,-1.3950637E-3,8.633965E-3,1.8519196E-3,-1.3440415E-3,4.2550815E-3,1.273879E-2,-1.2210986E-3,4.654491E-3],"categories":[],"categories_nodes":[],"categories_segments":[],"categories_sizes":[],"default_left":[0,0,0,0,0,0,0,0,0,0,0,0,0,0,0,0,0,0,0,0,0,0,0,0,0,0,0,0,0,0,0],"id":21,"left_children":[1,3,5,7,9,11,13,15,17,19,21,23,25,27,29,-1,-1,-1,-1,-1,-1,-1,-1,-1,-1,-1,-1,-1,-1,-1,-1],"loss_changes":[1.2014514E-1,1.1858271E-1,1.2233553E-1,1.6220981E-1,1.2057133E-1,1.3420117E-1,5.830568E-2,1.3340503E-1,1.5952204E-1,1.7285684E-1,2.410567E-1,8.907309E-2,6.591925E-2,5.456245E-2,1.3631552E-2,0E0,0E0,0E0,0E0,0E0,0E0,0E0,0E0,0E0,0E0,0E0,0E0,0E0,0E0,0E0,0E0],"parents":[2147483647,0,0,1,1,2,2,3,3,4,4,5,5,6,6,7,7,8,8,9,9,10,10,11,11,12,12,13,13,14,14],"right_children":[2,4,6,8,10,12,14,16,18,20,22,24,26,28,30,-1,-1,-1,-1,-1,-1,-1,-1,-1,-1,-1,-1,-1,-1,-1,-1],"split_conditions":[1.1297319E0,4.3825287E-1,4.7772402E-1,2.4246612E0,1.6543955E0,-1.3208889E0,7.171915E-1,-2.1534145E0,2.0230168E-2,5.8702004E-1,1.3600016E0,-8.783675E-1,-2.5949737E-1,1.2541995E0,2.5597749E0,-1.01416195E-2,-2.6955147E-4,-6.2853675E-3,2.818721E-4,3.7882808E-3,-1.0965113E-3,5.3059324E-3,-8.820164E-4,-1.3950637E-3,8.633965E-3,1.8519196E-3,-1.3440415E-3,4.2550815E-3,1.273879E-2,-1.2210986E-3,4.654491E-3],"split_indices":[48,41,56,22,2,56,41,44,56,41,51,39,49,39,9,0,0,0,0,0,0,0,0,0,0,0,0,0,0,0,0],"split_type":[0,0,0,0,0,0,0,0,0,0,0,0,0,0,0,0,0,0,0,0,0,0,0,0,0,0,0,0,0,0,0],"sum_hessian":[7.95E2,6.7E2,1.25E2,4.09E2,2.61E2,1.07E2,1.8E1,3.53E2,5.6E1,1.71E2,9E1,1.5E1,9.2E1,1.3E1,5E0,4E0,3.49E2,3.5E1,2.1E1,3.1E1,1.4E2,4.9E1,4.1E1,4E0,1.1E1,4.1E1,5.1E1,8E0,5E0,4E0,1E0],"tree_param":{"num_deleted":"0","num_feature":"58","num_nodes":"31","size_leaf_vector":"1"}},{"base_weights":[3.1080385E-4,4.979257E-2,-3.0385295E-3,-7.3730774E-2,6.550501E-2,4.887729E-2,-5.9855827E-3,-9.247964E-3,5.0033927E-3,-5.6525716E-4,1.0327964E-1,8.329348E-2,-3.5500262E-2,4.070809E-2,-9.405297E-3,-1.2489783E-3,2.4738747E-3,-6.5769874E-3,1.8379561E-3,-4.7983737E-3,6.7817234E-3,1.935191E-3,8.382307E-3,6.28254E-3,-5.632261E-3,-3.6006651E-3,4.1730846E-3,-2.1035249E-4,-2.2311334E-3],"categories":[],"categories_nodes":[],"categories_segments":[],"categories_sizes":[],"default_left":[0,0,0,0,0,0,0,0,0,0,0,0,0,0,0,0,0,0,0,0,0,0,0,0,0,0,0,0,0],"id":22,"left_children":[1,3,5,7,9,11,13,-1,15,17,19,21,23,25,27,-1,-1,-1,-1,-1,-1,-1,-1,-1,-1,-1,-1,-1,-1],"loss_changes":[1.2809557E-1,9.993156E-2,1.1106361E-1,3.8753472E-2,1.09872684E-1,1.1621115E-1,1.0992269E-1,0E0,4.599851E-3,6.1194632E-2,5.906248E-2,7.611354E-2,1.0803859E-1,1.4071241E-1,1.0475762E-1,0E0,0E0,0E0,0E0,0E0,0E0,0E0,0E0,0E0,0E0,0E0,0E0,0E0,0E0],"parents":[2147483647,0,0,1,1,2,2,3,3,4,4,5,5,6,6,8,8,9,9,10,10,11,11,12,12,13,13,14,14],"right_children":[2,4,6,8,10,12,14,-1,16,18,20,22,24,26,28,-1,-1,-1,-1,-1,-1,-1,-1,-1,-1,-1,-1,-1,-1],"split_conditions":[-1.4545052E0,-1.1824793E0,-1.7002791E0,1.5702234E-1,-6.1052483E-1,1.4627149E0,-1.445651E0,-9.247964E-3,2.236068E0,-1.8689429E0,-1.9959433E0,-5.274296E-1,-8.7769455E-1,-1.4805032E0,2.104076E0,-1.2489783E-3,2.4738747E-3,-6.5769874E-3,1.8379561E-3,-4.7983737E-3,6.7817234E-3,1.935191E-3,8.382307E-3,6.28254E-3,-5.632261E-3,-3.6006651E-3,4.1730846E-3,-2.1035249E-4,-2.2311334E-3],"split_indices":[54,40,41,45,44,1,45,0,36,54,42,49,42,44,0,0,0,0,0,0,0,0,0,0,0,0,0,0,0],"split_type":[0,0,0,0,0,0,0,0,0,0,0,0,0,0,0,0,0,0,0,0,0,0,0,0,0,0,0,0,0],"sum_hessian":[7.71E2,4.8E1,7.23E2,5E0,4.3E1,3.8E1,6.85E2,2E0,3E0,1.6E1,2.7E1,2.7E1,1.1E1,4.6E1,6.39E2,2E0,1E0,3E0,1.3E1,1E0,2.6E1,1.5E1,1.2E1,3E0,8E0,1E1,3.6E1,5.28E2,1.11E2],"tree_param":{"num_deleted":"0","num_feature":"58","num_nodes":"29","size_leaf_vector":"1"}},{"base_weights":[1.4228706E-4,5.0556857E-2,-2.8314171E-3,8.0086246E-2,-1.8440856E-2,2.6616359E-3,-2.8880512E-2,-2.5994712E-2,9.676471E-2,-6.358086E-2,1.1030437E-1,1.3894912E-2,-1.3663922E-2,-5.689543E-3,-8.0917954E-2,-5.2326424E-3,2.633171E-3,8.387207E-3,2.380824E-3,-6.4314646E-3,6.11377E-4,8.103619E-3,1.0810947E-3,1.2139025E-3,-2.9146257E-3,-2.9032475E-3,4.6043697E-5,8.80144E-4,-3.6013823E-3,-7.980205E-3,-1.64757E-3],"categories":[],"categories_nodes":[],"categories_segments":[],"categories_sizes":[],"default_left":[0,0,0,0,0,0,0,0,0,0,0,0,0,0,0,0,0,0,0,0,0,0,0,0,0,0,0,0,0,0,0],"id":23,"left_children":[1,3,5,7,9,11,13,15,17,19,21,23,25,27,29,-1,-1,-1,-1,-1,-1,-1,-1,-1,-1,-1,-1,-1,-1,-1,-1],"loss_changes":[1.1842846E-1,9.112512E-2,1.06821306E-1,5.736266E-2,8.8375084E-2,1.1334118E-1,1.5642342E-1,2.5216486E-2,6.0762137E-2,3.6480848E-2,6.704975E-3,1.4587212E-1,1.2631595E-1,1.0154054E-1,1.0772416E-1,0E0,0E0,0E0,0E0,0E0,0E0,0E0,0E0,0E0,0E0,0E0,0E0,0E0,0E0,0E0,0E0],"parents":[2147483647,0,0,1,1,2,2,3,3,4,4,5,5,6,6,7,7,8,8,9,9,10,10,11,11,12,12,13,13,14,14],"right_children":[2,4,6,8,10,12,14,16,18,20,22,24,26,28,30,-1,-1,-1,-1,-1,-1,-1,-1,-1,-1,-1,-1,-1,-1,-1,-1],"split_conditions":[-1.7002791E0,1.4627149E0,2.104076E0,-9.882696E-1,1.3198807E0,1.4627149E0,2.2100152E-1,-2.5370963E0,2.5597749E0,1.4891678E0,2.2139647E0,3.3997262E0,-4.1826445E-1,3.006918E-1,7.064591E-1,-5.2326424E-3,2.633171E-3,8.387207E-3,2.380824E-3,-6.4314646E-3,6.11377E-4,8.103619E-3,1.0810947E-3,1.2139025E-3,-2.9146257E-3,-2.9032475E-3,4.6043697E-5,8.80144E-4,-3.6013823E-3,-7.980205E-3,-1.64757E-3],"split_indices":[41,1,0,43,38,1,44,41,9,45,10,30,44,43,44,0,0,0,0,0,0,0,0,0,0,0,0,0,0,0,0],"split_type":[0,0,0,0,0,0,0,0,0,0,0,0,0,0,0,0,0,0,0,0,0,0,0,0,0,0,0,0,0,0,0],"sum_hessian":[7.88E2,4.3E1,7.45E2,3E1,1.3E1,6.16E2,1.29E2,4E0,2.6E1,1E1,3E0,3.65E2,2.51E2,9E1,3.9E1,2E0,2E0,1.4E1,1.2E1,6E0,4E0,2E0,1E0,3.32E2,3.3E1,7.3E1,1.78E2,6.6E1,2.4E1,1.9E1,2E1],"tree_param":{"num_deleted":"0","num_feature":"58","num_nodes":"31","size_leaf_vector":"1"}},{"base_weights":[-2.5837583E-4,3.6525305E-3,-3.6652435E-2,-8.8351704E-2,5.1182196E-3,-4.650686E-2,6.5720126E-2,-1.3558564E-1,2.8204083E-2,4.6645887E-2,9.3074155E-4,8.9274466E-2,-5.189249E-2,1.1374949E-1,-3.623553E-2,-9.37363E-3,2.6715337E-4,2.1838546E-3,1.0870814E-4,5.1391697E-3,-1.2185558E-3,-4.6916612E-4,1.1363256E-3,7.0416015E-3,9.931003E-4,-3.6210231E-3,2.6492726E-3,9.039395E-3,2.3355542E-3,-3.5826426E-3,3.2144485E-4],"categories":[],"categories_nodes":[],"categories_segments":[],"categories_sizes":[],"default_left":[0,0,0,0,0,0,0,0,0,0,0,0,0,0,0,0,0,0,0,0,0,0,0,0,0,0,0,0,0,0,0],"id":24,"left_children":[1,3,5,7,9,11,13,15,17,19,21,23,25,27,29,-1,-1,-1,-1,-1,-1,-1,-1,-1,-1,-1,-1,-1,-1,-1,-1],"loss_changes":[1.10015534E-1,9.457722E-2,7.8718156E-2,6.438333E-2,1.1959718E-1,5.509016E-2,3.839983E-2,2.382043E-2,7.990347E-4,1.6627763E-1,9.878901E-2,4.1848756E-3,5.7092592E-2,7.943168E-3,3.2491004E-3,0E0,0E0,0E0,0E0,0E0,0E0,0E0,0E0,0E0,0E0,0E0,0E0,0E0,0E0,0E0,0E0],"parents":[2147483647,0,0,1,1,2,2,3,3,4,4,5,5,6,6,7,7,8,8,9,9,10,10,11,11,12,12,13,13,14,14],"right_children":[2,4,6,8,10,12,14,16,18,20,22,24,26,28,30,-1,-1,-1,-1,-1,-1,-1,-1,-1,-1,-1,-1,-1,-1,-1,-1],"split_conditions":[1.3177541E0,-2.1534145E0,2.531409E0,3.9196477E0,-1.1782773E0,-1.4275342E0,1.8791601E-1,2.4996643E0,2.104076E0,1.4290744E0,1.4290744E0,3.535534E0,1.6097963E0,1.6543955E0,1.4627149E0,-9.37363E-3,2.6715337E-4,2.1838546E-3,1.0870814E-4,5.1391697E-3,-1.2185558E-3,-4.6916612E-4,1.1363256E-3,7.0416015E-3,9.931003E-4,-3.6210231E-3,2.6492726E-3,9.039395E-3,2.3355542E-3,-3.5826426E-3,3.2144485E-4],"split_indices":[40,44,40,15,55,37,39,20,0,25,25,6,41,2,1,0,0,0,0,0,0,0,0,0,0,0,0,0,0,0,0],"split_type":[0,0,0,0,0,0,0,0,0,0,0,0,0,0,0,0,0,0,0,0,0,0,0,0,0,0,0,0,0,0,0],"sum_hessian":[7.71E2,6.97E2,7.4E1,1E1,6.87E2,6.8E1,6E0,7E0,3E0,6.2E1,6.25E2,2E0,6.6E1,4E0,2E0,6E0,1E0,2E0,1E0,3.9E1,2.3E1,4.21E2,2.04E2,1E0,1E0,6.1E1,5E0,2E0,2E0,1E0,1E0],"tree_param":{"num_deleted":"0","num_feature":"58","num_nodes":"31","size_leaf_vector":"1"}},{"base_weights":[2.1820557E-3,4.562634E-3,-6.429044E-2,-5.0947987E-3,2.1561397E-2,-1.0204241E-1,1.222267E-1,-8.120006E-3,1.0443728E-1,2.950522E-2,-1.1201603E-2,-1.1923049E-1,9.408593E-3,1.6245464E-2,1.1247942E-2,1.0488314E-3,-1.3088408E-3,1.8463321E-3,1.2968818E-2,2.1572968E-3,-1.8105983E-3,6.1635086E-3,-2.3657223E-3,-8.919978E-3,-2.599557E-3,9.472251E-4,-2.9180644E-4,8.520662E-5,1.3768851E-3],"categories":[],"categories_nodes":[],"categories_segments":[],"categories_sizes":[],"default_left":[0,0,0,0,0,0,0,0,0,0,0,0,0,0,0,0,0,0,0,0,0,0,0,0,0,0,0,0,0],"id":25,"left_children":[1,3,5,7,9,11,13,15,17,19,21,23,25,27,-1,-1,-1,-1,-1,-1,-1,-1,-1,-1,-1,-1,-1,-1,-1],"loss_changes":[1.23564616E-1,1.2372565E-1,2.0258981E-1,1.6023085E-1,7.13824E-2,4.518123E-2,3.152509E-2,1.6480048E-1,1.0032703E-1,8.5769996E-2,1.7770474E-1,3.824514E-2,4.409158E-4,2.6551745E-4,0E0,0E0,0E0,0E0,0E0,0E0,0E0,0E0,0E0,0E0,0E0,0E0,0E0,0E0,0E0],"parents":[2147483647,0,0,1,1,2,2,3,3,4,4,5,5,6,6,7,7,8,8,9,9,10,10,11,11,12,12,13,13],"right_children":[2,4,6,8,10,12,14,16,18,20,22,24,26,28,-1,-1,-1,-1,-1,-1,-1,-1,-1,-1,-1,-1,-1,-1,-1],"split_conditions":[1.9414693E0,4.475507E-1,3.3997262E0,1.6001093E0,9.4271904E-1,2.0976176E0,2.104076E0,-1.287201E-1,2.8689315E0,1.529317E0,-1.137245E0,6.926958E-1,2.2139647E0,1.6543955E0,1.1247942E-2,1.0488314E-3,-1.3088408E-3,1.8463321E-3,1.2968818E-2,2.1572968E-3,-1.8105983E-3,6.1635086E-3,-2.3657223E-3,-8.919978E-3,-2.599557E-3,9.472251E-4,-2.9180644E-4,8.520662E-5,1.3768851E-3],"split_indices":[42,41,30,42,40,4,0,46,27,37,43,40,10,2,0,0,0,0,0,0,0,0,0,0,0,0,0,0,0],"split_type":[0,0,0,0,0,0,0,0,0,0,0,0,0,0,0,0,0,0,0,0,0,0,0,0,0,0,0,0,0],"sum_hessian":[7.78E2,7.52E2,2.6E1,4.8E2,2.72E2,2.2E1,4E0,4.68E2,1.2E1,2.19E2,5.3E1,1.9E1,3E0,2E0,2E0,1.63E2,3.05E2,8E0,4E0,1.98E2,2.1E1,1E1,4.3E1,1.3E1,6E0,2E0,1E0,1E0,1E0],"tree_param":{"num_deleted":"0","num_feature":"58","num_nodes":"29","size_leaf_vector":"1"}},{"base_weights":[-1.5452391E-3,3.033097E-3,-2.8272288E-2,-1.3663519E-2,1.3445646E-2,-4.174882E-2,1.1471088E-1,7.340534E-3,-2.6471933E-2,2.2996178E-2,-2.3004558E-2,8.73162E-2,-5.196296E-2,8.4450105E-3,4.046437E-2,-3.8363792E-3,1.5314037E-3,-1.0716518E-3,-5.547279E-3,3.2540972E-3,5.36858E-4,-3.485948E-3,3.0307763E-3,8.912353E-3,-3.854113E-3,-1.6657772E-3,-6.155398E-3,2.9632053E-3,4.109162E-4],"categories":[],"categories_nodes":[],"categories_segments":[],"categories_sizes":[],"default_left":[0,0,0,0,0,0,0,0,0,0,0,0,0,0,0,0,0,0,0,0,0,0,0,0,0,0,0,0,0],"id":26,"left_children":[1,3,5,7,9,11,13,15,17,19,21,23,25,-1,27,-1,-1,-1,-1,-1,-1,-1,-1,-1,-1,-1,-1,-1,-1],"loss_changes":[9.4551854E-2,1.1492756E-1,2.2253072E-1,6.8527594E-2,1.4221337E-1,1.4163914E-1,1.36379E-2,1.273515E-1,8.812142E-2,1.4126627E-1,2.222403E-1,8.376892E-2,1.1599368E-1,0E0,8.615013E-4,0E0,0E0,0E0,0E0,0E0,0E0,0E0,0E0,0E0,0E0,0E0,0E0,0E0,0E0],"parents":[2147483647,0,0,1,1,2,2,3,3,4,4,5,5,6,6,7,7,8,8,9,9,10,10,11,11,12,12,14,14],"right_children":[2,4,6,8,10,12,14,16,18,20,22,24,26,-1,28,-1,-1,-1,-1,-1,-1,-1,-1,-1,-1,-1,-1,-1,-1],"split_conditions":[2.4246612E0,-3.0290797E-1,2.8689315E0,-2.908211E-1,1.9771421E0,-1.3800687E0,-3.6074802E-2,-1.4622407E0,2.5597749E0,-1.287201E-1,2.76367E-1,3.3574882E0,1.3600016E0,8.4450105E-3,3.535534E0,-3.8363792E-3,1.5314037E-3,-1.0716518E-3,-5.547279E-3,3.2540972E-3,5.36858E-4,-3.485948E-3,3.0307763E-3,8.912353E-3,-3.854113E-3,-1.6657772E-3,-6.155398E-3,2.9632053E-3,4.109162E-4],"split_indices":[22,44,29,38,7,45,37,38,9,46,49,24,51,0,6,0,0,0,0,0,0,0,0,0,0,0,0,0,0],"split_type":[0,0,0,0,0,0,0,0,0,0,0,0,0,0,0,0,0,0,0,0,0,0,0,0,0,0,0,0,0],"sum_hessian":[7.71E2,6.59E2,1.12E2,2.53E2,4.06E2,1.03E2,9E0,9.6E1,1.57E2,3.22E2,8.4E1,7E0,9.6E1,6E0,3E0,1.9E1,7.7E1,1.4E2,1.7E1,9.9E1,2.23E2,5.7E1,2.7E1,5E0,2E0,6.6E1,3E1,2E0,1E0],"tree_param":{"num_deleted":"0","num_feature":"58","num_nodes":"29","size_leaf_vector":"1"}},{"base_weights":[2.27882E-3,1.1146817E-2,-1.1172595E-2,1.7055757E-2,-2.0437365E-2,-5.1429484E-2,-3.6583527E-3,1.4544599E-2,9.682856E-2,1.0231833E-1,-3.66219E-2,-1.2347892E-1,2.5176755E-3,4.4092834E-3,-4.3018833E-2,2.195738E-4,1.9074674E-3,7.045234E-3,-3.8905065E-3,8.1566125E-3,-6.1479624E-4,-3.2310814E-3,4.823752E-3,-9.054295E-3,1.8484684E-3,-1.3826236E-3,6.2606204E-3,1.2785821E-3,-1.8375863E-3,-4.522067E-3,1.2194482E-3],"categories":[],"categories_nodes":[],"categories_segments":[],"categories_sizes":[],"default_left":[0,0,0,0,0,0,0,0,0,0,0,0,0,0,0,0,0,0,0,0,0,0,0,0,0,0,0,0,0,0,0],"id":27,"left_children":[1,3,5,7,9,11,13,15,17,19,21,23,25,27,29,-1,-1,-1,-1,-1,-1,-1,-1,-1,-1,-1,-1,-1,-1,-1,-1],"loss_changes":[9.364565E-2,8.86241E-2,9.4191864E-2,7.85202E-2,1.5275289E-1,1.9076712E-1,8.402183E-2,7.272251E-2,4.7563173E-2,3.5458133E-2,1.3941166E-1,9.350985E-2,7.788611E-2,1.3091871E-1,9.3740344E-2,0E0,0E0,0E0,0E0,0E0,0E0,0E0,0E0,0E0,0E0,0E0,0E0,0E0,0E0,0E0,0E0],"parents":[2147483647,0,0,1,1,2,2,3,3,4,4,5,5,6,6,7,7,8,8,9,9,10,10,11,11,12,12,13,13,14,14],"right_children":[2,4,6,8,10,12,14,16,18,20,22,24,26,28,30,-1,-1,-1,-1,-1,-1,-1,-1,-1,-1,-1,-1,-1,-1,-1,-1],"split_conditions":[3.0716893E-1,2.236068E0,-1.0796694E0,4.4713098E-1,-1.2642101E0,9.0168154E-1,2.104076E0,1.6139619E-1,1.4562749E0,1.1406292E0,9.708172E-1,9.8079705E-1,1.4029018E0,8.3358735E-1,8.3358735E-1,2.195738E-4,1.9074674E-3,7.045234E-3,-3.8905065E-3,8.1566125E-3,-6.1479624E-4,-3.2310814E-3,4.823752E-3,-9.054295E-3,1.8484684E-3,-1.3826236E-3,6.2606204E-3,1.2785821E-3,-1.8375863E-3,-4.522067E-3,1.2194482E-3],"split_indices":[43,31,37,54,44,54,0,40,44,56,44,43,55,37,37,0,0,0,0,0,0,0,0,0,0,0,0,0,0,0,0],"split_type":[0,0,0,0,0,0,0,0,0,0,0,0,0,0,0,0,0,0,0,0,0,0,0,0,0,0,0,0,0,0,0],"sum_hessian":[7.83E2,4.72E2,3.11E2,3.98E2,7.4E1,4.8E1,2.63E2,3.87E2,1.1E1,8E0,6.6E1,2E1,2.8E1,2.19E2,4.4E1,2.38E2,1.49E2,1E1,1E0,6E0,2E0,5.8E1,8E0,1.7E1,3E0,2.3E1,5E0,1.48E2,7.1E1,2.9E1,1.5E1],"tree_param":{"num_deleted":"0","num_feature":"58","num_nodes":"31","size_leaf_vector":"1"}},{"base_weights":[1.8669612E-3,-2.2842217E-2,8.313294E-3,-2.2667735E-3,-7.226261E-2,1.9381158E-2,-6.006836E-3,-7.7304393E-3,1.214794E-2,-3.2493E-2,-1.4053291E-1,2.4335528E-2,-5.4689348E-2,1.0130838E-1,-9.273176E-3,1.3931047E-3,-2.6332296E-3,-4.5722066E-3,4.0151575E-3,-1.1135287E-2,-2.9793447E-3,1.6501133E-3,-4.6893028E-3,-5.251456E-3,6.896933E-3,1.6110947E-3,8.436729E-3,-1.0923995E-3,2.1864546E-3],"categories":[],"categories_nodes":[],"categories_segments":[],"categories_sizes":[],"default_left":[0,0,0,0,0,0,0,0,0,0,0,0,0,0,0,0,0,0,0,0,0,0,0,0,0,0,0,0,0],"id":28,"left_children":[1,3,5,7,9,11,13,15,-1,17,19,21,23,25,27,-1,-1,-1,-1,-1,-1,-1,-1,-1,-1,-1,-1,-1,-1],"loss_changes":[1.231568E-1,1.6253161E-1,9.727279E-2,1.2908436E-1,1.230426E-1,1.2830342E-1,9.488097E-2,1.26348E-1,0E0,1.3980551E-1,6.03908E-2,1.0761914E-1,1.3260213E-1,1.9635804E-2,1.0725221E-1,0E0,0E0,0E0,0E0,0E0,0E0,0E0,0E0,0E0,0E0,0E0,0E0,0E0,0E0],"parents":[2147483647,0,0,1,1,2,2,3,3,4,4,5,5,6,6,7,7,9,9,10,10,11,11,12,12,13,13,14,14],"right_children":[2,4,6,8,10,12,14,16,-1,18,20,22,24,26,28,-1,-1,-1,-1,-1,-1,-1,-1,-1,-1,-1,-1,-1,-1],"split_conditions":[-8.172047E-1,-8.399612E-1,3.0716893E-1,-8.474303E-1,-9.4217396E-1,1.5469424E0,-2.1195393E0,5.4334384E-1,1.214794E-2,2.6711464E-1,2.8102067E-1,6.366982E0,2.531409E0,2.236068E0,2.2976227E0,1.3931047E-3,-2.6332296E-3,-4.5722066E-3,4.0151575E-3,-1.1135287E-2,-2.9793447E-3,1.6501133E-3,-4.6893028E-3,-5.251456E-3,6.896933E-3,1.6110947E-3,8.436729E-3,-1.0923995E-3,2.1864546E-3],"split_indices":[44,55,43,55,44,40,42,39,0,48,54,16,40,35,18,0,0,0,0,0,0,0,0,0,0,0,0,0,0],"split_type":[0,0,0,0,0,0,0,0,0,0,0,0,0,0,0,0,0,0,0,0,0,0,0,0,0,0,0,0,0],"sum_hessian":[7.71E2,1.59E2,6.12E2,1.13E2,4.6E1,3.45E2,2.67E2,1.11E2,2E0,3E1,1.6E1,3.24E2,2.1E1,7E0,2.6E2,6E1,5.1E1,2.1E1,9E0,1E1,6E0,3.15E2,9E0,1.8E1,3E0,3E0,4E0,2.18E2,4.2E1],"tree_param":{"num_deleted":"0","num_feature":"58","num_nodes":"29","size_leaf_vector":"1"}},{"base_weights":[-2.0891945E-3,1.8279646E-3,-4.7840755E-2,-7.912269E-4,5.94757E-2,-2.8273229E-2,-1.7394146E-1,-6.797307E-3,2.6074294E-2,-4.6036102E-2,9.2168145E-2,-5.466331E-2,6.864734E-2,-2.4204913E-1,-4.53215E-2,-1.7383122E-3,2.6564786E-4,8.8471005E-4,6.890691E-3,-6.7683333E-3,2.9360845E-3,-2.0011256E-3,6.305705E-3,-1.7511788E-3,-7.567495E-3,8.058968E-3,1.1414055E-3,-3.931059E-3,-1.6188156E-2,-3.458578E-3,-2.5071323E-4],"categories":[],"categories_nodes":[],"categories_segments":[],"categories_sizes":[],"default_left":[0,0,0,0,0,0,0,0,0,0,0,0,0,0,0,0,0,0,0,0,0,0,0,0,0,0,0,0,0,0,0],"id":29,"left_children":[1,3,5,7,9,11,13,15,17,19,21,23,25,27,29,-1,-1,-1,-1,-1,-1,-1,-1,-1,-1,-1,-1,-1,-1,-1,-1],"loss_changes":[1.3862154E-1,1.0770326E-1,1.455983E-1,1.103837E-1,1.1117568E-1,1.4187056E-1,5.9110016E-2,1.3926584E-1,1.240182E-1,5.6249324E-2,4.2447343E-2,7.460585E-2,3.6549754E-2,6.8199635E-3,1.7869016E-3,0E0,0E0,0E0,0E0,0E0,0E0,0E0,0E0,0E0,0E0,0E0,0E0,0E0,0E0,0E0,0E0],"parents":[2147483647,0,0,1,1,2,2,3,3,4,4,5,5,6,6,7,7,8,8,9,9,10,10,11,11,12,12,13,13,14,14],"right_children":[2,4,6,8,10,12,14,16,18,20,22,24,26,28,30,-1,-1,-1,-1,-1,-1,-1,-1,-1,-1,-1,-1,-1,-1,-1,-1],"split_conditions":[3.3997262E0,4.6368093E0,1.4727721E0,2.236068E0,-1.0229583E0,9.0352607E-1,5.4334384E-1,-5.578721E-1,2.5597749E0,7.411409E-1,-1.0796694E0,1.6813001E-1,-1.0796694E0,2.5597749E0,2.2139647E0,-1.7383122E-3,2.6564786E-4,8.8471005E-4,6.890691E-3,-6.7683333E-3,2.9360845E-3,-2.0011256E-3,6.305705E-3,-1.7511788E-3,-7.567495E-3,8.058968E-3,1.1414055E-3,-3.931059E-3,-1.6188156E-2,-3.458578E-3,-2.5071323E-4],"split_indices":[30,3,45,36,38,44,39,37,9,43,37,44,37,9,10,0,0,0,0,0,0,0,0,0,0,0,0,0,0,0,0],"split_type":[0,0,0,0,0,0,0,0,0,0,0,0,0,0,0,0,0,0,0,0,0,0,0,0,0,0,0,0,0,0,0],"sum_hessian":[7.72E2,7.12E2,6E1,6.82E2,3E1,5.3E1,7E0,5.58E2,1.24E2,7E0,2.3E1,4.2E1,1.1E1,4E0,3E0,1.87E2,3.71E2,1.11E2,1.3E1,4E0,3E0,2E0,2.1E1,3.2E1,1E1,4E0,7E0,1E0,3E0,2E0,1E0],"tree_param":{"num_deleted":"0","num_feature":"58","num_nodes":"31","size_leaf_vector":"1"}},{"base_weights":[1.6152399E-3,-1.8638682E-3,3.034007E-2,2.9929797E-3,-2.8536417E-2,-1.2572345E-1,3.567971E-2,-1.5377038E-2,1.2573731E-2,-5.692642E-2,1.1843735E-2,-9.247986E-3,-2.0671247E-3,5.6491848E-2,3.064963E-3,-1.5247331E-3,1.896132E-3,1.2266363E-3,-9.635174E-4,-2.223254E-3,-6.7791054E-3,2.2425537E-3,-4.2282995E-3,-4.7157402E-4,5.220362E-3,-5.0050886E-3,1.5223795E-3],"categories":[],"categories_nodes":[],"categories_segments":[],"categories_sizes":[],"default_left":[0,0,0,0,0,0,0,0,0,0,0,0,0,0,0,0,0,0,0,0,0,0,0,0,0,0,0],"id":30,"left_children":[1,3,5,7,9,11,13,15,17,19,21,-1,-1,23,25,-1,-1,-1,-1,-1,-1,-1,-1,-1,-1,-1,-1],"loss_changes":[7.770743E-2,8.9989305E-2,7.448492E-2,1.0368051E-1,1.23338245E-1,2.4687536E-3,5.548703E-2,9.603502E-2,8.75359E-2,6.599595E-2,9.720998E-2,0E0,0E0,9.8865375E-2,6.57824E-2,0E0,0E0,0E0,0E0,0E0,0E0,0E0,0E0,0E0,0E0,0E0,0E0],"parents":[2147483647,0,0,1,1,2,2,3,3,4,4,5,5,6,6,7,7,8,8,9,9,10,10,13,13,14,14],"right_children":[2,4,6,8,10,12,14,16,18,20,22,-1,-1,24,26,-1,-1,-1,-1,-1,-1,-1,-1,-1,-1,-1,-1],"split_conditions":[2.8689315E0,2.4246612E0,-1.4275342E0,-4.0865126E-1,5.110985E-1,1.6543955E0,1.4627149E0,2.4996643E0,2.2976227E0,1.3600016E0,2.236068E0,-9.247986E-3,-2.0671247E-3,-7.318045E-1,-6.786359E-1,-1.5247331E-3,1.896132E-3,1.2266363E-3,-9.635174E-4,-2.223254E-3,-6.7791054E-3,2.2425537E-3,-4.2282995E-3,-4.7157402E-4,5.220362E-3,-5.0050886E-3,1.5223795E-3],"split_indices":[29,22,37,44,47,2,1,20,18,51,31,0,0,37,54,0,0,0,0,0,0,0,0,0,0,0,0],"split_type":[0,0,0,0,0,0,0,0,0,0,0,0,0,0,0,0,0,0,0,0,0,0,0,0,0,0,0],"sum_hessian":[7.76E2,6.93E2,8.3E1,5.87E2,1.06E2,2E0,8.1E1,2.01E2,3.86E2,6.2E1,4.4E1,1E0,1E0,4.9E1,3.2E1,1.66E2,3.5E1,3.03E2,8.3E1,4.7E1,1.5E1,3.4E1,1E1,1.6E1,3.3E1,6E0,2.6E1],"tree_param":{"num_deleted":"0","num_feature":"58","num_nodes":"27","size_leaf_vector":"1"}},{"base_weights":[-1.403456E-3,-9.200041E-3,1.5047948E-2,-6.791727E-3,-1.24400616E-1,5.5589937E-2,-1.587814E-2,4.684347E-3,-2.8397195E-2,-1.4058554E-1,1.123462E-3,7.57159E-2,-1.6672017E-2,-1.0047927E-1,-2.4301037E-3,7.648345E-4,-3.348197E-3,-2.3275209E-3,2.7631887E-3,-1.2945605E-3,-1.0058456E-2,2.2768786E-3,6.2538516E-3,1.4884359E-3,-3.0620897E-3,-7.1606836E-3,2.772398E-3,1.5381924E-3,-1.6295431E-3],"categories":[],"categories_nodes":[],"categories_segments":[],"categories_sizes":[],"default_left":[0,0,0,0,0,0,0,0,0,0,0,0,0,0,0,0,0,0,0,0,0,0,0,0,0,0,0,0,0],"id":31,"left_children":[1,3,5,7,9,11,13,15,17,19,-1,21,23,25,27,-1,-1,-1,-1,-1,-1,-1,-1,-1,-1,-1,-1,-1,-1],"loss_changes":[1.02108926E-1,1.4897224E-1,3.218568E-1,1.3154438E-1,2.811353E-2,1.6269425E-1,1.658628E-1,1.6994512E-1,1.4418368E-1,2.8581455E-2,0E0,8.973941E-2,3.6899656E-2,6.086047E-2,8.8841714E-2,0E0,0E0,0E0,0E0,0E0,0E0,0E0,0E0,0E0,0E0,0E0,0E0,0E0,0E0],"parents":[2147483647,0,0,1,1,2,2,3,3,4,4,5,5,6,6,7,7,8,8,9,9,11,11,12,12,13,13,14,14],"right_children":[2,4,6,8,10,12,14,16,18,20,-1,22,24,26,28,-1,-1,-1,-1,-1,-1,-1,-1,-1,-1,-1,-1,-1,-1],"split_conditions":[4.843429E-1,6.366982E0,9.4271904E-1,1.4627149E0,1.4627149E0,1.3553846E0,-1.4622407E0,1.8020815E0,1.1873364E0,-3.5207447E-1,1.123462E-3,-3.8461873E-1,8.366807E-1,2.0626154E0,-9.4920285E-2,7.648345E-4,-3.348197E-3,-2.3275209E-3,2.7631887E-3,-1.2945605E-3,-1.0058456E-2,2.2768786E-3,6.2538516E-3,1.4884359E-3,-3.0620897E-3,-7.1606836E-3,2.772398E-3,1.5381924E-3,-1.6295431E-3],"split_indices":[40,16,40,1,1,37,38,46,49,41,0,44,46,40,42,0,0,0,0,0,0,0,0,0,0,0,0,0,0],"split_type":[0,0,0,0,0,0,0,0,0,0,0,0,0,0,0,0,0,0,0,0,0,0,0,0,0,0,0,0,0],"sum_hessian":[7.94E2,5.39E2,2.55E2,5.29E2,1E1,1.1E2,1.45E2,3.46E2,1.83E2,9E0,1E0,8.6E1,2.4E1,1.9E1,1.26E2,3.06E2,4E1,1.61E2,2.2E1,2E0,7E0,3.8E1,4.8E1,1.1E1,1.3E1,1.7E1,2E0,5.9E1,6.7E1],"tree_param":{"num_deleted":"0","num_feature":"58","num_nodes":"29","size_leaf_vector":"1"}},{"base_weights":[1.9090726E-3,-4.260809E-3,2.763832E-2,2.6085903E-3,-3.2597348E-2,4.1132808E-2,-6.280721E-2,-3.615849E-3,5.0963994E-2,-1.0330266E-1,-1.8686736E-2,3.5991427E-2,1.4310324E-1,1.4298359E-3,-1.4147803E-1,-6.512076E-4,1.7747302E-3,4.7580805E-3,-1.6439795E-4,-7.330427E-3,2.6615022E-3,1.0025499E-2,-1.5515568E-3,5.71878E-3,1.5574238E-3,9.905932E-3,9.937548E-4,-1.0782271E-3,2.6833816E-3,-9.91365E-3,1.4555329E-3],"categories":[],"categories_nodes":[],"categories_segments":[],"categories_sizes":[],"default_left":[0,0,0,0,0,0,0,0,0,0,0,0,0,0,0,0,0,0,0,0,0,0,0,0,0,0,0,0,0,0,0],"id":32,"left_children":[1,3,5,7,9,11,13,15,17,19,21,23,25,27,29,-1,-1,-1,-1,-1,-1,-1,-1,-1,-1,-1,-1,-1,-1,-1,-1],"loss_changes":[1.23939976E-1,1.2271768E-1,1.8688136E-1,1.530848E-1,1.1904676E-1,6.4053E-2,1.012739E-1,1.08673885E-1,8.848329E-2,6.1150074E-2,1.4290124E-1,7.312322E-2,1.3965569E-2,1.0882498E-2,3.9433718E-2,0E0,0E0,0E0,0E0,0E0,0E0,0E0,0E0,0E0,0E0,0E0,0E0,0E0,0E0,0E0,0E0],"parents":[2147483647,0,0,1,1,2,2,3,3,4,4,5,5,6,6,7,7,8,8,9,9,10,10,11,11,12,12,13,13,14,14],"right_children":[2,4,6,8,10,12,14,16,18,20,22,24,26,28,30,-1,-1,-1,-1,-1,-1,-1,-1,-1,-1,-1,-1,-1,-1,-1,-1],"split_conditions":[2.0976176E0,9.4271904E-1,1.1873364E0,1.2409229E0,-1.3158132E0,1.8783145E0,-4.9751815E-1,4.9996945E-1,4.2375845E-1,2.0626154E0,-1.1693858E0,-1.3056521E0,-8.862719E-2,-6.894251E-1,4.852366E0,-6.512076E-4,1.7747302E-3,4.7580805E-3,-1.6439795E-4,-7.330427E-3,2.6615022E-3,1.0025499E-2,-1.5515568E-3,5.71878E-3,1.5574238E-3,9.905932E-3,9.937548E-4,-1.0782271E-3,2.6833816E-3,-9.91365E-3,1.4555329E-3],"split_indices":[4,40,49,49,38,54,55,40,43,40,38,43,40,55,14,0,0,0,0,0,0,0,0,0,0,0,0,0,0,0,0],"split_type":[0,0,0,0,0,0,0,0,0,0,0,0,0,0,0,0,0,0,0,0,0,0,0,0,0,0,0,0,0,0,0],"sum_hessian":[7.79E2,6.29E2,1.5E2,5.07E2,1.22E2,1.31E2,1.9E1,4.5E2,5.7E1,1.9E1,1.03E2,1.26E2,5E0,1.1E1,8E0,3.7E2,8E1,3.7E1,2E1,1.7E1,2E0,3E0,1E2,1.7E1,1.09E2,4E0,1E0,8E0,3E0,7E0,1E0],"tree_param":{"num_deleted":"0","num_feature":"58","num_nodes":"31","size_leaf_vector":"1"}},{"base_weights":[1.2875573E-3,-4.0819175E-3,2.5819259E-2,-1.3269108E-2,1.1022582E-2,3.5618372E-2,-6.631679E-2,-6.461979E-2,-7.76106E-3,-1.5030821E-3,5.1648926E-2,-4.3034993E-2,4.4053204E-2,6.822869E-4,-1.3341333E-1,-4.855984E-3,5.901277E-3,-8.9742726E-4,2.9787417E-3,4.174946E-3,-7.658143E-4,4.0284283E-3,4.0723933E-4,1.6591923E-3,-9.700005E-3,3.8669473E-3,7.383022E-4,3.5638355E-3,-1.7273348E-3,-9.8095555E-3,1.4118665E-3],"categories":[],"categories_nodes":[],"categories_segments":[],"categories_sizes":[],"default_left":[0,0,0,0,0,0,0,0,0,0,0,0,0,0,0,0,0,0,0,0,0,0,0,0,0,0,0,0,0,0,0],"id":33,"left_children":[1,3,5,7,9,11,13,15,17,19,21,23,25,27,29,-1,-1,-1,-1,-1,-1,-1,-1,-1,-1,-1,-1,-1,-1,-1,-1],"loss_changes":[1.0416605E-1,9.020664E-2,1.3056698E-1,1.1376666E-1,1.2526011E-1,8.747803E-2,6.302671E-2,1.1164734E-1,1.519381E-1,1.5217464E-1,3.9852887E-2,1.13486856E-1,7.496834E-2,1.55531885E-2,3.689257E-2,0E0,0E0,0E0,0E0,0E0,0E0,0E0,0E0,0E0,0E0,0E0,0E0,0E0,0E0,0E0,0E0],"parents":[2147483647,0,0,1,1,2,2,3,3,4,4,5,5,6,6,7,7,8,8,9,9,10,10,11,11,12,12,13,13,14,14],"right_children":[2,4,6,8,10,12,14,16,18,20,22,24,26,28,30,-1,-1,-1,-1,-1,-1,-1,-1,-1,-1,-1,-1,-1,-1,-1,-1],"split_conditions":[2.0976176E0,4.3825287E-1,1.2945093E0,-1.1696311E0,1.6522029E-1,-1.3934464E0,-3.0580515E-1,2.5597749E0,2.236068E0,-1.445651E0,1.0031803E0,1.2663068E0,4.413161E-1,-7.3010343E-1,4.852366E0,-4.855984E-3,5.901277E-3,-8.9742726E-4,2.9787417E-3,4.174946E-3,-7.658143E-4,4.0284283E-3,4.0723933E-4,1.6591923E-3,-9.700005E-3,3.8669473E-3,7.383022E-4,3.5638355E-3,-1.7273348E-3,-9.8095555E-3,1.4118665E-3],"split_indices":[4,41,49,43,45,41,55,9,36,45,55,55,38,38,14,0,0,0,0,0,0,0,0,0,0,0,0,0,0,0,0],"split_type":[0,0,0,0,0,0,0,0,0,0,0,0,0,0,0,0,0,0,0,0,0,0,0,0,0,0,0,0,0,0,0],"sum_hessian":[7.89E2,6.48E2,1.41E2,4.03E2,2.45E2,1.28E2,1.3E1,3.8E1,3.65E2,1.88E2,5.7E1,1.2E1,1.16E2,7E0,6E0,3.5E1,3E0,3.25E2,4E1,2.5E1,1.63E2,4.2E1,1.5E1,8E0,4E0,7E1,4.6E1,2E0,5E0,5E0,1E0],"tree_param":{"num_deleted":"0","num_feature":"58","num_nodes":"31","size_leaf_vector":"1"}},{"base_weights":[-1.1490164E-3,1.3474428E-2,-9.760906E-3,3.0824702E-2,-5.4592597E-3,2.7733164E-2,-1.6119799E-2,3.8251467E-2,-7.846049E-2,1.3284557E-2,-5.4341566E-2,4.0110596E-2,-1.1510368E-1,-6.413664E-2,-1.1213886E-2,1.2858465E-3,5.8999006E-3,-8.387746E-3,6.5003656E-4,1.2284552E-3,-4.425221E-3,-5.5635064E-3,2.3849097E-3,7.826127E-3,1.2023405E-3,-9.473495E-3,-1.1811138E-3,-6.8255533E-3,2.6315532E-3,-1.2172045E-3,1.4853622E-3],"categories":[],"categories_nodes":[],"categories_segments":[],"categories_sizes":[],"default_left":[0,0,0,0,0,0,0,0,0,0,0,0,0,0,0,0,0,0,0,0,0,0,0,0,0,0,0,0,0,0,0],"id":34,"left_children":[1,3,5,7,9,11,13,15,17,19,21,23,25,27,29,-1,-1,-1,-1,-1,-1,-1,-1,-1,-1,-1,-1,-1,-1,-1,-1],"loss_changes":[9.886494E-2,9.576313E-2,1.1822693E-1,1.2636982E-1,1.2899564E-1,1.3190949E-1,9.892541E-2,1.4240713E-1,5.6283534E-2,6.533948E-2,1.4453453E-1,1.1885473E-1,2.1388404E-2,2.139917E-1,1.2614697E-1,0E0,0E0,0E0,0E0,0E0,0E0,0E0,0E0,0E0,0E0,0E0,0E0,0E0,0E0,0E0,0E0],"parents":[2147483647,0,0,1,1,2,2,3,3,4,4,5,5,6,6,7,7,8,8,9,9,10,10,11,11,12,12,13,13,14,14],"right_children":[2,4,6,8,10,12,14,16,18,20,22,24,26,28,30,-1,-1,-1,-1,-1,-1,-1,-1,-1,-1,-1,-1,-1,-1,-1,-1],"split_conditions":[-3.421121E-1,1.4926837E-1,-1.1628264E0,3.9196477E0,-8.911161E-1,6.3741624E-1,-2.538294E-1,8.122314E-1,5.135767E-1,3.535534E0,-6.7398834E-1,-7.4177533E-1,2.9488868E-1,5.2010994E-2,2.236068E0,1.2858465E-3,5.8999006E-3,-8.387746E-3,6.5003656E-4,1.2284552E-3,-4.425221E-3,-5.5635064E-3,2.3849097E-3,7.826127E-3,1.2023405E-3,-9.473495E-3,-1.1811138E-3,-6.8255533E-3,2.6315532E-3,-1.2172045E-3,1.4853622E-3],"split_indices":[42,54,45,15,56,54,42,49,48,6,56,49,38,40,36,0,0,0,0,0,0,0,0,0,0,0,0,0,0,0,0],"split_type":[0,0,0,0,0,0,0,0,0,0,0,0,0,0,0,0,0,0,0,0,0,0,0,0,0,0,0,0,0,0,0],"sum_hessian":[7.83E2,2.9E2,4.93E2,1.51E2,1.39E2,7.1E1,4.22E2,1.42E2,9E0,1.01E2,3.8E1,6.6E1,5E0,3.8E1,3.84E2,1.12E2,3E1,5E0,4E0,9.4E1,7E0,2.7E1,1.1E1,1.1E1,5.5E1,3E0,2E0,2.6E1,1.2E1,3.07E2,7.7E1],"tree_param":{"num_deleted":"0","num_feature":"58","num_nodes":"31","size_leaf_vector":"1"}},{"base_weights":[2.3686674E-3,3.8817037E-2,2.9092247E-4,-1.3976345E-2,6.1407045E-2,-1.5226144E-2,7.519914E-3,7.888623E-2,-7.4331805E-2,-8.555261E-4,1.007758E-1,-2.7160598E-2,2.8745748E-2,8.5405916E-2,3.8035102E-3,-2.0697438E-3,8.652069E-3,-7.2448715E-3,8.3251385E-4,-3.0044792E-3,1.5950096E-3,5.9569144E-4,7.460397E-3,-2.127417E-3,1.3974727E-3,1.0344081E-2,8.100219E-4,6.8386984E-3,-2.7578927E-3,1.2498221E-3,-4.6832947E-4],"categories":[],"categories_nodes":[],"categories_segments":[],"categories_sizes":[],"default_left":[0,0,0,0,0,0,0,0,0,0,0,0,0,0,0,0,0,0,0,0,0,0,0,0,0,0,0,0,0,0,0],"id":35,"left_children":[1,3,5,7,9,11,13,15,17,19,21,23,25,27,29,-1,-1,-1,-1,-1,-1,-1,-1,-1,-1,-1,-1,-1,-1,-1,-1],"loss_changes":[6.1784726E-2,5.3332783E-2,8.682402E-2,8.433044E-2,7.607342E-2,1.2987676E-1,1.5250784E-1,4.9407523E-2,3.8523406E-2,1.888798E-2,3.9439723E-2,8.2027584E-2,1.13747016E-1,9.532489E-2,9.998332E-2,0E0,0E0,0E0,0E0,0E0,0E0,0E0,0E0,0E0,0E0,0E0,0E0,0E0,0E0,0E0,0E0],"parents":[2147483647,0,0,1,1,2,2,3,3,4,4,5,5,6,6,7,7,8,8,9,9,10,10,11,11,12,12,13,13,14,14],"right_children":[2,4,6,8,10,12,14,16,18,20,22,24,26,28,30,-1,-1,-1,-1,-1,-1,-1,-1,-1,-1,-1,-1,-1,-1,-1,-1],"split_conditions":[-1.6537894E0,-2.2116673E0,-5.420796E-1,-8.765309E-1,-1.4439367E-1,2.1643038E0,-4.538537E-1,-7.4177533E-1,-5.229397E-1,-1.6751182E-1,-1.3603071E0,1.3409183E0,-1.1516991E0,9.4271904E-1,-2.908211E-1,-2.0697438E-3,8.652069E-3,-7.2448715E-3,8.3251385E-4,-3.0044792E-3,1.5950096E-3,5.9569144E-4,7.460397E-3,-2.127417E-3,1.3974727E-3,1.0344081E-2,8.100219E-4,6.8386984E-3,-2.7578927E-3,1.2498221E-3,-4.6832947E-4],"split_indices":[41,41,56,38,38,12,56,49,39,39,42,44,41,40,38,0,0,0,0,0,0,0,0,0,0,0,0,0,0,0,0],"split_type":[0,0,0,0,0,0,0,0,0,0,0,0,0,0,0,0,0,0,0,0,0,0,0,0,0,0,0,0,0,0,0],"sum_hessian":[8.15E2,4.3E1,7.72E2,1.3E1,3E1,2.45E2,5.27E2,5E0,8E0,1.2E1,1.8E1,1.93E2,5.2E1,2.3E1,5.04E2,2E0,3E0,5E0,3E0,4E0,8E0,4E0,1.4E1,1.66E2,2.7E1,4E0,4.8E1,1.9E1,4E0,2.04E2,3E2],"tree_param":{"num_deleted":"0","num_feature":"58","num_nodes":"31","size_leaf_vector":"1"}},{"base_weights":[-8.222488E-4,-5.410996E-3,2.5600124E-2,-2.0415657E-3,-4.8469093E-2,1.0777273E-2,9.9927306E-2,8.281832E-4,-6.708427E-2,-6.8800315E-2,1.05316184E-1,-1.2550469E-1,1.7988376E-2,-5.899895E-3,1.16404556E-1,-1.16258794E-4,4.145769E-3,-2.294356E-3,-7.6323366E-3,-5.8441157E-3,-5.3502986E-4,-2.0106793E-3,1.0986466E-2,-3.48866E-4,-1.2201603E-2,4.3196778E-4,5.865619E-3,7.4446583E-3,-4.21139E-4],"categories":[],"categories_nodes":[],"categories_segments":[],"categories_sizes":[],"default_left":[0,0,0,0,0,0,0,0,0,0,0,0,0,0,0,0,0,0,0,0,0,0,0,0,0,0,0,0,0],"id":36,"left_children":[1,3,5,7,9,11,13,15,17,19,21,23,25,-1,27,-1,-1,-1,-1,-1,-1,-1,-1,-1,-1,-1,-1,-1,-1],"loss_changes":[9.42251E-2,9.5944844E-2,1.2562323E-1,1.1484913E-1,1.5732464E-1,9.758371E-2,7.35147E-2,1.1153626E-1,4.0224962E-2,7.277992E-2,7.093386E-2,4.5410223E-2,7.933686E-2,0E0,1.7917633E-2,0E0,0E0,0E0,0E0,0E0,0E0,0E0,0E0,0E0,0E0,0E0,0E0,0E0,0E0],"parents":[2147483647,0,0,1,1,2,2,3,3,4,4,5,5,6,6,7,7,8,8,9,9,10,10,11,11,12,12,14,14],"right_children":[2,4,6,8,10,12,14,16,18,20,22,24,26,-1,28,-1,-1,-1,-1,-1,-1,-1,-1,-1,-1,-1,-1,-1,-1],"split_conditions":[1.1582711E0,3.3997262E0,1.1814522E0,1.9002709E0,1.6096274E0,-1.8841184E0,-1.6086681E0,1.5000554E0,2.104076E0,5.312324E-1,1.7114788E-1,9.218019E-3,2.5292807E0,-5.899895E-3,1.0885663E0,-1.16258794E-4,4.145769E-3,-2.294356E-3,-7.6323366E-3,-5.8441157E-3,-5.3502986E-4,-2.0106793E-3,1.0986466E-2,-3.48866E-4,-1.2201603E-2,4.3196778E-4,5.865619E-3,7.4446583E-3,-4.21139E-4],"split_indices":[44,30,37,42,39,42,38,42,0,41,43,43,23,0,40,0,0,0,0,0,0,0,0,0,0,0,0,0,0],"split_type":[0,0,0,0,0,0,0,0,0,0,0,0,0,0,0,0,0,0,0,0,0,0,0,0,0,0,0,0,0],"sum_hessian":[7.75E2,6.61E2,1.14E2,6.14E2,4.7E1,9.6E1,1.8E1,5.89E2,2.5E1,4.2E1,5E0,4E0,9.2E1,1E0,1.7E1,5.67E2,2.2E1,1.8E1,7E0,2.8E1,1.4E1,2E0,3E0,2E0,2E0,8.2E1,1E1,1.6E1,1E0],"tree_param":{"num_deleted":"0","num_feature":"58","num_nodes":"29","size_leaf_vector":"1"}},{"base_weights":[2.7011868E-3,6.0837776E-3,-2.6063003E-2,-6.951395E-2,7.827951E-3,-3.1836532E-2,1.3420991E-2,-9.476686E-2,4.290259E-3,3.9204257E-3,4.2938862E-2,-5.630403E-2,4.3618213E-3,-6.184004E-3,3.9394587E-4,5.171884E-4,-1.4591946E-3,4.10227E-4,6.8907053E-3,2.0536352E-3,-4.488209E-3,1.2504077E-3,-7.4661314E-3],"categories":[],"categories_nodes":[],"categories_segments":[],"categories_sizes":[],"default_left":[0,0,0,0,0,0,0,0,0,0,0,0,0,0,0,0,0,0,0,0,0,0,0],"id":37,"left_children":[1,3,5,7,9,11,-1,13,-1,15,17,19,21,-1,-1,-1,-1,-1,-1,-1,-1,-1,-1],"loss_changes":[7.6731674E-2,9.350231E-2,1.2680039E-1,6.37542E-2,9.449744E-2,7.287159E-2,0E0,1.24513805E-2,0E0,8.2756564E-2,1.7833467E-1,8.4624484E-2,7.475357E-2,0E0,0E0,0E0,0E0,0E0,0E0,0E0,0E0,0E0,0E0],"parents":[2147483647,0,0,1,1,2,2,3,3,4,4,5,5,7,7,9,9,10,10,11,11,12,12],"right_children":[2,4,6,8,10,12,-1,14,-1,16,18,20,22,-1,-1,-1,-1,-1,-1,-1,-1,-1,-1],"split_conditions":[1.8020815E0,-2.1534145E0,2.496661E0,3.535534E0,2.8689315E0,9.889039E-2,1.3420991E-2,2.0976176E0,4.290259E-3,1.0586416E0,5.7014334E-1,-8.1215286E-1,2.2139647E0,-6.184004E-3,3.9394587E-4,5.171884E-4,-1.4591946E-3,4.10227E-4,6.8907053E-3,2.0536352E-3,-4.488209E-3,1.2504077E-3,-7.4661314E-3],"split_indices":[46,44,47,6,27,40,0,4,0,42,42,55,10,0,0,0,0,0,0,0,0,0,0],"split_type":[0,0,0,0,0,0,0,0,0,0,0,0,0,0,0,0,0,0,0,0,0,0,0],"sum_hessian":[7.86E2,7.04E2,8.2E1,1.5E1,6.89E2,8.1E1,1E0,1.3E1,2E0,6.21E2,6.8E1,4.8E1,3.3E1,1.2E1,1E0,5.33E2,8.8E1,4.6E1,2.2E1,8E0,4E1,3E1,3E0],"tree_param":{"num_deleted":"0","num_feature":"58","num_nodes":"23","size_leaf_vector":"1"}},{"base_weights":[1.5526741E-3,5.4731704E-3,-2.4445444E-2,8.8533135E-3,-2.2144388E-2,-1.1760512E-2,-1.2831528E-1,5.4816804E-3,4.3030065E-2,-9.329703E-2,2.3921228E-3,-2.2747891E-2,7.121455E-2,2.3809932E-3,-1.9627514E-1,4.4522083E-5,2.6947556E-3,-3.581888E-5,7.0335534E-3,-8.482426E-3,-2.7287975E-3,-2.0999867E-3,2.6310047E-3,1.3441751E-3,-2.8725448E-3,7.4217822E-3,-9.90175E-4,-1.5228199E-2,-4.517768E-3],"categories":[],"categories_nodes":[],"categories_segments":[],"categories_sizes":[],"default_left":[0,0,0,0,0,0,0,0,0,0,0,0,0,0,0,0,0,0,0,0,0,0,0,0,0,0,0,0,0],"id":38,"left_children":[1,3,5,7,9,11,13,15,17,19,21,23,25,-1,27,-1,-1,-1,-1,-1,-1,-1,-1,-1,-1,-1,-1,-1,-1],"loss_changes":[7.932993E-2,6.330153E-2,1.328843E-1,6.9248684E-2,1.2941517E-1,8.54944E-2,1.3337752E-1,1.0275538E-1,1.7486504E-1,3.7249207E-2,8.834548E-2,9.4105095E-2,5.268065E-2,0E0,3.656718E-2,0E0,0E0,0E0,0E0,0E0,0E0,0E0,0E0,0E0,0E0,0E0,0E0,0E0,0E0],"parents":[2147483647,0,0,1,1,2,2,3,3,4,4,5,5,6,6,7,7,8,8,9,9,10,10,11,11,12,12,14,14],"right_children":[2,4,6,8,10,12,14,16,18,20,22,24,26,-1,28,-1,-1,-1,-1,-1,-1,-1,-1,-1,-1,-1,-1,-1,-1],"split_conditions":[1.2473323E0,1.8020815E0,8.122314E-1,2.8689315E0,-4.1715994E-1,2.8689315E0,-8.8205826E-1,8.8252926E-1,5.7014334E-1,2.06526E-2,1.2935482E0,-9.561211E-1,2.4708831E0,2.3809932E-3,-6.841376E-1,4.4522083E-5,2.6947556E-3,-3.581888E-5,7.0335534E-3,-8.482426E-3,-2.7287975E-3,-2.0999867E-3,2.6310047E-3,1.3441751E-3,-2.8725448E-3,7.4217822E-3,-9.90175E-4,-1.5228199E-2,-4.517768E-3],"split_indices":[45,46,49,27,41,29,41,45,42,48,53,49,17,0,56,0,0,0,0,0,0,0,0,0,0,0,0,0,0],"split_type":[0,0,0,0,0,0,0,0,0,0,0,0,0,0,0,0,0,0,0,0,0,0,0,0,0,0,0,0,0],"sum_hessian":[7.76E2,6.75E2,1.01E2,6.02E2,7.3E1,9.1E1,1E1,5.49E2,5.3E1,1.8E1,5.5E1,8.1E1,1E1,3E0,7E0,4.91E2,5.8E1,3.4E1,1.9E1,8E0,1E1,2.9E1,2.6E1,2.9E1,5.2E1,6E0,4E0,4E0,3E0],"tree_param":{"num_deleted":"0","num_feature":"58","num_nodes":"29","size_leaf_vector":"1"}},{"base_weights":[3.0372732E-6,4.6094555E-2,-3.171132E-3,2.233082E-2,1.2399704E-1,-5.951769E-2,-6.358506E-4,5.3554982E-2,-2.3949588E-2,1.0665485E-2,4.9569827E-2,-2.5257627E-2,-1.01086935E-2,1.5889159E-3,-6.309513E-2,4.5849676E-3,-2.6417016E-3,1.7141944E-3,-4.8024193E-3,5.276422E-3,5.039674E-4,-7.54919E-3,6.8748326E-5,-8.790764E-5,5.296757E-3,-5.693419E-3,-1.8555422E-4],"categories":[],"categories_nodes":[],"categories_segments":[],"categories_sizes":[],"default_left":[0,0,0,0,0,0,0,0,0,0,0,0,0,0,0,0,0,0,0,0,0,0,0,0,0,0,0],"id":39,"left_children":[1,3,5,7,9,11,13,15,17,-1,19,21,-1,23,25,-1,-1,-1,-1,-1,-1,-1,-1,-1,-1,-1,-1],"loss_changes":[1.0899506E-1,8.609123E-2,9.953165E-2,5.619517E-2,3.5202682E-2,1.0773448E-1,9.292374E-2,5.467441E-2,4.9420457E-2,0E0,8.739728E-3,6.386866E-2,0E0,1.7116182E-1,4.3585785E-2,0E0,0E0,0E0,0E0,0E0,0E0,0E0,0E0,0E0,0E0,0E0,0E0],"parents":[2147483647,0,0,1,1,2,2,3,3,4,4,5,5,6,6,7,7,8,8,10,10,11,11,13,13,14,14],"right_children":[2,4,6,8,10,12,14,16,18,-1,20,22,-1,24,26,-1,-1,-1,-1,-1,-1,-1,-1,-1,-1,-1,-1],"split_conditions":[-1.4545052E0,6.9684595E-1,-1.3639469E0,1.4290744E0,4.6351746E-2,2.104076E0,1.9002709E0,2.4803867E0,1.3221542E0,1.0665485E-2,-5.229397E-1,-1.3854778E0,-1.01086935E-2,1.6001093E0,4.7913414E-1,4.5849676E-3,-2.6417016E-3,1.7141944E-3,-4.8024193E-3,5.276422E-3,5.039674E-4,-7.54919E-3,6.8748326E-5,-8.790764E-5,5.296757E-3,-5.693419E-3,-1.8555422E-4],"split_indices":[54,44,43,25,45,0,42,19,50,0,39,54,0,42,40,0,0,0,0,0,0,0,0,0,0,0,0],"split_type":[0,0,0,0,0,0,0,0,0,0,0,0,0,0,0,0,0,0,0,0,0,0,0,0,0,0,0],"sum_hessian":[7.43E2,4.7E1,6.96E2,3.7E1,1E1,2.9E1,6.67E2,2.2E1,1.5E1,5E0,5E0,2.3E1,6E0,6.45E2,2.2E1,1.8E1,4E0,8E0,7E0,2E0,3E0,4E0,1.9E1,6.24E2,2.1E1,1.4E1,8E0],"tree_param":{"num_deleted":"0","num_feature":"58","num_nodes":"27","size_leaf_vector":"1"}},{"base_weights":[1.4438338E-3,5.031104E-2,-1.0014777E-3,2.7772188E-2,1.2854286E-1,-4.5672E-3,4.023283E-2,-2.5900684E-2,6.499303E-2,-8.907169E-3,1.0550643E-2,-1.3589248E-2,9.769184E-3,6.0811978E-2,-2.4186805E-2,-2.8950623E-3,3.881051E-3,1.3524274E-3,5.8020623E-3,-8.2932826E-4,2.7683078E-5,-3.8099883E-4,-2.4685182E-3,9.3066524E-4,-4.8119863E-3,5.183783E-3,-1.2062226E-4,-5.1117563E-3,2.3907404E-3],"categories":[],"categories_nodes":[],"categories_segments":[],"categories_sizes":[],"default_left":[0,0,0,0,0,0,0,0,0,0,0,0,0,0,0,0,0,0,0,0,0,0,0,0,0,0,0,0,0],"id":40,"left_children":[1,3,5,7,9,11,13,15,17,19,-1,21,23,25,27,-1,-1,-1,-1,-1,-1,-1,-1,-1,-1,-1,-1,-1,-1],"loss_changes":[9.277893E-2,6.1670534E-2,1.0898602E-1,6.1615843E-2,5.357869E-2,8.834505E-2,7.968722E-2,2.9440932E-2,2.2049882E-2,1.445158E-4,0E0,8.331312E-2,1.3762458E-1,7.2500944E-2,6.1993178E-2,0E0,0E0,0E0,0E0,0E0,0E0,0E0,0E0,0E0,0E0,0E0,0E0,0E0,0E0],"parents":[2147483647,0,0,1,1,2,2,3,3,4,4,5,5,6,6,7,7,8,8,9,9,11,11,12,12,13,13,14,14],"right_children":[2,4,6,8,10,12,14,16,18,20,-1,22,24,26,28,-1,-1,-1,-1,-1,-1,-1,-1,-1,-1,-1,-1,-1,-1],"split_conditions":[-1.7002791E0,2.2976227E0,1.6096274E0,5.110985E-1,-5.578721E-1,4.8572248E-1,2.2139647E0,2.4715955E0,-1.9048345E0,2.104076E0,1.0550643E-2,1.9603698E0,1.7413617E0,1.3221542E0,3.027123E-1,-2.8950623E-3,3.881051E-3,1.3524274E-3,5.8020623E-3,-8.2932826E-4,2.7683078E-5,-3.8099883E-4,-2.4685182E-3,9.3066524E-4,-4.8119863E-3,5.183783E-3,-1.2062226E-4,-5.1117563E-3,2.3907404E-3],"split_indices":[41,18,39,47,37,37,10,54,41,0,0,26,42,50,44,0,0,0,0,0,0,0,0,0,0,0,0,0,0],"split_type":[0,0,0,0,0,0,0,0,0,0,0,0,0,0,0,0,0,0,0,0,0,0,0,0,0,0,0,0,0],"sum_hessian":[7.75E2,3.6E1,7.39E2,2.9E1,7E0,6.81E2,5.8E1,1.2E1,1.7E1,2E0,5E0,4.18E2,2.63E2,4.4E1,1.4E1,1E1,2E0,8E0,9E0,1E0,1E0,3.32E2,8.6E1,2.48E2,1.5E1,3.1E1,1.3E1,7E0,7E0],"tree_param":{"num_deleted":"0","num_feature":"58","num_nodes":"29","size_leaf_vector":"1"}},{"base_weights":[1.4144385E-3,-3.6533903E-3,2.5252644E-2,-6.42589E-3,5.717503E-2,3.6424506E-2,-5.509301E-2,-2.9164986E-3,-4.6760183E-2,1.05957305E-2,1.1839778E-1,2.3699969E-2,7.380812E-2,1.0092718E-2,-1.2968853E-1,6.657157E-4,-5.926557E-4,-5.360672E-3,1.5108362E-3,4.1459445E-3,-3.831475E-3,8.970918E-3,3.7416627E-3,-5.647219E-3,1.8119302E-3,-1.7037874E-3,5.437444E-3,2.4448235E-3,-1.7226619E-3,-9.22281E-3,1.154589E-3],"categories":[],"categories_nodes":[],"categories_segments":[],"categories_sizes":[],"default_left":[0,0,0,0,0,0,0,0,0,0,0,0,0,0,0,0,0,0,0,0,0,0,0,0,0,0,0,0,0,0,0],"id":41,"left_children":[1,3,5,7,9,11,13,15,17,19,21,23,25,27,29,-1,-1,-1,-1,-1,-1,-1,-1,-1,-1,-1,-1,-1,-1,-1,-1],"loss_changes":[9.371841E-2,1.08301334E-1,1.2408177E-1,8.663306E-2,7.859344E-2,5.533345E-2,8.39725E-2,5.5218123E-2,1.5236376E-1,7.8460924E-2,1.1600763E-2,7.252088E-2,5.41334E-2,1.3064924E-2,3.158258E-2,0E0,0E0,0E0,0E0,0E0,0E0,0E0,0E0,0E0,0E0,0E0,0E0,0E0,0E0,0E0,0E0],"parents":[2147483647,0,0,1,1,2,2,3,3,4,4,5,5,6,6,7,7,8,8,9,9,10,10,11,11,12,12,13,13,14,14],"right_children":[2,4,6,8,10,12,14,16,18,20,22,24,26,28,30,-1,-1,-1,-1,-1,-1,-1,-1,-1,-1,-1,-1,-1,-1,-1,-1],"split_conditions":[2.0976176E0,1.745887E0,1.2409229E0,1.3948929E0,-6.506953E-1,3.2995346E-1,-3.0580515E-1,-4.4805148E-1,1.2382693E0,-9.6604574E-1,2.8152478E0,-1.9169228E0,-8.783675E-1,1.2541995E0,4.852366E0,6.657157E-4,-5.926557E-4,-5.360672E-3,1.5108362E-3,4.1459445E-3,-3.831475E-3,8.970918E-3,3.7416627E-3,-5.647219E-3,1.8119302E-3,-1.7037874E-3,5.437444E-3,2.4448235E-3,-1.7226619E-3,-9.22281E-3,1.154589E-3],"split_indices":[4,48,49,45,56,49,55,42,54,56,52,40,39,39,14,0,0,0,0,0,0,0,0,0,0,0,0,0,0,0,0],"split_type":[0,0,0,0,0,0,0,0,0,0,0,0,0,0,0,0,0,0,0,0,0,0,0,0,0,0,0,0,0,0,0],"sum_hessian":[7.74E2,6.39E2,1.35E2,6.12E2,2.7E1,1.19E2,1.6E1,5.64E2,4.8E1,1.6E1,1.1E1,9E1,2.9E1,9E0,7E0,1.87E2,3.77E2,3E1,1.8E1,9E0,7E0,6E0,5E0,4E0,8.6E1,4E0,2.5E1,5E0,4E0,6E0,1E0],"tree_param":{"num_deleted":"0","num_feature":"58","num_nodes":"31","size_leaf_vector":"1"}},{"base_weights":[-1.2229156E-3,1.1495025E-2,-8.929826E-3,-4.4066884E-2,1.8211702E-2,-1.582699E-1,-6.411729E-3,-1.1012091E-1,1.0715738E-3,2.8309587E-2,-2.0491388E-2,-1.1471926E-2,-4.65248E-3,-1.4482993E-2,1.5771281E-2,-7.6224776E-3,2.7877127E-3,-2.976708E-3,6.137115E-3,1.9788034E-3,-4.7485842E-3,4.3897072E-4,-5.7079582E-3,-1.8977135E-3,1.7647697E-4,1.5796195E-3,-4.3237717E-3],"categories":[],"categories_nodes":[],"categories_segments":[],"categories_sizes":[],"default_left":[0,0,0,0,0,0,0,0,0,0,0,0,0,0,0,0,0,0,0,0,0,0,0,0,0,0,0],"id":42,"left_children":[1,3,5,7,9,11,13,15,17,19,21,-1,-1,23,25,-1,-1,-1,-1,-1,-1,-1,-1,-1,-1,-1,-1],"loss_changes":[7.6359116E-2,1.1052081E-1,1.8137084E-1,9.552844E-2,1.033656E-1,6.440595E-3,8.581188E-2,4.034534E-2,1.0767158E-1,1.0749769E-1,1.1485355E-1,0E0,0E0,1.04953945E-1,1.2057264E-1,0E0,0E0,0E0,0E0,0E0,0E0,0E0,0E0,0E0,0E0,0E0,0E0],"parents":[2147483647,0,0,1,1,2,2,3,3,4,4,5,5,6,6,7,7,8,8,9,9,10,10,13,13,14,14],"right_children":[2,4,6,8,10,12,14,16,18,20,22,-1,-1,24,26,-1,-1,-1,-1,-1,-1,-1,-1,-1,-1,-1,-1],"split_conditions":[-3.3034122E-1,-8.604633E-1,-2.9502818E-1,-4.3123105E-1,1.9603698E0,1.9603698E0,1.6543955E0,3.9196477E0,-6.7398834E-1,3.9196477E0,1.3198807E0,-1.1471926E-2,-4.65248E-3,2.06526E-2,1.2865013E0,-7.6224776E-3,2.7877127E-3,-2.976708E-3,6.137115E-3,1.9788034E-3,-4.7485842E-3,4.3897072E-4,-5.7079582E-3,-1.8977135E-3,1.7647697E-4,1.5796195E-3,-4.3237717E-3],"split_indices":[42,44,42,43,26,26,2,15,56,15,38,0,0,48,40,0,0,0,0,0,0,0,0,0,0,0,0],"split_type":[0,0,0,0,0,0,0,0,0,0,0,0,0,0,0,0,0,0,0,0,0,0,0,0,0,0,0],"sum_hessian":[7.77E2,2.93E2,4.84E2,3.1E1,2.62E2,7E0,4.77E2,1.2E1,1.9E1,2.08E2,5.4E1,4E0,3E0,3.5E2,1.27E2,1.1E1,1E0,1.3E1,6E0,2E2,8E0,4E1,1.4E1,1.76E2,1.74E2,1.14E2,1.3E1],"tree_param":{"num_deleted":"0","num_feature":"58","num_nodes":"27","size_leaf_vector":"1"}},{"base_weights":[-1.8292619E-3,-6.0510593E-3,2.4215482E-2,-4.0884404E-3,-1.0522624E-1,1.1813161E-2,9.556565E-2,-6.108134E-3,7.758598E-2,-4.8730027E-2,-1.8587418E-1,-1.4017655E-1,1.8364213E-2,1.1630311E-1,-3.3064425E-2,-3.1197665E-4,-1.1927935E-2,3.8730903E-4,1.00870645E-2,-5.762226E-3,4.9938366E-4,-1.3141856E-2,-1.5974154E-3,-1.1166052E-2,-7.210672E-5,3.2399694E-4,4.727802E-3,7.3210574E-3,1.2604308E-3,1.0760736E-3,-4.0518716E-3],"categories":[],"categories_nodes":[],"categories_segments":[],"categories_sizes":[],"default_left":[0,0,0,0,0,0,0,0,0,0,0,0,0,0,0,0,0,0,0,0,0,0,0,0,0,0,0,0,0,0,0],"id":43,"left_children":[1,3,5,7,9,11,13,15,17,19,21,23,25,27,29,-1,-1,-1,-1,-1,-1,-1,-1,-1,-1,-1,-1,-1,-1,-1,-1],"loss_changes":[8.5911915E-2,1.3036993E-1,9.532599E-2,1.0934573E-1,5.017431E-2,9.6169315E-2,4.6524897E-2,1.1188266E-1,1.01948366E-1,2.5090458E-2,2.0569772E-2,2.5305644E-2,7.086961E-2,5.0607324E-3,6.4844536E-3,0E0,0E0,0E0,0E0,0E0,0E0,0E0,0E0,0E0,0E0,0E0,0E0,0E0,0E0,0E0,0E0],"parents":[2147483647,0,0,1,1,2,2,3,3,4,4,5,5,6,6,7,7,8,8,9,9,10,10,11,11,12,12,13,13,14,14],"right_children":[2,4,6,8,10,12,14,16,18,20,22,24,26,28,30,-1,-1,-1,-1,-1,-1,-1,-1,-1,-1,-1,-1,-1,-1,-1,-1],"split_conditions":[1.1582711E0,1.8265355E0,1.1814522E0,1.5141811E0,-3.130838E-1,-1.8841184E0,2.4246612E0,1.4879378E0,-9.873806E-2,7.641374E-1,2.2139647E0,2.2139647E0,5.569658E-1,9.433981E0,2.5597749E0,-3.1197665E-4,-1.1927935E-2,3.8730903E-4,1.00870645E-2,-5.762226E-3,4.9938366E-4,-1.3141856E-2,-1.5974154E-3,-1.1166052E-2,-7.210672E-5,3.2399694E-4,4.727802E-3,7.3210574E-3,1.2604308E-3,1.0760736E-3,-4.0518716E-3],"split_indices":[44,55,37,55,49,42,22,55,49,44,10,10,56,5,9,0,0,0,0,0,0,0,0,0,0,0,0,0,0,0,0],"split_type":[0,0,0,0,0,0,0,0,0,0,0,0,0,0,0,0,0,0,0,0,0,0,0,0,0,0,0,0,0,0,0],"sum_hessian":[7.79E2,6.71E2,1.08E2,6.59E2,1.2E1,9.3E1,1.5E1,6.44E2,1.5E1,8E0,4E0,3E0,9E1,1.3E1,2E0,6.42E2,2E0,9E0,6E0,4E0,4E0,3E0,1E0,2E0,1E0,7.5E1,1.5E1,1.2E1,1E0,1E0,1E0],"tree_param":{"num_deleted":"0","num_feature":"58","num_nodes":"31","size_leaf_vector":"1"}},{"base_weights":[-1.1091344E-3,2.9725553E-3,-2.5853558E-2,3.093939E-2,-3.2304726E-3,-3.507173E-2,7.944321E-2,5.034888E-2,-1.3437015E-2,-2.5298906E-2,4.6911133E-3,3.859668E-2,-4.9563292E-2,3.125293E-2,6.70469E-3,3.6747935E-3,-1.5929538E-3,1.4687199E-3,-3.8838757E-3,-3.9723995E-3,-2.223309E-4,-3.2887524E-3,5.4123555E-4,-2.358823E-3,9.330809E-3,6.1036274E-4,-3.7618089E-3,-4.1723247E-6,3.1294655E-3],"categories":[],"categories_nodes":[],"categories_segments":[],"categories_sizes":[],"default_left":[0,0,0,0,0,0,0,0,0,0,0,0,0,0,0,0,0,0,0,0,0,0,0,0,0,0,0,0,0],"id":44,"left_children":[1,3,5,7,9,11,13,15,17,19,21,23,25,27,-1,-1,-1,-1,-1,-1,-1,-1,-1,-1,-1,-1,-1,-1,-1],"loss_changes":[7.703813E-2,1.1372874E-1,1.0761575E-1,1.03174016E-1,9.399541E-2,1.0867E-1,1.0517269E-2,7.1180955E-2,7.354423E-2,1.2518853E-1,1.0251192E-1,1.6096742E-1,6.6539496E-2,3.2775821E-3,0E0,0E0,0E0,0E0,0E0,0E0,0E0,0E0,0E0,0E0,0E0,0E0,0E0,0E0,0E0],"parents":[2147483647,0,0,1,1,2,2,3,3,4,4,5,5,6,6,7,7,8,8,9,9,10,10,11,11,12,12,13,13],"right_children":[2,4,6,8,10,12,14,16,18,20,22,24,26,28,-1,-1,-1,-1,-1,-1,-1,-1,-1,-1,-1,-1,-1,-1,-1],"split_conditions":[2.4246612E0,-8.5432357E-1,2.8689315E0,1.4290744E0,-6.393638E-1,-9.376596E-1,1.3600016E0,1.6127356E0,9.194194E-1,-5.927142E-1,-7.0326793E-1,1.9603698E0,-1.0494217E0,2.236068E0,6.70469E-3,3.6747935E-3,-1.5929538E-3,1.4687199E-3,-3.8838757E-3,-3.9723995E-3,-2.223309E-4,-3.2887524E-3,5.4123555E-4,-2.358823E-3,9.330809E-3,6.1036274E-4,-3.7618089E-3,-4.1723247E-6,3.1294655E-3],"split_indices":[22,40,29,25,44,55,51,38,45,54,40,26,41,36,0,0,0,0,0,0,0,0,0,0,0,0,0,0,0],"split_type":[0,0,0,0,0,0,0,0,0,0,0,0,0,0,0,0,0,0,0,0,0,0,0,0,0,0,0,0,0],"sum_hessian":[7.61E2,6.54E2,1.07E2,1.18E2,5.36E2,9.9E1,8E0,8.2E1,3.6E1,1.41E2,3.95E2,1.6E1,8.3E1,4E0,4E0,7.2E1,1E1,2.1E1,1.5E1,4.8E1,9.3E1,2.6E1,3.69E2,1E1,6E0,1.5E1,6.8E1,2E0,2E0],"tree_param":{"num_deleted":"0","num_feature":"58","num_nodes":"29","size_leaf_vector":"1"}},{"base_weights":[1.6657074E-3,3.8751669E-3,-5.560911E-2,4.6123166E-2,1.0531369E-3,-3.2048192E-2,-1.134505E-1,8.265285E-2,-3.7317026E-2,-9.982358E-4,5.930243E-2,-8.506476E-3,-1.39868185E-2,-8.990166E-3,-2.8624733E-3,7.1434863E-3,1.0491873E-3,-4.111663E-3,6.6221E-3,-5.115187E-4,7.957671E-4,1.1081466E-3,8.319626E-3,-4.7116256E-3,7.657047E-4,-2.7445436E-4,1.6831755E-5],"categories":[],"categories_nodes":[],"categories_segments":[],"categories_sizes":[],"default_left":[0,0,0,0,0,0,0,0,0,0,0,0,0,0,0,0,0,0,0,0,0,0,0,0,0,0,0],"id":45,"left_children":[1,3,5,7,9,11,13,15,17,19,21,-1,23,-1,25,-1,-1,-1,-1,-1,-1,-1,-1,-1,-1,-1,-1],"loss_changes":[9.879513E-2,8.948948E-2,3.58852E-2,1.4634244E-1,8.430036E-2,4.1616835E-2,3.17616E-2,7.620725E-2,7.6703735E-2,7.3321536E-2,7.520987E-2,0E0,3.552934E-2,0E0,1.7423461E-5,0E0,0E0,0E0,0E0,0E0,0E0,0E0,0E0,0E0,0E0,0E0,0E0],"parents":[2147483647,0,0,1,1,2,2,3,3,4,4,5,5,6,6,7,7,8,8,9,9,10,10,12,12,14,14],"right_children":[2,4,6,8,10,12,14,16,18,20,22,-1,24,-1,26,-1,-1,-1,-1,-1,-1,-1,-1,-1,-1,-1,-1],"split_conditions":[1.9414693E0,-1.363673E0,2.104076E0,4.9996945E-1,1.6001093E0,-1.0001705E0,2.9488868E-1,-1.02578424E-1,1.2352073E0,1.4290744E0,2.8689315E0,-8.506476E-3,-6.346024E-1,-8.990166E-3,2.4708831E0,7.1434863E-3,1.0491873E-3,-4.111663E-3,6.6221E-3,-5.115187E-4,7.957671E-4,1.1081466E-3,8.319626E-3,-4.7116256E-3,7.657047E-4,-2.7445436E-4,1.6831755E-5],"split_indices":[42,45,0,40,42,40,38,48,42,25,27,0,49,0,17,0,0,0,0,0,0,0,0,0,0,0,0],"split_type":[0,0,0,0,0,0,0,0,0,0,0,0,0,0,0,0,0,0,0,0,0,0,0,0,0,0,0],"sum_hessian":[7.78E2,7.5E2,2.8E1,4.6E1,7.04E2,2.1E1,7E0,3.2E1,1.4E1,6.81E2,2.3E1,2E0,1.9E1,5E0,2E0,2E1,1.2E1,1.2E1,2E0,4.46E2,2.35E2,1.6E1,7E0,5E0,1.4E1,1E0,1E0],"tree_param":{"num_deleted":"0","num_feature":"58","num_nodes":"27","size_leaf_vector":"1"}},{"base_weights":[-9.3001334E-5,6.7666303E-3,-1.3055346E-2,3.0254511E-2,-2.456368E-3,-5.799295E-3,-6.72945E-2,4.9978096E-2,-1.7693944E-2,-9.861104E-3,3.1799704E-2,-4.29359E-2,7.3035294E-3,1.7504746E-2,-1.0663529E-1,-2.0209805E-3,3.500792E-3,-1.0226723E-2,-1.1858712E-4,1.3980344E-3,-1.115423E-3,-6.2035862E-3,2.8225323E-3,-7.4554915E-3,-2.9972455E-4,5.521414E-3,-3.0925233E-4,-8.431698E-3,5.6599905E-3,-7.637775E-3,1.0897864E-3],"categories":[],"categories_nodes":[],"categories_segments":[],"categories_sizes":[],"default_left":[0,0,0,0,0,0,0,0,0,0,0,0,0,0,0,0,0,0,0,0,0,0,0,0,0,0,0,0,0,0,0],"id":46,"left_children":[1,3,5,7,9,11,13,15,17,19,21,23,25,27,29,-1,-1,-1,-1,-1,-1,-1,-1,-1,-1,-1,-1,-1,-1,-1,-1],"loss_changes":[6.9888115E-2,1.1142147E-1,1.0665862E-1,1.3801302E-1,9.416674E-2,1.17582835E-1,1.0862084E-1,7.407689E-2,1.0290053E-1,8.8723846E-2,1.4086848E-1,1.9375995E-1,1.8939444E-1,1.4681223E-1,5.9038103E-2,0E0,0E0,0E0,0E0,0E0,0E0,0E0,0E0,0E0,0E0,0E0,0E0,0E0,0E0,0E0,0E0],"parents":[2147483647,0,0,1,1,2,2,3,3,4,4,5,5,6,6,7,7,8,8,9,9,10,10,11,11,12,12,13,13,14,14],"right_children":[2,4,6,8,10,12,14,16,18,20,22,24,26,28,30,-1,-1,-1,-1,-1,-1,-1,-1,-1,-1,-1,-1,-1,-1,-1,-1],"split_conditions":[1.3600016E0,-6.408861E-1,1.1448979E0,1.0115572E0,1.3120794E0,-6.3611805E-1,-2.8906363E-1,-1.3158132E0,-5.938212E-1,-1.015797E0,-1.5523055E0,-2.908211E-1,-4.1691646E-1,-1.0193646E0,2.4803867E0,-2.0209805E-3,3.500792E-3,-1.0226723E-2,-1.1858712E-4,1.3980344E-3,-1.115423E-3,-6.2035862E-3,2.8225323E-3,-7.4554915E-3,-2.9972455E-4,5.521414E-3,-3.0925233E-4,-8.431698E-3,5.6599905E-3,-7.637775E-3,1.0897864E-3],"split_indices":[51,54,41,42,44,56,56,38,41,40,40,38,56,45,19,0,0,0,0,0,0,0,0,0,0,0,0,0,0,0,0],"split_type":[0,0,0,0,0,0,0,0,0,0,0,0,0,0,0,0,0,0,0,0,0,0,0,0,0,0,0,0,0,0,0],"sum_hessian":[7.84E2,5.13E2,2.71E2,1.44E2,3.69E2,2.4E2,3.1E1,1.02E2,4.2E1,3.04E2,6.5E1,6.2E1,1.78E2,1E1,2.1E1,9E0,9.3E1,3E0,3.9E1,6.3E1,2.41E2,6E0,5.9E1,1.9E1,4.3E1,2.2E1,1.56E2,3E0,7E0,1.8E1,3E0],"tree_param":{"num_deleted":"0","num_feature":"58","num_nodes":"31","size_leaf_vector":"1"}},{"base_weights":[-3.6925994E-4,2.9573864E-3,-3.2810397E-2,-3.0546247E-3,2.0611709E-2,-4.70535E-2,3.0575091E-2,-9.550366E-4,-1.24957904E-1,2.2929371E-3,5.845234E-2,-5.6563858E-2,4.796702E-2,8.661401E-2,-5.018801E-4,9.6305135E-5,-4.3807253E-3,-8.6510356E-4,-9.26885E-3,-7.3927795E-3,5.193097E-4,4.513004E-3,-1.8728899E-3,-3.9138757E-3,2.5893867E-3,-1.2804106E-3,7.463257E-3,5.7798126E-3,1.4324766E-3,-2.3785254E-3,4.0871375E-3],"categories":[],"categories_nodes":[],"categories_segments":[],"categories_sizes":[],"default_left":[0,0,0,0,0,0,0,0,0,0,0,0,0,0,0,0,0,0,0,0,0,0,0,0,0,0,0,0,0,0,0],"id":47,"left_children":[1,3,5,7,9,11,13,15,17,19,21,23,25,27,29,-1,-1,-1,-1,-1,-1,-1,-1,-1,-1,-1,-1,-1,-1,-1,-1],"loss_changes":[8.4706455E-2,7.5633205E-2,6.7343526E-2,1.3604428E-1,1.2533407E-1,5.693394E-2,2.442475E-2,9.678203E-2,2.7143717E-2,9.928157E-2,9.10376E-2,5.035256E-2,3.4433436E-2,7.480942E-4,2.9558722E-2,0E0,0E0,0E0,0E0,0E0,0E0,0E0,0E0,0E0,0E0,0E0,0E0,0E0,0E0,0E0,0E0],"parents":[2147483647,0,0,1,1,2,2,3,3,4,4,5,5,6,6,7,7,8,8,9,9,10,10,11,11,12,12,13,13,14,14],"right_children":[2,4,6,8,10,12,14,16,18,20,22,24,26,28,30,-1,-1,-1,-1,-1,-1,-1,-1,-1,-1,-1,-1,-1,-1,-1,-1],"split_conditions":[1.3177541E0,4.843429E-1,2.2709682E0,6.366982E0,2.06526E-2,1.6097963E0,-4.2450938E-1,1.9414693E0,-3.5207447E-1,-1.3103023E0,1.0075197E0,7.8253704E-1,2.104076E0,1.9603698E0,7.929763E-1,9.6305135E-5,-4.3807253E-3,-8.6510356E-4,-9.26885E-3,-7.3927795E-3,5.193097E-4,4.513004E-3,-1.8728899E-3,-3.9138757E-3,2.5893867E-3,-1.2804106E-3,7.463257E-3,5.7798126E-3,1.4324766E-3,-2.3785254E-3,4.0871375E-3],"split_indices":[40,40,40,16,48,41,42,42,41,55,37,55,0,26,44,0,0,0,0,0,0,0,0,0,0,0,0,0,0,0,0],"split_type":[0,0,0,0,0,0,0,0,0,0,0,0,0,0,0,0,0,0,0,0,0,0,0,0,0,0,0,0,0,0,0],"sum_hessian":[7.83E2,7.11E2,7.2E1,5.31E2,1.8E2,5.9E1,1.3E1,5.23E2,8E0,1.22E2,5.8E1,5.4E1,5E0,4E0,9E0,5.06E2,1.7E1,2E0,6E0,5E0,1.17E2,4.9E1,9E0,5E1,4E0,3E0,2E0,3E0,1E0,6E0,3E0],"tree_param":{"num_deleted":"0","num_feature":"58","num_nodes":"31","size_leaf_vector":"1"}},{"base_weights":[-4.5595253E-3,8.5737614E-4,-2.499523E-2,6.855829E-3,-2.7841426E-2,-3.1276666E-2,8.5264355E-2,5.1867042E-5,3.354271E-2,8.995705E-3,-5.1215548E-2,5.508085E-2,-3.962935E-2,1.3839133E-1,-1.5742205E-2,6.840352E-4,-1.1111461E-3,2.840092E-3,-8.297259E-4,1.7940629E-3,-5.0153784E-3,-1.6779167E-3,-7.2403005E-3,6.2917923E-3,-3.3300014E-3,-3.417403E-3,-1.0363408E-3,9.672512E-3,7.291585E-4,-1.7384749E-3,7.1864785E-4],"categories":[],"categories_nodes":[],"categories_segments":[],"categories_sizes":[],"default_left":[0,0,0,0,0,0,0,0,0,0,0,0,0,0,0,0,0,0,0,0,0,0,0,0,0,0,0,0,0,0,0],"id":48,"left_children":[1,3,5,7,9,11,13,15,17,19,21,23,25,27,29,-1,-1,-1,-1,-1,-1,-1,-1,-1,-1,-1,-1,-1,-1,-1,-1],"loss_changes":[8.559114E-2,1.055457E-1,1.14866115E-1,9.205756E-2,9.17305E-2,1.1326565E-1,5.0474145E-2,8.55676E-2,6.795013E-2,8.379162E-2,1.0159218E-1,8.288959E-2,5.363792E-2,1.5323378E-2,1.8142306E-3,0E0,0E0,0E0,0E0,0E0,0E0,0E0,0E0,0E0,0E0,0E0,0E0,0E0,0E0,0E0,0E0],"parents":[2147483647,0,0,1,1,2,2,3,3,4,4,5,5,6,6,7,7,8,8,9,9,10,10,11,11,12,12,13,13,14,14],"right_children":[2,4,6,8,10,12,14,16,18,20,22,24,26,28,30,-1,-1,-1,-1,-1,-1,-1,-1,-1,-1,-1,-1,-1,-1,-1,-1],"split_conditions":[1.9603698E0,2.104076E0,1.7032495E0,1.1734533E0,-7.3653984E-1,-1.4292555E0,-1.4592409E-1,1.3600016E0,7.543835E-1,2.5292807E0,5.7948416E-1,8.644194E-1,-6.6375686E-3,1.9771421E0,2.2976227E0,6.840352E-4,-1.1111461E-3,2.840092E-3,-8.297259E-4,1.7940629E-3,-5.0153784E-3,-1.6779167E-3,-7.2403005E-3,6.2917923E-3,-3.3300014E-3,-3.417403E-3,-1.0363408E-3,9.672512E-3,7.291585E-4,-1.7384749E-3,7.1864785E-4],"split_indices":[26,0,37,38,45,45,40,51,41,23,56,42,42,7,18,0,0,0,0,0,0,0,0,0,0,0,0,0,0,0,0],"split_type":[0,0,0,0,0,0,0,0,0,0,0,0,0,0,0,0,0,0,0,0,0,0,0,0,0,0,0,0,0,0,0],"sum_hessian":[7.72E2,6.11E2,1.61E2,5.06E2,1.05E2,1.53E2,8E0,4.04E2,1.02E2,4.1E1,6.4E1,1.3E1,1.4E2,5E0,3E0,2.51E2,1.53E2,7.9E1,2.3E1,3.4E1,7E0,4.9E1,1.5E1,9E0,4E0,7.8E1,6.2E1,4E0,1E0,2E0,1E0],"tree_param":{"num_deleted":"0","num_feature":"58","num_nodes":"31","size_leaf_vector":"1"}},{"base_weights":[-4.158753E-3,3.2604747E-2,-6.5345815E-3,9.187479E-3,1.1053669E-1,-5.717315E-2,-4.168422E-3,-2.0057585E-2,4.649359E-2,9.719136E-3,4.066499E-2,-7.8734085E-2,3.415803E-2,7.468876E-2,-5.5181608E-3,2.0486738E-3,-3.2081483E-3,5.9405733E-3,1.3631226E-3,4.6353326E-3,1.8334955E-4,-6.2181563E-3,-3.982602E-4,-2.9831224E-3,4.659148E-3,1.0211062E-2,3.4007482E-4,-7.9040887E-4,4.5530914E-4],"categories":[],"categories_nodes":[],"categories_segments":[],"categories_sizes":[],"default_left":[0,0,0,0,0,0,0,0,0,0,0,0,0,0,0,0,0,0,0,0,0,0,0,0,0,0,0,0,0],"id":49,"left_children":[1,3,5,7,9,11,13,15,17,-1,19,21,23,25,27,-1,-1,-1,-1,-1,-1,-1,-1,-1,-1,-1,-1,-1,-1],"loss_changes":[6.903995E-2,8.65822E-2,8.8547535E-2,4.2391293E-2,3.2955915E-2,6.767251E-2,7.587569E-2,4.1667204E-2,1.8976167E-2,0E0,8.020762E-3,4.7786146E-2,2.9397983E-2,7.812966E-2,7.013421E-2,0E0,0E0,0E0,0E0,0E0,0E0,0E0,0E0,0E0,0E0,0E0,0E0,0E0,0E0],"parents":[2147483647,0,0,1,1,2,2,3,3,4,4,5,5,6,6,7,7,8,8,10,10,11,11,12,12,13,13,14,14],"right_children":[2,4,6,8,10,12,14,16,18,-1,20,22,24,26,28,-1,-1,-1,-1,-1,-1,-1,-1,-1,-1,-1,-1,-1,-1],"split_conditions":[-1.4545052E0,6.9684595E-1,-1.3639469E0,7.055103E-1,4.6351746E-2,1.3553846E0,-1.2926978E0,-5.83676E-1,9.585875E-1,9.719136E-3,-5.229397E-1,1.4290744E0,-8.9043534E-1,-5.7258356E-1,1.3221542E0,2.0486738E-3,-3.2081483E-3,5.9405733E-3,1.3631226E-3,4.6353326E-3,1.8334955E-4,-6.2181563E-3,-3.982602E-4,-2.9831224E-3,4.659148E-3,1.0211062E-2,3.4007482E-4,-7.9040887E-4,4.5530914E-4],"split_indices":[54,44,43,42,45,37,43,38,42,0,39,25,55,45,50,0,0,0,0,0,0,0,0,0,0,0,0,0,0],"split_type":[0,0,0,0,0,0,0,0,0,0,0,0,0,0,0,0,0,0,0,0,0,0,0,0,0,0,0,0,0],"sum_hessian":[7.87E2,4.7E1,7.4E2,3.7E1,1E1,3.2E1,7.08E2,2.1E1,1.6E1,5E0,5E0,2.6E1,6E0,1.1E1,6.97E2,8E0,1.3E1,4E0,1.2E1,2E0,3E0,1.9E1,7E0,2E0,4E0,4E0,7E0,4.4E2,2.57E2],"tree_param":{"num_deleted":"0","num_feature":"58","num_nodes":"29","size_leaf_vector":"1"}},{"base_weights":[3.4929514E-3,7.426321E-3,-1.9154035E-2,1.022756E-2,-2.5218744E-2,-2.7593473E-2,7.306336E-2,-6.305376E-2,1.1914788E-2,-7.685478E-3,-9.146526E-2,3.6523152E-2,-4.2752735E-2,3.1562705E-2,6.495088E-3,-6.6199545E-3,-7.888249E-7,9.606956E-4,-8.5561344E-4,-4.2860983E-3,8.278348E-4,-1.1589273E-3,-8.902252E-3,5.8923E-3,-3.397859E-3,-3.5604695E-3,9.471328E-4,-9.65035E-5,2.913021E-3],"categories":[],"categories_nodes":[],"categories_segments":[],"categories_sizes":[],"default_left":[0,0,0,0,0,0,0,0,0,0,0,0,0,0,0,0,0,0,0,0,0,0,0,0,0,0,0,0,0],"id":50,"left_children":[1,3,5,7,9,11,13,15,17,19,21,23,25,27,-1,-1,-1,-1,-1,-1,-1,-1,-1,-1,-1,-1,-1,-1,-1],"loss_changes":[6.980201E-2,6.1252832E-2,9.2294574E-2,7.6791264E-2,6.085749E-2,1.0556126E-1,1.1186585E-2,4.172535E-2,6.4783156E-2,5.987466E-2,4.2297155E-2,1.2622574E-1,8.541876E-2,3.459081E-3,0E0,0E0,0E0,0E0,0E0,0E0,0E0,0E0,0E0,0E0,0E0,0E0,0E0,0E0,0E0],"parents":[2147483647,0,0,1,1,2,2,3,3,4,4,5,5,6,6,7,7,8,8,9,9,10,10,11,11,12,12,13,13],"right_children":[2,4,6,8,10,12,14,16,18,20,22,24,26,28,-1,-1,-1,-1,